<?xml version="1.0"?>
<opencv_storage>
<my_svm type_id="opencv-ml-svm">
  <svm_type>C_SVC</svm_type>
  <kernel><type>RBF</type>
    <gamma>1.</gamma></kernel>
  <C>1.</C>
  <term_criteria><epsilon>1.1920928955078125e-07</epsilon>
    <iterations>1000</iterations></term_criteria>
  <var_all>72</var_all>
  <var_count>72</var_count>
  <class_count>2</class_count>
  <class_labels type_id="opencv-matrix">
    <rows>1</rows>
    <cols>2</cols>
    <dt>i</dt>
    <data>
      -1 1</data></class_labels>
  <sv_total>1884</sv_total>
  <support_vectors>
    <_>
      3.47424328e-01 6.79595888e-01 1.55352354e-01 1.66650698e-01
      2.33310983e-01 8.47376417e-03 6.49655312e-02 1.52527764e-02
      1.41794324e-01 2.14668699e-02 9.60360002e-03 6.21409379e-02
      3.78494821e-02 3.38950567e-03 6.77901134e-03 9.82956663e-02
      1.58176944e-01 5.08425850e-03 4.51934105e-03 1.12983529e-02
      3.38950567e-03 6.77901134e-03 0. 2.14668699e-02 1.12983529e-02
      6.77901134e-03 4.97127511e-02 4.72271144e-01 6.77901134e-03
      2.25967057e-02 5.64917643e-03 6.21409388e-03 1.86422821e-02 0.
      1.36145145e-01 5.64917631e-04 7.15066195e-01 5.54551005e-01
      9.33115482e-02 1.49395168e-01 2.08863154e-01 5.80175407e-03
      2.46574562e-02 3.91618423e-02 7.34888911e-02 9.66959074e-03
      1.45043852e-03 4.10957597e-02 2.46574562e-02 4.83479537e-03
      1.45043852e-03 9.76628661e-02 1.30055994e-01 5.31827472e-03
      6.28523389e-03 3.38435662e-03 1.93391810e-03 4.83479537e-03 0.
      1.54713448e-02 2.90087704e-03 4.83479525e-04 2.03061402e-02
      2.58661538e-01 9.66959051e-04 1.49878655e-02 9.66959051e-04
      3.86783620e-03 5.80175407e-03 0. 4.59305532e-02 0.</_>
    <_>
      3.47424328e-01 6.79595888e-01 1.55352354e-01 1.66650698e-01
      2.33310983e-01 8.47376417e-03 6.49655312e-02 1.52527764e-02
      1.41794324e-01 2.14668699e-02 9.60360002e-03 6.21409379e-02
      3.78494821e-02 3.38950567e-03 6.77901134e-03 9.82956663e-02
      1.58176944e-01 5.08425850e-03 4.51934105e-03 1.12983529e-02
      3.38950567e-03 6.77901134e-03 0. 2.14668699e-02 1.12983529e-02
      6.77901134e-03 4.97127511e-02 4.72271144e-01 6.77901134e-03
      2.25967057e-02 5.64917643e-03 6.21409388e-03 1.86422821e-02 0.
      1.36145145e-01 5.64917631e-04 7.15066195e-01 5.54551005e-01
      9.33115482e-02 1.49395168e-01 2.08863154e-01 5.80175407e-03
      2.46574562e-02 3.91618423e-02 7.34888911e-02 9.66959074e-03
      1.45043852e-03 4.10957597e-02 2.46574562e-02 4.83479537e-03
      1.45043852e-03 9.76628661e-02 1.30055994e-01 5.31827472e-03
      6.28523389e-03 3.38435662e-03 1.93391810e-03 4.83479537e-03 0.
      1.54713448e-02 2.90087704e-03 4.83479525e-04 2.03061402e-02
      2.58661538e-01 9.66959051e-04 1.49878655e-02 9.66959051e-04
      3.86783620e-03 5.80175407e-03 0. 4.59305532e-02 0.</_>
    <_>
      3.41407716e-01 6.56951249e-01 1.42540604e-01 1.68979585e-01
      2.39675120e-01 9.77092795e-03 8.16159919e-02 1.55185331e-02
      1.28746346e-01 2.64389832e-02 9.77092795e-03 6.95460215e-02
      4.42565568e-02 5.17284451e-03 3.44856293e-03 1.04031645e-01
      1.68979585e-01 5.17284451e-03 5.74760512e-03 8.04664660e-03
      5.17284451e-03 8.04664660e-03 0. 3.16118263e-02 1.20699704e-02
      6.89712586e-03 4.54060771e-02 4.98892099e-01 8.04664660e-03
      2.41399407e-02 5.74760512e-03 2.87380256e-03 2.06913780e-02 0.
      1.46563917e-01 0. 7.13486850e-01 5.56692362e-01 9.73372534e-02
      1.39532715e-01 2.24882618e-01 3.83595075e-03 2.63721608e-02
      4.07569781e-02 6.13752119e-02 8.63088947e-03 1.91797537e-03
      3.88390012e-02 1.96592472e-02 2.39746924e-03 1.43848150e-03
      1.10763080e-01 1.06447630e-01 2.39746924e-03 3.83595075e-03
      3.83595075e-03 1.91797537e-03 5.75392600e-03 0. 1.34258280e-02
      3.35645699e-03 9.58987686e-04 2.92491242e-02 2.57967681e-01
      1.43848150e-03 1.24668395e-02 4.79493843e-04 3.83595075e-03
      7.19240773e-03 0. 4.36339416e-02 0.</_>
    <_>
      3.41407716e-01 6.56951249e-01 1.42540604e-01 1.68979585e-01
      2.39675120e-01 9.77092795e-03 8.16159919e-02 1.55185331e-02
      1.28746346e-01 2.64389832e-02 9.77092795e-03 6.95460215e-02
      4.42565568e-02 5.17284451e-03 3.44856293e-03 1.04031645e-01
      1.68979585e-01 5.17284451e-03 5.74760512e-03 8.04664660e-03
      5.17284451e-03 8.04664660e-03 0. 3.16118263e-02 1.20699704e-02
      6.89712586e-03 4.54060771e-02 4.98892099e-01 8.04664660e-03
      2.41399407e-02 5.74760512e-03 2.87380256e-03 2.06913780e-02 0.
      1.46563917e-01 0. 7.13486850e-01 5.56692362e-01 9.73372534e-02
      1.39532715e-01 2.24882618e-01 3.83595075e-03 2.63721608e-02
      4.07569781e-02 6.13752119e-02 8.63088947e-03 1.91797537e-03
      3.88390012e-02 1.96592472e-02 2.39746924e-03 1.43848150e-03
      1.10763080e-01 1.06447630e-01 2.39746924e-03 3.83595075e-03
      3.83595075e-03 1.91797537e-03 5.75392600e-03 0. 1.34258280e-02
      3.35645699e-03 9.58987686e-04 2.92491242e-02 2.57967681e-01
      1.43848150e-03 1.24668395e-02 4.79493843e-04 3.83595075e-03
      7.19240773e-03 0. 4.36339416e-02 0.</_>
    <_>
      3.57649118e-01 6.33426726e-01 1.43059641e-01 1.83564484e-01
      2.04247817e-01 1.29270768e-02 8.96277279e-02 2.58541536e-02
      1.11172862e-01 3.87812294e-02 1.20652718e-02 7.75624588e-02
      3.79194245e-02 7.75624579e-03 3.44722043e-03 9.47985649e-02
      1.83564484e-01 1.03416611e-02 7.75624579e-03 1.12034660e-02
      5.17083053e-03 1.20652718e-02 0. 4.22284491e-02 1.63742974e-02
      6.89444086e-03 5.77409416e-02 5.13635814e-01 9.47985612e-03
      2.84395684e-02 9.47985612e-03 6.03263592e-03 2.32687388e-02 0.
      1.74946442e-01 0. 7.57805526e-01 4.91716325e-01 1.02869526e-01
      1.49503708e-01 2.07796440e-01 4.80057765e-03 2.74318736e-02
      4.18336056e-02 4.45767939e-02 1.57733280e-02 4.11478104e-03
      3.08608580e-02 1.37159368e-02 5.48637472e-03 3.42898420e-03
      9.39541683e-02 1.09727494e-01 4.11478104e-03 2.74318736e-03
      2.74318736e-03 3.42898420e-03 4.11478104e-03 0. 1.30301397e-02
      3.42898420e-03 2.05739052e-03 3.84046212e-02 2.79119313e-01
      6.85796840e-04 4.80057765e-03 6.85796840e-04 2.74318736e-03
      4.80057765e-03 0. 3.63472328e-02 0.</_>
    <_>
      3.57649118e-01 6.33426726e-01 1.43059641e-01 1.83564484e-01
      2.04247817e-01 1.29270768e-02 8.96277279e-02 2.58541536e-02
      1.11172862e-01 3.87812294e-02 1.20652718e-02 7.75624588e-02
      3.79194245e-02 7.75624579e-03 3.44722043e-03 9.47985649e-02
      1.83564484e-01 1.03416611e-02 7.75624579e-03 1.12034660e-02
      5.17083053e-03 1.20652718e-02 0. 4.22284491e-02 1.63742974e-02
      6.89444086e-03 5.77409416e-02 5.13635814e-01 9.47985612e-03
      2.84395684e-02 9.47985612e-03 6.03263592e-03 2.32687388e-02 0.
      1.74946442e-01 0. 7.57805526e-01 4.91716325e-01 1.02869526e-01
      1.49503708e-01 2.07796440e-01 4.80057765e-03 2.74318736e-02
      4.18336056e-02 4.45767939e-02 1.57733280e-02 4.11478104e-03
      3.08608580e-02 1.37159368e-02 5.48637472e-03 3.42898420e-03
      9.39541683e-02 1.09727494e-01 4.11478104e-03 2.74318736e-03
      2.74318736e-03 3.42898420e-03 4.11478104e-03 0. 1.30301397e-02
      3.42898420e-03 2.05739052e-03 3.84046212e-02 2.79119313e-01
      6.85796840e-04 4.80057765e-03 6.85796840e-04 2.74318736e-03
      4.80057765e-03 0. 3.63472328e-02 0.</_>
    <_>
      3.47991437e-01 6.43521845e-01 1.24157749e-01 1.78367481e-01
      1.66126564e-01 1.39896059e-02 7.34454319e-02 2.62305103e-02
      8.56863335e-02 3.67227159e-02 1.39896059e-02 8.39376375e-02
      3.49740162e-02 1.74870074e-03 5.24610234e-03 8.91837403e-02
      1.83613583e-01 1.22409053e-02 6.99480297e-03 1.57383066e-02
      1.74870074e-03 1.74870081e-02 0. 3.67227159e-02 1.92357078e-02
      8.74350406e-03 7.34454319e-02 5.29856324e-01 5.24610234e-03
      3.32253128e-02 6.99480297e-03 1.22409053e-02 2.09844094e-02 0.
      1.85362279e-01 0. 7.76268244e-01 4.38577563e-01 9.10784081e-02
      1.34515792e-01 1.97570086e-01 2.80241249e-03 2.10180935e-02
      4.20361869e-02 4.20361869e-02 1.96168870e-02 4.20361850e-03
      3.22277434e-02 1.68144740e-02 8.40723701e-03 5.60482498e-03
      7.84675479e-02 1.16300121e-01 7.00603146e-03 4.20361850e-03
      2.80241249e-03 5.60482498e-03 2.80241249e-03 0. 1.12096500e-02
      1.40120625e-03 0. 2.94253305e-02 3.33487093e-01 0. 5.60482498e-03
      1.40120625e-03 4.20361850e-03 1.40120625e-03 0. 4.20361869e-02 0.</_>
    <_>
      3.47991437e-01 6.43521845e-01 1.24157749e-01 1.78367481e-01
      1.66126564e-01 1.39896059e-02 7.34454319e-02 2.62305103e-02
      8.56863335e-02 3.67227159e-02 1.39896059e-02 8.39376375e-02
      3.49740162e-02 1.74870074e-03 5.24610234e-03 8.91837403e-02
      1.83613583e-01 1.22409053e-02 6.99480297e-03 1.57383066e-02
      1.74870074e-03 1.74870081e-02 0. 3.67227159e-02 1.92357078e-02
      8.74350406e-03 7.34454319e-02 5.29856324e-01 5.24610234e-03
      3.32253128e-02 6.99480297e-03 1.22409053e-02 2.09844094e-02 0.
      1.85362279e-01 0. 7.76268244e-01 4.38577563e-01 9.10784081e-02
      1.34515792e-01 1.97570086e-01 2.80241249e-03 2.10180935e-02
      4.20361869e-02 4.20361869e-02 1.96168870e-02 4.20361850e-03
      3.22277434e-02 1.68144740e-02 8.40723701e-03 5.60482498e-03
      7.84675479e-02 1.16300121e-01 7.00603146e-03 4.20361850e-03
      2.80241249e-03 5.60482498e-03 2.80241249e-03 0. 1.12096500e-02
      1.40120625e-03 0. 2.94253305e-02 3.33487093e-01 0. 5.60482498e-03
      1.40120625e-03 4.20361850e-03 1.40120625e-03 0. 4.20361869e-02 0.</_>
    <_>
      3.50134969e-01 6.70587242e-01 1.58105940e-01 1.65980935e-01
      2.37461790e-01 6.05769875e-03 6.36058375e-02 1.27211669e-02
      1.41750142e-01 2.12019458e-02 8.48077796e-03 5.93654476e-02
      3.63461934e-02 4.24038898e-03 4.24038898e-03 1.01769336e-01
      1.56894401e-01 4.84615890e-03 5.45192882e-03 1.39327068e-02
      3.02884937e-03 7.26923812e-03 0. 2.12019458e-02 1.15096271e-02
      6.05769875e-03 4.90673594e-02 4.80375499e-01 8.48077796e-03
      2.30192542e-02 6.05769875e-03 5.45192882e-03 1.51442466e-02
      6.05769863e-04 1.38115525e-01 0. 7.22504199e-01 5.50774097e-01
      9.48899165e-02 1.53164700e-01 1.96484014e-01 5.67276683e-03
      2.57853046e-02 4.02250737e-02 7.01360255e-02 9.28270910e-03
      1.03141216e-03 3.86779569e-02 2.16596555e-02 5.15706092e-03
      1.03141216e-03 9.69527438e-02 1.32020757e-01 6.18847273e-03
      5.67276683e-03 3.09423637e-03 2.06282432e-03 5.67276683e-03 0.
      1.65025946e-02 2.06282432e-03 0. 2.06282437e-02 2.53727406e-01
      1.54711818e-03 1.39240641e-02 1.03141216e-03 4.12564864e-03
      6.70417910e-03 0. 4.43507247e-02 0.</_>
    <_>
      3.50134969e-01 6.70587242e-01 1.58105940e-01 1.65980935e-01
      2.37461790e-01 6.05769875e-03 6.36058375e-02 1.27211669e-02
      1.41750142e-01 2.12019458e-02 8.48077796e-03 5.93654476e-02
      3.63461934e-02 4.24038898e-03 4.24038898e-03 1.01769336e-01
      1.56894401e-01 4.84615890e-03 5.45192882e-03 1.39327068e-02
      3.02884937e-03 7.26923812e-03 0. 2.12019458e-02 1.15096271e-02
      6.05769875e-03 4.90673594e-02 4.80375499e-01 8.48077796e-03
      2.30192542e-02 6.05769875e-03 5.45192882e-03 1.51442466e-02
      6.05769863e-04 1.38115525e-01 0. 7.22504199e-01 5.50774097e-01
      9.48899165e-02 1.53164700e-01 1.96484014e-01 5.67276683e-03
      2.57853046e-02 4.02250737e-02 7.01360255e-02 9.28270910e-03
      1.03141216e-03 3.86779569e-02 2.16596555e-02 5.15706092e-03
      1.03141216e-03 9.69527438e-02 1.32020757e-01 6.18847273e-03
      5.67276683e-03 3.09423637e-03 2.06282432e-03 5.67276683e-03 0.
      1.65025946e-02 2.06282432e-03 0. 2.06282437e-02 2.53727406e-01
      1.54711818e-03 1.39240641e-02 1.03141216e-03 4.12564864e-03
      6.70417910e-03 0. 4.43507247e-02 0.</_>
    <_>
      3.40914011e-01 6.68434978e-01 1.40627027e-01 1.68021902e-01
      2.39857346e-01 9.74040013e-03 7.36617744e-02 1.40018249e-02
      1.27233982e-01 2.61773262e-02 9.13162529e-03 6.63564727e-02
      4.38317992e-02 4.26142523e-03 3.65264993e-03 1.05318077e-01
      1.59499049e-01 5.47897490e-03 5.47897490e-03 8.52285046e-03
      4.87020006e-03 6.69652503e-03 0. 2.98299752e-02 1.15667256e-02
      6.08775020e-03 4.32230271e-02 4.91890192e-01 7.91407470e-03
      2.25246754e-02 5.47897490e-03 2.43510003e-03 2.00895760e-02 0.
      1.40627027e-01 0. 7.14740932e-01 5.55852473e-01 1.01297818e-01
      1.36777759e-01 2.26763129e-01 2.57101050e-03 2.46817023e-02
      4.31929789e-02 5.96474446e-02 8.74143559e-03 2.05680844e-03
      3.90793607e-02 2.10822858e-02 3.08521278e-03 1.02840422e-03
      1.11067653e-01 1.04383029e-01 3.08521278e-03 4.62781917e-03
      3.59941483e-03 2.57101050e-03 5.14202099e-03 0. 1.49118612e-02
      3.08521278e-03 1.02840422e-03 2.82811169e-02 2.55558461e-01
      1.54260639e-03 1.18266484e-02 5.14202111e-04 3.59941483e-03
      7.19882967e-03 0. 4.26787734e-02 0.</_>
    <_>
      3.40914011e-01 6.68434978e-01 1.40627027e-01 1.68021902e-01
      2.39857346e-01 9.74040013e-03 7.36617744e-02 1.40018249e-02
      1.27233982e-01 2.61773262e-02 9.13162529e-03 6.63564727e-02
      4.38317992e-02 4.26142523e-03 3.65264993e-03 1.05318077e-01
      1.59499049e-01 5.47897490e-03 5.47897490e-03 8.52285046e-03
      4.87020006e-03 6.69652503e-03 0. 2.98299752e-02 1.15667256e-02
      6.08775020e-03 4.32230271e-02 4.91890192e-01 7.91407470e-03
      2.25246754e-02 5.47897490e-03 2.43510003e-03 2.00895760e-02 0.
      1.40627027e-01 0. 7.14740932e-01 5.55852473e-01 1.01297818e-01
      1.36777759e-01 2.26763129e-01 2.57101050e-03 2.46817023e-02
      4.31929789e-02 5.96474446e-02 8.74143559e-03 2.05680844e-03
      3.90793607e-02 2.10822858e-02 3.08521278e-03 1.02840422e-03
      1.11067653e-01 1.04383029e-01 3.08521278e-03 4.62781917e-03
      3.59941483e-03 2.57101050e-03 5.14202099e-03 0. 1.49118612e-02
      3.08521278e-03 1.02840422e-03 2.82811169e-02 2.55558461e-01
      1.54260639e-03 1.18266484e-02 5.14202111e-04 3.59941483e-03
      7.19882967e-03 0. 4.26787734e-02 0.</_>
    <_>
      3.29626799e-01 6.36779010e-01 1.42963141e-01 1.73553497e-01
      2.38479987e-01 9.98869073e-03 8.05338174e-02 1.87287945e-02
      1.22985758e-01 3.37118320e-02 9.36439727e-03 7.05451295e-02
      3.80818844e-02 6.86722482e-03 3.74575891e-03 1.12372771e-01
      1.72304913e-01 6.24293182e-03 5.61863836e-03 8.11581127e-03
      5.61863836e-03 9.98869073e-03 0. 3.30875367e-02 1.43587431e-02
      6.24293182e-03 5.36892116e-02 5.26903450e-01 1.06129842e-02
      2.30988469e-02 7.49151781e-03 4.99434536e-03 2.18502618e-02 0.
      1.51703238e-01 0. 7.44636595e-01 5.35897493e-01 9.98535603e-02
      1.38490364e-01 2.21785307e-01 4.51599015e-03 2.50888355e-02
      3.71314771e-02 5.11812232e-02 1.15408637e-02 2.50888336e-03
      3.36190388e-02 1.90675147e-02 4.01421357e-03 2.50888336e-03
      9.63411257e-02 1.00857116e-01 4.01421357e-03 3.01066018e-03
      3.51243699e-03 3.01066018e-03 3.51243699e-03 0. 1.30461939e-02
      2.50888336e-03 1.50533009e-03 3.06083784e-02 2.26301283e-01
      1.50533009e-03 9.03198030e-03 1.00355339e-03 3.51243699e-03
      7.52665056e-03 0. 4.11456898e-02 0.</_>
    <_>
      3.29626799e-01 6.36779010e-01 1.42963141e-01 1.73553497e-01
      2.38479987e-01 9.98869073e-03 8.05338174e-02 1.87287945e-02
      1.22985758e-01 3.37118320e-02 9.36439727e-03 7.05451295e-02
      3.80818844e-02 6.86722482e-03 3.74575891e-03 1.12372771e-01
      1.72304913e-01 6.24293182e-03 5.61863836e-03 8.11581127e-03
      5.61863836e-03 9.98869073e-03 0. 3.30875367e-02 1.43587431e-02
      6.24293182e-03 5.36892116e-02 5.26903450e-01 1.06129842e-02
      2.30988469e-02 7.49151781e-03 4.99434536e-03 2.18502618e-02 0.
      1.51703238e-01 0. 7.44636595e-01 5.35897493e-01 9.98535603e-02
      1.38490364e-01 2.21785307e-01 4.51599015e-03 2.50888355e-02
      3.71314771e-02 5.11812232e-02 1.15408637e-02 2.50888336e-03
      3.36190388e-02 1.90675147e-02 4.01421357e-03 2.50888336e-03
      9.63411257e-02 1.00857116e-01 4.01421357e-03 3.01066018e-03
      3.51243699e-03 3.01066018e-03 3.51243699e-03 0. 1.30461939e-02
      2.50888336e-03 1.50533009e-03 3.06083784e-02 2.26301283e-01
      1.50533009e-03 9.03198030e-03 1.00355339e-03 3.51243699e-03
      7.52665056e-03 0. 4.11456898e-02 0.</_>
    <_>
      3.70960146e-01 6.21608913e-01 1.33010939e-01 1.85814261e-01
      1.97845414e-01 1.26995360e-02 9.35755298e-02 2.47306768e-02
      1.02264687e-01 3.60934176e-02 1.26995360e-02 8.15443918e-02
      4.01038006e-02 8.68915673e-03 4.01037978e-03 9.75859091e-02
      1.93835035e-01 1.40363295e-02 8.02075956e-03 1.06943464e-02
      5.34717320e-03 1.26995360e-02 0. 4.34457809e-02 1.73783135e-02
      7.35236332e-03 5.01297489e-02 5.18675804e-01 9.35755298e-03
      3.14146429e-02 6.01556990e-03 7.35236332e-03 2.47306768e-02 0.
      1.77793503e-01 0. 7.53712773e-01 4.98243839e-01 9.99661162e-02
      1.36990607e-01 2.00461149e-01 5.28921280e-03 2.59171408e-02
      3.38509604e-02 4.65450697e-02 1.69254802e-02 3.17352754e-03
      3.17352749e-02 1.37519529e-02 5.28921280e-03 4.23137005e-03
      9.25612226e-02 1.08957782e-01 5.28921280e-03 2.11568503e-03
      3.70244868e-03 3.17352754e-03 4.76029143e-03 0. 1.32230315e-02
      5.28921280e-03 2.11568503e-03 3.33220400e-02 2.92493463e-01
      1.58676377e-03 6.34705508e-03 1.05784251e-03 2.64460640e-03
      5.81813371e-03 0. 4.12558578e-02 0.</_>
    <_>
      3.70960146e-01 6.21608913e-01 1.33010939e-01 1.85814261e-01
      1.97845414e-01 1.26995360e-02 9.35755298e-02 2.47306768e-02
      1.02264687e-01 3.60934176e-02 1.26995360e-02 8.15443918e-02
      4.01038006e-02 8.68915673e-03 4.01037978e-03 9.75859091e-02
      1.93835035e-01 1.40363295e-02 8.02075956e-03 1.06943464e-02
      5.34717320e-03 1.26995360e-02 0. 4.34457809e-02 1.73783135e-02
      7.35236332e-03 5.01297489e-02 5.18675804e-01 9.35755298e-03
      3.14146429e-02 6.01556990e-03 7.35236332e-03 2.47306768e-02 0.
      1.77793503e-01 0. 7.53712773e-01 4.98243839e-01 9.99661162e-02
      1.36990607e-01 2.00461149e-01 5.28921280e-03 2.59171408e-02
      3.38509604e-02 4.65450697e-02 1.69254802e-02 3.17352754e-03
      3.17352749e-02 1.37519529e-02 5.28921280e-03 4.23137005e-03
      9.25612226e-02 1.08957782e-01 5.28921280e-03 2.11568503e-03
      3.70244868e-03 3.17352754e-03 4.76029143e-03 0. 1.32230315e-02
      5.28921280e-03 2.11568503e-03 3.33220400e-02 2.92493463e-01
      1.58676377e-03 6.34705508e-03 1.05784251e-03 2.64460640e-03
      5.81813371e-03 0. 4.12558578e-02 0.</_>
    <_>
      3.87869000e-01 6.23133838e-01 1.26110420e-01 1.78038225e-01
      1.66380972e-01 1.27170160e-02 8.47801119e-02 2.33145300e-02
      9.32581201e-02 3.39120440e-02 1.16572650e-02 8.79593641e-02
      3.70912999e-02 7.41825951e-03 5.29875699e-03 8.79593641e-02
      1.98173508e-01 1.80157740e-02 8.47801100e-03 1.16572650e-02
      3.17925401e-03 1.48365190e-02 0. 4.13303040e-02 2.11950280e-02
      9.53776203e-03 5.82863241e-02 5.15039146e-01 8.47801100e-03
      3.49717960e-02 3.17925401e-03 1.16572650e-02 2.75535360e-02 0.
      1.94994256e-01 0. 7.41394162e-01 4.71640110e-01 9.27816555e-02
      1.34877041e-01 1.92436039e-01 5.15453657e-03 2.06181463e-02
      3.60817574e-02 4.72499169e-02 2.06181463e-02 3.43635771e-03
      3.26453969e-02 1.71817876e-02 8.59089382e-03 6.87271543e-03
      8.76271203e-02 1.35736123e-01 6.01362623e-03 2.57726829e-03
      3.43635771e-03 4.29544691e-03 5.15453657e-03 0. 1.46045201e-02
      5.15453657e-03 1.71817886e-03 2.66317725e-02 3.58240306e-01
      1.71817886e-03 7.73180462e-03 8.59089429e-04 3.43635771e-03
      4.29544691e-03 0. 5.06862774e-02 0.</_>
    <_>
      3.87869000e-01 6.23133838e-01 1.26110420e-01 1.78038225e-01
      1.66380972e-01 1.27170160e-02 8.47801119e-02 2.33145300e-02
      9.32581201e-02 3.39120440e-02 1.16572650e-02 8.79593641e-02
      3.70912999e-02 7.41825951e-03 5.29875699e-03 8.79593641e-02
      1.98173508e-01 1.80157740e-02 8.47801100e-03 1.16572650e-02
      3.17925401e-03 1.48365190e-02 0. 4.13303040e-02 2.11950280e-02
      9.53776203e-03 5.82863241e-02 5.15039146e-01 8.47801100e-03
      3.49717960e-02 3.17925401e-03 1.16572650e-02 2.75535360e-02 0.
      1.94994256e-01 0. 7.41394162e-01 4.71640110e-01 9.27816555e-02
      1.34877041e-01 1.92436039e-01 5.15453657e-03 2.06181463e-02
      3.60817574e-02 4.72499169e-02 2.06181463e-02 3.43635771e-03
      3.26453969e-02 1.71817876e-02 8.59089382e-03 6.87271543e-03
      8.76271203e-02 1.35736123e-01 6.01362623e-03 2.57726829e-03
      3.43635771e-03 4.29544691e-03 5.15453657e-03 0. 1.46045201e-02
      5.15453657e-03 1.71817886e-03 2.66317725e-02 3.58240306e-01
      1.71817886e-03 7.73180462e-03 8.59089429e-04 3.43635771e-03
      4.29544691e-03 0. 5.06862774e-02 0.</_>
    <_>
      4.41124171e-01 5.49375474e-01 1.24489032e-01 1.97558671e-01
      1.84027255e-01 1.35314167e-02 1.16370179e-01 2.43565496e-02
      8.93073454e-02 2.70628333e-02 1.35314167e-02 1.00132480e-01
      4.87130992e-02 1.08251330e-02 5.41256648e-03 8.66010636e-02
      2.13796377e-01 2.97691151e-02 1.08251330e-02 1.08251330e-02
      2.70628324e-03 1.89439822e-02 0. 5.41256666e-02 2.16502659e-02
      1.35314167e-02 2.97691151e-02 5.19606352e-01 8.11884925e-03
      4.60068136e-02 0. 1.35314167e-02 3.24753970e-02 0. 2.16502666e-01
      0. 6.93743467e-01 4.76814389e-01 1.05242819e-01 1.15981884e-01
      2.06190020e-01 6.44343812e-03 1.93303134e-02 1.93303134e-02
      5.15475050e-02 2.14781258e-02 2.14781263e-03 3.22171897e-02
      2.14781258e-02 6.44343812e-03 6.44343812e-03 8.37646946e-02
      1.35312200e-01 4.29562526e-03 0. 4.29562526e-03 2.14781263e-03
      8.59125052e-03 0. 1.28868762e-02 1.07390629e-02 2.14781263e-03
      2.79215649e-02 4.33858156e-01 4.29562526e-03 1.07390629e-02 0.
      2.14781263e-03 8.59125052e-03 0. 6.22865669e-02 0.</_>
    <_>
      4.41124171e-01 5.49375474e-01 1.24489032e-01 1.97558671e-01
      1.84027255e-01 1.35314167e-02 1.16370179e-01 2.43565496e-02
      8.93073454e-02 2.70628333e-02 1.35314167e-02 1.00132480e-01
      4.87130992e-02 1.08251330e-02 5.41256648e-03 8.66010636e-02
      2.13796377e-01 2.97691151e-02 1.08251330e-02 1.08251330e-02
      2.70628324e-03 1.89439822e-02 0. 5.41256666e-02 2.16502659e-02
      1.35314167e-02 2.97691151e-02 5.19606352e-01 8.11884925e-03
      4.60068136e-02 0. 1.35314167e-02 3.24753970e-02 0. 2.16502666e-01
      0. 6.93743467e-01 4.76814389e-01 1.05242819e-01 1.15981884e-01
      2.06190020e-01 6.44343812e-03 1.93303134e-02 1.93303134e-02
      5.15475050e-02 2.14781258e-02 2.14781263e-03 3.22171897e-02
      2.14781258e-02 6.44343812e-03 6.44343812e-03 8.37646946e-02
      1.35312200e-01 4.29562526e-03 0. 4.29562526e-03 2.14781263e-03
      8.59125052e-03 0. 1.28868762e-02 1.07390629e-02 2.14781263e-03
      2.79215649e-02 4.33858156e-01 4.29562526e-03 1.07390629e-02 0.
      2.14781263e-03 8.59125052e-03 0. 6.22865669e-02 0.</_>
    <_>
      4.43415403e-01 7.15860665e-01 1.24230109e-01 2.07255185e-01
      1.33455113e-01 1.29150115e-02 8.30250755e-02 2.27550212e-02
      1.08855098e-01 3.75150330e-02 1.29150115e-02 8.97900835e-02
      4.61250395e-02 5.53500513e-03 7.99500756e-03 7.31850639e-02
      1.85115159e-01 1.35300122e-02 9.84000880e-03 2.33700201e-02
      1.23000108e-02 2.15250198e-02 0. 2.58300230e-02 1.04550095e-02
      7.38000683e-03 3.81300338e-02 3.18570286e-01 1.72200147e-02
      3.75150330e-02 1.72200147e-02 1.78350154e-02 2.95200273e-02
      6.15000550e-04 1.88190162e-01 6.15000550e-04 3.75666559e-01
      6.56829476e-01 1.23265587e-01 1.62593171e-01 1.53788492e-01
      5.86978998e-03 5.51760234e-02 1.70223899e-02 1.20917670e-01
      1.99572854e-02 8.21770541e-03 7.27853924e-02 1.93703063e-02
      4.69583180e-03 2.34791590e-03 9.33296606e-02 2.25986898e-01
      7.63072679e-03 7.04374770e-03 1.52614536e-02 4.10885271e-03
      8.21770541e-03 0. 3.16968635e-02 6.45676861e-03 4.69583180e-03
      4.16755080e-02 5.01866996e-01 6.45676861e-03 2.52400953e-02
      7.63072679e-03 7.04374770e-03 1.70223899e-02 0. 1.48505688e-01 0.</_>
    <_>
      4.43415403e-01 7.15860665e-01 1.24230109e-01 2.07255185e-01
      1.33455113e-01 1.29150115e-02 8.30250755e-02 2.27550212e-02
      1.08855098e-01 3.75150330e-02 1.29150115e-02 8.97900835e-02
      4.61250395e-02 5.53500513e-03 7.99500756e-03 7.31850639e-02
      1.85115159e-01 1.35300122e-02 9.84000880e-03 2.33700201e-02
      1.23000108e-02 2.15250198e-02 0. 2.58300230e-02 1.04550095e-02
      7.38000683e-03 3.81300338e-02 3.18570286e-01 1.72200147e-02
      3.75150330e-02 1.72200147e-02 1.78350154e-02 2.95200273e-02
      6.15000550e-04 1.88190162e-01 6.15000550e-04 3.75666559e-01
      6.56829476e-01 1.23265587e-01 1.62593171e-01 1.53788492e-01
      5.86978998e-03 5.51760234e-02 1.70223899e-02 1.20917670e-01
      1.99572854e-02 8.21770541e-03 7.27853924e-02 1.93703063e-02
      4.69583180e-03 2.34791590e-03 9.33296606e-02 2.25986898e-01
      7.63072679e-03 7.04374770e-03 1.52614536e-02 4.10885271e-03
      8.21770541e-03 0. 3.16968635e-02 6.45676861e-03 4.69583180e-03
      4.16755080e-02 5.01866996e-01 6.45676861e-03 2.52400953e-02
      7.63072679e-03 7.04374770e-03 1.70223899e-02 0. 1.48505688e-01 0.</_>
    <_>
      4.57711220e-01 6.71353877e-01 1.19719267e-01 2.27532744e-01
      1.48160860e-01 2.38115657e-02 8.13561827e-02 3.10873222e-02
      1.01860590e-01 4.49774042e-02 1.19057829e-02 8.79705101e-02
      5.48988879e-02 7.93718919e-03 1.38900802e-02 7.67261609e-02
      1.50806591e-01 2.24887021e-02 1.19057829e-02 2.91030258e-02
      2.11658366e-02 3.57173495e-02 0. 3.70402150e-02 1.65358093e-02
      1.05829183e-02 6.08517788e-02 3.15503240e-01 2.38115657e-02
      5.42374551e-02 2.57958639e-02 3.04258894e-02 5.22531606e-02 0.
      2.74494439e-01 0. 3.89385343e-01 6.50325596e-01 1.28445089e-01
      1.51588351e-01 1.69524372e-01 2.31432589e-03 4.74436805e-02
      1.96717698e-02 1.05301827e-01 2.54575852e-02 8.67872220e-03
      6.59582913e-02 2.54575852e-02 1.73574442e-03 5.78581472e-04
      1.04723245e-01 2.03082100e-01 4.62865178e-03 9.25730355e-03
      8.67872220e-03 2.31432589e-03 5.78581449e-03 0. 2.95076557e-02
      1.09930476e-02 4.05007042e-03 4.05007042e-02 5.14358938e-01
      5.20723313e-03 1.96717698e-02 6.94297766e-03 8.10014084e-03
      1.44645367e-02 0. 1.31916583e-01 0.</_>
    <_>
      4.57711220e-01 6.71353877e-01 1.19719267e-01 2.27532744e-01
      1.48160860e-01 2.38115657e-02 8.13561827e-02 3.10873222e-02
      1.01860590e-01 4.49774042e-02 1.19057829e-02 8.79705101e-02
      5.48988879e-02 7.93718919e-03 1.38900802e-02 7.67261609e-02
      1.50806591e-01 2.24887021e-02 1.19057829e-02 2.91030258e-02
      2.11658366e-02 3.57173495e-02 0. 3.70402150e-02 1.65358093e-02
      1.05829183e-02 6.08517788e-02 3.15503240e-01 2.38115657e-02
      5.42374551e-02 2.57958639e-02 3.04258894e-02 5.22531606e-02 0.
      2.74494439e-01 0. 3.89385343e-01 6.50325596e-01 1.28445089e-01
      1.51588351e-01 1.69524372e-01 2.31432589e-03 4.74436805e-02
      1.96717698e-02 1.05301827e-01 2.54575852e-02 8.67872220e-03
      6.59582913e-02 2.54575852e-02 1.73574442e-03 5.78581472e-04
      1.04723245e-01 2.03082100e-01 4.62865178e-03 9.25730355e-03
      8.67872220e-03 2.31432589e-03 5.78581449e-03 0. 2.95076557e-02
      1.09930476e-02 4.05007042e-03 4.05007042e-02 5.14358938e-01
      5.20723313e-03 1.96717698e-02 6.94297766e-03 8.10014084e-03
      1.44645367e-02 0. 1.31916583e-01 0.</_>
    <_>
      4.74785984e-01 5.83858430e-01 1.26181856e-01 2.37392992e-01
      1.65390909e-01 3.13672423e-02 8.91114846e-02 3.35059166e-02
      9.26759392e-02 4.91895378e-02 1.49707291e-02 9.41017270e-02
      6.27344847e-02 1.21191619e-02 2.13867556e-02 8.91114846e-02
      1.47568613e-01 3.27930264e-02 1.71094052e-02 3.63574848e-02
      2.78027821e-02 4.34864052e-02 0. 5.91700263e-02 2.70898901e-02
      1.71094052e-02 7.27149695e-02 3.44326764e-01 2.99414583e-02
      6.84376210e-02 3.06543503e-02 4.13477272e-02 6.84376210e-02 0.
      3.50742787e-01 0. 4.15995091e-01 6.26006484e-01 1.39240414e-01
      1.36363536e-01 1.83544174e-01 3.45224142e-03 4.37283926e-02
      1.61104612e-02 8.91829059e-02 2.30149440e-02 7.47985672e-03
      5.98388538e-02 2.81933062e-02 2.87686801e-03 2.30149436e-03
      1.11622475e-01 2.05408365e-01 1.15074718e-03 1.03567243e-02
      4.02761530e-03 2.30149436e-03 4.60298872e-03 0. 3.45224142e-02
      1.20828450e-02 4.60298872e-03 3.73992845e-02 5.24740696e-01
      6.90448284e-03 2.07134485e-02 5.75373601e-03 5.75373601e-03
      9.20597743e-03 0. 1.21403828e-01 0.</_>
    <_>
      4.74785984e-01 5.83858430e-01 1.26181856e-01 2.37392992e-01
      1.65390909e-01 3.13672423e-02 8.91114846e-02 3.35059166e-02
      9.26759392e-02 4.91895378e-02 1.49707291e-02 9.41017270e-02
      6.27344847e-02 1.21191619e-02 2.13867556e-02 8.91114846e-02
      1.47568613e-01 3.27930264e-02 1.71094052e-02 3.63574848e-02
      2.78027821e-02 4.34864052e-02 0. 5.91700263e-02 2.70898901e-02
      1.71094052e-02 7.27149695e-02 3.44326764e-01 2.99414583e-02
      6.84376210e-02 3.06543503e-02 4.13477272e-02 6.84376210e-02 0.
      3.50742787e-01 0. 4.15995091e-01 6.26006484e-01 1.39240414e-01
      1.36363536e-01 1.83544174e-01 3.45224142e-03 4.37283926e-02
      1.61104612e-02 8.91829059e-02 2.30149440e-02 7.47985672e-03
      5.98388538e-02 2.81933062e-02 2.87686801e-03 2.30149436e-03
      1.11622475e-01 2.05408365e-01 1.15074718e-03 1.03567243e-02
      4.02761530e-03 2.30149436e-03 4.60298872e-03 0. 3.45224142e-02
      1.20828450e-02 4.60298872e-03 3.73992845e-02 5.24740696e-01
      6.90448284e-03 2.07134485e-02 5.75373601e-03 5.75373601e-03
      9.20597743e-03 0. 1.21403828e-01 0.</_>
    <_>
      4.98807967e-01 5.09369016e-01 1.16171889e-01 2.26657033e-01
      1.67352512e-01 3.08708511e-02 8.44886452e-02 3.89947593e-02
      9.18001607e-02 4.79310602e-02 1.54354256e-02 9.50497240e-02
      7.06780031e-02 1.70602072e-02 1.86849888e-02 1.07235588e-01
      1.47855133e-01 3.89947593e-02 2.43717246e-02 3.41204144e-02
      3.24956328e-02 4.71186675e-02 0. 6.49912655e-02 3.49328071e-02
      2.19345521e-02 7.63647407e-02 3.81823689e-01 2.51841154e-02
      7.79895186e-02 3.08708511e-02 3.98071483e-02 8.20514709e-02 0.
      3.87510419e-01 0. 4.13067579e-01 6.09889746e-01 1.43731982e-01
      1.37257576e-01 1.84520796e-01 3.88464821e-03 4.85581011e-02
      1.94232408e-02 8.80520269e-02 2.39553303e-02 8.41673743e-03
      7.18659908e-02 2.33078897e-02 5.82697242e-03 3.23720695e-03
      1.18481770e-01 1.98117062e-01 3.23720695e-03 9.71162040e-03
      2.58976547e-03 2.58976547e-03 7.12185493e-03 0. 3.81990410e-02
      1.68334749e-02 4.53208946e-03 3.49618345e-02 5.43203294e-01
      9.06417891e-03 3.10771856e-02 2.58976547e-03 3.88464821e-03
      5.82697242e-03 0. 1.19776651e-01 0.</_>
    <_>
      4.98807967e-01 5.09369016e-01 1.16171889e-01 2.26657033e-01
      1.67352512e-01 3.08708511e-02 8.44886452e-02 3.89947593e-02
      9.18001607e-02 4.79310602e-02 1.54354256e-02 9.50497240e-02
      7.06780031e-02 1.70602072e-02 1.86849888e-02 1.07235588e-01
      1.47855133e-01 3.89947593e-02 2.43717246e-02 3.41204144e-02
      3.24956328e-02 4.71186675e-02 0. 6.49912655e-02 3.49328071e-02
      2.19345521e-02 7.63647407e-02 3.81823689e-01 2.51841154e-02
      7.79895186e-02 3.08708511e-02 3.98071483e-02 8.20514709e-02 0.
      3.87510419e-01 0. 4.13067579e-01 6.09889746e-01 1.43731982e-01
      1.37257576e-01 1.84520796e-01 3.88464821e-03 4.85581011e-02
      1.94232408e-02 8.80520269e-02 2.39553303e-02 8.41673743e-03
      7.18659908e-02 2.33078897e-02 5.82697242e-03 3.23720695e-03
      1.18481770e-01 1.98117062e-01 3.23720695e-03 9.71162040e-03
      2.58976547e-03 2.58976547e-03 7.12185493e-03 0. 3.81990410e-02
      1.68334749e-02 4.53208946e-03 3.49618345e-02 5.43203294e-01
      9.06417891e-03 3.10771856e-02 2.58976547e-03 3.88464821e-03
      5.82697242e-03 0. 1.19776651e-01 0.</_>
    <_>
      4.81944084e-01 5.17890215e-01 1.07838318e-01 2.23664656e-01
      1.62423149e-01 2.79580820e-02 9.31936055e-02 3.46147679e-02
      9.58562791e-02 4.65968028e-02 1.33133726e-02 9.98502970e-02
      7.05608726e-02 1.73073839e-02 1.73073839e-02 1.14495002e-01
      1.58429131e-01 3.72774452e-02 3.19520943e-02 3.19520943e-02
      3.46147679e-02 3.72774452e-02 0. 5.85788414e-02 3.59461047e-02
      1.99700594e-02 6.52355254e-02 3.95407170e-01 1.86387226e-02
      7.32235461e-02 3.46147679e-02 3.19520943e-02 7.58862272e-02 0.
      3.87419134e-01 0. 3.93031716e-01 6.27339065e-01 1.55485079e-01
      1.45767257e-01 1.80319503e-01 5.39878756e-03 5.61473891e-02
      1.83558762e-02 9.17793810e-02 1.83558762e-02 6.47854479e-03
      8.63806009e-02 1.72761194e-02 8.63805972e-03 4.31902986e-03
      1.13374531e-01 2.08393186e-01 3.23927240e-03 8.63805972e-03
      4.31902986e-03 4.31902986e-03 1.07975751e-02 0. 4.21105400e-02
      1.29570896e-02 3.23927240e-03 3.34724821e-02 5.28001428e-01
      1.18773319e-02 3.45522389e-02 2.15951493e-03 2.15951493e-03
      5.39878756e-03 0. 1.18773319e-01 0.</_>
    <_>
      4.81944084e-01 5.17890215e-01 1.07838318e-01 2.23664656e-01
      1.62423149e-01 2.79580820e-02 9.31936055e-02 3.46147679e-02
      9.58562791e-02 4.65968028e-02 1.33133726e-02 9.98502970e-02
      7.05608726e-02 1.73073839e-02 1.73073839e-02 1.14495002e-01
      1.58429131e-01 3.72774452e-02 3.19520943e-02 3.19520943e-02
      3.46147679e-02 3.72774452e-02 0. 5.85788414e-02 3.59461047e-02
      1.99700594e-02 6.52355254e-02 3.95407170e-01 1.86387226e-02
      7.32235461e-02 3.46147679e-02 3.19520943e-02 7.58862272e-02 0.
      3.87419134e-01 0. 3.93031716e-01 6.27339065e-01 1.55485079e-01
      1.45767257e-01 1.80319503e-01 5.39878756e-03 5.61473891e-02
      1.83558762e-02 9.17793810e-02 1.83558762e-02 6.47854479e-03
      8.63806009e-02 1.72761194e-02 8.63805972e-03 4.31902986e-03
      1.13374531e-01 2.08393186e-01 3.23927240e-03 8.63805972e-03
      4.31902986e-03 4.31902986e-03 1.07975751e-02 0. 4.21105400e-02
      1.29570896e-02 3.23927240e-03 3.34724821e-02 5.28001428e-01
      1.18773319e-02 3.45522389e-02 2.15951493e-03 2.15951493e-03
      5.39878756e-03 0. 1.18773319e-01 0.</_>
    <_>
      4.61583316e-01 5.14989674e-01 8.01095068e-02 2.40328506e-01
      1.44960046e-01 2.67031677e-02 6.86652884e-02 4.95915972e-02
      9.15537179e-02 4.95915972e-02 1.52589530e-02 9.91831943e-02
      6.10358119e-02 2.67031677e-02 1.52589530e-02 1.06812671e-01
      1.44960046e-01 4.19621207e-02 3.43326442e-02 3.43326442e-02
      4.19621207e-02 3.05179060e-02 0. 4.57768589e-02 4.57768589e-02
      2.28884295e-02 6.48505539e-02 4.27250683e-01 1.14442147e-02
      6.86652884e-02 5.34063354e-02 3.81473824e-02 7.62947649e-02 0.
      3.96732777e-01 0. 3.54679108e-01 5.60519695e-01 1.23504333e-01
      1.86839893e-01 1.45671785e-01 3.16677778e-03 6.01687767e-02
      2.85010003e-02 1.17170781e-01 1.58338882e-02 1.26671111e-02
      9.81701091e-02 2.21674442e-02 9.50033311e-03 3.16677778e-03
      1.23504333e-01 2.31174782e-01 6.33355556e-03 9.50033311e-03
      6.33355556e-03 3.16677778e-03 6.33355556e-03 0. 4.43348885e-02
      1.58338882e-02 3.16677778e-03 4.43348885e-02 6.08021319e-01
      1.26671111e-02 2.85010003e-02 0. 0. 3.16677778e-03 0.
      1.26671106e-01 0.</_>
    <_>
      4.61583316e-01 5.14989674e-01 8.01095068e-02 2.40328506e-01
      1.44960046e-01 2.67031677e-02 6.86652884e-02 4.95915972e-02
      9.15537179e-02 4.95915972e-02 1.52589530e-02 9.91831943e-02
      6.10358119e-02 2.67031677e-02 1.52589530e-02 1.06812671e-01
      1.44960046e-01 4.19621207e-02 3.43326442e-02 3.43326442e-02
      4.19621207e-02 3.05179060e-02 0. 4.57768589e-02 4.57768589e-02
      2.28884295e-02 6.48505539e-02 4.27250683e-01 1.14442147e-02
      6.86652884e-02 5.34063354e-02 3.81473824e-02 7.62947649e-02 0.
      3.96732777e-01 0. 3.54679108e-01 5.60519695e-01 1.23504333e-01
      1.86839893e-01 1.45671785e-01 3.16677778e-03 6.01687767e-02
      2.85010003e-02 1.17170781e-01 1.58338882e-02 1.26671111e-02
      9.81701091e-02 2.21674442e-02 9.50033311e-03 3.16677778e-03
      1.23504333e-01 2.31174782e-01 6.33355556e-03 9.50033311e-03
      6.33355556e-03 3.16677778e-03 6.33355556e-03 0. 4.43348885e-02
      1.58338882e-02 3.16677778e-03 4.43348885e-02 6.08021319e-01
      1.26671111e-02 2.85010003e-02 0. 0. 3.16677778e-03 0.
      1.26671106e-01 0.</_>
    <_>
      3.22487503e-01 6.74095929e-01 8.41271728e-02 2.25417674e-01
      1.47761822e-01 1.29426420e-02 1.16483778e-01 2.80423909e-02
      2.01689512e-01 2.80423909e-02 1.29426420e-02 7.22630844e-02
      6.25561029e-02 9.70698148e-03 9.70698148e-03 9.49127078e-02
      1.79039881e-01 2.48067304e-02 1.50997490e-02 1.50997490e-02
      1.72568560e-02 2.69638374e-02 1.07855350e-03 4.09850329e-02
      1.72568560e-02 7.54987448e-03 5.50062284e-02 4.26028639e-01
      4.31421399e-03 4.31421399e-02 1.29426420e-02 2.04925165e-02
      3.99064794e-02 0. 2.50224411e-01 0. 3.70661438e-01 6.34587884e-01
      1.49428949e-01 1.59132123e-01 1.94063574e-01 3.88127146e-03
      5.82190715e-02 1.16438139e-02 9.99427438e-02 3.00798547e-02
      1.06734969e-02 7.76254311e-02 2.81392187e-02 2.91095348e-03
      1.94063573e-03 9.02395621e-02 1.81449443e-01 3.88127146e-03
      7.76254293e-03 8.73286091e-03 2.91095348e-03 8.73286091e-03 0.
      2.42579468e-02 1.55250859e-02 9.70317889e-03 4.07533497e-02
      5.32704532e-01 1.35844499e-02 2.42579468e-02 1.94063573e-03
      4.85158945e-03 6.79222494e-03 0. 1.57191500e-01 9.70317866e-04</_>
    <_>
      3.22487503e-01 6.74095929e-01 8.41271728e-02 2.25417674e-01
      1.47761822e-01 1.29426420e-02 1.16483778e-01 2.80423909e-02
      2.01689512e-01 2.80423909e-02 1.29426420e-02 7.22630844e-02
      6.25561029e-02 9.70698148e-03 9.70698148e-03 9.49127078e-02
      1.79039881e-01 2.48067304e-02 1.50997490e-02 1.50997490e-02
      1.72568560e-02 2.69638374e-02 1.07855350e-03 4.09850329e-02
      1.72568560e-02 7.54987448e-03 5.50062284e-02 4.26028639e-01
      4.31421399e-03 4.31421399e-02 1.29426420e-02 2.04925165e-02
      3.99064794e-02 0. 2.50224411e-01 0. 3.70661438e-01 6.34587884e-01
      1.49428949e-01 1.59132123e-01 1.94063574e-01 3.88127146e-03
      5.82190715e-02 1.16438139e-02 9.99427438e-02 3.00798547e-02
      1.06734969e-02 7.76254311e-02 2.81392187e-02 2.91095348e-03
      1.94063573e-03 9.02395621e-02 1.81449443e-01 3.88127146e-03
      7.76254293e-03 8.73286091e-03 2.91095348e-03 8.73286091e-03 0.
      2.42579468e-02 1.55250859e-02 9.70317889e-03 4.07533497e-02
      5.32704532e-01 1.35844499e-02 2.42579468e-02 1.94063573e-03
      4.85158945e-03 6.79222494e-03 0. 1.57191500e-01 9.70317866e-04</_>
    <_>
      3.26823264e-01 6.95449471e-01 9.88070294e-02 2.25482702e-01
      1.24142163e-01 1.01340543e-02 1.29209191e-01 1.77345946e-02
      1.95080549e-01 3.16689201e-02 1.52010815e-02 7.72721618e-02
      4.81367595e-02 8.86729732e-03 6.33378420e-03 7.85389245e-02
      1.68478653e-01 2.28016227e-02 1.39343245e-02 1.77345946e-02
      1.26675684e-02 3.04021630e-02 0. 4.18029726e-02 1.39343245e-02
      6.33378420e-03 4.94035147e-02 4.04095411e-01 3.80027038e-03
      3.80027033e-02 1.64678376e-02 2.02681087e-02 3.42024341e-02 0.
      2.47017577e-01 0. 3.48747075e-01 6.54043674e-01 1.16630167e-01
      1.71514958e-01 1.40642270e-01 4.57373215e-03 6.06019497e-02
      1.02908975e-02 1.09769568e-01 3.08726914e-02 6.86059799e-03
      1.05195843e-01 3.20161246e-02 3.43029900e-03 2.28686607e-03
      7.43231475e-02 1.84092715e-01 3.43029900e-03 6.86059799e-03
      1.14343306e-02 2.28686607e-03 8.00403114e-03 0. 2.40120944e-02
      1.94383617e-02 1.02908975e-02 3.54464240e-02 5.41987240e-01
      1.14343306e-02 2.17252281e-02 4.57373215e-03 3.43029900e-03
      5.71716530e-03 0. 1.49789721e-01 0.</_>
    <_>
      3.26823264e-01 6.95449471e-01 9.88070294e-02 2.25482702e-01
      1.24142163e-01 1.01340543e-02 1.29209191e-01 1.77345946e-02
      1.95080549e-01 3.16689201e-02 1.52010815e-02 7.72721618e-02
      4.81367595e-02 8.86729732e-03 6.33378420e-03 7.85389245e-02
      1.68478653e-01 2.28016227e-02 1.39343245e-02 1.77345946e-02
      1.26675684e-02 3.04021630e-02 0. 4.18029726e-02 1.39343245e-02
      6.33378420e-03 4.94035147e-02 4.04095411e-01 3.80027038e-03
      3.80027033e-02 1.64678376e-02 2.02681087e-02 3.42024341e-02 0.
      2.47017577e-01 0. 3.48747075e-01 6.54043674e-01 1.16630167e-01
      1.71514958e-01 1.40642270e-01 4.57373215e-03 6.06019497e-02
      1.02908975e-02 1.09769568e-01 3.08726914e-02 6.86059799e-03
      1.05195843e-01 3.20161246e-02 3.43029900e-03 2.28686607e-03
      7.43231475e-02 1.84092715e-01 3.43029900e-03 6.86059799e-03
      1.14343306e-02 2.28686607e-03 8.00403114e-03 0. 2.40120944e-02
      1.94383617e-02 1.02908975e-02 3.54464240e-02 5.41987240e-01
      1.14343306e-02 2.17252281e-02 4.57373215e-03 3.43029900e-03
      5.71716530e-03 0. 1.49789721e-01 0.</_>
    <_>
      3.35456282e-01 7.09372520e-01 8.76032338e-02 2.20076412e-01
      9.40132290e-02 8.54665693e-03 1.34609848e-01 1.92299783e-02
      1.92299783e-01 3.84599566e-02 1.49566494e-02 7.26465806e-02
      4.05966192e-02 8.54665693e-03 4.27332846e-03 7.05099180e-02
      1.85889795e-01 2.13666428e-02 8.54665693e-03 1.92299783e-02
      6.40999246e-03 2.56399699e-02 0. 3.84599566e-02 1.49566494e-02
      4.27332846e-03 3.63232903e-02 4.01692867e-01 4.27332846e-03
      2.77766343e-02 1.70933139e-02 1.70933139e-02 2.56399699e-02 0.
      2.17939749e-01 0. 3.32413167e-01 7.07592905e-01 1.12748325e-01
      1.59402803e-01 1.10804386e-01 5.83180971e-03 7.58135244e-02
      1.36075560e-02 1.04972571e-01 2.91590486e-02 1.94393657e-03
      9.91407633e-02 3.11029851e-02 1.94393657e-03 1.94393657e-03
      6.22059703e-02 1.90505788e-01 3.88787314e-03 9.71968286e-03
      7.77574629e-03 1.94393657e-03 5.83180971e-03 0. 2.91590486e-02
      2.13833023e-02 5.83180971e-03 3.11029851e-02 4.95703816e-01
      5.83180971e-03 2.33272389e-02 7.77574629e-03 1.94393657e-03
      5.83180971e-03 0. 1.43851310e-01 0.</_>
    <_>
      3.35456282e-01 7.09372520e-01 8.76032338e-02 2.20076412e-01
      9.40132290e-02 8.54665693e-03 1.34609848e-01 1.92299783e-02
      1.92299783e-01 3.84599566e-02 1.49566494e-02 7.26465806e-02
      4.05966192e-02 8.54665693e-03 4.27332846e-03 7.05099180e-02
      1.85889795e-01 2.13666428e-02 8.54665693e-03 1.92299783e-02
      6.40999246e-03 2.56399699e-02 0. 3.84599566e-02 1.49566494e-02
      4.27332846e-03 3.63232903e-02 4.01692867e-01 4.27332846e-03
      2.77766343e-02 1.70933139e-02 1.70933139e-02 2.56399699e-02 0.
      2.17939749e-01 0. 3.32413167e-01 7.07592905e-01 1.12748325e-01
      1.59402803e-01 1.10804386e-01 5.83180971e-03 7.58135244e-02
      1.36075560e-02 1.04972571e-01 2.91590486e-02 1.94393657e-03
      9.91407633e-02 3.11029851e-02 1.94393657e-03 1.94393657e-03
      6.22059703e-02 1.90505788e-01 3.88787314e-03 9.71968286e-03
      7.77574629e-03 1.94393657e-03 5.83180971e-03 0. 2.91590486e-02
      2.13833023e-02 5.83180971e-03 3.11029851e-02 4.95703816e-01
      5.83180971e-03 2.33272389e-02 7.77574629e-03 1.94393657e-03
      5.83180971e-03 0. 1.43851310e-01 0.</_>
    <_>
      2.65594095e-01 7.40444183e-01 8.04830641e-02 2.17304274e-01
      7.24347532e-02 8.04830622e-03 1.85111046e-01 8.04830622e-03
      1.44869506e-01 2.41449177e-02 2.41449177e-02 6.43864498e-02
      2.41449177e-02 8.04830622e-03 8.04830622e-03 5.63381426e-02
      1.60966128e-01 0. 8.04830622e-03 3.21932249e-02 1.60966124e-02
      1.60966124e-02 0. 6.43864498e-02 1.60966124e-02 8.04830622e-03
      3.21932249e-02 4.26560223e-01 1.60966124e-02 3.21932249e-02
      1.60966124e-02 8.04830622e-03 2.41449177e-02 0. 2.01207653e-01 0.
      3.00126791e-01 7.32016563e-01 1.17122650e-01 1.17122650e-01
      1.31762981e-01 0. 5.85613251e-02 0. 9.51621532e-02 2.19604969e-02
      0. 1.02482319e-01 5.85613251e-02 0. 0. 5.85613251e-02
      1.68363810e-01 7.32016563e-03 7.32016563e-03 1.46403313e-02 0.
      7.32016563e-03 0. 2.19604969e-02 3.66008282e-02 7.32016563e-03
      2.92806625e-02 5.05091429e-01 7.32016563e-03 1.46403313e-02 0. 0.
      7.32016563e-03 0. 1.09802485e-01 0.</_>
    <_>
      4.40601617e-01 6.42498910e-01 9.85128880e-02 2.25172326e-01
      1.67255402e-01 1.62383877e-02 9.36413705e-02 3.19354981e-02
      1.39650136e-01 2.92290989e-02 1.35319903e-02 8.44396204e-02
      5.30454032e-02 1.29907113e-02 1.08255921e-02 1.01219289e-01
      1.44521654e-01 2.11099051e-02 2.32750233e-02 2.21924651e-02
      2.16511842e-02 3.19354981e-02 0. 4.92564440e-02 2.81465407e-02
      1.35319903e-02 6.38709962e-02 3.62116069e-01 1.13668721e-02
      6.11645952e-02 2.21924651e-02 2.38163024e-02 6.00820370e-02 0.
      2.87419468e-01 1.62383891e-03 3.80939037e-01 6.75258636e-01
      1.08972780e-01 1.67184725e-01 1.74170166e-01 2.32847827e-03
      5.86776510e-02 1.53679559e-02 1.39708683e-01 2.56132595e-02
      9.77960788e-03 6.47316948e-02 3.91184315e-02 4.19126078e-03
      2.32847827e-03 9.08106491e-02 2.10494429e-01 5.12265181e-03
      1.11766951e-02 4.65695653e-03 9.31391260e-04 8.38252157e-03
      4.65695630e-04 2.74760425e-02 8.84821732e-03 3.25986929e-03
      2.79417373e-02 4.73612458e-01 5.12265181e-03 2.74760425e-02
      4.19126078e-03 6.05404330e-03 9.77960788e-03 0. 1.39242992e-01
      4.65695630e-04</_>
    <_>
      4.40601617e-01 6.42498910e-01 9.85128880e-02 2.25172326e-01
      1.67255402e-01 1.62383877e-02 9.36413705e-02 3.19354981e-02
      1.39650136e-01 2.92290989e-02 1.35319903e-02 8.44396204e-02
      5.30454032e-02 1.29907113e-02 1.08255921e-02 1.01219289e-01
      1.44521654e-01 2.11099051e-02 2.32750233e-02 2.21924651e-02
      2.16511842e-02 3.19354981e-02 0. 4.92564440e-02 2.81465407e-02
      1.35319903e-02 6.38709962e-02 3.62116069e-01 1.13668721e-02
      6.11645952e-02 2.21924651e-02 2.38163024e-02 6.00820370e-02 0.
      2.87419468e-01 1.62383891e-03 3.80939037e-01 6.75258636e-01
      1.08972780e-01 1.67184725e-01 1.74170166e-01 2.32847827e-03
      5.86776510e-02 1.53679559e-02 1.39708683e-01 2.56132595e-02
      9.77960788e-03 6.47316948e-02 3.91184315e-02 4.19126078e-03
      2.32847827e-03 9.08106491e-02 2.10494429e-01 5.12265181e-03
      1.11766951e-02 4.65695653e-03 9.31391260e-04 8.38252157e-03
      4.65695630e-04 2.74760425e-02 8.84821732e-03 3.25986929e-03
      2.79417373e-02 4.73612458e-01 5.12265181e-03 2.74760425e-02
      4.19126078e-03 6.05404330e-03 9.77960788e-03 0. 1.39242992e-01
      4.65695630e-04</_>
    <_>
      4.40601617e-01 6.42498910e-01 9.85128880e-02 2.25172326e-01
      1.67255402e-01 1.62383877e-02 9.36413705e-02 3.19354981e-02
      1.39650136e-01 2.92290989e-02 1.35319903e-02 8.44396204e-02
      5.30454032e-02 1.29907113e-02 1.08255921e-02 1.01219289e-01
      1.44521654e-01 2.11099051e-02 2.32750233e-02 2.21924651e-02
      2.16511842e-02 3.19354981e-02 0. 4.92564440e-02 2.81465407e-02
      1.35319903e-02 6.38709962e-02 3.62116069e-01 1.13668721e-02
      6.11645952e-02 2.21924651e-02 2.38163024e-02 6.00820370e-02 0.
      2.87419468e-01 1.62383891e-03 3.80939037e-01 6.75258636e-01
      1.08972780e-01 1.67184725e-01 1.74170166e-01 2.32847827e-03
      5.86776510e-02 1.53679559e-02 1.39708683e-01 2.56132595e-02
      9.77960788e-03 6.47316948e-02 3.91184315e-02 4.19126078e-03
      2.32847827e-03 9.08106491e-02 2.10494429e-01 5.12265181e-03
      1.11766951e-02 4.65695653e-03 9.31391260e-04 8.38252157e-03
      4.65695630e-04 2.74760425e-02 8.84821732e-03 3.25986929e-03
      2.79417373e-02 4.73612458e-01 5.12265181e-03 2.74760425e-02
      4.19126078e-03 6.05404330e-03 9.77960788e-03 0. 1.39242992e-01
      4.65695630e-04</_>
    <_>
      4.47443008e-01 5.77070713e-01 1.06317461e-01 2.25711405e-01
      1.75111115e-01 2.04675328e-02 8.01644996e-02 4.77575772e-02
      1.14845596e-01 3.63867246e-02 1.76248197e-02 9.60836932e-02
      6.31082281e-02 1.70562770e-02 1.30764795e-02 1.17688313e-01
      1.26784995e-01 3.18383835e-02 2.89956704e-02 2.21731607e-02
      2.67215017e-02 3.58181819e-02 0. 6.19711392e-02 3.86608951e-02
      1.19393943e-02 7.22049102e-02 3.94568533e-01 1.42135639e-02
      7.44790733e-02 2.78585851e-02 3.18383835e-02 7.61847049e-02 0.
      3.49653691e-01 0. 3.98705035e-01 6.64508402e-01 1.12597257e-01
      1.71664670e-01 1.67050034e-01 3.69171333e-03 5.39913066e-02
      1.15366038e-02 1.31055817e-01 2.72263866e-02 1.06136762e-02
      6.27591237e-02 4.06088457e-02 2.76878499e-03 2.30732094e-03
      8.90625864e-02 2.00736910e-01 4.61464189e-03 9.22928378e-03
      4.15317761e-03 9.22928331e-04 9.69074760e-03 0. 2.63034571e-02
      7.84489047e-03 2.76878499e-03 3.41483466e-02 4.85921770e-01
      5.99903427e-03 2.63034571e-02 3.69171333e-03 2.30732094e-03
      8.30635522e-03 0. 1.24133863e-01 0.</_>
    <_>
      4.47443008e-01 5.77070713e-01 1.06317461e-01 2.25711405e-01
      1.75111115e-01 2.04675328e-02 8.01644996e-02 4.77575772e-02
      1.14845596e-01 3.63867246e-02 1.76248197e-02 9.60836932e-02
      6.31082281e-02 1.70562770e-02 1.30764795e-02 1.17688313e-01
      1.26784995e-01 3.18383835e-02 2.89956704e-02 2.21731607e-02
      2.67215017e-02 3.58181819e-02 0. 6.19711392e-02 3.86608951e-02
      1.19393943e-02 7.22049102e-02 3.94568533e-01 1.42135639e-02
      7.44790733e-02 2.78585851e-02 3.18383835e-02 7.61847049e-02 0.
      3.49653691e-01 0. 3.98705035e-01 6.64508402e-01 1.12597257e-01
      1.71664670e-01 1.67050034e-01 3.69171333e-03 5.39913066e-02
      1.15366038e-02 1.31055817e-01 2.72263866e-02 1.06136762e-02
      6.27591237e-02 4.06088457e-02 2.76878499e-03 2.30732094e-03
      8.90625864e-02 2.00736910e-01 4.61464189e-03 9.22928378e-03
      4.15317761e-03 9.22928331e-04 9.69074760e-03 0. 2.63034571e-02
      7.84489047e-03 2.76878499e-03 3.41483466e-02 4.85921770e-01
      5.99903427e-03 2.63034571e-02 3.69171333e-03 2.30732094e-03
      8.30635522e-03 0. 1.24133863e-01 0.</_>
    <_>
      4.47443008e-01 5.77070713e-01 1.06317461e-01 2.25711405e-01
      1.75111115e-01 2.04675328e-02 8.01644996e-02 4.77575772e-02
      1.14845596e-01 3.63867246e-02 1.76248197e-02 9.60836932e-02
      6.31082281e-02 1.70562770e-02 1.30764795e-02 1.17688313e-01
      1.26784995e-01 3.18383835e-02 2.89956704e-02 2.21731607e-02
      2.67215017e-02 3.58181819e-02 0. 6.19711392e-02 3.86608951e-02
      1.19393943e-02 7.22049102e-02 3.94568533e-01 1.42135639e-02
      7.44790733e-02 2.78585851e-02 3.18383835e-02 7.61847049e-02 0.
      3.49653691e-01 0. 3.98705035e-01 6.64508402e-01 1.12597257e-01
      1.71664670e-01 1.67050034e-01 3.69171333e-03 5.39913066e-02
      1.15366038e-02 1.31055817e-01 2.72263866e-02 1.06136762e-02
      6.27591237e-02 4.06088457e-02 2.76878499e-03 2.30732094e-03
      8.90625864e-02 2.00736910e-01 4.61464189e-03 9.22928378e-03
      4.15317761e-03 9.22928331e-04 9.69074760e-03 0. 2.63034571e-02
      7.84489047e-03 2.76878499e-03 3.41483466e-02 4.85921770e-01
      5.99903427e-03 2.63034571e-02 3.69171333e-03 2.30732094e-03
      8.30635522e-03 0. 1.24133863e-01 0.</_>
    <_>
      4.51458484e-01 5.55385351e-01 1.07252568e-01 2.19493628e-01
      1.83742762e-01 2.49424577e-02 8.81300122e-02 5.40419891e-02
      1.08083978e-01 3.90765145e-02 1.66283045e-02 9.56127495e-02
      6.65132180e-02 2.16167960e-02 1.24712288e-02 1.13072470e-01
      1.18892379e-01 3.40880230e-02 2.82681175e-02 2.32796259e-02
      2.74367034e-02 3.15937772e-02 0. 5.98618984e-02 3.99079323e-02
      1.33026438e-02 6.31875545e-02 4.02404964e-01 1.41340587e-02
      7.15017095e-02 2.99309492e-02 3.65822688e-02 8.48043561e-02 0.
      3.71642619e-01 0. 3.94833684e-01 6.41350746e-01 1.14454359e-01
      1.77438125e-01 1.83533326e-01 4.74071316e-03 5.01161106e-02
      1.08359158e-02 1.25967517e-01 2.64125448e-02 9.48142633e-03
      6.90789670e-02 3.99574414e-02 2.03173421e-03 2.03173421e-03
      8.33011046e-02 2.08591372e-01 4.06346843e-03 6.09520264e-03
      4.74071316e-03 6.77244738e-04 1.08359158e-02 0. 2.97987685e-02
      1.08359158e-02 2.03173421e-03 3.86029482e-02 5.07256329e-01
      6.09520264e-03 2.84442790e-02 4.06346843e-03 1.35448948e-03
      8.12693685e-03 0. 1.32062718e-01 0.</_>
    <_>
      4.51458484e-01 5.55385351e-01 1.07252568e-01 2.19493628e-01
      1.83742762e-01 2.49424577e-02 8.81300122e-02 5.40419891e-02
      1.08083978e-01 3.90765145e-02 1.66283045e-02 9.56127495e-02
      6.65132180e-02 2.16167960e-02 1.24712288e-02 1.13072470e-01
      1.18892379e-01 3.40880230e-02 2.82681175e-02 2.32796259e-02
      2.74367034e-02 3.15937772e-02 0. 5.98618984e-02 3.99079323e-02
      1.33026438e-02 6.31875545e-02 4.02404964e-01 1.41340587e-02
      7.15017095e-02 2.99309492e-02 3.65822688e-02 8.48043561e-02 0.
      3.71642619e-01 0. 3.94833684e-01 6.41350746e-01 1.14454359e-01
      1.77438125e-01 1.83533326e-01 4.74071316e-03 5.01161106e-02
      1.08359158e-02 1.25967517e-01 2.64125448e-02 9.48142633e-03
      6.90789670e-02 3.99574414e-02 2.03173421e-03 2.03173421e-03
      8.33011046e-02 2.08591372e-01 4.06346843e-03 6.09520264e-03
      4.74071316e-03 6.77244738e-04 1.08359158e-02 0. 2.97987685e-02
      1.08359158e-02 2.03173421e-03 3.86029482e-02 5.07256329e-01
      6.09520264e-03 2.84442790e-02 4.06346843e-03 1.35448948e-03
      8.12693685e-03 0. 1.32062718e-01 0.</_>
    <_>
      4.51458484e-01 5.55385351e-01 1.07252568e-01 2.19493628e-01
      1.83742762e-01 2.49424577e-02 8.81300122e-02 5.40419891e-02
      1.08083978e-01 3.90765145e-02 1.66283045e-02 9.56127495e-02
      6.65132180e-02 2.16167960e-02 1.24712288e-02 1.13072470e-01
      1.18892379e-01 3.40880230e-02 2.82681175e-02 2.32796259e-02
      2.74367034e-02 3.15937772e-02 0. 5.98618984e-02 3.99079323e-02
      1.33026438e-02 6.31875545e-02 4.02404964e-01 1.41340587e-02
      7.15017095e-02 2.99309492e-02 3.65822688e-02 8.48043561e-02 0.
      3.71642619e-01 0. 3.94833684e-01 6.41350746e-01 1.14454359e-01
      1.77438125e-01 1.83533326e-01 4.74071316e-03 5.01161106e-02
      1.08359158e-02 1.25967517e-01 2.64125448e-02 9.48142633e-03
      6.90789670e-02 3.99574414e-02 2.03173421e-03 2.03173421e-03
      8.33011046e-02 2.08591372e-01 4.06346843e-03 6.09520264e-03
      4.74071316e-03 6.77244738e-04 1.08359158e-02 0. 2.97987685e-02
      1.08359158e-02 2.03173421e-03 3.86029482e-02 5.07256329e-01
      6.09520264e-03 2.84442790e-02 4.06346843e-03 1.35448948e-03
      8.12693685e-03 0. 1.32062718e-01 0.</_>
    <_>
      4.29425627e-01 5.45909524e-01 1.11268178e-01 2.24274918e-01
      2.01673567e-01 2.78170444e-02 8.51897001e-02 6.25883490e-02
      1.21699572e-01 4.17255685e-02 1.73856523e-02 8.86668265e-02
      8.51897001e-02 1.91242173e-02 6.95426110e-03 1.11268178e-01
      1.13006741e-01 3.30327414e-02 3.30327414e-02 1.91242173e-02
      2.78170444e-02 2.95556094e-02 0. 6.43269122e-02 4.17255685e-02
      6.95426110e-03 6.78040460e-02 4.20732796e-01 1.21699572e-02
      7.64968693e-02 3.12941745e-02 3.65098715e-02 8.69282633e-02 0.
      3.70314389e-01 0. 3.87215167e-01 6.35144293e-01 1.18393123e-01
      1.74107537e-01 1.79678977e-01 5.57144126e-03 4.59643900e-02
      8.35716166e-03 1.18393123e-01 3.20357867e-02 1.39286034e-02
      5.85001335e-02 3.90000902e-02 1.39286031e-03 1.39286031e-03
      8.35716203e-02 2.01964751e-01 4.17858083e-03 6.96430169e-03
      4.17858083e-03 0. 1.11428825e-02 0. 3.20357867e-02 1.53214633e-02
      2.78572063e-03 4.03929502e-02 5.29286921e-01 8.35716166e-03
      2.78572068e-02 4.17858083e-03 2.78572063e-03 5.57144126e-03 0.
      1.25357434e-01 0.</_>
    <_>
      4.29425627e-01 5.45909524e-01 1.11268178e-01 2.24274918e-01
      2.01673567e-01 2.78170444e-02 8.51897001e-02 6.25883490e-02
      1.21699572e-01 4.17255685e-02 1.73856523e-02 8.86668265e-02
      8.51897001e-02 1.91242173e-02 6.95426110e-03 1.11268178e-01
      1.13006741e-01 3.30327414e-02 3.30327414e-02 1.91242173e-02
      2.78170444e-02 2.95556094e-02 0. 6.43269122e-02 4.17255685e-02
      6.95426110e-03 6.78040460e-02 4.20732796e-01 1.21699572e-02
      7.64968693e-02 3.12941745e-02 3.65098715e-02 8.69282633e-02 0.
      3.70314389e-01 0. 3.87215167e-01 6.35144293e-01 1.18393123e-01
      1.74107537e-01 1.79678977e-01 5.57144126e-03 4.59643900e-02
      8.35716166e-03 1.18393123e-01 3.20357867e-02 1.39286034e-02
      5.85001335e-02 3.90000902e-02 1.39286031e-03 1.39286031e-03
      8.35716203e-02 2.01964751e-01 4.17858083e-03 6.96430169e-03
      4.17858083e-03 0. 1.11428825e-02 0. 3.20357867e-02 1.53214633e-02
      2.78572063e-03 4.03929502e-02 5.29286921e-01 8.35716166e-03
      2.78572068e-02 4.17858083e-03 2.78572063e-03 5.57144126e-03 0.
      1.25357434e-01 0.</_>
    <_>
      4.29425627e-01 5.45909524e-01 1.11268178e-01 2.24274918e-01
      2.01673567e-01 2.78170444e-02 8.51897001e-02 6.25883490e-02
      1.21699572e-01 4.17255685e-02 1.73856523e-02 8.86668265e-02
      8.51897001e-02 1.91242173e-02 6.95426110e-03 1.11268178e-01
      1.13006741e-01 3.30327414e-02 3.30327414e-02 1.91242173e-02
      2.78170444e-02 2.95556094e-02 0. 6.43269122e-02 4.17255685e-02
      6.95426110e-03 6.78040460e-02 4.20732796e-01 1.21699572e-02
      7.64968693e-02 3.12941745e-02 3.65098715e-02 8.69282633e-02 0.
      3.70314389e-01 0. 3.87215167e-01 6.35144293e-01 1.18393123e-01
      1.74107537e-01 1.79678977e-01 5.57144126e-03 4.59643900e-02
      8.35716166e-03 1.18393123e-01 3.20357867e-02 1.39286034e-02
      5.85001335e-02 3.90000902e-02 1.39286031e-03 1.39286031e-03
      8.35716203e-02 2.01964751e-01 4.17858083e-03 6.96430169e-03
      4.17858083e-03 0. 1.11428825e-02 0. 3.20357867e-02 1.53214633e-02
      2.78572063e-03 4.03929502e-02 5.29286921e-01 8.35716166e-03
      2.78572068e-02 4.17858083e-03 2.78572063e-03 5.57144126e-03 0.
      1.25357434e-01 0.</_>
    <_>
      4.40940768e-01 5.74816763e-01 1.34938493e-01 2.28439182e-01
      1.58313677e-01 1.27500948e-02 8.28756094e-02 2.86877118e-02
      8.71256441e-02 5.41879013e-02 2.55001895e-02 8.60631391e-02
      6.80005029e-02 1.06250783e-02 6.37504738e-03 9.45632011e-02
      1.44501075e-01 2.23126654e-02 1.16875861e-02 1.27500948e-02
      2.12501567e-02 2.65626963e-02 0. 6.48129806e-02 3.08127273e-02
      1.27500948e-02 5.73754236e-02 4.59003389e-01 1.16875861e-02
      6.05629496e-02 2.01876499e-02 2.65626963e-02 6.80005029e-02 0.
      2.96439677e-01 1.06250786e-03 4.52042907e-01 6.45020306e-01
      1.59492731e-01 1.41869217e-01 2.32630268e-01 7.04940222e-03
      2.55540833e-02 1.85046811e-02 8.81175250e-02 2.11482067e-02
      8.81175324e-03 4.75834645e-02 2.46729068e-02 6.16822671e-03
      1.76235056e-03 1.03978686e-01 1.75353885e-01 3.52470111e-03
      7.04940222e-03 2.64352583e-03 8.81175278e-04 7.04940222e-03 0.
      2.46729068e-02 9.69292782e-03 2.64352583e-03 3.34846601e-02
      4.63498205e-01 4.40587662e-03 2.55540833e-02 2.64352583e-03
      3.52470111e-03 8.81175324e-03 8.81175278e-04 9.25234035e-02
      1.76235056e-03</_>
    <_>
      4.40940768e-01 5.74816763e-01 1.34938493e-01 2.28439182e-01
      1.58313677e-01 1.27500948e-02 8.28756094e-02 2.86877118e-02
      8.71256441e-02 5.41879013e-02 2.55001895e-02 8.60631391e-02
      6.80005029e-02 1.06250783e-02 6.37504738e-03 9.45632011e-02
      1.44501075e-01 2.23126654e-02 1.16875861e-02 1.27500948e-02
      2.12501567e-02 2.65626963e-02 0. 6.48129806e-02 3.08127273e-02
      1.27500948e-02 5.73754236e-02 4.59003389e-01 1.16875861e-02
      6.05629496e-02 2.01876499e-02 2.65626963e-02 6.80005029e-02 0.
      2.96439677e-01 1.06250786e-03 4.52042907e-01 6.45020306e-01
      1.59492731e-01 1.41869217e-01 2.32630268e-01 7.04940222e-03
      2.55540833e-02 1.85046811e-02 8.81175250e-02 2.11482067e-02
      8.81175324e-03 4.75834645e-02 2.46729068e-02 6.16822671e-03
      1.76235056e-03 1.03978686e-01 1.75353885e-01 3.52470111e-03
      7.04940222e-03 2.64352583e-03 8.81175278e-04 7.04940222e-03 0.
      2.46729068e-02 9.69292782e-03 2.64352583e-03 3.34846601e-02
      4.63498205e-01 4.40587662e-03 2.55540833e-02 2.64352583e-03
      3.52470111e-03 8.81175324e-03 8.81175278e-04 9.25234035e-02
      1.76235056e-03</_>
    <_>
      3.98852617e-01 5.97537577e-01 1.33445114e-01 2.07581297e-01
      1.57168686e-01 1.48272347e-02 8.00670683e-02 2.66890228e-02
      9.04461369e-02 5.33780456e-02 1.33445114e-02 5.93089387e-02
      4.44817059e-02 7.41361734e-03 8.89634155e-03 1.09721541e-01
      1.30479664e-01 2.81717461e-02 2.37235762e-02 1.63099580e-02
      1.33445114e-02 1.77926831e-02 0. 7.41361752e-02 2.66890228e-02
      1.03790648e-02 6.07916638e-02 5.01160562e-01 7.41361734e-03
      5.33780456e-02 1.63099580e-02 8.89634155e-03 4.00335342e-02 0.
      2.77269304e-01 0. 4.60418373e-01 6.84569418e-01 1.49030149e-01
      1.24797612e-01 1.89013854e-01 4.84650908e-03 3.02906819e-02
      1.33279003e-02 9.69301835e-02 1.81744099e-02 3.63488169e-03
      5.33116013e-02 4.84650908e-03 3.63488169e-03 2.42325454e-03
      7.87557736e-02 1.72051072e-01 6.05813647e-03 4.84650908e-03
      3.63488169e-03 2.42325454e-03 4.84650908e-03 0. 1.81744099e-02
      4.84650908e-03 4.84650908e-03 2.18092911e-02 4.33762550e-01
      2.42325454e-03 1.33279003e-02 1.21162727e-03 2.42325454e-03
      6.05813647e-03 0. 8.36022794e-02 0.</_>
    <_>
      3.98852617e-01 5.97537577e-01 1.33445114e-01 2.07581297e-01
      1.57168686e-01 1.48272347e-02 8.00670683e-02 2.66890228e-02
      9.04461369e-02 5.33780456e-02 1.33445114e-02 5.93089387e-02
      4.44817059e-02 7.41361734e-03 8.89634155e-03 1.09721541e-01
      1.30479664e-01 2.81717461e-02 2.37235762e-02 1.63099580e-02
      1.33445114e-02 1.77926831e-02 0. 7.41361752e-02 2.66890228e-02
      1.03790648e-02 6.07916638e-02 5.01160562e-01 7.41361734e-03
      5.33780456e-02 1.63099580e-02 8.89634155e-03 4.00335342e-02 0.
      2.77269304e-01 0. 4.60418373e-01 6.84569418e-01 1.49030149e-01
      1.24797612e-01 1.89013854e-01 4.84650908e-03 3.02906819e-02
      1.33279003e-02 9.69301835e-02 1.81744099e-02 3.63488169e-03
      5.33116013e-02 4.84650908e-03 3.63488169e-03 2.42325454e-03
      7.87557736e-02 1.72051072e-01 6.05813647e-03 4.84650908e-03
      3.63488169e-03 2.42325454e-03 4.84650908e-03 0. 1.81744099e-02
      4.84650908e-03 4.84650908e-03 2.18092911e-02 4.33762550e-01
      2.42325454e-03 1.33279003e-02 1.21162727e-03 2.42325454e-03
      6.05813647e-03 0. 8.36022794e-02 0.</_>
    <_>
      3.83044213e-01 6.23206854e-01 1.52001664e-01 1.70241863e-01
      1.24641366e-01 1.52001670e-02 8.20809007e-02 2.43202671e-02
      1.00321099e-01 6.08006679e-02 1.82402004e-02 5.16805686e-02
      3.95204350e-02 3.04003339e-03 1.21601336e-02 1.00321099e-01
      1.21601336e-01 3.04003339e-02 3.04003339e-02 1.52001670e-02
      1.52001670e-02 9.12010018e-03 0. 6.68807328e-02 2.43202671e-02
      9.12010018e-03 6.68807328e-02 4.98565465e-01 9.12010018e-03
      7.29608014e-02 2.73603015e-02 9.12010018e-03 3.64804007e-02 0.
      2.79683083e-01 0. 4.85735148e-01 7.13733256e-01 1.51172668e-01
      1.33824989e-01 1.66042119e-01 7.43472157e-03 3.46953683e-02
      1.23912022e-02 9.91296172e-02 2.23041642e-02 2.47824052e-03
      5.20430505e-02 4.95648105e-03 7.43472157e-03 2.47824052e-03
      6.69124946e-02 1.28868505e-01 7.43472157e-03 4.95648105e-03
      7.43472157e-03 4.95648105e-03 7.43472157e-03 0. 2.23041642e-02
      4.95648105e-03 7.43472157e-03 2.97388863e-02 3.74214321e-01
      4.95648105e-03 7.43472157e-03 0. 2.47824052e-03 4.95648105e-03 0.
      9.41731408e-02 0.</_>
    <_>
      3.83044213e-01 6.23206854e-01 1.52001664e-01 1.70241863e-01
      1.24641366e-01 1.52001670e-02 8.20809007e-02 2.43202671e-02
      1.00321099e-01 6.08006679e-02 1.82402004e-02 5.16805686e-02
      3.95204350e-02 3.04003339e-03 1.21601336e-02 1.00321099e-01
      1.21601336e-01 3.04003339e-02 3.04003339e-02 1.52001670e-02
      1.52001670e-02 9.12010018e-03 0. 6.68807328e-02 2.43202671e-02
      9.12010018e-03 6.68807328e-02 4.98565465e-01 9.12010018e-03
      7.29608014e-02 2.73603015e-02 9.12010018e-03 3.64804007e-02 0.
      2.79683083e-01 0. 4.85735148e-01 7.13733256e-01 1.51172668e-01
      1.33824989e-01 1.66042119e-01 7.43472157e-03 3.46953683e-02
      1.23912022e-02 9.91296172e-02 2.23041642e-02 2.47824052e-03
      5.20430505e-02 4.95648105e-03 7.43472157e-03 2.47824052e-03
      6.69124946e-02 1.28868505e-01 7.43472157e-03 4.95648105e-03
      7.43472157e-03 4.95648105e-03 7.43472157e-03 0. 2.23041642e-02
      4.95648105e-03 7.43472157e-03 2.97388863e-02 3.74214321e-01
      4.95648105e-03 7.43472157e-03 0. 2.47824052e-03 4.95648105e-03 0.
      9.41731408e-02 0.</_>
    <_>
      4.00397569e-01 5.66623271e-01 1.45599127e-01 2.48731837e-01
      1.50452420e-01 1.21332603e-02 7.27995634e-02 2.18398683e-02
      9.22127739e-02 3.76131050e-02 8.49328190e-03 1.07986011e-01
      4.73197140e-02 1.57732386e-02 4.85330401e-03 1.12839319e-01
      1.58945709e-01 1.57732386e-02 1.57732386e-02 1.81998909e-02
      1.45599116e-02 2.66931728e-02 0. 6.79462552e-02 1.33465864e-02
      1.69865638e-02 7.64395371e-02 5.07170260e-01 1.81998909e-02
      4.73197140e-02 2.54798457e-02 1.21332603e-02 4.00397591e-02 0.
      2.64505059e-01 0. 6.04672432e-01 5.47324181e-01 1.56953245e-01
      1.32806599e-01 2.33417660e-01 1.00611057e-03 1.20733269e-02
      3.82321998e-02 5.53360805e-02 1.40855480e-02 5.03055286e-03
      5.63421920e-02 3.11894268e-02 9.05499514e-03 1.00611057e-03
      1.29788265e-01 2.00216010e-01 7.04277400e-03 4.02444229e-03
      2.01222114e-03 2.01222114e-03 3.01833171e-03 0. 1.71038806e-02
      7.04277400e-03 3.01833171e-03 4.22566459e-02 4.07474786e-01
      2.01222114e-03 1.30794374e-02 2.01222114e-03 1.00611057e-03
      6.03666343e-03 0. 5.93605228e-02 0.</_>
    <_>
      4.15339559e-01 5.53001642e-01 1.00010939e-01 2.21200675e-01
      1.45898312e-01 1.52957905e-02 6.94193617e-02 2.00021882e-02
      9.29513425e-02 4.58873734e-02 1.29425926e-02 9.29513425e-02
      4.70639728e-02 1.05893938e-02 0. 1.02364138e-01 1.47074908e-01
      1.88255887e-02 7.05959555e-03 1.88255887e-02 1.52957905e-02
      2.11787876e-02 0. 8.11853483e-02 3.05915810e-02 1.52957905e-02
      5.41235693e-02 5.50648451e-01 9.41279437e-03 4.58873734e-02
      1.52957905e-02 1.52957905e-02 4.23575751e-02 0. 2.49439046e-01 0.
      4.90495056e-01 6.13896549e-01 1.67991966e-01 1.37919322e-01
      2.41618067e-01 7.25891162e-03 3.73315476e-02 3.00726350e-02
      9.64398310e-02 2.17767358e-02 5.18493727e-03 6.32562339e-02
      1.55548109e-02 2.07397481e-03 1.03698741e-03 1.02661751e-01
      2.29174212e-01 2.07397481e-03 4.14794963e-03 5.18493727e-03
      1.03698741e-03 2.07397481e-03 0. 2.48876978e-02 5.18493727e-03
      6.22192444e-03 3.42205837e-02 4.34497714e-01 4.14794963e-03
      1.14068612e-02 2.07397481e-03 4.14794963e-03 7.25891162e-03 0.
      8.08850154e-02 0.</_>
    <_>
      4.11767542e-01 5.55622220e-01 9.76628140e-02 2.23040760e-01
      1.30657017e-01 1.84767488e-02 6.86279237e-02 1.31976781e-02
      9.63430479e-02 5.80697842e-02 1.05581423e-02 9.50232819e-02
      5.80697842e-02 1.05581423e-02 1.31976779e-03 9.89825875e-02
      1.61011666e-01 1.97965167e-02 5.27907116e-03 2.24360526e-02
      1.58372130e-02 2.63953563e-02 0. 8.44651386e-02 3.03546600e-02
      1.31976781e-02 5.67500144e-02 5.47703624e-01 1.05581423e-02
      4.35523354e-02 1.58372130e-02 1.71569809e-02 4.88314070e-02 0.
      2.46796578e-01 0. 5.23089111e-01 5.84495187e-01 1.53515279e-01
      1.47829533e-01 2.30841488e-01 7.96005130e-03 2.72916052e-02
      2.16058549e-02 1.03480667e-01 2.04687044e-02 4.54860087e-03
      6.25432655e-02 1.59201026e-02 2.27430044e-03 1.13715022e-03
      1.05754972e-01 2.08098486e-01 2.27430044e-03 3.41145066e-03
      2.27430044e-03 1.13715022e-03 4.54860087e-03 0. 2.27430053e-02
      4.54860087e-03 9.09720175e-03 3.18402052e-02 4.55997229e-01
      2.27430044e-03 1.25086522e-02 1.13715022e-03 3.41145066e-03
      5.68575133e-03 0. 7.16404617e-02 0.</_>
    <_>
      4.16631579e-01 5.67934632e-01 1.00868702e-01 2.12701395e-01
      1.35953471e-01 1.97351798e-02 7.45551288e-02 1.53495846e-02
      8.55191126e-02 6.13983385e-02 8.77119135e-03 8.77119154e-02
      7.01695308e-02 8.77119135e-03 2.19279784e-03 1.09639890e-01
      1.71038225e-01 1.97351798e-02 8.77119135e-03 2.41207760e-02
      1.31567866e-02 2.85063721e-02 0. 7.01695308e-02 2.85063721e-02
      1.09639894e-02 5.70127442e-02 5.32849848e-01 1.53495846e-02
      4.38559577e-02 1.75423827e-02 1.97351798e-02 5.04343510e-02 0.
      2.41207764e-01 0. 5.67748427e-01 5.56468666e-01 1.56036824e-01
      1.46637008e-01 2.14315638e-01 1.12797702e-02 2.44395025e-02
      2.25595403e-02 1.03397891e-01 2.63194628e-02 5.63988509e-03
      5.82788140e-02 2.06795782e-02 1.87996170e-03 1.87996170e-03
      1.03397891e-01 2.03035861e-01 3.75992339e-03 3.75992339e-03
      1.87996170e-03 0. 5.63988509e-03 0. 2.44395025e-02 7.51984678e-03
      1.12797702e-02 3.38393115e-02 4.49310839e-01 3.75992339e-03
      1.69196557e-02 1.87996170e-03 1.87996170e-03 5.63988509e-03 0.
      6.01587743e-02 0.</_>
    <_>
      4.05331284e-01 6.33330107e-01 6.96663111e-02 2.15332240e-01
      1.13999426e-01 3.16665061e-02 6.96663111e-02 1.89999044e-02
      6.96663111e-02 8.23329166e-02 0. 1.13999426e-01 6.33330122e-02
      1.26666026e-02 6.33330131e-03 7.59996176e-02 1.83665738e-01
      2.53332052e-02 6.33330131e-03 3.16665061e-02 2.53332052e-02
      6.33330122e-02 0. 8.86662155e-02 1.89999044e-02 1.26666026e-02
      5.69997132e-02 4.62330997e-01 1.26666026e-02 5.06664105e-02
      1.26666026e-02 6.33330131e-03 5.69997132e-02 0. 2.40665451e-01 0.
      5.80888689e-01 4.73316699e-01 1.02193378e-01 1.93629563e-01
      1.61357969e-01 1.07571976e-02 2.15143953e-02 1.61357969e-02
      9.14361775e-02 1.61357969e-02 1.07571976e-02 8.06789845e-02
      2.15143953e-02 0. 0. 1.34464964e-01 1.82872355e-01 0. 0. 0. 0.
      1.07571976e-02 0. 3.22715938e-02 1.61357969e-02 1.07571976e-02
      2.68929936e-02 5.37859857e-01 5.37859881e-03 2.68929936e-02 0. 0.
      5.37859881e-03 0. 6.45431876e-02 0.</_>
    <_>
      4.23743516e-01 5.69405377e-01 1.04280628e-01 1.70490548e-01
      1.42351344e-01 1.65524818e-02 9.10386443e-02 3.31049636e-02
      8.44176561e-02 7.77966604e-02 2.15182249e-02 8.11071545e-02
      4.30364497e-02 1.32419849e-02 1.65524818e-02 9.43491459e-02
      1.25798851e-01 3.47602107e-02 2.48287208e-02 2.31734738e-02
      2.31734738e-02 2.97944658e-02 0. 8.11071545e-02 2.64839698e-02
      4.96574445e-03 7.94519112e-02 4.81677204e-01 1.48972329e-02
      6.12441786e-02 1.82077289e-02 1.98629778e-02 4.30364497e-02 0.
      3.50912601e-01 0. 3.23781312e-01 6.71350658e-01 1.29512534e-01
      1.24226302e-01 1.40084982e-01 2.64311279e-03 4.36113626e-02
      1.71802323e-02 8.98658335e-02 1.85017902e-02 7.92933814e-03
      5.15406989e-02 2.64311284e-02 2.64311279e-03 3.96466907e-03
      8.59011635e-02 2.16735244e-01 6.60778210e-03 2.64311279e-03 0. 0.
      3.96466907e-03 0. 1.71802323e-02 5.28622558e-03 3.96466907e-03
      2.64311284e-02 5.55053711e-01 3.96466907e-03 2.11449023e-02
      2.64311279e-03 1.32155640e-03 9.25089512e-03 0. 1.20261632e-01 0.</_>
    <_>
      3.83789212e-01 5.95022023e-01 8.33030865e-02 1.57680839e-01
      1.19004406e-01 1.78506617e-02 9.52035263e-02 2.67759915e-02
      8.03279728e-02 9.22284126e-02 1.48755508e-02 7.73528665e-02
      2.97511015e-02 1.48755508e-02 1.78506617e-02 9.52035263e-02
      1.21979520e-01 3.86764333e-02 2.38008816e-02 8.92533083e-03
      1.78506617e-02 2.67759915e-02 0. 7.14026466e-02 2.67759915e-02
      2.97511020e-03 8.33030865e-02 5.17669201e-01 1.78506617e-02
      5.35519831e-02 1.78506617e-02 5.95022039e-03 3.86764333e-02 0.
      3.27262133e-01 0. 3.33842099e-01 6.79779887e-01 1.16118982e-01
      1.08861551e-01 1.40310436e-01 4.83829109e-03 4.35446203e-02
      7.25743640e-03 7.49935135e-02 1.20957280e-02 7.25743640e-03
      5.08020557e-02 1.93531644e-02 2.41914554e-03 2.41914554e-03
      6.53169304e-02 2.24980533e-01 7.25743640e-03 2.41914554e-03 0. 0.
      4.83829109e-03 0. 2.66106017e-02 7.25743640e-03 2.41914554e-03
      2.17723101e-02 5.44307768e-01 4.83829109e-03 1.69340186e-02
      4.83829109e-03 2.41914554e-03 1.20957280e-02 0. 1.33053005e-01 0.</_>
    <_>
      4.27538693e-01 5.52350938e-01 1.50682434e-01 2.44632021e-01
      2.59155631e-01 2.26931367e-02 9.34957266e-02 3.90321948e-02
      1.79275781e-01 3.40397060e-02 1.22542940e-02 6.71716854e-02
      6.67178258e-02 1.63390581e-02 1.77006461e-02 1.08927056e-01
      1.70652390e-01 2.26931367e-02 2.04238240e-02 1.95160974e-02
      1.95160974e-02 3.13165300e-02 0. 3.94860581e-02 2.63240393e-02
      1.63390581e-02 9.62188989e-02 3.52651358e-01 1.31620197e-02
      7.03487247e-02 2.31470000e-02 3.40397060e-02 8.39646086e-02
      9.07725480e-04 3.39035481e-01 4.53862734e-03 3.17257524e-01
      6.62986875e-01 1.48275375e-01 1.54931128e-01 1.93756342e-01
      5.91622433e-03 5.69436587e-02 1.62696168e-02 1.53821826e-01
      3.29089984e-02 1.22022126e-02 5.62041327e-02 3.29089984e-02
      5.91622433e-03 1.84882013e-03 8.57852548e-02 1.85621545e-01
      7.76504446e-03 9.61386412e-03 8.50457232e-03 2.95811216e-03
      1.25719765e-02 0. 3.73461656e-02 1.07231569e-02 4.43716813e-03
      4.17833328e-02 5.23955643e-01 7.39528053e-03 3.06904130e-02
      4.80693206e-03 5.91622433e-03 1.29417405e-02 0. 1.49384663e-01
      7.39528041e-04</_>
    <_>
      4.27538693e-01 5.52350938e-01 1.50682434e-01 2.44632021e-01
      2.59155631e-01 2.26931367e-02 9.34957266e-02 3.90321948e-02
      1.79275781e-01 3.40397060e-02 1.22542940e-02 6.71716854e-02
      6.67178258e-02 1.63390581e-02 1.77006461e-02 1.08927056e-01
      1.70652390e-01 2.26931367e-02 2.04238240e-02 1.95160974e-02
      1.95160974e-02 3.13165300e-02 0. 3.94860581e-02 2.63240393e-02
      1.63390581e-02 9.62188989e-02 3.52651358e-01 1.31620197e-02
      7.03487247e-02 2.31470000e-02 3.40397060e-02 8.39646086e-02
      9.07725480e-04 3.39035481e-01 4.53862734e-03 3.17257524e-01
      6.62986875e-01 1.48275375e-01 1.54931128e-01 1.93756342e-01
      5.91622433e-03 5.69436587e-02 1.62696168e-02 1.53821826e-01
      3.29089984e-02 1.22022126e-02 5.62041327e-02 3.29089984e-02
      5.91622433e-03 1.84882013e-03 8.57852548e-02 1.85621545e-01
      7.76504446e-03 9.61386412e-03 8.50457232e-03 2.95811216e-03
      1.25719765e-02 0. 3.73461656e-02 1.07231569e-02 4.43716813e-03
      4.17833328e-02 5.23955643e-01 7.39528053e-03 3.06904130e-02
      4.80693206e-03 5.91622433e-03 1.29417405e-02 0. 1.49384663e-01
      7.39528041e-04</_>
    <_>
      4.27538693e-01 5.52350938e-01 1.50682434e-01 2.44632021e-01
      2.59155631e-01 2.26931367e-02 9.34957266e-02 3.90321948e-02
      1.79275781e-01 3.40397060e-02 1.22542940e-02 6.71716854e-02
      6.67178258e-02 1.63390581e-02 1.77006461e-02 1.08927056e-01
      1.70652390e-01 2.26931367e-02 2.04238240e-02 1.95160974e-02
      1.95160974e-02 3.13165300e-02 0. 3.94860581e-02 2.63240393e-02
      1.63390581e-02 9.62188989e-02 3.52651358e-01 1.31620197e-02
      7.03487247e-02 2.31470000e-02 3.40397060e-02 8.39646086e-02
      9.07725480e-04 3.39035481e-01 4.53862734e-03 3.17257524e-01
      6.62986875e-01 1.48275375e-01 1.54931128e-01 1.93756342e-01
      5.91622433e-03 5.69436587e-02 1.62696168e-02 1.53821826e-01
      3.29089984e-02 1.22022126e-02 5.62041327e-02 3.29089984e-02
      5.91622433e-03 1.84882013e-03 8.57852548e-02 1.85621545e-01
      7.76504446e-03 9.61386412e-03 8.50457232e-03 2.95811216e-03
      1.25719765e-02 0. 3.73461656e-02 1.07231569e-02 4.43716813e-03
      4.17833328e-02 5.23955643e-01 7.39528053e-03 3.06904130e-02
      4.80693206e-03 5.91622433e-03 1.29417405e-02 0. 1.49384663e-01
      7.39528041e-04</_>
    <_>
      4.27538693e-01 5.52350938e-01 1.50682434e-01 2.44632021e-01
      2.59155631e-01 2.26931367e-02 9.34957266e-02 3.90321948e-02
      1.79275781e-01 3.40397060e-02 1.22542940e-02 6.71716854e-02
      6.67178258e-02 1.63390581e-02 1.77006461e-02 1.08927056e-01
      1.70652390e-01 2.26931367e-02 2.04238240e-02 1.95160974e-02
      1.95160974e-02 3.13165300e-02 0. 3.94860581e-02 2.63240393e-02
      1.63390581e-02 9.62188989e-02 3.52651358e-01 1.31620197e-02
      7.03487247e-02 2.31470000e-02 3.40397060e-02 8.39646086e-02
      9.07725480e-04 3.39035481e-01 4.53862734e-03 3.17257524e-01
      6.62986875e-01 1.48275375e-01 1.54931128e-01 1.93756342e-01
      5.91622433e-03 5.69436587e-02 1.62696168e-02 1.53821826e-01
      3.29089984e-02 1.22022126e-02 5.62041327e-02 3.29089984e-02
      5.91622433e-03 1.84882013e-03 8.57852548e-02 1.85621545e-01
      7.76504446e-03 9.61386412e-03 8.50457232e-03 2.95811216e-03
      1.25719765e-02 0. 3.73461656e-02 1.07231569e-02 4.43716813e-03
      4.17833328e-02 5.23955643e-01 7.39528053e-03 3.06904130e-02
      4.80693206e-03 5.91622433e-03 1.29417405e-02 0. 1.49384663e-01
      7.39528041e-04</_>
    <_>
      4.32553709e-01 5.61822653e-01 1.52320370e-01 2.34582409e-01
      2.17858806e-01 2.84753218e-02 9.53697264e-02 3.02832797e-02
      1.79891720e-01 3.88710760e-02 1.40116662e-02 7.86461309e-02
      6.50864542e-02 1.49156451e-02 1.62716135e-02 1.17065214e-01
      1.64976075e-01 2.25994624e-02 1.71755906e-02 2.35034414e-02
      1.94355380e-02 2.98312902e-02 0. 4.29389775e-02 2.57633869e-02
      1.67236011e-02 9.26577970e-02 3.66111279e-01 1.08477417e-02
      6.68944046e-02 2.25994624e-02 3.70631181e-02 8.85898918e-02 0.
      3.35376024e-01 0. 3.29064786e-01 6.65076494e-01 1.38207212e-01
      1.56854212e-01 1.86835676e-01 6.58129575e-03 6.14254288e-02
      1.57219842e-02 1.45519763e-01 2.92502046e-02 1.13344537e-02
      5.08222282e-02 3.07127144e-02 5.11878589e-03 2.92502041e-03
      8.84818658e-02 1.93782598e-01 8.04380607e-03 1.06031988e-02
      4.38753050e-03 3.29064787e-03 1.02375718e-02 0. 3.43689881e-02
      8.77506100e-03 5.11878589e-03 4.16815393e-02 5.21384895e-01
      6.58129575e-03 2.77876947e-02 4.38753050e-03 4.75315796e-03
      1.31625915e-02 0. 1.39304101e-01 0.</_>
    <_>
      4.32553709e-01 5.61822653e-01 1.52320370e-01 2.34582409e-01
      2.17858806e-01 2.84753218e-02 9.53697264e-02 3.02832797e-02
      1.79891720e-01 3.88710760e-02 1.40116662e-02 7.86461309e-02
      6.50864542e-02 1.49156451e-02 1.62716135e-02 1.17065214e-01
      1.64976075e-01 2.25994624e-02 1.71755906e-02 2.35034414e-02
      1.94355380e-02 2.98312902e-02 0. 4.29389775e-02 2.57633869e-02
      1.67236011e-02 9.26577970e-02 3.66111279e-01 1.08477417e-02
      6.68944046e-02 2.25994624e-02 3.70631181e-02 8.85898918e-02 0.
      3.35376024e-01 0. 3.29064786e-01 6.65076494e-01 1.38207212e-01
      1.56854212e-01 1.86835676e-01 6.58129575e-03 6.14254288e-02
      1.57219842e-02 1.45519763e-01 2.92502046e-02 1.13344537e-02
      5.08222282e-02 3.07127144e-02 5.11878589e-03 2.92502041e-03
      8.84818658e-02 1.93782598e-01 8.04380607e-03 1.06031988e-02
      4.38753050e-03 3.29064787e-03 1.02375718e-02 0. 3.43689881e-02
      8.77506100e-03 5.11878589e-03 4.16815393e-02 5.21384895e-01
      6.58129575e-03 2.77876947e-02 4.38753050e-03 4.75315796e-03
      1.31625915e-02 0. 1.39304101e-01 0.</_>
    <_>
      4.32553709e-01 5.61822653e-01 1.52320370e-01 2.34582409e-01
      2.17858806e-01 2.84753218e-02 9.53697264e-02 3.02832797e-02
      1.79891720e-01 3.88710760e-02 1.40116662e-02 7.86461309e-02
      6.50864542e-02 1.49156451e-02 1.62716135e-02 1.17065214e-01
      1.64976075e-01 2.25994624e-02 1.71755906e-02 2.35034414e-02
      1.94355380e-02 2.98312902e-02 0. 4.29389775e-02 2.57633869e-02
      1.67236011e-02 9.26577970e-02 3.66111279e-01 1.08477417e-02
      6.68944046e-02 2.25994624e-02 3.70631181e-02 8.85898918e-02 0.
      3.35376024e-01 0. 3.29064786e-01 6.65076494e-01 1.38207212e-01
      1.56854212e-01 1.86835676e-01 6.58129575e-03 6.14254288e-02
      1.57219842e-02 1.45519763e-01 2.92502046e-02 1.13344537e-02
      5.08222282e-02 3.07127144e-02 5.11878589e-03 2.92502041e-03
      8.84818658e-02 1.93782598e-01 8.04380607e-03 1.06031988e-02
      4.38753050e-03 3.29064787e-03 1.02375718e-02 0. 3.43689881e-02
      8.77506100e-03 5.11878589e-03 4.16815393e-02 5.21384895e-01
      6.58129575e-03 2.77876947e-02 4.38753050e-03 4.75315796e-03
      1.31625915e-02 0. 1.39304101e-01 0.</_>
    <_>
      4.32553709e-01 5.61822653e-01 1.52320370e-01 2.34582409e-01
      2.17858806e-01 2.84753218e-02 9.53697264e-02 3.02832797e-02
      1.79891720e-01 3.88710760e-02 1.40116662e-02 7.86461309e-02
      6.50864542e-02 1.49156451e-02 1.62716135e-02 1.17065214e-01
      1.64976075e-01 2.25994624e-02 1.71755906e-02 2.35034414e-02
      1.94355380e-02 2.98312902e-02 0. 4.29389775e-02 2.57633869e-02
      1.67236011e-02 9.26577970e-02 3.66111279e-01 1.08477417e-02
      6.68944046e-02 2.25994624e-02 3.70631181e-02 8.85898918e-02 0.
      3.35376024e-01 0. 3.29064786e-01 6.65076494e-01 1.38207212e-01
      1.56854212e-01 1.86835676e-01 6.58129575e-03 6.14254288e-02
      1.57219842e-02 1.45519763e-01 2.92502046e-02 1.13344537e-02
      5.08222282e-02 3.07127144e-02 5.11878589e-03 2.92502041e-03
      8.84818658e-02 1.93782598e-01 8.04380607e-03 1.06031988e-02
      4.38753050e-03 3.29064787e-03 1.02375718e-02 0. 3.43689881e-02
      8.77506100e-03 5.11878589e-03 4.16815393e-02 5.21384895e-01
      6.58129575e-03 2.77876947e-02 4.38753050e-03 4.75315796e-03
      1.31625915e-02 0. 1.39304101e-01 0.</_>
    <_>
      4.23528969e-01 5.56107998e-01 1.49773598e-01 2.11311996e-01
      2.28054062e-01 2.89592464e-02 9.72849652e-02 3.80090103e-02
      1.81447774e-01 4.11764272e-02 1.08597176e-02 6.92306980e-02
      6.28958642e-02 1.22171817e-02 1.76470410e-02 1.15836985e-01
      1.68325618e-01 2.17194352e-02 1.71945523e-02 2.71492936e-02
      2.08144579e-02 3.48415934e-02 0. 4.57013100e-02 2.39818767e-02
      1.76470410e-02 9.27600861e-02 3.91402304e-01 9.95474122e-03
      6.33483529e-02 2.03619692e-02 4.02714536e-02 8.95926654e-02 0.
      3.35746258e-01 0. 3.32698673e-01 6.56247199e-01 1.36885926e-01
      1.55186176e-01 1.97276771e-01 6.22208742e-03 6.99069798e-02
      1.20781697e-02 1.38715953e-01 3.18424478e-02 1.17121646e-02
      5.81948161e-02 3.44044827e-02 4.02605673e-03 2.56203604e-03
      8.52791965e-02 2.03864872e-01 6.22208742e-03 9.15012881e-03
      4.02605673e-03 2.92804115e-03 8.41811858e-03 0. 3.03784274e-02
      1.13461595e-02 4.02605673e-03 3.66005152e-02 5.24485350e-01
      5.85608231e-03 2.41563395e-02 4.75806696e-03 6.22208742e-03
      9.15012881e-03 0. 1.39813960e-01 0.</_>
    <_>
      4.23528969e-01 5.56107998e-01 1.49773598e-01 2.11311996e-01
      2.28054062e-01 2.89592464e-02 9.72849652e-02 3.80090103e-02
      1.81447774e-01 4.11764272e-02 1.08597176e-02 6.92306980e-02
      6.28958642e-02 1.22171817e-02 1.76470410e-02 1.15836985e-01
      1.68325618e-01 2.17194352e-02 1.71945523e-02 2.71492936e-02
      2.08144579e-02 3.48415934e-02 0. 4.57013100e-02 2.39818767e-02
      1.76470410e-02 9.27600861e-02 3.91402304e-01 9.95474122e-03
      6.33483529e-02 2.03619692e-02 4.02714536e-02 8.95926654e-02 0.
      3.35746258e-01 0. 3.32698673e-01 6.56247199e-01 1.36885926e-01
      1.55186176e-01 1.97276771e-01 6.22208742e-03 6.99069798e-02
      1.20781697e-02 1.38715953e-01 3.18424478e-02 1.17121646e-02
      5.81948161e-02 3.44044827e-02 4.02605673e-03 2.56203604e-03
      8.52791965e-02 2.03864872e-01 6.22208742e-03 9.15012881e-03
      4.02605673e-03 2.92804115e-03 8.41811858e-03 0. 3.03784274e-02
      1.13461595e-02 4.02605673e-03 3.66005152e-02 5.24485350e-01
      5.85608231e-03 2.41563395e-02 4.75806696e-03 6.22208742e-03
      9.15012881e-03 0. 1.39813960e-01 0.</_>
    <_>
      4.23528969e-01 5.56107998e-01 1.49773598e-01 2.11311996e-01
      2.28054062e-01 2.89592464e-02 9.72849652e-02 3.80090103e-02
      1.81447774e-01 4.11764272e-02 1.08597176e-02 6.92306980e-02
      6.28958642e-02 1.22171817e-02 1.76470410e-02 1.15836985e-01
      1.68325618e-01 2.17194352e-02 1.71945523e-02 2.71492936e-02
      2.08144579e-02 3.48415934e-02 0. 4.57013100e-02 2.39818767e-02
      1.76470410e-02 9.27600861e-02 3.91402304e-01 9.95474122e-03
      6.33483529e-02 2.03619692e-02 4.02714536e-02 8.95926654e-02 0.
      3.35746258e-01 0. 3.32698673e-01 6.56247199e-01 1.36885926e-01
      1.55186176e-01 1.97276771e-01 6.22208742e-03 6.99069798e-02
      1.20781697e-02 1.38715953e-01 3.18424478e-02 1.17121646e-02
      5.81948161e-02 3.44044827e-02 4.02605673e-03 2.56203604e-03
      8.52791965e-02 2.03864872e-01 6.22208742e-03 9.15012881e-03
      4.02605673e-03 2.92804115e-03 8.41811858e-03 0. 3.03784274e-02
      1.13461595e-02 4.02605673e-03 3.66005152e-02 5.24485350e-01
      5.85608231e-03 2.41563395e-02 4.75806696e-03 6.22208742e-03
      9.15012881e-03 0. 1.39813960e-01 0.</_>
    <_>
      4.23528969e-01 5.56107998e-01 1.49773598e-01 2.11311996e-01
      2.28054062e-01 2.89592464e-02 9.72849652e-02 3.80090103e-02
      1.81447774e-01 4.11764272e-02 1.08597176e-02 6.92306980e-02
      6.28958642e-02 1.22171817e-02 1.76470410e-02 1.15836985e-01
      1.68325618e-01 2.17194352e-02 1.71945523e-02 2.71492936e-02
      2.08144579e-02 3.48415934e-02 0. 4.57013100e-02 2.39818767e-02
      1.76470410e-02 9.27600861e-02 3.91402304e-01 9.95474122e-03
      6.33483529e-02 2.03619692e-02 4.02714536e-02 8.95926654e-02 0.
      3.35746258e-01 0. 3.32698673e-01 6.56247199e-01 1.36885926e-01
      1.55186176e-01 1.97276771e-01 6.22208742e-03 6.99069798e-02
      1.20781697e-02 1.38715953e-01 3.18424478e-02 1.17121646e-02
      5.81948161e-02 3.44044827e-02 4.02605673e-03 2.56203604e-03
      8.52791965e-02 2.03864872e-01 6.22208742e-03 9.15012881e-03
      4.02605673e-03 2.92804115e-03 8.41811858e-03 0. 3.03784274e-02
      1.13461595e-02 4.02605673e-03 3.66005152e-02 5.24485350e-01
      5.85608231e-03 2.41563395e-02 4.75806696e-03 6.22208742e-03
      9.15012881e-03 0. 1.39813960e-01 0.</_>
    <_>
      4.20094579e-01 5.45671225e-01 1.52679533e-01 2.03723282e-01
      2.09595561e-01 2.80063041e-02 1.00732356e-01 4.06543128e-02
      1.82944402e-01 4.11060266e-02 1.44548668e-02 7.49846250e-02
      5.96263260e-02 1.17445793e-02 2.07788702e-02 1.09314933e-01
      1.86558127e-01 1.85202975e-02 1.35514373e-02 3.07165924e-02
      1.94237269e-02 3.56854536e-02 0. 4.11060266e-02 2.57477313e-02
      1.40031520e-02 8.62774849e-02 4.06994849e-01 9.93772130e-03
      6.09814674e-02 1.89720131e-02 4.51714583e-02 8.13086256e-02 0.
      3.47820222e-01 0. 3.41572940e-01 6.49983466e-01 1.28228024e-01
      1.55863374e-01 2.10028663e-01 7.00095575e-03 6.48509562e-02
      1.14226118e-02 1.47388533e-01 2.94777080e-02 7.36942701e-03
      6.26401305e-02 3.90579626e-02 4.42165602e-03 2.21082801e-03
      8.91700685e-02 2.14081854e-01 4.42165602e-03 6.63248403e-03
      4.05318476e-03 3.31624201e-03 7.73789827e-03 0. 2.98461784e-02
      1.06856693e-02 4.42165602e-03 4.27426770e-02 5.16596854e-01
      5.52707026e-03 2.57929936e-02 4.05318476e-03 6.63248403e-03
      9.58025455e-03 0. 1.37808278e-01 0.</_>
    <_>
      4.20094579e-01 5.45671225e-01 1.52679533e-01 2.03723282e-01
      2.09595561e-01 2.80063041e-02 1.00732356e-01 4.06543128e-02
      1.82944402e-01 4.11060266e-02 1.44548668e-02 7.49846250e-02
      5.96263260e-02 1.17445793e-02 2.07788702e-02 1.09314933e-01
      1.86558127e-01 1.85202975e-02 1.35514373e-02 3.07165924e-02
      1.94237269e-02 3.56854536e-02 0. 4.11060266e-02 2.57477313e-02
      1.40031520e-02 8.62774849e-02 4.06994849e-01 9.93772130e-03
      6.09814674e-02 1.89720131e-02 4.51714583e-02 8.13086256e-02 0.
      3.47820222e-01 0. 3.41572940e-01 6.49983466e-01 1.28228024e-01
      1.55863374e-01 2.10028663e-01 7.00095575e-03 6.48509562e-02
      1.14226118e-02 1.47388533e-01 2.94777080e-02 7.36942701e-03
      6.26401305e-02 3.90579626e-02 4.42165602e-03 2.21082801e-03
      8.91700685e-02 2.14081854e-01 4.42165602e-03 6.63248403e-03
      4.05318476e-03 3.31624201e-03 7.73789827e-03 0. 2.98461784e-02
      1.06856693e-02 4.42165602e-03 4.27426770e-02 5.16596854e-01
      5.52707026e-03 2.57929936e-02 4.05318476e-03 6.63248403e-03
      9.58025455e-03 0. 1.37808278e-01 0.</_>
    <_>
      4.20094579e-01 5.45671225e-01 1.52679533e-01 2.03723282e-01
      2.09595561e-01 2.80063041e-02 1.00732356e-01 4.06543128e-02
      1.82944402e-01 4.11060266e-02 1.44548668e-02 7.49846250e-02
      5.96263260e-02 1.17445793e-02 2.07788702e-02 1.09314933e-01
      1.86558127e-01 1.85202975e-02 1.35514373e-02 3.07165924e-02
      1.94237269e-02 3.56854536e-02 0. 4.11060266e-02 2.57477313e-02
      1.40031520e-02 8.62774849e-02 4.06994849e-01 9.93772130e-03
      6.09814674e-02 1.89720131e-02 4.51714583e-02 8.13086256e-02 0.
      3.47820222e-01 0. 3.41572940e-01 6.49983466e-01 1.28228024e-01
      1.55863374e-01 2.10028663e-01 7.00095575e-03 6.48509562e-02
      1.14226118e-02 1.47388533e-01 2.94777080e-02 7.36942701e-03
      6.26401305e-02 3.90579626e-02 4.42165602e-03 2.21082801e-03
      8.91700685e-02 2.14081854e-01 4.42165602e-03 6.63248403e-03
      4.05318476e-03 3.31624201e-03 7.73789827e-03 0. 2.98461784e-02
      1.06856693e-02 4.42165602e-03 4.27426770e-02 5.16596854e-01
      5.52707026e-03 2.57929936e-02 4.05318476e-03 6.63248403e-03
      9.58025455e-03 0. 1.37808278e-01 0.</_>
    <_>
      4.20094579e-01 5.45671225e-01 1.52679533e-01 2.03723282e-01
      2.09595561e-01 2.80063041e-02 1.00732356e-01 4.06543128e-02
      1.82944402e-01 4.11060266e-02 1.44548668e-02 7.49846250e-02
      5.96263260e-02 1.17445793e-02 2.07788702e-02 1.09314933e-01
      1.86558127e-01 1.85202975e-02 1.35514373e-02 3.07165924e-02
      1.94237269e-02 3.56854536e-02 0. 4.11060266e-02 2.57477313e-02
      1.40031520e-02 8.62774849e-02 4.06994849e-01 9.93772130e-03
      6.09814674e-02 1.89720131e-02 4.51714583e-02 8.13086256e-02 0.
      3.47820222e-01 0. 3.41572940e-01 6.49983466e-01 1.28228024e-01
      1.55863374e-01 2.10028663e-01 7.00095575e-03 6.48509562e-02
      1.14226118e-02 1.47388533e-01 2.94777080e-02 7.36942701e-03
      6.26401305e-02 3.90579626e-02 4.42165602e-03 2.21082801e-03
      8.91700685e-02 2.14081854e-01 4.42165602e-03 6.63248403e-03
      4.05318476e-03 3.31624201e-03 7.73789827e-03 0. 2.98461784e-02
      1.06856693e-02 4.42165602e-03 4.27426770e-02 5.16596854e-01
      5.52707026e-03 2.57929936e-02 4.05318476e-03 6.63248403e-03
      9.58025455e-03 0. 1.37808278e-01 0.</_>
    <_>
      4.05310154e-01 5.58146775e-01 1.65009469e-01 2.12799102e-01
      1.89355135e-01 2.52473503e-02 9.51284096e-02 4.37320173e-02
      1.81239903e-01 3.56167965e-02 1.71321314e-02 6.13149926e-02
      6.40200675e-02 1.21728294e-02 2.16405857e-02 1.09555468e-01
      1.93863586e-01 1.98372044e-02 1.80338211e-02 2.93049607e-02
      2.11897399e-02 3.74201797e-02 0. 3.69693339e-02 3.02066524e-02
      1.66812856e-02 8.61115009e-02 4.07113522e-01 1.30745210e-02
      5.90607673e-02 1.75829772e-02 4.73387837e-02 7.25861341e-02 0.
      3.48052770e-01 0. 3.27873915e-01 6.73678398e-01 1.28441676e-01
      1.45274490e-01 1.86990589e-01 6.58675237e-03 6.73312470e-02
      1.09779211e-02 1.58447996e-01 3.25678326e-02 1.06119905e-02
      6.69653192e-02 3.54952775e-02 4.02523763e-03 1.46372279e-03
      8.56277794e-02 2.16996908e-01 4.39116824e-03 5.48896054e-03
      4.39116824e-03 3.29337618e-03 8.05047527e-03 0. 3.00063174e-02
      1.06119905e-02 4.39116824e-03 3.95205170e-02 5.02056897e-01
      5.85489115e-03 2.59810798e-02 3.29337618e-03 8.41640588e-03
      1.02460599e-02 0. 1.38687730e-01 0.</_>
    <_>
      4.05310154e-01 5.58146775e-01 1.65009469e-01 2.12799102e-01
      1.89355135e-01 2.52473503e-02 9.51284096e-02 4.37320173e-02
      1.81239903e-01 3.56167965e-02 1.71321314e-02 6.13149926e-02
      6.40200675e-02 1.21728294e-02 2.16405857e-02 1.09555468e-01
      1.93863586e-01 1.98372044e-02 1.80338211e-02 2.93049607e-02
      2.11897399e-02 3.74201797e-02 0. 3.69693339e-02 3.02066524e-02
      1.66812856e-02 8.61115009e-02 4.07113522e-01 1.30745210e-02
      5.90607673e-02 1.75829772e-02 4.73387837e-02 7.25861341e-02 0.
      3.48052770e-01 0. 3.27873915e-01 6.73678398e-01 1.28441676e-01
      1.45274490e-01 1.86990589e-01 6.58675237e-03 6.73312470e-02
      1.09779211e-02 1.58447996e-01 3.25678326e-02 1.06119905e-02
      6.69653192e-02 3.54952775e-02 4.02523763e-03 1.46372279e-03
      8.56277794e-02 2.16996908e-01 4.39116824e-03 5.48896054e-03
      4.39116824e-03 3.29337618e-03 8.05047527e-03 0. 3.00063174e-02
      1.06119905e-02 4.39116824e-03 3.95205170e-02 5.02056897e-01
      5.85489115e-03 2.59810798e-02 3.29337618e-03 8.41640588e-03
      1.02460599e-02 0. 1.38687730e-01 0.</_>
    <_>
      4.05310154e-01 5.58146775e-01 1.65009469e-01 2.12799102e-01
      1.89355135e-01 2.52473503e-02 9.51284096e-02 4.37320173e-02
      1.81239903e-01 3.56167965e-02 1.71321314e-02 6.13149926e-02
      6.40200675e-02 1.21728294e-02 2.16405857e-02 1.09555468e-01
      1.93863586e-01 1.98372044e-02 1.80338211e-02 2.93049607e-02
      2.11897399e-02 3.74201797e-02 0. 3.69693339e-02 3.02066524e-02
      1.66812856e-02 8.61115009e-02 4.07113522e-01 1.30745210e-02
      5.90607673e-02 1.75829772e-02 4.73387837e-02 7.25861341e-02 0.
      3.48052770e-01 0. 3.27873915e-01 6.73678398e-01 1.28441676e-01
      1.45274490e-01 1.86990589e-01 6.58675237e-03 6.73312470e-02
      1.09779211e-02 1.58447996e-01 3.25678326e-02 1.06119905e-02
      6.69653192e-02 3.54952775e-02 4.02523763e-03 1.46372279e-03
      8.56277794e-02 2.16996908e-01 4.39116824e-03 5.48896054e-03
      4.39116824e-03 3.29337618e-03 8.05047527e-03 0. 3.00063174e-02
      1.06119905e-02 4.39116824e-03 3.95205170e-02 5.02056897e-01
      5.85489115e-03 2.59810798e-02 3.29337618e-03 8.41640588e-03
      1.02460599e-02 0. 1.38687730e-01 0.</_>
    <_>
      4.05310154e-01 5.58146775e-01 1.65009469e-01 2.12799102e-01
      1.89355135e-01 2.52473503e-02 9.51284096e-02 4.37320173e-02
      1.81239903e-01 3.56167965e-02 1.71321314e-02 6.13149926e-02
      6.40200675e-02 1.21728294e-02 2.16405857e-02 1.09555468e-01
      1.93863586e-01 1.98372044e-02 1.80338211e-02 2.93049607e-02
      2.11897399e-02 3.74201797e-02 0. 3.69693339e-02 3.02066524e-02
      1.66812856e-02 8.61115009e-02 4.07113522e-01 1.30745210e-02
      5.90607673e-02 1.75829772e-02 4.73387837e-02 7.25861341e-02 0.
      3.48052770e-01 0. 3.27873915e-01 6.73678398e-01 1.28441676e-01
      1.45274490e-01 1.86990589e-01 6.58675237e-03 6.73312470e-02
      1.09779211e-02 1.58447996e-01 3.25678326e-02 1.06119905e-02
      6.69653192e-02 3.54952775e-02 4.02523763e-03 1.46372279e-03
      8.56277794e-02 2.16996908e-01 4.39116824e-03 5.48896054e-03
      4.39116824e-03 3.29337618e-03 8.05047527e-03 0. 3.00063174e-02
      1.06119905e-02 4.39116824e-03 3.95205170e-02 5.02056897e-01
      5.85489115e-03 2.59810798e-02 3.29337618e-03 8.41640588e-03
      1.02460599e-02 0. 1.38687730e-01 0.</_>
    <_>
      4.08232331e-01 5.69376647e-01 1.70096800e-01 2.14859128e-01
      1.85315996e-01 2.82002594e-02 9.57913548e-02 3.80479693e-02
      1.59801468e-01 3.35717387e-02 1.88001730e-02 6.75911009e-02
      6.66958541e-02 1.38763180e-02 2.19335351e-02 1.00715213e-01
      1.99639931e-01 1.88001730e-02 1.88001730e-02 2.68573910e-02
      1.96954198e-02 3.26764919e-02 0. 3.89432162e-02 2.77526360e-02
      1.74573045e-02 7.69911855e-02 3.93013149e-01 1.29810721e-02
      6.22196198e-02 2.05906667e-02 4.29718234e-02 7.07244575e-02 0.
      3.52727056e-01 0. 3.43763649e-01 6.62104249e-01 1.34115726e-01
      1.54380456e-01 1.78698137e-01 6.26364630e-03 6.44787103e-02
      1.06850434e-02 1.54380456e-01 2.68968344e-02 1.17903929e-02
      6.63209632e-02 3.31604816e-02 4.05294774e-03 1.84224895e-03
      8.80594999e-02 2.25859717e-01 5.52674662e-03 5.89519646e-03
      6.63209613e-03 3.31604807e-03 9.57969390e-03 0. 3.05813309e-02
      1.10534932e-02 5.52674662e-03 4.34770733e-02 5.03670871e-01
      6.26364630e-03 2.80021839e-02 2.57914839e-03 6.63209613e-03
      1.28957424e-02 0. 1.35957971e-01 0.</_>
    <_>
      4.08232331e-01 5.69376647e-01 1.70096800e-01 2.14859128e-01
      1.85315996e-01 2.82002594e-02 9.57913548e-02 3.80479693e-02
      1.59801468e-01 3.35717387e-02 1.88001730e-02 6.75911009e-02
      6.66958541e-02 1.38763180e-02 2.19335351e-02 1.00715213e-01
      1.99639931e-01 1.88001730e-02 1.88001730e-02 2.68573910e-02
      1.96954198e-02 3.26764919e-02 0. 3.89432162e-02 2.77526360e-02
      1.74573045e-02 7.69911855e-02 3.93013149e-01 1.29810721e-02
      6.22196198e-02 2.05906667e-02 4.29718234e-02 7.07244575e-02 0.
      3.52727056e-01 0. 3.43763649e-01 6.62104249e-01 1.34115726e-01
      1.54380456e-01 1.78698137e-01 6.26364630e-03 6.44787103e-02
      1.06850434e-02 1.54380456e-01 2.68968344e-02 1.17903929e-02
      6.63209632e-02 3.31604816e-02 4.05294774e-03 1.84224895e-03
      8.80594999e-02 2.25859717e-01 5.52674662e-03 5.89519646e-03
      6.63209613e-03 3.31604807e-03 9.57969390e-03 0. 3.05813309e-02
      1.10534932e-02 5.52674662e-03 4.34770733e-02 5.03670871e-01
      6.26364630e-03 2.80021839e-02 2.57914839e-03 6.63209613e-03
      1.28957424e-02 0. 1.35957971e-01 0.</_>
    <_>
      4.08232331e-01 5.69376647e-01 1.70096800e-01 2.14859128e-01
      1.85315996e-01 2.82002594e-02 9.57913548e-02 3.80479693e-02
      1.59801468e-01 3.35717387e-02 1.88001730e-02 6.75911009e-02
      6.66958541e-02 1.38763180e-02 2.19335351e-02 1.00715213e-01
      1.99639931e-01 1.88001730e-02 1.88001730e-02 2.68573910e-02
      1.96954198e-02 3.26764919e-02 0. 3.89432162e-02 2.77526360e-02
      1.74573045e-02 7.69911855e-02 3.93013149e-01 1.29810721e-02
      6.22196198e-02 2.05906667e-02 4.29718234e-02 7.07244575e-02 0.
      3.52727056e-01 0. 3.43763649e-01 6.62104249e-01 1.34115726e-01
      1.54380456e-01 1.78698137e-01 6.26364630e-03 6.44787103e-02
      1.06850434e-02 1.54380456e-01 2.68968344e-02 1.17903929e-02
      6.63209632e-02 3.31604816e-02 4.05294774e-03 1.84224895e-03
      8.80594999e-02 2.25859717e-01 5.52674662e-03 5.89519646e-03
      6.63209613e-03 3.31604807e-03 9.57969390e-03 0. 3.05813309e-02
      1.10534932e-02 5.52674662e-03 4.34770733e-02 5.03670871e-01
      6.26364630e-03 2.80021839e-02 2.57914839e-03 6.63209613e-03
      1.28957424e-02 0. 1.35957971e-01 0.</_>
    <_>
      4.08232331e-01 5.69376647e-01 1.70096800e-01 2.14859128e-01
      1.85315996e-01 2.82002594e-02 9.57913548e-02 3.80479693e-02
      1.59801468e-01 3.35717387e-02 1.88001730e-02 6.75911009e-02
      6.66958541e-02 1.38763180e-02 2.19335351e-02 1.00715213e-01
      1.99639931e-01 1.88001730e-02 1.88001730e-02 2.68573910e-02
      1.96954198e-02 3.26764919e-02 0. 3.89432162e-02 2.77526360e-02
      1.74573045e-02 7.69911855e-02 3.93013149e-01 1.29810721e-02
      6.22196198e-02 2.05906667e-02 4.29718234e-02 7.07244575e-02 0.
      3.52727056e-01 0. 3.43763649e-01 6.62104249e-01 1.34115726e-01
      1.54380456e-01 1.78698137e-01 6.26364630e-03 6.44787103e-02
      1.06850434e-02 1.54380456e-01 2.68968344e-02 1.17903929e-02
      6.63209632e-02 3.31604816e-02 4.05294774e-03 1.84224895e-03
      8.80594999e-02 2.25859717e-01 5.52674662e-03 5.89519646e-03
      6.63209613e-03 3.31604807e-03 9.57969390e-03 0. 3.05813309e-02
      1.10534932e-02 5.52674662e-03 4.34770733e-02 5.03670871e-01
      6.26364630e-03 2.80021839e-02 2.57914839e-03 6.63209613e-03
      1.28957424e-02 0. 1.35957971e-01 0.</_>
    <_>
      4.22233611e-01 5.70037901e-01 1.67181075e-01 2.16749594e-01
      1.95119694e-01 2.70373709e-02 9.32789296e-02 3.92041877e-02
      1.35186851e-01 4.28091697e-02 1.66730452e-02 7.48033896e-02
      6.80440515e-02 1.44199310e-02 2.02780273e-02 1.05896369e-01
      1.81601003e-01 2.29817647e-02 1.89261585e-02 3.42473350e-02
      2.34323870e-02 3.01917307e-02 0. 3.74016948e-02 3.15435976e-02
      1.80249140e-02 7.88589939e-02 3.69060099e-01 1.57717988e-02
      6.44390658e-02 2.47842558e-02 4.50622849e-02 7.61552602e-02 0.
      3.68609488e-01 0. 3.32652003e-01 6.79420888e-01 1.32119671e-01
      1.57095715e-01 1.55647829e-01 3.61971697e-03 6.84126541e-02
      9.41126421e-03 1.53476000e-01 2.75098495e-02 1.26690092e-02
