<?xml version="1.0"?>
<opencv_storage>
<my_svm type_id="opencv-ml-svm">
  <svm_type>C_SVC</svm_type>
  <kernel><type>RBF</type>
    <gamma>1.</gamma></kernel>
  <C>1.</C>
  <term_criteria><epsilon>1.1920928955078125e-07</epsilon>
    <iterations>1000</iterations></term_criteria>
  <var_all>36</var_all>
  <var_count>36</var_count>
  <class_count>2</class_count>
  <class_labels type_id="opencv-matrix">
    <rows>1</rows>
    <cols>2</cols>
    <dt>i</dt>
    <data>
      -1 1</data></class_labels>
  <sv_total>337</sv_total>
  <support_vectors>
    <_>
      3.87926728e-01 6.09042525e-01 1.02521755e-01 1.70463726e-01
      1.01547673e-01 1.02278236e-02 5.91752641e-02 1.87510103e-02
      9.01022553e-02 5.06520793e-02 1.80204511e-02 1.01791196e-01
      3.31186652e-02 7.79262744e-03 6.81854878e-03 9.01022553e-02
      1.81422114e-01 1.43676568e-02 1.12019023e-02 1.31500587e-02
      4.62687248e-03 1.70463733e-02 0. 6.28280565e-02 2.94658728e-02
      1.16889412e-02 3.26316282e-02 5.58633983e-01 1.26630198e-02
      3.33621874e-02 9.98430420e-03 6.57502934e-03 1.87510103e-02 0.
      2.01147199e-01 9.74078430e-04</_>
    <_>
      3.41236979e-01 6.14710569e-01 9.43846926e-02 1.64568186e-01
      1.18931629e-01 9.68048163e-03 5.53170368e-02 1.41749904e-02
      9.74962786e-02 5.08225262e-02 1.93609633e-02 8.78157914e-02
      3.49188782e-02 6.91462960e-03 6.91462960e-03 8.22840929e-02
      1.73902929e-01 1.17548704e-02 1.41749904e-02 1.07176760e-02
      4.84024081e-03 1.52121847e-02 0. 5.53170368e-02 3.59560736e-02
      1.21006016e-02 2.83499807e-02 5.82557559e-01 8.98901839e-03
      3.49188782e-02 6.56889798e-03 7.95182399e-03 1.45207215e-02 0.
      2.16082171e-01 1.03719439e-03</_>
    <_>
      4.08705652e-01 6.08824670e-01 9.31442454e-02 1.68506414e-01
      9.85070989e-02 1.21369772e-02 6.29429296e-02 1.91933606e-02
      8.55233520e-02 4.91124205e-02 1.63708068e-02 1.10079564e-01
      3.47173996e-02 7.05638248e-03 7.62089295e-03 8.94749314e-02
      1.94756150e-01 1.74998287e-02 1.07257012e-02 1.49595309e-02
      5.36285061e-03 1.83465946e-02 2.82255292e-04 6.35074377e-02
      3.16125937e-02 1.04434462e-02 3.02013159e-02 5.44188201e-01
      1.43950200e-02 3.10480818e-02 1.01611903e-02 6.77412702e-03
      1.77820828e-02 0. 1.91933602e-01 2.82255292e-04</_>
    <_>
      4.05247539e-01 6.43984616e-01 9.25538689e-02 1.91595152e-01
      1.37100816e-01 2.11922415e-02 7.78490454e-02 2.72471663e-02
      9.21213701e-02 5.06018810e-02 1.94622613e-02 1.36235833e-01
      2.50846930e-02 1.08123673e-02 1.16773574e-02 6.57391921e-02
      1.69970423e-01 1.68672930e-02 1.29748415e-02 5.01693860e-02
      1.51373148e-02 3.41670811e-02 0. 5.96842691e-02 1.77322831e-02
      1.60023049e-02 4.80069108e-02 4.63201821e-01 2.03272514e-02
      3.45995761e-02 2.37872098e-02 2.68146712e-02 2.85446513e-02
      4.32494708e-04 2.37872094e-01 1.29748415e-03</_>
    <_>
      3.35602611e-01 5.93898416e-01 8.95849839e-02 1.77805722e-01
      1.62799105e-01 9.54966806e-03 5.54790236e-02 1.81898437e-02
      1.55977905e-01 4.91125770e-02 1.18233990e-02 1.08229570e-01
      3.59249413e-02 5.00220712e-03 7.27593759e-03 7.18498826e-02
      1.72348768e-01 2.41015442e-02 5.45695331e-03 2.41015442e-02
      5.00220712e-03 2.18278132e-02 0. 8.82207453e-02 2.95584965e-02
      4.09271475e-03 5.00220694e-02 5.73889554e-01 9.54966806e-03
      3.22869718e-02 1.59161128e-02 1.31876366e-02 2.68300194e-02
      9.09492199e-04 2.13730663e-01 1.36423833e-03</_>
    <_>
      3.95901173e-01 6.20185971e-01 1.05041042e-01 1.88777983e-01
      1.28416374e-01 1.98246483e-02 7.33807832e-02 2.60383431e-02
      1.00898579e-01 5.17807975e-02 2.24876590e-02 1.20131448e-01
      3.28438208e-02 9.46848840e-03 1.06520494e-02 7.01259896e-02
      1.91441000e-01 1.44986231e-02 1.50904031e-02 3.84657346e-02
      1.12438295e-02 2.98849158e-02 0. 5.23725748e-02 2.24876590e-02
      1.65698547e-02 4.29040864e-02 4.95616198e-01 1.92328673e-02
      3.78739536e-02 1.92328673e-02 2.72219032e-02 3.46191600e-02 0.
      2.45588914e-01 1.47945131e-03</_>
    <_>
      3.71988535e-01 6.45851433e-01 1.07869841e-01 1.76079139e-01
      1.51804149e-01 1.86336171e-02 7.02607036e-02 2.00012214e-02
      1.10605046e-01 4.41052578e-02 1.88045688e-02 1.13340259e-01
      3.79510373e-02 9.57323425e-03 7.69277802e-03 7.96629861e-02
      1.78301498e-01 1.45308021e-02 1.07698888e-02 3.60705815e-02
      1.00860866e-02 2.85487529e-02 0. 4.35924083e-02 1.45308021e-02
      1.60693582e-02 4.94047292e-02 4.97637242e-01 1.77788641e-02
      3.53867784e-02 1.82917155e-02 2.35911850e-02 3.36772725e-02 0.
      2.17791080e-01 6.83802471e-04</_>
    <_>
      3.23205292e-01 5.67910135e-01 1.37511134e-01 1.76490664e-01
      2.00852871e-01 7.57935364e-03 6.33417442e-02 1.78656187e-02
      1.30473167e-01 2.92346496e-02 1.35345599e-02 7.25452453e-02
      4.87244166e-02 4.87244176e-03 5.95520670e-03 8.55384246e-02
      2.12221906e-01 1.40759423e-02 1.51587073e-02 1.19104134e-02
      8.12073611e-03 2.16552969e-02 0. 4.54761237e-02 2.59863548e-02
      9.74488351e-03 6.44245073e-02 5.70617080e-01 7.03797117e-03
      3.95209156e-02 1.02862660e-02 1.89483836e-02 3.51898558e-02 0.
      2.51201451e-01 1.08276482e-03</_>
    <_>
      3.58192563e-01 6.84900165e-01 1.20760500e-01 1.92998722e-01
      1.29483610e-01 9.40459874e-03 8.76399577e-02 1.43113462e-02
      1.56061828e-01 4.34792340e-02 1.40387490e-02 7.44189993e-02
      2.79411990e-02 6.54232968e-03 6.81492686e-03 6.77403733e-02
      1.96815088e-01 1.06312856e-02 9.13200155e-03 1.66284218e-02
      7.22382218e-03 2.16714665e-02 0. 3.51650231e-02 1.81277059e-02
      1.22668678e-02 3.87087837e-02 4.57008988e-01 1.06312856e-02
      3.25753503e-02 8.31421092e-03 1.54017340e-02 2.34433487e-02
      1.36298535e-04 1.86456397e-01 5.45194140e-04</_>
    <_>
      4.37310994e-01 6.49820864e-01 8.53920877e-02 1.91808745e-01
      8.60389993e-02 1.22912852e-02 5.72515130e-02 2.87874844e-02
      1.45231247e-01 5.40169664e-02 1.94072928e-02 1.09651200e-01
      3.29923965e-02 7.43946200e-03 5.82218776e-03 8.05402622e-02
      1.60110161e-01 2.36122068e-02 1.39085595e-02 1.84369273e-02
      7.43946200e-03 2.45825704e-02 0. 7.92464465e-02 3.00813038e-02
      8.40982702e-03 3.75207663e-02 4.58012104e-01 1.13209207e-02
      4.33429554e-02 1.16443755e-02 1.74665637e-02 2.71702092e-02
      3.23454879e-04 1.94072932e-01 6.46909757e-04</_>
    <_>
      3.34808141e-01 6.63119733e-01 1.05845638e-01 1.68434009e-01
      1.11074537e-01 9.66554508e-03 7.06693903e-02 1.33099305e-02
      9.07927379e-02 4.35741767e-02 1.39437374e-02 1.00458287e-01
      3.53346951e-02 6.65496523e-03 5.70425577e-03 8.44546780e-02
      1.67007938e-01 1.37852849e-02 1.14085115e-02 1.28345760e-02
      5.22890128e-03 1.80634782e-02 3.16903112e-04 5.78348190e-02
      2.59860549e-02 1.10916086e-02 3.80283743e-02 5.39844453e-01
      1.15669640e-02 2.86797322e-02 7.44722318e-03 7.44722318e-03
      1.47359949e-02 0. 1.87289745e-01 4.75354667e-04</_>
    <_>
      3.59786272e-01 6.27161682e-01 1.12433210e-01 1.95602983e-01
      1.17053755e-01 1.17053753e-02 8.22456628e-02 1.75580624e-02
      1.13973394e-01 4.34331037e-02 1.35535924e-02 1.06272489e-01
      3.20357643e-02 4.92857909e-03 7.39286840e-03 8.47099498e-02
      1.96219057e-01 1.47857368e-02 1.38616282e-02 1.66339539e-02
      6.77679619e-03 2.37187874e-02 0. 5.66786602e-02 2.21786052e-02
      1.10893026e-02 4.92857918e-02 5.34750819e-01 1.17053753e-02
      3.11116558e-02 1.07812667e-02 8.93304963e-03 1.66339539e-02 0.
      1.92830652e-01 3.08036193e-04</_>
    <_>
      3.53116155e-01 6.18896723e-01 1.14830144e-01 1.91114008e-01
      1.33429393e-01 7.27796648e-03 7.57447630e-02 1.34777166e-02
      1.24803655e-01 4.12418097e-02 1.48254875e-02 9.29962397e-02
      3.82767133e-02 6.73885830e-03 6.19974919e-03 8.76051560e-02
      1.89496696e-01 1.32081620e-02 1.26690529e-02 1.32081620e-02
      5.66064101e-03 1.91383567e-02 0. 5.12153208e-02 2.74945404e-02
      9.43440106e-03 4.33982462e-02 5.49621284e-01 1.02430638e-02
      3.31551805e-02 9.43440106e-03 7.81707559e-03 1.88688021e-02 0.
      1.93540007e-01 1.34777161e-03</_>
    <_>
      3.62708658e-01 6.52790785e-01 1.16004601e-01 1.71816796e-01
      1.17417566e-01 1.00320661e-02 7.33329952e-02 1.31405937e-02
      9.50926840e-02 4.84647714e-02 1.59665290e-02 8.85930359e-02
      3.94217819e-02 7.06483563e-03 5.51057188e-03 7.79957846e-02
      1.68566972e-01 1.31405937e-02 1.44122643e-02 1.29992971e-02
      6.35835202e-03 1.54013410e-02 1.41296710e-04 5.60947955e-02
      2.47269236e-02 1.00320661e-02 4.06934544e-02 5.20819664e-01
      9.74947307e-03 3.64545509e-02 7.20613217e-03 7.34742917e-03
      1.99228358e-02 0. 2.11521178e-01 2.82593421e-04</_>
    <_>
      3.39248598e-01 6.98778331e-01 9.92986932e-02 1.89378679e-01
      8.87630209e-02 1.21160205e-02 8.50755423e-02 1.60668977e-02
      1.39334247e-01 4.55667749e-02 1.47499386e-02 9.45576429e-02
      3.05534452e-02 6.32140227e-03 8.16514436e-03 7.11157769e-02
      1.77789435e-01 1.15892375e-02 7.90175237e-03 2.23882999e-02
      4.74105170e-03 2.50222180e-02 0. 5.18881753e-02 1.84374228e-02
      1.18526295e-02 3.55578884e-02 4.77529258e-01 1.07990624e-02
      2.76561342e-02 1.07990624e-02 1.55401137e-02 2.10713409e-02 0.
      1.77526042e-01 5.26783522e-04</_>
    <_>
      3.58607799e-01 6.96423352e-01 9.06448364e-02 1.76383629e-01
      8.71405229e-02 1.26155186e-02 8.01319033e-02 1.65870711e-02
      1.27790526e-01 4.95275892e-02 1.58862080e-02 1.06998287e-01
      2.85017267e-02 6.07413845e-03 7.70948362e-03 7.07870722e-02
      1.64936215e-01 1.63534489e-02 1.09801730e-02 2.59318985e-02
      9.34482832e-03 2.73336228e-02 0. 6.30775914e-02 2.52310373e-02
      1.30827595e-02 3.87810394e-02 4.72614706e-01 1.00456905e-02
      3.76129337e-02 1.33163808e-02 1.00456905e-02 2.54646577e-02 0.
      1.87130183e-01 7.00862147e-04</_>
    <_>
      3.41046214e-01 6.31242335e-01 1.07837237e-01 1.92587376e-01
      1.25956237e-01 1.13974316e-02 7.65673593e-02 1.63655430e-02
      1.47874370e-01 4.26673070e-02 1.63655430e-02 1.04330339e-01
      4.03293744e-02 5.55259502e-03 5.26035298e-03 8.59190971e-02
      1.82651147e-01 1.63655430e-02 1.16896732e-02 1.87034775e-02
      7.30604585e-03 2.39638314e-02 2.92241835e-04 5.20190485e-02
      2.77629737e-02 9.93622281e-03 4.52974848e-02 5.36556005e-01
      9.64398030e-03 3.50690186e-02 1.02284644e-02 1.13974316e-02
      2.39638314e-02 0. 2.00185657e-01 5.84483671e-04</_>
    <_>
      3.40283573e-01 6.25609815e-01 8.30633193e-02 1.78172082e-01
      1.11922175e-01 9.78691690e-03 6.44932687e-02 1.80681534e-02
      1.26226127e-01 3.81438807e-02 1.33001693e-02 1.01633370e-01
      3.58853601e-02 6.02271780e-03 5.77177154e-03 7.07669333e-02
      1.96742117e-01 1.75662618e-02 1.05397562e-02 1.65624749e-02
      7.52839772e-03 2.13304590e-02 0. 6.02271818e-02 2.45927647e-02
      1.00378636e-02 3.53834666e-02 5.60865641e-01 9.28502344e-03
      3.61363068e-02 9.78691690e-03 1.15435431e-02 2.25851927e-02
      5.01893170e-04 2.01510102e-01 1.00378634e-03</_>
    <_>
      4.39602971e-01 6.58580482e-01 1.21539712e-01 1.78601578e-01
      1.24835707e-01 1.11239739e-02 7.95158148e-02 2.18359493e-02
      1.06707752e-01 5.89158610e-02 1.87459569e-02 8.91977921e-02
      4.14059013e-02 8.85797944e-03 4.94398829e-03 8.07518139e-02
      1.74481586e-01 1.68919601e-02 1.42139662e-02 1.73039585e-02
      7.20998319e-03 1.75099596e-02 0. 5.50018698e-02 2.92519312e-02
      1.29779698e-02 3.60499136e-02 4.34040993e-01 1.38019677e-02
      4.20239009e-02 1.19479718e-02 2.14239489e-02 3.00759301e-02 0.
      2.08677515e-01 1.02999760e-03</_>
    <_>
      4.01974380e-01 5.93640387e-01 1.09232165e-01 1.87005460e-01
      1.15931742e-01 1.01950020e-02 6.17525838e-02 2.38854326e-02
      1.06319308e-01 5.33052981e-02 1.77684315e-02 1.15349166e-01
      3.29152942e-02 8.73857364e-03 7.57342996e-03 7.74820149e-02
      1.91374749e-01 1.80597175e-02 1.01950020e-02 1.89335756e-02
      5.82571561e-03 1.86422896e-02 0. 6.78695887e-02 3.08762919e-02
      9.61243082e-03 4.01974358e-02 5.40917695e-01 1.25252884e-02
      3.90322953e-02 1.25252884e-02 1.31078595e-02 2.09725760e-02 0.
      2.14677617e-01 5.82571549e-04</_>
    <_>
      4.07475442e-01 6.57275021e-01 1.25264764e-01 1.85999185e-01
      1.05555266e-01 1.40156373e-02 8.07359144e-02 1.75195467e-02
      1.05847262e-01 5.56245595e-02 1.59135889e-02 9.98614132e-02
      3.24111618e-02 9.48975421e-03 6.42383378e-03 8.21958706e-02
      1.84393227e-01 1.38696413e-02 1.28476676e-02 1.78115387e-02
      7.29981111e-03 2.36513875e-02 0. 5.41645996e-02 2.51113512e-02
      1.28476676e-02 3.85430008e-02 4.65289950e-01 1.57675929e-02
      3.53310853e-02 1.18256938e-02 1.72275547e-02 2.51113512e-02
      2.91992445e-04 2.03664735e-01 2.91992445e-04</_>
    <_>
      3.83399546e-01 6.60587072e-01 1.06859677e-01 2.04328641e-01
      9.52022523e-02 1.39241396e-02 8.19257498e-02 2.00766660e-02
      1.08478762e-01 4.01533321e-02 1.65146776e-02 1.25641078e-01
      2.52577402e-02 6.47634361e-03 6.80016121e-03 8.16019326e-02
      1.82309076e-01 1.52194081e-02 1.29526872e-02 2.91435476e-02
      6.15252648e-03 2.72006448e-02 3.23817192e-04 5.99061809e-02
      2.49339230e-02 1.26288701e-02 3.65913436e-02 4.85078156e-01
      1.10097844e-02 2.72006448e-02 1.16574187e-02 9.71451588e-03
      2.20195688e-02 0. 1.80042356e-01 6.47634384e-04</_>
    <_>
      3.85147721e-01 6.34805381e-01 1.12236813e-01 1.80149734e-01
      1.09130777e-01 1.30117470e-02 7.14386851e-02 1.77127644e-02
      8.97390768e-02 5.19630425e-02 1.46906823e-02 1.04261868e-01
      3.16479281e-02 8.05888884e-03 5.20469854e-03 8.09246674e-02
      1.78638697e-01 1.50264688e-02 1.29278004e-02 1.98953804e-02
      6.96758041e-03 2.02311669e-02 0. 6.13650754e-02 2.39248257e-02
      1.20043857e-02 3.94549742e-02 5.22148788e-01 1.38512142e-02
      3.79439332e-02 1.10809719e-02 1.15846517e-02 2.29174644e-02
      2.51840276e-04 2.05921382e-01 3.35787016e-04</_>
    <_>
      4.31795806e-01 5.69079638e-01 1.25649586e-01 1.94790095e-01
      1.67865187e-01 1.66203156e-02 8.67580473e-02 2.12740041e-02
      1.56230971e-01 5.61766662e-02 3.02489754e-02 8.77552703e-02
      6.98053241e-02 1.92795657e-02 1.46258781e-02 7.21321702e-02
      1.79831818e-01 2.09415983e-02 1.66203156e-02 3.29082236e-02
      1.09694088e-02 2.16064099e-02 3.32406315e-04 5.05257584e-02
      2.52628792e-02 1.46258781e-02 6.11627623e-02 4.34122652e-01
      1.29638463e-02 5.68414815e-02 1.52906906e-02 3.58998813e-02
      5.61766662e-02 0. 3.38057220e-01 9.97219002e-04</_>
    <_>
      4.99310076e-01 6.06415629e-01 9.28661004e-02 1.75207376e-01
      1.16082624e-01 1.60967913e-02 6.65540397e-02 1.48585755e-02
      1.07105568e-01 3.71464416e-02 1.48585755e-02 9.50329751e-02
      3.43604572e-02 8.35794862e-03 8.35794862e-03 6.34585023e-02
      1.71183184e-01 1.95018817e-02 1.11439321e-02 2.60025077e-02
      8.35794862e-03 2.29069721e-02 0. 4.14801911e-02 1.98114347e-02
      1.36203617e-02 4.08610851e-02 4.65878278e-01 1.17630390e-02
      3.21935825e-02 1.67158972e-02 1.20725930e-02 3.09553668e-02 0.
      2.07710505e-01 9.28660971e-04</_>
    <_>
      3.19795966e-01 6.42786741e-01 9.87182409e-02 1.97436482e-01
      1.35458037e-01 1.05427243e-02 8.05080757e-02 1.18206302e-02
      1.31943792e-01 3.29060778e-02 8.62586591e-03 1.15650490e-01
      3.03502679e-02 7.02848285e-03 6.38952991e-03 7.98691288e-02
      2.02228621e-01 1.11816777e-02 9.58429463e-03 4.82409522e-02
      2.87528848e-03 2.36412603e-02 0. 4.95188572e-02 1.59738250e-02
      1.46959191e-02 3.96150872e-02 5.26177824e-01 1.85296368e-02
      3.06697451e-02 2.07659733e-02 1.34180132e-02 1.91685893e-02 0.
      2.09257111e-01 1.27790601e-03</_>
    <_>
      3.47315639e-01 6.56267643e-01 1.11458808e-01 1.83645979e-01
      1.70252755e-01 9.30715073e-03 7.51382187e-02 1.24852024e-02
      1.61626622e-01 4.31306995e-02 1.58902574e-02 5.92479594e-02
      4.01796512e-02 7.94512872e-03 6.12909952e-03 7.33221918e-02
      1.79105908e-01 9.08014737e-03 1.47552388e-02 1.08961761e-02
      8.39913636e-03 1.43012321e-02 2.27003678e-04 3.31425369e-02
      1.77062862e-02 8.17213207e-03 4.31306995e-02 4.99181092e-01
      6.58310670e-03 3.47315632e-02 9.76115838e-03 1.38472244e-02
      2.49704048e-02 0. 2.03395292e-01 6.81011006e-04</_>
    <_>
      3.22349846e-01 5.82210302e-01 9.69781354e-02 1.54686958e-01
      1.84736520e-01 7.17091840e-03 5.53185120e-02 2.01468654e-02
      1.24295920e-01 4.40499261e-02 1.94639210e-02 5.36111519e-02
      4.95134853e-02 8.19533505e-03 6.48797397e-03 7.27336034e-02
      1.54345483e-01 1.57077257e-02 2.15127543e-02 8.87827948e-03
      9.90269706e-03 8.19533505e-03 0. 4.23425660e-02 3.34642865e-02
      5.12208464e-03 4.67817038e-02 6.01674199e-01 5.12208464e-03
      4.47328724e-02 4.09766752e-03 1.33174201e-02 2.62933671e-02 0.
      2.50640661e-01 1.02441688e-03</_>
    <_>
      3.63770574e-01 6.45831227e-01 1.49262875e-01 1.87732697e-01
      1.53571501e-01 8.77111778e-03 7.46314377e-02 1.33874957e-02
      1.48185730e-01 3.55461091e-02 1.50801670e-02 7.06305802e-02
      3.72387804e-02 8.15560017e-03 6.46292884e-03 7.12460950e-02
      1.99581400e-01 1.04637891e-02 1.21564614e-02 1.26180993e-02
      6.61680801e-03 1.43107707e-02 1.53879257e-04 3.40073146e-02
      1.81577522e-02 1.26180993e-02 4.55482602e-02 4.88104999e-01
      1.01560308e-02 3.47767137e-02 9.69439279e-03 1.90810282e-02
      2.44668014e-02 1.53879257e-04 2.09275782e-01 3.07758513e-04</_>
    <_>
      3.62742037e-01 6.70256197e-01 1.39036790e-01 1.88677445e-01
      1.58162415e-01 9.88515094e-03 8.85365680e-02 1.52575150e-02
      1.44624054e-01 3.33086587e-02 1.35383587e-02 7.60726780e-02
      2.87958737e-02 8.59578326e-03 7.30641559e-03 8.74620900e-02
      1.99207276e-01 8.38088896e-03 8.81067757e-03 1.89107228e-02
      5.58725884e-03 1.76213551e-02 0. 3.09448186e-02 1.74064618e-02
      1.46128312e-02 4.36236002e-02 4.68255281e-01 1.33234635e-02
      2.36384030e-02 9.02557187e-03 1.50426207e-02 1.97703019e-02
      2.14894579e-04 1.72775239e-01 8.59578315e-04</_>
    <_>
      3.42429191e-01 6.60091817e-01 1.08135529e-01 1.64528787e-01
      1.03600815e-01 8.02295841e-03 6.59277886e-02 1.25576742e-02
      9.08105895e-02 4.66261804e-02 1.52319940e-02 9.37174633e-02
      2.99988892e-02 7.90668372e-03 4.76726517e-03 7.54623190e-02
      1.53715238e-01 1.60459168e-02 1.11623779e-02 1.58133674e-02
      4.88354033e-03 2.11620070e-02 0. 6.45324960e-02 3.01151648e-02
      8.13923310e-03 3.72079238e-02 5.44631004e-01 1.17437514e-02
      3.31383087e-02 9.65080503e-03 8.13923310e-03 1.76737644e-02 0.
      1.93016112e-01 9.30198119e-04</_>
    <_>
      3.90125155e-01 6.26119375e-01 8.78352001e-02 1.80702969e-01
      8.85062069e-02 1.46951173e-02 5.75726517e-02 2.02644989e-02
      5.98540828e-02 5.84449619e-02 2.19420232e-02 1.03000022e-01
      3.37517969e-02 7.85081554e-03 6.57589734e-03 6.01224899e-02
      1.36080816e-01 2.99941432e-02 1.36215016e-02 2.20091250e-02
      1.12729669e-02 1.97276920e-02 0. 8.34736302e-02 3.71068493e-02
      8.11921991e-03 3.58990319e-02 5.42243123e-01 1.34201981e-02
      4.01934944e-02 1.73120555e-02 1.53661268e-02 2.72430032e-02
      1.34201982e-04 2.30827406e-01 6.71009882e-04</_>
    <_>
      3.65392089e-01 6.02410436e-01 1.00807130e-01 1.90533593e-01
      2.01073751e-01 1.37832807e-02 7.54026547e-02 2.02695299e-02
      1.30806044e-01 4.40524481e-02 1.94587503e-02 9.70234871e-02
      6.78353608e-02 9.18885414e-03 7.02677062e-03 9.72937495e-02
      1.31887078e-01 1.97290108e-02 1.99992713e-02 1.81074478e-02
      9.72937513e-03 2.67557800e-02 0. 6.45922348e-02 2.75665615e-02
      1.24319792e-02 6.10788539e-02 5.15656888e-01 1.10806767e-02
      6.24301545e-02 1.64858848e-02 1.29725002e-02 4.10795808e-02
      2.70260411e-04 2.59179741e-01 5.40520821e-04</_>
    <_>
      3.98761123e-01 6.24037862e-01 1.07578963e-01 2.09299669e-01
      1.64697006e-01 1.10508092e-02 8.58767703e-02 2.09033377e-02
      1.31278291e-01 4.73986529e-02 1.94387734e-02 8.98710415e-02
      5.31237721e-02 9.05367546e-03 8.12167954e-03 8.84064734e-02
      1.59105033e-01 1.78410653e-02 1.63765009e-02 1.89062040e-02
      9.31996014e-03 2.42318958e-02 0. 4.92626429e-02 2.70278826e-02
      1.03850979e-02 5.25912009e-02 4.80510503e-01 9.85252857e-03
      5.28574847e-02 1.54445050e-02 1.35805132e-02 3.46169919e-02
      1.33142283e-04 2.32466429e-01 2.66284565e-04</_>
    <_>
      3.30656588e-01 4.21980798e-01 9.44733098e-02 1.60604626e-01
      2.83419937e-01 6.29822072e-03 5.98330982e-02 6.29822072e-03
      9.44733098e-02 5.03857657e-02 1.88946612e-02 5.35348766e-02
      5.35348766e-02 1.88946612e-02 9.44733061e-03 1.07069753e-01
      1.00771531e-01 1.57455523e-02 2.83419937e-02 9.44733061e-03
      1.57455523e-02 1.88946612e-02 0. 7.87277594e-02 2.51928829e-02
      2.51928829e-02 5.66839874e-02 6.77058756e-01 6.29822072e-03
      4.09384333e-02 1.25964414e-02 1.57455523e-02 3.14911045e-02 0.
      2.83419937e-01 0.</_>
    <_>
      3.44644219e-01 6.28892541e-01 4.82058600e-02 1.64564833e-01
      9.50265005e-02 6.09499402e-03 5.73483519e-02 1.32981688e-02
      1.18021250e-01 5.31926751e-02 1.13588525e-02 8.83774161e-02
      3.79551910e-02 6.37203921e-03 4.70976811e-03 5.09763137e-02
      1.51543722e-01 3.10290605e-02 1.44063495e-02 9.97362658e-03
      8.86544585e-03 1.88390724e-02 0. 9.50265005e-02 3.87863256e-02
      9.14249104e-03 2.88126990e-02 5.74868739e-01 1.02506718e-02
      3.68470103e-02 9.14249104e-03 8.03431030e-03 2.35488415e-02 0.
      2.14987069e-01 5.54090366e-04</_>
    <_>
      3.03870499e-01 6.66702569e-01 9.07353163e-02 1.56739533e-01
      8.66407603e-02 7.80694978e-03 6.50761127e-02 1.21744741e-02
      7.82332793e-02 4.58044112e-02 1.40306717e-02 8.99709985e-02
      2.84980964e-02 5.18643484e-03 3.98536585e-03 6.27831593e-02
      1.69951290e-01 1.46858003e-02 1.12463748e-02 1.18469093e-02
      6.82425639e-03 1.67057794e-02 0. 6.70414940e-02 2.83343140e-02
      8.40748381e-03 3.38483118e-02 5.66631675e-01 1.09188110e-02
      3.12823914e-02 1.21744741e-02 7.31560308e-03 1.83436014e-02
      5.45940529e-05 1.95446715e-01 7.09722692e-04</_>
    <_>
      3.63681316e-01 6.32661343e-01 7.65324309e-02 1.92143098e-01
      1.53673872e-01 1.34997526e-02 6.57732338e-02 2.06048861e-02
      1.20787263e-01 4.34428118e-02 1.37027567e-02 1.13580629e-01
      4.47623394e-02 6.90212939e-03 7.30813667e-03 7.06453249e-02
      1.69711173e-01 2.01988779e-02 1.27892392e-02 2.80145239e-02
      8.62766150e-03 2.67965011e-02 1.01501901e-04 6.60777390e-02
      2.80145239e-02 1.24847339e-02 4.54728529e-02 5.18979192e-01
      1.39057608e-02 4.09052670e-02 1.70523189e-02 1.58342961e-02
      3.28866169e-02 1.01501901e-04 2.19853118e-01 3.04505695e-04</_>
    <_>
      3.87004107e-01 6.48381114e-01 9.29225162e-02 1.78058222e-01
      1.30299166e-01 8.56548361e-03 7.21577033e-02 1.94670074e-02
      1.50285289e-01 4.25678566e-02 1.47949252e-02 8.35783482e-02
      4.15296145e-02 3.89340147e-03 5.71032194e-03 7.57915452e-02
      1.74683943e-01 1.73905268e-02 1.19397640e-02 1.09015238e-02
      4.15296154e-03 1.58331655e-02 0. 6.25539869e-02 2.90707313e-02
      5.96988201e-03 4.49038967e-02 5.03027439e-01 7.78680295e-03
      3.73766534e-02 9.34416335e-03 8.30592308e-03 1.97265670e-02 0.
      1.85845032e-01 5.19120193e-04</_>
    <_>
      2.94748545e-01 6.68443859e-01 1.05713695e-01 1.59039229e-01
      8.77996534e-02 8.54041707e-03 6.18659481e-02 9.58193094e-03
      8.14464167e-02 4.04107533e-02 1.11442022e-02 9.38404351e-02
      2.36423742e-02 6.24908553e-03 4.58266260e-03 7.51973316e-02
      1.76224217e-01 1.35396849e-02 1.05192941e-02 1.65600777e-02
      4.27020853e-03 1.77057423e-02 1.04151426e-04 5.78040406e-02
      2.38506757e-02 8.85287113e-03 3.25993970e-02 5.73145270e-01
      1.07275965e-02 2.64544617e-02 1.03109907e-02 7.91550800e-03
      1.29147768e-02 0. 1.67371348e-01 6.24908542e-04</_>
    <_>
      3.11661601e-01 6.32651687e-01 1.27114773e-01 1.66564181e-01
      1.01152338e-01 1.25878463e-02 6.59738034e-02 1.62967648e-02
      9.72186327e-02 4.55185510e-02 1.33745866e-02 9.44088474e-02
      2.50633005e-02 8.42936151e-03 6.51870621e-03 7.82244727e-02
      2.06800327e-01 1.09019736e-02 1.02276253e-02 2.29278635e-02
      7.41783809e-03 2.18039472e-02 1.12391484e-04 4.77663800e-02
      1.92189440e-02 1.38241528e-02 3.72015797e-02 5.71735501e-01
      1.41613269e-02 2.45013442e-02 1.14639318e-02 1.73082892e-02
      2.12419908e-02 1.12391484e-04 1.98483363e-01 6.74348907e-04</_>
    <_>
      3.20099026e-01 6.43469930e-01 1.03973113e-01 1.61776349e-01
      1.00519456e-01 1.19968979e-02 6.63464814e-02 1.27239823e-02
      8.59777629e-02 4.32615392e-02 1.30875241e-02 1.01973630e-01
      2.69021336e-02 8.90678726e-03 8.17970280e-03 7.05272183e-02
      1.91041499e-01 1.39963804e-02 1.12698125e-02 2.18125414e-02
      9.08855908e-03 1.98130589e-02 1.81771175e-04 5.41678108e-02
      1.85406599e-02 1.47234648e-02 4.18073684e-02 5.64944804e-01
      1.36328377e-02 2.70839054e-02 1.47234648e-02 1.67229474e-02
      2.45391093e-02 0. 2.04492569e-01 5.45313524e-04</_>
    <_>
      3.32836717e-01 6.57699704e-01 1.07921042e-01 1.61744073e-01
      1.02078177e-01 9.00487602e-03 6.44776672e-02 1.26480712e-02
      8.52369964e-02 4.74302657e-02 1.47102559e-02 9.36919600e-02
      2.88018566e-02 6.94269082e-03 4.33058944e-03 7.30701014e-02
      1.57138526e-01 1.59475673e-02 1.29230293e-02 1.57413483e-02
      6.04907749e-03 1.76660549e-02 0. 6.03532940e-02 3.07265632e-02
      1.00359693e-02 3.87003459e-02 5.52871943e-01 1.16169779e-02
      3.49884145e-02 1.17544569e-02 8.45496077e-03 1.80784930e-02 0.
      1.99550807e-01 4.12437075e-04</_>
    <_>
      3.46524119e-01 6.43953323e-01 1.04783431e-01 1.73420951e-01
      7.99182206e-02 1.00890789e-02 6.82403073e-02 1.69210546e-02
      8.47641528e-02 4.70294096e-02 1.23928851e-02 1.12727582e-01
      2.47857701e-02 6.67309156e-03 6.03755936e-03 8.02359805e-02
      1.96061790e-01 1.39022749e-02 1.08040534e-02 1.79537944e-02
      5.48146805e-03 2.25614049e-02 7.94415682e-05 6.14877753e-02
      2.59773936e-02 1.18367933e-02 3.70992124e-02 5.49417913e-01
      1.46172484e-02 3.04261204e-02 9.61242989e-03 9.85075440e-03
      1.46966903e-02 0. 1.85416624e-01 4.76649409e-04</_>
    <_>
      3.61820638e-01 6.41562819e-01 1.07533202e-01 1.89092189e-01
      1.09351389e-01 1.24676172e-02 7.11693168e-02 1.97403934e-02
      1.20520301e-01 4.85717580e-02 1.53247798e-02 1.02857843e-01
      3.19482684e-02 9.61045455e-03 9.87019669e-03 8.38966742e-02
      1.98442906e-01 1.29871015e-02 1.09091653e-02 1.84416845e-02
      5.97406644e-03 2.59742029e-02 2.59742024e-04 6.77926689e-02
      2.51949765e-02 1.45455534e-02 3.74028534e-02 5.16107380e-01
      1.42858112e-02 3.68833691e-02 1.01299388e-02 1.76624581e-02
      1.79222003e-02 5.19484049e-04 2.01040328e-01 2.07793619e-03</_>
    <_>
      4.06648844e-01 5.75315714e-01 8.96895975e-02 1.92612082e-01
      1.06283225e-01 1.86940841e-02 6.86850101e-02 3.10867932e-02
      9.13699642e-02 6.13334030e-02 1.99543592e-02 9.76713449e-02
      4.38995920e-02 1.21826623e-02 1.07123405e-02 7.20457435e-02
      1.59004748e-01 3.29772048e-02 2.26849560e-02 2.75160130e-02
      1.68036707e-02 3.42374817e-02 2.10045895e-04 8.40183571e-02
      4.05388586e-02 1.44931665e-02 4.09589484e-02 5.23644388e-01
      1.51233040e-02 5.12511991e-02 2.31050476e-02 2.52055079e-02
      4.28493619e-02 4.20091790e-04 3.03306282e-01 8.40183580e-04</_>
    <_>
      3.27081740e-01 6.87222123e-01 1.15062684e-01 1.86903849e-01
      1.35972559e-01 1.12142311e-02 8.83120745e-02 1.36673441e-02
      1.45317748e-01 3.56285460e-02 1.12142311e-02 9.24005955e-02
      3.83152887e-02 5.84074529e-03 4.20533679e-03 7.67473951e-02
      1.82348073e-01 8.52748845e-03 8.52748845e-03 2.20780186e-02
      5.84074529e-03 1.76390521e-02 2.33629820e-04 3.88993658e-02
      1.44850491e-02 1.07469717e-02 4.55578156e-02 4.84665066e-01
      1.15646757e-02 3.07223219e-02 1.07469717e-02 9.34519246e-03
      2.20780186e-02 0. 1.80829480e-01 2.33629820e-04</_>
    <_>
      3.29433143e-01 6.66833460e-01 9.65324342e-02 1.81392044e-01
      1.40629783e-01 1.44520728e-02 7.96716884e-02 1.64901856e-02
      1.27289414e-01 4.18739542e-02 1.31550925e-02 1.05611302e-01
      4.55796160e-02 6.85547059e-03 6.29962143e-03 7.59660229e-02
      1.63049027e-01 1.38962241e-02 1.24139600e-02 3.20539586e-02
      6.11433852e-03 2.35309396e-02 0. 5.24350852e-02 2.20486764e-02
      1.18581112e-02 4.70618792e-02 5.10639906e-01 1.40815070e-02
      3.40920687e-02 1.35256583e-02 1.31550925e-02 2.64954679e-02 0.
      2.08443359e-01 5.55848936e-04</_>
    <_>
      3.57856423e-01 6.58519566e-01 9.29612145e-02 1.88224331e-01
      1.22177601e-01 1.06241386e-02 7.52543211e-02 1.80610362e-02
      1.49977431e-01 4.69232798e-02 1.52279325e-02 8.03893209e-02
      3.43513824e-02 6.19741436e-03 4.42672474e-03 7.59625956e-02
      1.63080528e-01 2.35501751e-02 1.20406915e-02 1.50508638e-02
      6.72862120e-03 2.39043124e-02 0. 5.52455224e-02 3.18724178e-02
      8.85344949e-03 3.96634527e-02 5.06063163e-01 8.32224265e-03
      3.96634527e-02 1.27489669e-02 1.11553464e-02 2.39043124e-02 0.
      2.05754161e-01 3.54137970e-04</_>
    <_>
      3.60929340e-01 6.26485109e-01 1.14746325e-01 2.09523812e-01
      2.07437515e-01 1.78825445e-02 7.51066878e-02 1.37099503e-02
      1.22793473e-01 3.69572565e-02 1.22197382e-02 1.15640454e-01
      3.21885794e-02 9.53735691e-03 5.96084818e-03 8.34518746e-02
      1.71374381e-01 1.34119084e-02 9.83539969e-03 3.33807506e-02
      9.23931412e-03 3.04003246e-02 0. 5.15613370e-02 1.57962479e-02
      1.75845027e-02 6.10986911e-02 4.97730821e-01 1.46040777e-02
      3.36787924e-02 2.17570961e-02 1.93727557e-02 2.92081553e-02 0.
      2.08331645e-01 2.98042403e-04</_>
    <_>
      3.38268518e-01 6.39404476e-01 6.38498813e-02 1.92455322e-01
      1.72983363e-01 9.96239297e-03 6.56612292e-02 1.53964255e-02
      1.41284853e-01 3.39627042e-02 1.22265732e-02 1.16831698e-01
      6.06800318e-02 1.81134418e-03 6.33970462e-03 6.74725696e-02
      1.48077384e-01 1.85662769e-02 9.05672088e-03 3.26041952e-02
      5.88686857e-03 3.03400159e-02 0. 7.74349645e-02 2.17361301e-02
      8.60388484e-03 5.70573434e-02 5.21667123e-01 1.13209011e-02
      4.75477837e-02 1.67549327e-02 9.50955693e-03 4.61892784e-02 0.
      2.16002792e-01 0.</_>
    <_>
      3.53542000e-01 6.67729557e-01 1.01544127e-01 2.08918542e-01
      1.18387170e-01 1.10127600e-02 7.80610368e-02 1.65191405e-02
      1.42032221e-01 4.06500399e-02 1.61952358e-02 1.05269030e-01
      3.75729464e-02 5.02052298e-03 4.85857064e-03 7.69273713e-02
      1.81386635e-01 1.31181404e-02 6.64004637e-03 2.33211387e-02
      6.80199871e-03 2.25113779e-02 0. 6.36472777e-02 2.04059966e-02
      1.05269030e-02 4.55086119e-02 4.89258051e-01 1.37659498e-02
      3.14187557e-02 1.37659498e-02 8.09761789e-03 2.23494247e-02 0.
      1.78795397e-01 4.85857076e-04</_>
    <_>
      4.02935207e-01 6.69642448e-01 1.06613204e-01 2.04341978e-01
      1.18633322e-01 1.42847765e-02 8.76249075e-02 1.30653437e-02
      1.51383787e-01 4.72094417e-02 1.37621621e-02 1.09052069e-01
      3.36214863e-02 8.36182013e-03 5.40034194e-03 7.38627464e-02
      1.79430723e-01 1.32395485e-02 8.88443366e-03 2.22981870e-02
      6.61977427e-03 1.93367098e-02 0. 4.96483073e-02 2.07303464e-02
      1.34137534e-02 4.45963740e-02 4.40040797e-01 1.55042084e-02
      3.06600071e-02 1.08006839e-02 1.14975031e-02 2.40402333e-02 0.
      1.89708799e-01 5.22613758e-04</_>
    <_>
      3.43407989e-01 6.84463859e-01 8.09517652e-02 2.07573652e-01
      1.12705246e-01 1.07805012e-02 8.29118565e-02 1.76408198e-02
      1.48770913e-01 3.70457247e-02 1.45046748e-02 1.08981073e-01
      3.70457247e-02 5.88027341e-03 3.33215506e-03 6.82111755e-02
      1.69547886e-01 1.78368296e-02 1.19565558e-02 1.78368296e-02
      6.46830071e-03 2.31290758e-02 1.96009118e-04 7.09552988e-02
      2.03849487e-02 9.99646541e-03 4.31220047e-02 4.81986433e-01
      1.29366014e-02 3.07734311e-02 1.15645379e-02 7.44834635e-03
      2.25410480e-02 1.96009118e-04 1.75036147e-01 3.92018235e-04</_>
    <_>
      3.65062863e-01 6.64622664e-01 1.05791487e-01 2.00346053e-01
      1.26346827e-01 1.47998454e-02 9.26360711e-02 1.45257739e-02
      1.38680026e-01 3.89181115e-02 1.69924144e-02 1.00310065e-01
      3.28885466e-02 8.49620719e-03 7.12585123e-03 7.15325847e-02
      1.97605342e-01 1.47998454e-02 7.94806518e-03 2.43923366e-02
      7.67399371e-03 2.49404795e-02 2.74071208e-04 4.27551083e-02
      1.75405573e-02 1.64442733e-02 4.90587465e-02 4.69209909e-01
      1.39776319e-02 3.53551842e-02 1.34294890e-02 1.80887002e-02
      2.65849065e-02 0. 2.07471907e-01 2.74071208e-04</_>
    <_>
      3.38646680e-01 6.58904254e-01 1.16544135e-01 1.91294774e-01
      1.47351906e-01 1.02692582e-02 8.23928863e-02 1.55232968e-02
      1.71711549e-01 3.79723720e-02 1.28962770e-02 8.45422596e-02
      3.51065323e-02 8.59751832e-03 6.44813851e-03 9.36174169e-02
      1.79831415e-01 1.48068368e-02 9.07515828e-03 1.60009358e-02
      5.49285905e-03 2.00608764e-02 2.38819950e-04 3.98829319e-02
      1.98220555e-02 1.17021771e-02 4.48981524e-02 5.01760721e-01
      1.00304382e-02 3.10465936e-02 1.02692582e-02 1.28962770e-02
      2.31655352e-02 2.38819950e-04 1.80786699e-01 7.16459821e-04</_>
    <_>
      3.06935579e-01 6.62450910e-01 8.73804316e-02 1.86432615e-01
      1.12301201e-01 8.20177328e-03 5.36269769e-02 1.51417349e-02
      1.19556613e-01 3.40689048e-02 7.88632035e-03 8.70649740e-02
      2.74443943e-02 5.04724495e-03 2.83907540e-03 5.70969582e-02
      1.72237232e-01 1.23026595e-02 8.51722620e-03 1.26181124e-02
      4.73179203e-03 1.89271681e-02 3.15452809e-04 6.56141862e-02
      1.79808103e-02 3.46998079e-03 3.21761854e-02 5.62767804e-01
      9.46358405e-03 2.71289423e-02 1.16717536e-02 6.62450911e-03
      1.95580740e-02 0. 1.65612727e-01 6.30905619e-04</_>
    <_>
      3.42308104e-01 6.86672151e-01 7.70964250e-02 1.45969227e-01
      1.55220792e-01 1.02795232e-02 6.57889470e-02 1.74751896e-02
      1.69612125e-01 5.96212335e-02 2.46708542e-02 7.60684684e-02
      6.27050921e-02 3.08385678e-03 8.22361838e-03 7.91523233e-02
      1.82975516e-01 1.23354271e-02 4.11180919e-03 1.13074752e-02
      5.13976160e-03 1.64472368e-02 1.02795230e-03 5.75653277e-02
      1.74751896e-02 1.02795232e-02 3.70062813e-02 4.72858071e-01
      9.25157033e-03 3.70062813e-02 8.22361838e-03 1.43913319e-02
      1.74751896e-02 1.02795230e-03 2.03534558e-01 2.05590460e-03</_>
    <_>
      3.63209337e-01 6.54482365e-01 1.11662328e-01 1.80684373e-01
      1.53075561e-01 8.28264561e-03 7.73046911e-02 1.25773503e-02
      1.15036741e-01 4.54011671e-02 1.99397020e-02 6.54942542e-02
      5.00026383e-02 5.06161666e-03 6.74882205e-03 7.02491030e-02
      1.49394378e-01 1.34976441e-02 1.53382327e-02 9.81646869e-03
      7.05558667e-03 1.30374972e-02 1.53382323e-04 4.87755798e-02
      3.40508744e-02 8.43602791e-03 4.35605794e-02 5.08309007e-01
      8.43602791e-03 3.84989642e-02 6.90220436e-03 1.07367625e-02
      2.14735251e-02 0. 2.19950259e-01 6.13529293e-04</_>
    <_>
      4.48533863e-01 5.77126801e-01 9.71052721e-02 2.24156827e-01
      1.28152534e-01 1.98174026e-02 7.35445768e-02 3.08270697e-02
      9.68850777e-02 6.89205229e-02 2.86251362e-02 9.38023701e-02
      5.83512373e-02 1.10096680e-02 9.68850777e-03 6.36358783e-02
      1.38501614e-01 3.32491957e-02 2.31203027e-02 2.53222361e-02
      1.69548877e-02 2.46616565e-02 0. 8.16917345e-02 4.40386720e-02
      1.21106347e-02 4.60204110e-02 4.36863601e-01 1.62943080e-02
      7.17830360e-02 2.26799157e-02 2.59828158e-02 5.81310466e-02 0.
      3.42620850e-01 1.98174012e-03</_>
    <_>
      3.63015532e-01 5.94762087e-01 1.73404753e-01 1.65301725e-01
      1.86369583e-01 4.05151304e-03 5.59108779e-02 2.26884708e-02
      1.45854458e-01 3.72739173e-02 1.21545382e-02 8.02199543e-02
      3.48430090e-02 1.13442354e-02 5.67211770e-03 8.58920738e-02
      2.25264117e-01 1.29648410e-02 1.05339335e-02 1.37751438e-02
      4.05151304e-03 1.21545382e-02 0. 4.61872444e-02 2.10678671e-02
      6.48242049e-03 5.34799695e-02 5.29127598e-01 8.91332794e-03
      3.72739173e-02 1.05339335e-02 1.86369587e-02 2.99811941e-02 0.
      2.02575639e-01 0.</_>
    <_>
      2.89964646e-01 5.79929292e-01 8.78010020e-02 1.85193717e-01
      1.63058996e-01 8.11605901e-03 5.90258837e-02 1.47564709e-02
      2.02901483e-01 4.42694128e-02 1.47564709e-02 7.00932369e-02
      3.17264125e-02 5.16476482e-03 1.47564709e-03 7.82092959e-02
      1.76339835e-01 1.47564709e-02 9.59170610e-03 1.84455886e-02
      4.42694128e-03 1.91834122e-02 7.37823546e-04 5.75502366e-02
      2.50860006e-02 8.85388255e-03 5.16476482e-02 6.12393558e-01
      4.42694128e-03 2.28725299e-02 5.16476482e-03 4.42694128e-03
      3.39398831e-02 0. 1.90358475e-01 2.21347064e-03</_>
    <_>
      2.87978470e-01 6.69664204e-01 1.37132600e-01 1.46274775e-01
      1.90461949e-01 1.52369554e-03 5.40911928e-02 1.37132602e-02
      1.12753473e-01 2.51409765e-02 8.38032551e-03 3.65686938e-02
      5.48530407e-02 8.38032551e-03 3.04739107e-03 8.60887989e-02
      1.63797274e-01 1.06658684e-02 1.21895643e-02 3.04739107e-03
      3.80923878e-03 6.85663009e-03 7.61847768e-04 1.90461949e-02
      1.98080428e-02 8.38032551e-03 3.58068459e-02 5.56148887e-01
      2.28554336e-03 2.51409765e-02 1.52369554e-03 6.09478215e-03
      1.14277164e-02 7.61847768e-04 1.56178787e-01 0.</_>
    <_>
      3.40547055e-01 6.51912570e-01 1.37282580e-01 1.71495423e-01
      1.12988599e-01 1.38001349e-02 7.21632019e-02 1.53813995e-02
      9.15696397e-02 4.38441783e-02 1.56689025e-02 1.07669801e-01
      2.77440194e-02 1.13563603e-02 8.62508360e-03 8.10757875e-02
      1.94639400e-01 2.12752074e-02 1.25063714e-02 2.40064841e-02
      8.48133303e-03 2.81752739e-02 1.43751400e-04 5.44817820e-02
      2.18502134e-02 1.26501229e-02 4.37004268e-02 5.18511295e-01
      1.46626430e-02 3.19128111e-02 1.48063945e-02 1.78251732e-02
      2.47252416e-02 1.43751400e-04 2.14477092e-01 4.31254215e-04</_>
    <_>
      3.30089301e-01 6.86331630e-01 1.17762387e-01 1.94300562e-01
      1.02986686e-01 8.71766731e-03 8.23006928e-02 1.44801931e-02
      1.31060526e-01 4.13719825e-02 1.52189787e-02 9.91449952e-02
      2.54142173e-02 7.53561081e-03 6.94458280e-03 7.72769526e-02
      1.89276814e-01 1.49234645e-02 9.60421003e-03 1.97994485e-02
      5.61476871e-03 2.58574877e-02 1.47757077e-04 6.04326427e-02
      2.06859913e-02 1.00474814e-02 4.55091782e-02 4.84347701e-01
      1.16728088e-02 3.32453437e-02 1.22638373e-02 1.32981371e-02
      2.36411318e-02 2.95514154e-04 1.86617181e-01 2.95514154e-04</_>
    <_>
      3.31966668e-01 6.44030154e-01 8.81294683e-02 1.67464495e-01
      8.51671323e-02 1.35156531e-02 6.30421937e-02 1.25899240e-02
      6.71154037e-02 5.42477593e-02 1.51819671e-02 1.05903476e-01
      3.14748101e-02 5.46180503e-03 4.99894051e-03 6.06352948e-02
      1.52837977e-01 2.16620751e-02 1.16641941e-02 1.92551780e-02
      9.34986956e-03 2.02734806e-02 0. 7.46138096e-02 3.48074362e-02
      9.16472357e-03 3.28634046e-02 5.65343142e-01 1.21270586e-02
      3.33262682e-02 1.55522591e-02 1.17567675e-02 2.26803776e-02
      9.25729692e-05 2.22452849e-01 8.33156751e-04</_>
    <_>
      4.04641807e-01 6.20599508e-01 1.06491208e-01 1.75419167e-01
      1.89303935e-01 1.20252008e-02 6.04979172e-02 1.88436136e-02
      1.17400669e-01 4.46296111e-02 2.08271518e-02 7.92175606e-02
      6.00020327e-02 6.81841280e-03 7.06635509e-03 7.21512064e-02
      1.64881617e-01 1.06615182e-02 1.79758146e-02 2.52901129e-02
      8.43003765e-03 1.85956713e-02 2.47942284e-04 3.34722102e-02
      2.18189210e-02 1.52484505e-02 4.76049185e-02 4.92785275e-01
      1.07854893e-02 4.41337265e-02 1.23971142e-02 1.79758146e-02
      3.39680910e-02 0. 2.41495788e-01 3.71913426e-04</_>
    <_>
      3.50752562e-01 6.47049308e-01 1.03442281e-01 1.92378864e-01
      1.28173307e-01 1.47434976e-02 7.84734562e-02 1.56946909e-02
      1.02253288e-01 4.01879214e-02 1.04631269e-02 1.15569994e-01
      3.06759868e-02 8.32294207e-03 6.65835384e-03 6.32543638e-02
      1.80726737e-01 1.45056993e-02 6.65835384e-03 3.23405750e-02
      1.11765219e-02 2.40176339e-02 0. 5.16022407e-02 1.35545060e-02
      1.59324892e-02 4.28037010e-02 5.27912319e-01 1.42679010e-02
      2.47310288e-02 1.40301026e-02 1.92616656e-02 2.68712137e-02
      2.37798347e-04 1.91189870e-01 0.</_>
    <_>
      3.37920189e-01 6.52111411e-01 1.04854643e-01 1.61878675e-01
      9.75247547e-02 7.57835712e-03 6.27388582e-02 1.14296535e-02
      8.27407539e-02 4.48489636e-02 1.56536549e-02 9.35492292e-02
      3.03134285e-02 7.08141550e-03 4.84517915e-03 7.97590986e-02
      1.55666903e-01 1.63990669e-02 1.20508298e-02 1.44113023e-02
      4.09976672e-03 2.03745998e-02 2.48470722e-04 6.49750903e-02
      3.00649572e-02 8.07529874e-03 3.39162536e-02 5.60425699e-01
      1.08084762e-02 2.99407225e-02 9.31765232e-03 8.44800472e-03
      1.65233035e-02 0. 1.93310216e-01 7.45412195e-04</_>
    <_>
      4.05559778e-01 6.11574948e-01 1.25863373e-01 1.80967748e-01
      1.42352939e-01 1.12713473e-02 7.97343478e-02 2.21252367e-02
      1.13339663e-01 5.53130955e-02 2.25426946e-02 9.35104340e-02
      4.75901328e-02 9.81024653e-03 7.72296032e-03 7.91081637e-02
      1.56963944e-01 1.79506652e-02 1.79506652e-02 1.92030370e-02
      9.18406062e-03 1.89943071e-02 2.08728656e-04 5.88614792e-02
      2.92220116e-02 9.18406062e-03 5.36432639e-02 4.98652756e-01
      1.56546496e-02 4.67552170e-02 1.64895635e-02 1.39848199e-02
      2.77609117e-02 0. 2.57153690e-01 1.66982925e-03</_>
    <_>
      3.63948703e-01 6.03106260e-01 1.03634931e-01 1.82740882e-01
      1.93472311e-01 1.28777139e-02 6.74546883e-02 2.11562440e-02
      1.23871341e-01 4.84447330e-02 1.77835096e-02 9.75026861e-02
      6.77613020e-02 8.27853009e-03 6.13224460e-03 9.65828523e-02
      1.32763103e-01 2.23826934e-02 1.56372245e-02 1.93165708e-02
      7.97191821e-03 2.79017128e-02 0. 7.66530558e-02 3.06612235e-02
      9.50497948e-03 6.16290569e-02 5.34118533e-01 7.35869352e-03
      5.51902018e-02 1.50239989e-02 1.13446526e-02 3.46471816e-02 0.
      2.35171586e-01 6.13224460e-04</_>
    <_>
      3.19523752e-01 6.71040654e-01 1.01481393e-01 1.93996564e-01
      1.16764739e-01 1.03926733e-02 7.53978267e-02 1.26342298e-02
      1.39180303e-01 3.11780199e-02 1.40606752e-02 1.05760731e-01
      3.07704639e-02 5.90955932e-03 5.29822567e-03 6.13371506e-02
      1.96034342e-01 1.05964513e-02 7.74356024e-03 4.13669161e-02
      5.90955932e-03 1.89513452e-02 0. 4.25895825e-02 1.38568971e-02
      1.08002294e-02 3.97366919e-02 5.14742970e-01 1.56908985e-02
      2.50646826e-02 1.40606752e-02 1.26342298e-02 2.16004588e-02 0.
      1.80343449e-01 4.07555810e-04</_>
    <_>
      3.85821491e-01 6.31870031e-01 1.06034636e-01 2.01465800e-01
      1.89657405e-01 1.68691464e-02 7.06094280e-02 2.28938423e-02
      1.03383772e-01 4.24138531e-02 1.47002563e-02 1.09649450e-01
      3.44612561e-02 7.47062219e-03 8.91654845e-03 7.83210397e-02
      1.54473186e-01 1.44592682e-02 1.01214880e-02 3.30153294e-02
      9.15753655e-03 2.38577928e-02 2.40987807e-04 6.12109043e-02
      1.83150731e-02 1.37363048e-02 5.32583036e-02 4.93302047e-01
      1.44592682e-02 3.83170620e-02 2.12069266e-02 2.26528533e-02
      3.30153294e-02 2.40987807e-04 2.14479148e-01 4.81975614e-04</_>
    <_>
      3.88003796e-01 6.00653410e-01 1.15419678e-01 1.95114225e-01
      1.04427330e-01 2.65648458e-02 7.83859268e-02 2.04143655e-02
      9.84077081e-02 7.19737262e-02 2.02835035e-02 1.38189554e-01
      3.65103073e-02 1.58342198e-02 1.46564674e-02 6.22899868e-02
      1.72867790e-01 3.15375775e-02 1.47873284e-02 4.64557670e-02
      1.54416347e-02 3.67720276e-02 0. 7.90402368e-02 2.76117381e-02
      1.96291972e-02 4.68483493e-02 4.79999304e-01 1.76662765e-02
      4.76335175e-02 2.82660443e-02 3.55942771e-02 4.90729921e-02
      2.61722627e-04 3.11711639e-01 9.16029210e-04</_>
    <_>
      4.04911757e-01 6.11523151e-01 1.17351271e-01 1.84337914e-01
      1.30981311e-01 9.64075606e-03 6.21662550e-02 1.76193137e-02
      1.08541615e-01 4.73726802e-02 1.42949149e-02 9.22520608e-02
      3.12493481e-02 7.14745745e-03 5.31903794e-03 8.95925462e-02
      1.97136849e-01 1.24664949e-02 1.37962550e-02 1.42949149e-02
      5.31903794e-03 2.14423724e-02 0. 6.00053966e-02 2.55978703e-02
      1.21340556e-02 4.18874249e-02 5.24922550e-01 1.08042955e-02
      3.30777690e-02 9.14209615e-03 8.97587650e-03 1.69544332e-02 0.
      1.94477320e-01 8.31099693e-04</_>
    <_>
      3.37373495e-01 6.36656404e-01 1.00123748e-01 1.93717688e-01
      1.42204747e-01 9.79471393e-03 7.47300461e-02 1.81383602e-02
      1.94080457e-01 3.19235139e-02 1.37851536e-02 7.18279034e-02
      3.88160907e-02 5.44150779e-03 4.35320660e-03 7.61811137e-02
      2.29994401e-01 1.30596189e-02 7.98087846e-03 1.85011271e-02
      4.35320660e-03 1.85011271e-02 0. 4.38948311e-02 1.41479205e-02
      1.23340851e-02 4.20809947e-02 5.08599639e-01 1.41479205e-02
      3.04724444e-02 1.26968520e-02 1.23340851e-02 2.90213749e-02
      3.62767198e-04 1.91903844e-01 3.62767198e-04</_>
    <_>
      4.15936589e-01 5.97758412e-01 1.13556601e-01 1.77008271e-01
      1.27997324e-01 1.00647472e-02 5.90756871e-02 1.94730964e-02
      1.16182186e-01 4.96673360e-02 1.35655282e-02 9.27707106e-02
      2.99754422e-02 8.31435621e-03 4.59477585e-03 9.10203159e-02
      1.92542985e-01 1.57535169e-02 1.37843275e-02 1.33467298e-02
      5.90756861e-03 1.83791034e-02 4.37597686e-04 6.60772473e-02
      2.80062519e-02 1.00647472e-02 3.93837914e-02 5.36932349e-01
      1.22527350e-02 2.84438487e-02 9.18955170e-03 7.87675846e-03
      1.53159192e-02 0. 1.91230193e-01 1.09399424e-03</_>
    <_>
      3.63543034e-01 6.56657040e-01 1.13468975e-01 1.83217525e-01
      1.13979332e-01 1.70118399e-02 8.76109824e-02 1.42899463e-02
      1.23676084e-01 3.84467617e-02 1.56508945e-02 9.59467813e-02
      3.33432071e-02 5.95414452e-03 7.31509179e-03 7.43417442e-02
      1.88831434e-01 1.44600645e-02 1.15680518e-02 2.50074062e-02
      6.97485451e-03 2.24556290e-02 0. 5.49482442e-02 2.02440899e-02
      1.39497090e-02 4.57618535e-02 4.99807894e-01 1.34393545e-02
      2.87500117e-02 1.37795908e-02 1.10576963e-02 2.43269317e-02 0.
      2.03631729e-01 3.40236817e-04</_>
    <_>
      4.29658532e-01 5.86336851e-01 1.09499291e-01 1.97713152e-01
      1.56239465e-01 1.79938711e-02 8.33862349e-02 2.45769955e-02
      1.18276790e-01 5.81509247e-02 2.63324939e-02 8.73361081e-02
      6.18813634e-02 9.87468567e-03 8.33862368e-03 8.07529837e-02
      1.43950969e-01 2.45769955e-02 2.15048697e-02 1.99688077e-02
      1.05329975e-02 2.19437461e-02 0. 5.90286739e-02 3.31350565e-02
      1.25079351e-02 5.83703630e-02 4.70693350e-01 1.40439970e-02
      5.63954264e-02 1.75549965e-02 2.23826207e-02 4.67401780e-02
      2.19437454e-04 3.05237502e-01 1.31662469e-03</_>
    <_>
      4.06208515e-01 6.13850474e-01 1.10326886e-01 1.90584496e-01
      8.59434381e-02 1.68387908e-02 6.40748814e-02 2.16498747e-02
      7.44624436e-02 5.88264279e-02 2.09938176e-02 1.17106140e-01
      3.66298370e-02 1.13716517e-02 6.88859634e-03 7.27129653e-02
      1.42583013e-01 3.35682407e-02 1.64014194e-02 2.47114729e-02
      1.46519355e-02 2.60235872e-02 0. 8.35378990e-02 3.54270674e-02
      1.14809936e-02 4.04568352e-02 5.14676571e-01 1.56360213e-02
      4.66893762e-02 1.73855051e-02 1.53079918e-02 3.78326103e-02 0.
      2.54878074e-01 7.65399600e-04</_>
    <_>
      4.03959543e-01 6.51762009e-01 9.85672325e-02 1.93535104e-01
      9.81519222e-02 1.46743357e-02 6.25735819e-02 1.86890122e-02
      1.03827849e-01 4.02852036e-02 1.24593414e-02 1.17117807e-01
      2.82411743e-02 8.30622762e-03 6.36810809e-03 6.20198324e-02
      2.14715987e-01 1.10749705e-02 8.99841357e-03 2.83796117e-02
      5.12217358e-03 2.39496231e-02 1.38437128e-04 4.99758050e-02
      1.81352645e-02 1.45358983e-02 3.15636657e-02 4.82730269e-01
      1.43974610e-02 2.75489893e-02 1.02443472e-02 1.30130900e-02
      2.24268138e-02 1.38437128e-04 1.82183266e-01 8.30622739e-04</_>
    <_>
      3.39453429e-01 6.26803994e-01 9.51034576e-02 1.83615580e-01
      1.72159225e-01 1.28687844e-02 7.17199296e-02 2.22849678e-02
      1.28530905e-01 4.28436361e-02 1.60075128e-02 1.08129174e-01
      4.34713811e-02 7.68988347e-03 6.90520136e-03 8.86690617e-02
      1.40144199e-01 1.97739862e-02 1.20841023e-02 2.55806334e-02
      7.68988347e-03 2.57375687e-02 0. 6.87381402e-02 2.82485504e-02
      1.22410385e-02 5.85372746e-02 5.42215228e-01 1.06716752e-02
      3.90771627e-02 1.34965302e-02 1.23979757e-02 2.95040421e-02
      1.56936396e-04 2.14532048e-01 1.56936396e-04</_>
    <_>
      3.98752332e-01 6.63835824e-01 6.33405298e-02 2.10534006e-01
      8.38529468e-02 1.37500800e-02 7.61889666e-02 2.63731033e-02
      1.29385993e-01 5.25207967e-02 1.26230242e-02 1.29160583e-01
      3.51641402e-02 7.43856793e-03 7.66397920e-03 5.11683300e-02
      1.62972257e-01 2.81763934e-02 1.12705575e-02 2.36681700e-02
      7.43856793e-03 3.15575600e-02 0. 9.42218602e-02 3.38116735e-02
      1.14959683e-02 3.69674265e-02 4.62543666e-01 1.80328917e-02
      3.69674265e-02 1.71312466e-02 1.51025467e-02 3.33608501e-02
      2.25411146e-04 2.00165093e-01 6.76233438e-04</_>
    <_>
      3.92130077e-01 6.43404782e-01 1.44748375e-01 1.88102111e-01
      1.49791569e-01 1.18559189e-02 8.11334103e-02 1.70760620e-02
      1.15639448e-01 5.19360006e-02 1.82262622e-02 8.69728997e-02
      3.91953140e-02 1.04402862e-02 7.60902232e-03 7.40552545e-02
      1.85624763e-01 1.68106314e-02 1.32715506e-02 1.90225560e-02
      1.02633322e-02 2.06151418e-02 8.84770052e-05 5.04318923e-02
      2.36233603e-02 1.28291659e-02 4.76006269e-02 4.57426131e-01
      1.30945966e-02 4.06994224e-02 1.19443955e-02 2.32694522e-02
      3.14978138e-02 0. 2.47470185e-01 5.30862017e-04</_>
    <_>
      3.80487055e-01 6.49631560e-01 1.06215969e-01 1.80871531e-01
      1.17750734e-01 1.07337404e-02 6.44024387e-02 1.63409170e-02
      1.10221095e-01 4.48574200e-02 1.53796878e-02 8.33066404e-02
      3.79686020e-02 8.01025424e-03 5.44697279e-03 6.87279776e-02
      1.72060251e-01 1.74623542e-02 1.61807127e-02 1.71419438e-02
      9.93271451e-03 1.81031730e-02 1.60205076e-04 5.33482917e-02
      2.94777341e-02 1.12143550e-02 3.38032693e-02 5.02883732e-01
      1.05735352e-02 3.63665521e-02 1.39378412e-02 1.45786619e-02
      2.53124014e-02 1.60205076e-04 2.27971822e-01 4.80615243e-04</_>
    <_>
      3.03254932e-01 6.48055792e-01 8.00593048e-02 1.82862729e-01
      1.43742830e-01 1.00074131e-02 7.64202401e-02 1.57692563e-02
      1.42833069e-01 4.39719632e-02 1.24334525e-02 1.15236871e-01
      3.33580412e-02 5.15533378e-03 3.94231407e-03 7.58137330e-02
      1.50111184e-01 2.06213351e-02 1.12204328e-02 2.06213351e-02
      7.27811828e-03 2.09245905e-02 0. 7.21746758e-02 2.24408656e-02
      7.88462814e-03 4.54882383e-02 5.52833736e-01 1.06139220e-02
      3.45710628e-02 1.33432169e-02 9.70415771e-03 2.33506300e-02 0.
      1.97722211e-01 6.06509857e-04</_>
    <_>
      3.31266433e-01 6.23669207e-01 8.30148906e-02 1.80041850e-01
      1.33246839e-01 1.13682812e-02 6.79453090e-02 1.82421263e-02
      1.25051096e-01 4.17718254e-02 1.50695825e-02 1.12096548e-01
      4.36224751e-02 7.13822339e-03 6.08070893e-03 6.92672059e-02
      1.59684703e-01 2.14146692e-02 1.24257961e-02 2.11502910e-02
      7.40260212e-03 2.00927760e-02 0. 6.87384456e-02 2.67022438e-02
      9.25325230e-03 3.70130092e-02 5.66299081e-01 9.51763149e-03
      3.83349024e-02 1.32189319e-02 1.24257961e-02 2.72310004e-02
      2.64378643e-04 2.12031677e-01 7.93135958e-04</_>
    <_>
      3.03331554e-01 5.28467178e-01 1.34050205e-01 1.53814018e-01
      2.50055194e-01 4.29648068e-03 6.18693233e-02 2.66381819e-02
      1.35768801e-01 2.66381819e-02 9.45225824e-03 5.15577719e-02
      5.24170659e-02 4.29648068e-03 3.43718473e-03 1.07412025e-01
      1.58110499e-01 8.59296136e-03 9.45225824e-03 1.54673308e-02
      7.73366541e-03 1.46080349e-02 0. 3.69497351e-02 1.97638124e-02
      5.15577709e-03 6.61658049e-02 6.37597740e-01 9.45225824e-03
      3.86683270e-02 2.57788855e-03 1.54673308e-02 2.66381819e-02 0.
      2.07090378e-01 1.71859236e-03</_>
    <_>
      3.14078629e-01 6.61963880e-01 7.92561099e-02 1.93300739e-01
      1.54584482e-01 1.20637622e-02 7.58894756e-02 1.68331563e-02
      1.95685446e-01 3.07205096e-02 1.52901169e-02 8.43060538e-02
      5.41466512e-02 6.03188109e-03 6.59298617e-03 7.02784285e-02
      1.67770460e-01 1.57109462e-02 9.11796000e-03 2.18831021e-02
      5.75132854e-03 2.30053142e-02 0. 4.78342175e-02 1.94984060e-02
      1.15026571e-02 4.82550487e-02 5.05696058e-01 1.16429329e-02
      3.59107330e-02 1.17832096e-02 1.02401702e-02 3.01594045e-02 0.
      2.04803392e-01 1.40276301e-04</_>
    <_>
      3.88813943e-01 6.31118238e-01 7.74068907e-02 1.80912659e-01
      1.06174968e-01 1.03802346e-02 7.02890158e-02 1.80912651e-02
      1.23079926e-01 4.83422354e-02 2.22433601e-02 1.10920221e-01
      4.15209383e-02 7.41445320e-03 1.00836568e-02 7.17719048e-02
      1.83285281e-01 1.98707357e-02 1.54220629e-02 2.22433601e-02
      6.82129711e-03 1.63117964e-02 0. 6.49506077e-02 3.20304371e-02
      1.09733911e-02 3.44030634e-02 5.06852031e-01 8.89734365e-03
      4.62661870e-02 1.48289064e-02 1.36425942e-02 3.14372815e-02
      2.96578131e-04 2.36076191e-01 8.89734365e-04</_>
    <_>
      3.68406087e-01 6.00225568e-01 1.57064661e-01 1.73367575e-01
      1.71578228e-01 9.34435334e-03 7.75382519e-02 1.65017303e-02
      1.30224496e-01 4.23478112e-02 1.45135699e-02 8.46956223e-02
      2.92259548e-02 8.94672144e-03 8.15145671e-03 9.66245830e-02
      2.18697622e-01 1.41159380e-02 1.17301457e-02 1.41159380e-02
      5.36803249e-03 2.26650257e-02 1.98816022e-04 4.73182127e-02
      2.26650257e-02 1.59052815e-02 4.67217639e-02 5.22886157e-01
      1.55076496e-02 3.43951732e-02 1.23265935e-02 2.20685787e-02
      2.52496339e-02 0. 2.16311827e-01 5.96448081e-04</_>
    <_>
      4.55939800e-01 6.25292599e-01 1.30362287e-01 1.96921885e-01
      1.35613531e-01 1.37845315e-02 7.45677501e-02 2.00860314e-02
      9.47850645e-02 5.82888760e-02 2.32367814e-02 9.08466280e-02
      4.55545932e-02 1.45722190e-02 9.71481297e-03 8.29697549e-02
      1.63707718e-01 2.00860314e-02 1.73291247e-02 1.68040004e-02
      9.05840658e-03 1.99547503e-02 3.93843744e-04 5.15935309e-02
      2.86193136e-02 1.15527501e-02 4.26664054e-02 4.42811668e-01
      1.08963437e-02 4.81802188e-02 1.37845315e-02 2.17926875e-02
      3.19013447e-02 3.93843744e-04 2.37619072e-01 6.56406279e-04</_>
    <_>
      5.25431335e-01 5.37352860e-01 8.85285512e-02 2.33353317e-01
      1.00670874e-01 2.16354076e-02 6.24777563e-02 5.16600534e-02
      7.02046901e-02 7.13085383e-02 2.45054103e-02 1.27825513e-01
      5.40885180e-02 1.58954021e-02 1.14800120e-02 5.65169826e-02
      1.14358582e-01 5.18808253e-02 2.49469485e-02 3.68685015e-02
      3.04661859e-02 3.75308096e-02 0. 1.04644723e-01 4.76862043e-02
      1.45707848e-02 4.52577397e-02 3.81710410e-01 1.89861730e-02
      7.50616193e-02 4.08423506e-02 3.15700322e-02 7.30746910e-02
      2.20769463e-04 3.56321901e-01 3.09077254e-03</_>
    <_>
      4.11509156e-01 6.27263188e-01 1.40721828e-01 1.87434465e-01
      1.52983889e-01 1.44517226e-02 7.85356238e-02 1.37218377e-02
      1.36926427e-01 5.28436750e-02 1.88310333e-02 7.44482726e-02
      4.97781560e-02 1.00724129e-02 8.61264300e-03 7.69298822e-02
      1.77216083e-01 1.18241366e-02 1.53275849e-02 1.59114935e-02
      1.02183903e-02 2.13126410e-02 0. 4.33551669e-02 2.10206881e-02
      1.18241366e-02 4.65666614e-02 4.66396511e-01 1.29919527e-02
      4.17494215e-02 1.28459763e-02 2.02908032e-02 3.43045965e-02
      2.91953998e-04 2.40570098e-01 7.29885011e-04</_>
    <_>
      3.19383323e-01 6.88722908e-01 9.82286111e-02 1.93089396e-01
      1.35274842e-01 8.41959566e-03 7.35311359e-02 1.62778851e-02
      1.65585384e-01 4.93949614e-02 1.57165788e-02 8.08281153e-02
      3.42396870e-02 6.17437018e-03 7.29698269e-03 5.05175740e-02
      1.63340151e-01 2.07683351e-02 1.17874341e-02 1.29100466e-02
      5.05175721e-03 2.52587870e-02 5.61306369e-04 6.73567653e-02
      2.91879307e-02 7.85828941e-03 4.09753658e-02 4.87213939e-01
      7.85828941e-03 4.04140577e-02 1.17874341e-02 1.57165788e-02
      3.03105433e-02 0. 1.91405475e-01 1.68391911e-03</_>
    <_>
      3.19383323e-01 6.88722908e-01 9.82286111e-02 1.93089396e-01
      1.35274842e-01 8.41959566e-03 7.35311359e-02 1.62778851e-02
      1.65585384e-01 4.93949614e-02 1.57165788e-02 8.08281153e-02
      3.42396870e-02 6.17437018e-03 7.29698269e-03 5.05175740e-02
      1.63340151e-01 2.07683351e-02 1.17874341e-02 1.29100466e-02
      5.05175721e-03 2.52587870e-02 5.61306369e-04 6.73567653e-02
      2.91879307e-02 7.85828941e-03 4.09753658e-02 4.87213939e-01
      7.85828941e-03 4.04140577e-02 1.17874341e-02 1.57165788e-02
      3.03105433e-02 0. 1.91405475e-01 1.68391911e-03</_>
    <_>
      3.39501590e-01 6.98646188e-01 1.24308012e-01 1.88807443e-01
      1.35155648e-01 8.50219838e-03 9.26446468e-02 1.78839359e-02
      1.86755195e-01 3.69405895e-02 1.37794260e-02 7.76925087e-02
      3.51815112e-02 9.38173663e-03 6.15676446e-03 6.74312338e-02
      2.06691384e-01 9.38173663e-03 1.26067083e-02 1.37794260e-02
      5.86358551e-03 1.70043968e-02 0. 2.49202382e-02 1.72975771e-02
      1.14339916e-02 4.07519192e-02 4.25989479e-01 1.05544534e-02
      4.04587388e-02 9.08855721e-03 1.55385016e-02 2.57997755e-02 0.
      1.98775545e-01 5.86358539e-04</_>
    <_>
      3.76765013e-01 6.28278375e-01 1.11543223e-01 1.90619141e-01
      1.59594834e-01 1.06781349e-02 7.47469440e-02 1.68829970e-02
      1.21066958e-01 5.32463752e-02 1.87588856e-02 8.03746134e-02
      4.93502989e-02 9.09084454e-03 6.49346039e-03 7.74886310e-02
      1.74457639e-01 1.57286040e-02 1.50071084e-02 1.60172023e-02
      9.52374190e-03 1.90474838e-02 0. 4.79073077e-02 2.79940292e-02
      1.15439296e-02 4.37226333e-02 5.01439452e-01 1.13996305e-02
      4.08366509e-02 1.25540234e-02 1.80373900e-02 2.64067389e-02
      1.44299120e-04 2.42999718e-01 1.01009384e-03</_>
    <_>
      4.28290367e-01 5.93920231e-01 9.55429673e-02 1.98524401e-01
      1.46124542e-01 1.35545386e-02 6.92603886e-02 2.51254868e-02
      1.06122121e-01 6.54585063e-02 2.74396762e-02 8.87656957e-02
      6.19872175e-02 9.75265540e-03 7.76906498e-03 6.16566204e-02
      1.48108125e-01 2.69437786e-02 2.00012084e-02 2.08277050e-02
      1.45463338e-02 2.18195003e-02 0. 7.37234652e-02 3.68617326e-02
      1.10750496e-02 3.90106216e-02 4.71268177e-01 1.35545386e-02
      6.03342280e-02 1.95053108e-02 2.34724935e-02 4.03330177e-02
      9.91795445e-04 3.08613688e-01 1.32239400e-03</_>
    <_>
      3.57785821e-01 6.25247717e-01 1.33379936e-01 1.70819923e-01
      1.21679939e-01 1.47419935e-02 6.59879670e-02 1.80179924e-02
      8.65799561e-02 4.21199799e-02 1.12319943e-02 1.01087950e-01
      2.80799866e-02 1.07639953e-02 1.05299950e-02 7.83899650e-02
      1.69649914e-01 2.01239903e-02 1.42739937e-02 2.62079872e-02
      1.16999941e-02 2.76119877e-02 0. 5.73299713e-02 2.31659897e-02
      1.35719934e-02 5.66279739e-02 5.44517756e-01 1.42739937e-02
      3.34619842e-02 1.89539902e-02 2.41019893e-02 3.20579857e-02 0.
      2.22767889e-01 7.01999641e-04</_>
    <_>
      3.65992725e-01 6.18050337e-01 1.29847854e-01 1.78495333e-01
      1.37395024e-01 1.33666908e-02 7.12890178e-02 1.79131851e-02
      1.06115155e-01 4.24642488e-02 1.46397091e-02 9.33849737e-02
      3.18254530e-02 9.72949620e-03 8.72926787e-03 8.11094418e-02
      1.93225965e-01 1.73676051e-02 1.48215685e-02 2.18231678e-02
      7.09252991e-03 2.34599058e-02 0. 5.44669926e-02 2.23687477e-02
      1.26392515e-02 5.26483953e-02 5.31303227e-01 1.31848305e-02
      3.60991582e-02 1.37304105e-02 2.08229404e-02 3.35531197e-02
      9.09298687e-05 2.24233061e-01 4.54649329e-04</_>
    <_>
      3.22953433e-01 6.16001189e-01 1.44497558e-01 1.68114662e-01
      1.52323350e-01 9.36299469e-03 6.56807125e-02 1.24374107e-02
      9.40491855e-02 3.88494395e-02 1.46733494e-02 6.79166466e-02
      3.40980701e-02 7.68604036e-03 4.61162440e-03 8.77606049e-02
      1.80831566e-01 1.46733494e-02 1.09002031e-02 1.32758878e-02
      6.42832462e-03 1.48130963e-02 0. 4.66752276e-02 2.47350764e-02
      1.13194417e-02 4.37405556e-02 5.78130007e-01 1.04809646e-02
      3.31198461e-02 8.66426341e-03 1.06207104e-02 2.24991366e-02 0.
      2.01933250e-01 5.58984757e-04</_>
    <_>
      3.47607493e-01 6.63163722e-01 9.11974013e-02 1.66534379e-01
      1.03092715e-01 7.93020893e-03 5.88157140e-02 1.45387156e-02
      8.92148465e-02 3.79989184e-02 1.05736116e-02 8.29367638e-02
      3.07295583e-02 3.96510446e-03 4.95638046e-03 8.16150680e-02
      1.57282472e-01 1.58604179e-02 1.12344623e-02 1.51995663e-02
      7.26935780e-03 1.58604179e-02 0. 5.05550802e-02 2.24689245e-02
      1.09040374e-02 3.40338126e-02 5.52140772e-01 9.91276093e-03
      2.80861557e-02 7.26935780e-03 5.94765646e-03 1.61908437e-02
      3.30425362e-04 1.69838637e-01 6.60850725e-04</_>
    <_>
      3.13557178e-01 7.03927279e-01 7.53798336e-02 1.82287350e-01
      1.14932753e-01 1.08913826e-02 8.25452209e-02 1.03181526e-02
      1.26683980e-01 3.32473777e-02 9.17169079e-03 9.42964479e-02
      3.26741487e-02 3.43938405e-03 5.44569129e-03 6.56349137e-02
      1.71109363e-01 1.00315372e-02 9.17169079e-03 2.43623033e-02
      7.45199900e-03 2.23559961e-02 2.86615337e-04 4.64316830e-02
      2.17827652e-02 1.08913826e-02 3.43938395e-02 5.01576841e-01
      9.17169079e-03 2.78016869e-02 1.11779980e-02 7.45199900e-03
      1.94898434e-02 0. 1.67096749e-01 0.</_>
    <_>
      3.16922367e-01 6.69257581e-01 7.26187080e-02 1.92902774e-01
      1.26260921e-01 1.28502240e-02 7.56071284e-02 1.65857542e-02
      1.60627797e-01 2.95853987e-02 1.10571692e-02 1.06537320e-01
      4.93089966e-02 4.78147855e-03 5.37916319e-03 6.48488030e-02
      1.73179179e-01 1.28502240e-02 9.86179989e-03 3.39186117e-02
      8.06874502e-03 2.42062360e-02 0. 5.40904775e-02 1.82293877e-02
      1.37467505e-02 4.30333056e-02 5.12215912e-01 1.37467505e-02
      3.40680331e-02 1.64363328e-02 1.28502240e-02 2.64475532e-02 0.
      2.00075001e-01 4.48263600e-04</_>
    <_>
      3.55326384e-01 6.23757839e-01 9.02630091e-02 1.95345312e-01
      1.82546839e-01 1.02724694e-02 7.74645209e-02 1.81873236e-02
      1.50382221e-01 4.42894995e-02 1.31352888e-02 1.11144751e-01
      4.17634808e-02 7.91485328e-03 4.37842961e-03 6.95496723e-02
      1.68906346e-01 1.90293286e-02 1.19564803e-02 2.18921471e-02
      1.14512770e-02 2.71125827e-02 0. 6.44976348e-02 2.69441828e-02
      9.93566681e-03 4.54683080e-02 5.13791859e-01 1.02724694e-02
      3.99110690e-02 1.22932829e-02 1.34720914e-02 3.50274369e-02
      3.36802274e-04 2.23973513e-01 5.05203381e-04</_>
    <_>
      3.20203245e-01 6.22933209e-01 7.38930553e-02 1.69259310e-01
      1.17049970e-01 1.24207698e-02 6.56827167e-02 1.26312915e-02
      9.62083340e-02 5.11567295e-02 2.14731954e-02 6.04196787e-02
      4.98936027e-02 4.42095194e-03 3.99990892e-03 4.94725592e-02
      1.30944386e-01 2.69467551e-02 1.11576412e-02 1.01050334e-02
      7.99981784e-03 1.68417227e-02 0. 5.74723780e-02 3.76833528e-02
      5.47355972e-03 2.90519707e-02 5.83776176e-01 8.63138214e-03
      4.50516045e-02 1.15786837e-02 1.05260760e-02 2.42099762e-02 0.
      2.61257201e-01 6.31564588e-04</_>
    <_>
      3.96836162e-01 6.11862898e-01 1.01423524e-01 1.93103313e-01
      1.52799636e-01 1.35083739e-02 6.33343384e-02 2.32521184e-02
      1.43720239e-01 4.73900326e-02 1.86016951e-02 9.65516567e-02
      4.65042368e-02 8.63650069e-03 6.86491095e-03 8.48148689e-02
      1.94432005e-01 1.81587972e-02 1.37298219e-02 1.77158993e-02
      7.08635990e-03 1.94874890e-02 2.21448747e-04 5.97911626e-02
      2.43593622e-02 1.26225790e-02 4.09680195e-02 4.99809831e-01
      7.75070628e-03 3.96393239e-02 1.17367832e-02 1.48370657e-02
      3.05599272e-02 4.42897493e-04 2.29420900e-01 6.64346269e-04</_>
    <_>
      3.06602269e-01 6.41387224e-01 8.42382014e-02 1.93252340e-01
      1.59495130e-01 8.98127910e-03 7.15405345e-02 1.39364675e-02
      1.80554673e-01 3.00408304e-02 1.39364675e-02 8.51673037e-02
      6.56562448e-02 5.26488759e-03 4.95518837e-03 6.44174516e-02
      1.59185424e-01 1.11491736e-02 8.05218145e-03 1.73431598e-02
      5.57458680e-03 1.70334596e-02 3.09699273e-04 4.83130850e-02
      2.16789488e-02 8.98127910e-03 3.90221067e-02 5.46309531e-01
      8.36188067e-03 3.37572210e-02 1.14588728e-02 9.60067753e-03
      2.75632348e-02 3.09699273e-04 1.96659043e-01 3.09699273e-04</_>
    <_>
      3.49248856e-01 6.87420785e-01 8.86153802e-02 1.98515832e-01
      1.20325789e-01 1.23800905e-02 8.97013545e-02 1.71583705e-02
      1.41393661e-01 3.51855196e-02 1.34660630e-02 1.01864249e-01
      3.71402726e-02 4.12669685e-03 5.21266973e-03 6.79818988e-02
      1.91782802e-01 7.81900436e-03 9.33936611e-03 1.69411767e-02
      6.51583681e-03 2.34570131e-02 0. 3.62714939e-02 1.65067874e-02
      1.52036194e-02 4.25701365e-02 4.64796364e-01 1.34660630e-02
      3.40995453e-02 1.30316736e-02 1.73755661e-02 2.23710407e-02
      2.17194567e-04 1.93954751e-01 8.68778268e-04</_>
    <_>
      4.04676527e-01 6.10030055e-01 1.05374597e-01 1.78375065e-01
      1.03787631e-01 1.17435548e-02 6.79221824e-02 1.58696678e-02
      8.25222731e-02 4.66568246e-02 1.04739815e-02 1.28226921e-01
      2.92001888e-02 6.98265387e-03 3.80872050e-03 8.72831792e-02
      1.73931569e-01 1.39653077e-02 1.55522749e-02 2.03131754e-02
      4.76090051e-03 1.96783878e-02 0. 6.34786710e-02 2.69784369e-02
      1.30131282e-02 3.65002379e-02 5.50042689e-01 1.11087682e-02
      2.88827959e-02 1.26957344e-02 6.98265387e-03 1.58696678e-02 0.
      1.72027200e-01 6.34786731e-04</_>
    <_>
      4.04334456e-01 6.72684968e-01 8.89568701e-02 2.05044761e-01
      1.14443585e-01 1.16745615e-02 8.51749703e-02 1.77584887e-02
      1.26940295e-01 5.04801460e-02 1.56208919e-02 1.03097886e-01
      3.89700159e-02 6.41278736e-03 5.91949606e-03 8.02420527e-02
      1.63114995e-01 1.75940581e-02 1.20034227e-02 2.10470967e-02
      6.57721795e-03 2.92686187e-02 0. 6.14969842e-02 2.99263410e-02
      1.08524095e-02 3.81478630e-02 4.49881703e-01 1.36477267e-02
      3.71612795e-02 1.18389921e-02 1.05235483e-02 2.72954535e-02 0.
      1.89917162e-01 6.57721772e-04</_>
    <_>
      3.62684280e-01 6.33750677e-01 1.10553160e-01 1.94159895e-01
      1.61969841e-01 1.41286645e-02 7.41390735e-02 1.45656336e-02
      1.11572750e-01 3.83076146e-02 1.36916954e-02 1.15651131e-01
      3.40835825e-02 9.03069228e-03 6.40887860e-03 7.61782601e-02
      1.66776508e-01 1.52939148e-02 6.99150376e-03 3.52488309e-02
      8.73938017e-03 2.59268265e-02 0. 5.18536530e-02 1.73331033e-02
      1.71874482e-02 5.01057804e-02 5.23925841e-01 1.47112897e-02
      3.00052054e-02 2.02462301e-02 1.68961342e-02 2.73833908e-02 0.
      1.92994639e-01 8.73937970e-04</_>
    <_>
      3.54341239e-01 6.92816496e-01 1.23322293e-01 1.88949943e-01
      1.40630692e-01 1.12985335e-02 8.60611722e-02 1.37024773e-02
      1.51688829e-01 3.65399383e-02 1.68276038e-02 7.38010630e-02
      3.67803350e-02 7.45222438e-03 8.65419582e-03 7.30798766e-02
      1.83420882e-01 1.20197171e-02 1.25005059e-02 1.94719415e-02
      8.65419582e-03 1.97123364e-02 0. 3.10108699e-02 1.44236600e-02
      1.22601110e-02 4.32709791e-02 4.48575824e-01 1.05773509e-02
      3.84630933e-02 8.89459066e-03 1.32216886e-02 2.88473200e-02 0.
      1.93036646e-01 2.40394336e-04</_>
    <_>
      3.17240059e-01 6.82646453e-01 1.05230846e-01 1.94793135e-01
      1.11614339e-01 1.25735393e-02 8.08575302e-02 1.17997825e-02
      1.38502374e-01 3.48190293e-02 1.16063440e-02 1.13161847e-01
      3.01764943e-02 5.02941571e-03 6.57692784e-03 7.50543550e-02
      1.69065744e-01 1.04457093e-02 6.96380623e-03 2.61142738e-02
      6.57692784e-03 2.18586139e-02 0. 5.33891805e-02 1.74095146e-02
      1.58620030e-02 3.79140563e-02 5.14161050e-01 1.10260267e-02
      2.53405161e-02 1.08325873e-02 9.47851408e-03 1.74095146e-02 0.
      1.57072514e-01 0.</_>
    <_>
      3.36759865e-01 6.35123849e-01 8.24106410e-02 1.83176383e-01
      1.89731777e-01 1.10505177e-02 7.15474188e-02 1.91042852e-02
      1.65195882e-01 3.72720845e-02 1.38599714e-02 8.84041414e-02
      4.13926169e-02 5.43161063e-03 4.86971997e-03 7.36076906e-02
      1.66881546e-01 1.77932065e-02 9.92673635e-03 2.49104891e-02
      5.61890751e-03 2.35994104e-02 1.87296915e-04 5.80620430e-02
      2.32248176e-02 9.73943993e-03 5.22558391e-02 5.22183776e-01
      8.24106392e-03 4.58877459e-02 1.04886275e-02 1.01140337e-02
      2.62215678e-02 3.74593830e-04 2.13143885e-01 7.49187660e-04</_>
    <_>
      3.47792417e-01 6.24148607e-01 1.04909219e-01 1.75529033e-01
      1.44097090e-01 2.08185613e-02 7.06198215e-02 1.38790403e-02
      9.83779058e-02 4.12289128e-02 1.18380049e-02 1.12665147e-01
      5.22505045e-02 1.10215908e-02 4.89848480e-03 7.18444437e-02
      1.87775254e-01 1.30626261e-02 1.26544191e-02 4.12289128e-02
      7.75593426e-03 2.69416664e-02 4.08207066e-04 4.77602258e-02
      1.75529048e-02 1.51036615e-02 4.20453288e-02 5.35159469e-01
      1.18380049e-02 4.12289128e-02 1.67364888e-02 2.44924240e-02
      3.46975997e-02 4.08207066e-04 2.36760095e-01 4.08207066e-04</_>
    <_>
      3.88249189e-01 6.39881611e-01 1.06432348e-01 1.93695426e-01
      1.53783306e-01 1.40193151e-02 6.89521432e-02 1.55929113e-02
      1.09865651e-01 3.70510444e-02 1.05860131e-02 1.18019745e-01
      2.60358695e-02 7.29576591e-03 6.00827765e-03 7.49604180e-02
      1.61508232e-01 1.44484779e-02 7.29576591e-03 3.17580402e-02
      8.01103748e-03 2.44622733e-02 2.86108465e-04 5.46467155e-02
      1.75956711e-02 1.20165553e-02 5.03550917e-02 5.08843899e-01
      1.44484779e-02 2.53205989e-02 1.78817790e-02 1.65942907e-02
      2.60358695e-02 0. 1.82251096e-01 5.72216930e-04</_>
    <_>
      4.36828226e-01 6.34152830e-01 1.11132622e-01 1.90997735e-01
      1.06089473e-01 1.61380712e-02 6.65695444e-02 2.20981538e-02
      8.40830132e-02 5.91423623e-02 2.08144430e-02 1.06456250e-01
      3.72275934e-02 1.06364554e-02 6.14346983e-03 7.06957504e-02
      1.56062484e-01 2.44821869e-02 1.43958926e-02 2.18230728e-02
      1.16450852e-02 2.35652514e-02 1.83387165e-04 7.06957504e-02
      3.15425918e-02 1.27454083e-02 4.09870297e-02 4.69471157e-01
      1.48543604e-02 4.49298546e-02 1.81553289e-02 1.86137967e-02
      3.29179950e-02 2.75080733e-04 2.33085081e-01 1.19201653e-03</_>
    <_>
      4.01860237e-01 6.31276667e-01 1.26662284e-01 1.66085273e-01
      1.25136226e-01 1.01736765e-02 6.81636333e-02 2.41624825e-02
      1.00719400e-01 5.01053594e-02 1.85669605e-02 9.61412489e-02
      3.35731357e-02 9.91933513e-03 5.84986433e-03 8.85109901e-02
      2.09832087e-01 1.19540701e-02 1.32257799e-02 1.62778832e-02
      4.57815453e-03 2.18734052e-02 2.54341925e-04 5.69725931e-02
      2.92493217e-02 1.06823612e-02 3.99316810e-02 5.00799239e-01
      1.01736765e-02 3.30644511e-02 8.64762533e-03 1.01736765e-02
      2.16190629e-02 2.54341925e-04 2.01184466e-01 1.27170957e-03</_>
    <_>
      3.80159676e-01 6.71323717e-01 9.96751115e-02 1.81106120e-01
      9.30004343e-02 1.21627366e-02 8.23209584e-02 1.63158663e-02
      1.05459824e-01 4.67227064e-02 1.39426496e-02 1.14062734e-01
      3.02585158e-02 6.08136831e-03 4.89475997e-03 7.78711811e-02
      1.84962586e-01 1.30526926e-02 1.32010188e-02 2.19522566e-02
      8.30625929e-03 2.29905397e-02 0. 5.74021824e-02 2.61053853e-02
      1.21627366e-02 3.61915566e-02 4.85174537e-01 1.20144105e-02
      3.35216895e-02 1.06794760e-02 1.18660843e-02 2.31388640e-02 0.
      1.84814259e-01 4.44978185e-04</_>
    <_>
      3.50431293e-01 6.44898772e-01 8.71383324e-02 2.07704723e-01
      1.68267116e-01 1.42726572e-02 9.87818167e-02 2.29113717e-02
      1.41975388e-01 4.09399904e-02 1.35214655e-02 1.15308046e-01
      3.83108184e-02 7.88752176e-03 8.63871351e-03 7.81240240e-02
      1.79159418e-01 1.80286206e-02 1.31458687e-02 3.64328362e-02
      1.01410989e-02 3.07988934e-02 3.75596253e-04 5.70906289e-02
      2.40381602e-02 1.35214655e-02 4.95787039e-02 4.87523943e-01
      1.61506385e-02 3.98132019e-02 1.42726572e-02 1.27702728e-02
      3.53060476e-02 3.75596253e-04 2.14841053e-01 7.51192507e-04</_>
    <_>
      3.70379448e-01 6.43236578e-01 7.78125376e-02 2.03872949e-01
      1.22364834e-01 1.35504678e-02 6.65204823e-02 2.07363218e-02
      1.27292275e-01 4.72213291e-02 1.80672910e-02 1.14563048e-01
      4.27045040e-02 9.85488575e-03 6.36461377e-03 6.05664849e-02
      1.84163183e-01 2.25841124e-02 1.27292275e-02 3.18230689e-02
      1.06761260e-02 3.28496173e-02 0. 7.92497098e-02 2.75115557e-02
      1.14973672e-02 3.75717506e-02 4.91512418e-01 1.49876392e-02
      3.92142311e-02 1.78619809e-02 1.14973672e-02 3.03858984e-02
      2.05310120e-04 2.32000440e-01 6.15930359e-04</_>
    <_>
      3.61691236e-01 6.46847129e-01 9.39056948e-02 1.88164085e-01
      9.99015495e-02 1.41078979e-02 7.39782900e-02 1.74585246e-02
      1.00695118e-01 4.28527407e-02 1.19035393e-02 1.41696200e-01
      3.27126868e-02 7.14212330e-03 7.75934383e-03 6.77179098e-02
      1.84637114e-01 1.11981444e-02 1.09336209e-02 4.25000414e-02
      6.70125149e-03 2.55705640e-02 0. 5.86359501e-02 2.08091494e-02
      1.51659902e-02 3.97666357e-02 5.14673769e-01 1.63122565e-02
      3.16545963e-02 1.84284411e-02 1.40197240e-02 2.48651691e-02 0.
      2.06857055e-01 2.64523085e-04</_>
    <_>
      3.59117448e-01 6.62882566e-01 8.59441683e-02 1.62199438e-01
      6.93474337e-02 1.00477524e-02 6.27087429e-02 1.71350073e-02
      6.71046302e-02 4.92519289e-02 1.53407650e-02 1.08013339e-01
      2.72724722e-02 5.92099689e-03 5.11358818e-03 6.47721216e-02
      1.65429071e-01 1.91086717e-02 1.07654491e-02 1.95572320e-02
      8.61235894e-03 1.95572320e-02 0. 7.42816031e-02 3.14889401e-02
      9.86832846e-03 2.96946969e-02 5.36926806e-01 1.20214187e-02
      3.22066359e-02 1.26494030e-02 9.15063173e-03 1.99160818e-02 0.
      1.96648866e-01 3.58848309e-04</_>
    <_>
      3.48632365e-01 6.18714869e-01 1.25655904e-01 1.67501360e-01
      1.01983339e-01 8.96688178e-03 7.19741732e-02 1.62599459e-02
      1.14417411e-01 4.55517620e-02 1.08798165e-02 1.09276399e-01
      2.24769842e-02 8.60820711e-03 8.12997296e-03 8.79950002e-02
      2.31225997e-01 1.02820247e-02 9.68423299e-03 2.52268277e-02
      5.26057091e-03 2.17596330e-02 0. 4.86602783e-02 1.69772971e-02
      1.59012713e-02 4.11280990e-02 5.44349492e-01 1.57817118e-02
      2.37921271e-02 1.05211418e-02 1.60208289e-02 2.18791924e-02
      2.39116853e-04 2.07075194e-01 5.97792154e-04</_>
    <_>
      3.56964558e-01 6.09611988e-01 1.29181728e-01 1.73766568e-01
      1.60619766e-01 9.14560910e-03 7.77376741e-02 1.31468130e-02
      1.32325530e-01 4.05836403e-02 2.05776207e-02 6.63056672e-02
      4.80144471e-02 7.43080722e-03 6.85920659e-03 8.28820840e-02
      1.86341792e-01 1.31468130e-02 2.14350205e-02 1.11462111e-02
      4.85860463e-03 1.45758148e-02 0. 3.37244347e-02 3.28670330e-02
      1.08604105e-02 4.77286465e-02 5.30159533e-01 9.43140965e-03
      4.17268425e-02 6.85920659e-03 1.31468130e-02 2.37214230e-02 0.
      2.54362255e-01 1.71480165e-03</_>
    <_>
      3.25628787e-01 7.27806866e-01 8.12599882e-02 1.88036397e-01
      1.05206169e-01 1.29544903e-02 8.77372324e-02 1.47210117e-02
      1.56435296e-01 3.59192714e-02 1.15805296e-02 8.73446688e-02
      3.19936648e-02 4.90700407e-03 6.28096517e-03 6.12394102e-02
      1.75867021e-01 1.07954089e-02 9.02888738e-03 2.29647793e-02
      4.90700407e-03 2.47313008e-02 0. 4.45555970e-02 1.55061325e-02
      1.23656504e-02 3.14048268e-02 4.47322488e-01 1.27582103e-02
      2.68903822e-02 8.83260742e-03 1.07954089e-02 2.53201406e-02
      3.92560323e-04 1.65267900e-01 9.81400837e-04</_>
    <_>
      3.51144999e-01 6.35293007e-01 9.51087773e-02 1.94257587e-01
      1.13457203e-01 1.11100525e-02 7.74336979e-02 2.15467680e-02
      1.25408918e-01 5.13419099e-02 1.49817374e-02 1.05882168e-01
      3.41718271e-02 8.92170891e-03 6.56503066e-03 7.67603591e-02
      1.87524214e-01 2.07050983e-02 1.29617276e-02 2.18834355e-02
      7.57503556e-03 2.77751312e-02 0. 7.47403502e-02 2.64284573e-02
      1.26250591e-02 4.32618707e-02 5.25539160e-01 1.39717320e-02
      3.73701751e-02 1.38033982e-02 1.19517231e-02 2.86168009e-02
      1.68334125e-04 2.13447675e-01 0.</_>
    <_>
      3.42049867e-01 6.14944100e-01 1.42400503e-01 1.78722262e-01
      1.65733024e-01 8.90003145e-03 8.73165280e-02 1.44324843e-02
      1.51901886e-01 4.23352867e-02 1.46730253e-02 8.57530087e-02
      3.93285193e-02 9.50138550e-03 5.17163984e-03 8.92408565e-02
      2.15284556e-01 1.31095061e-02 1.46730253e-02 1.56351905e-02
      7.45678321e-03 1.82811469e-02 0. 4.42596190e-02 2.12879144e-02
      1.04635507e-02 5.60461469e-02 5.14518023e-01 1.09446337e-02
      3.57203968e-02 1.09446337e-02 1.94838531e-02 3.03082168e-02 0.
      2.33685970e-01 8.41894886e-04</_>
    <_>
      4.11057979e-01 6.47391498e-01 1.55678689e-01 1.96420133e-01
      1.60978392e-01 1.12618627e-02 7.48582631e-02 1.82177182e-02
      1.28352106e-01 4.73660678e-02 1.70584098e-02 8.77762809e-02
      3.69322859e-02 1.04337847e-02 7.45270308e-03 8.16484988e-02
      1.84495807e-01 1.30836340e-02 1.10962465e-02 2.53391899e-02
      9.44009051e-03 2.11987998e-02 0. 3.97477485e-02 1.82177182e-02
      1.72240250e-02 5.15064597e-02 4.39047009e-01 1.27524026e-02
      3.66010517e-02 1.24211721e-02 2.16956474e-02 3.41168195e-02
      1.65615624e-04 2.13975385e-01 3.31231247e-04</_>
    <_>
      3.60739738e-01 5.83307922e-01 1.07176296e-01 1.81490168e-01
      1.78129241e-01 1.04562240e-02 5.37748672e-02 2.31530685e-02
      1.38171539e-01 4.55592610e-02 1.56843364e-02 8.88779014e-02
      4.03311513e-02 8.58904142e-03 5.60154859e-03 9.93341282e-02
      1.81490168e-01 1.53108994e-02 9.33591463e-03 1.30702797e-02
      4.10780217e-03 1.97921377e-02 0. 5.19076847e-02 2.87546162e-02
      6.72185840e-03 4.85467538e-02 5.69117367e-01 7.84216821e-03
      3.80905308e-02 7.46873161e-03 1.04562240e-02 2.68874336e-02 0.
      2.07257301e-01 1.12030969e-03</_>
    <_>
      3.57785583e-01 6.84186459e-01 1.35119393e-01 2.01522812e-01
      1.38423041e-01 7.59840105e-03 7.89572969e-02 1.35449758e-02
      1.39414147e-01 3.46883535e-02 9.58059262e-03 9.67970192e-02
      2.54381262e-02 1.05716884e-02 6.93767052e-03 9.61362943e-02
      1.77075773e-01 1.25538800e-02 1.22235147e-02 1.55271674e-02
      5.28584421e-03 1.98219158e-02 3.30365263e-04 3.60098146e-02
      1.78397242e-02 1.48664368e-02 4.95547876e-02 4.56895173e-01
      1.38753410e-02 2.57684905e-02 1.25538800e-02 1.35449758e-02
      2.18041074e-02 0. 1.79388344e-01 3.30365263e-04</_>
    <_>
      3.24368775e-01 6.00382566e-01 7.05802441e-02 1.76901117e-01
      1.69993266e-01 9.91126802e-03 6.63754642e-02 1.74198039e-02
      1.91617846e-01 4.38498519e-02 1.53174149e-02 9.55085829e-02
      5.25597557e-02 5.70648769e-03 4.20478033e-03 7.23822936e-02
      1.55576870e-01 2.28259508e-02 8.40956066e-03 1.83208287e-02
      6.60751201e-03 2.07235608e-02 0. 5.79659007e-02 2.97338050e-02
      7.50853634e-03 5.31604402e-02 5.74252844e-01 9.01024416e-03
      3.99454124e-02 1.41160488e-02 1.02116093e-02 2.49283407e-02
      3.00341460e-04 2.07836285e-01 9.01024381e-04</_>
    <_>
      3.34127069e-01 6.06979489e-01 1.14439420e-01 1.56610802e-01
      1.52645975e-01 1.15340520e-02 6.83032125e-02 1.78417359e-02
      8.77669230e-02 5.01010381e-02 1.85626149e-02 9.28130746e-02
      4.88395020e-02 7.56922178e-03 7.92966038e-03 8.61449540e-02
      1.51925087e-01 1.80219561e-02 1.40571259e-02 1.67604201e-02
      8.65053944e-03 2.01845914e-02 1.80219562e-04 6.63207993e-02
      3.18988636e-02 1.20747108e-02 5.15427962e-02 5.68772912e-01
      1.22549301e-02 4.64966483e-02 1.09933931e-02 1.36966864e-02
      2.79340316e-02 0. 2.55551338e-01 7.20878248e-04</_>
    <_>
      3.42752904e-01 6.46454453e-01 1.10411391e-01 1.87952206e-01
      1.28110930e-01 1.26425251e-02 5.87175079e-02 1.85423698e-02
      9.35546905e-02 4.66368720e-02 1.26425251e-02 1.05354376e-01
      3.51181254e-02 7.02362508e-03 6.74268045e-03 8.17549974e-02
      1.61824331e-01 1.74185913e-02 1.51710305e-02 3.00611164e-02
      7.58551527e-03 1.99470948e-02 2.80945009e-04 6.06841221e-02
      1.99470948e-02 9.55213048e-03 4.41083647e-02 5.38571596e-01
      1.06759099e-02 3.03420611e-02 1.17996903e-02 1.12378001e-02
      2.72516664e-02 0. 2.00594738e-01 5.61890018e-04</_>
    <_>
      3.72337222e-01 6.09226406e-01 1.23081900e-01 1.64624453e-01
      1.77763492e-01 1.29458196e-02 6.20240010e-02 2.28001010e-02
      1.35834500e-01 4.52137589e-02 1.79695711e-02 7.28443861e-02
      4.84985188e-02 8.88817478e-03 6.37629908e-03 7.82545805e-02
      1.64817676e-01 1.75831281e-02 1.79695711e-02 1.60373580e-02
      8.11528973e-03 1.70034654e-02 1.93221189e-04 4.59866412e-02
      3.07221692e-02 1.27525982e-02 4.79188561e-02 5.29039621e-01
      1.14000505e-02 4.50205356e-02 1.04339439e-02 1.70034654e-02
      3.57459188e-02 1.93221189e-04 2.43845135e-01 9.66105959e-04</_>
    <_>
      3.77351165e-01 6.10940635e-01 8.72240961e-02 1.88954547e-01
      9.55931470e-02 2.19455082e-02 6.97420835e-02 2.10156143e-02
      9.00137797e-02 4.59367856e-02 1.74820162e-02 1.32416964e-01
      3.73817571e-02 1.06007969e-02 1.24605857e-02 7.27177486e-02
      1.91558257e-01 1.97137631e-02 1.65521204e-02 3.96135040e-02
      1.20886276e-02 2.84547694e-02 0. 6.78822920e-02 2.58510653e-02
      1.95277836e-02 4.22172062e-02 5.20182967e-01 1.72960367e-02
      4.18452509e-02 2.26894245e-02 2.65949816e-02 4.40769978e-02 0.
      2.60742396e-01 9.29894450e-04</_>
    <_>
      4.24806923e-01 5.89534819e-01 1.02724515e-01 1.92378044e-01
      1.14454888e-01 2.37958916e-02 7.00470582e-02 2.56392341e-02
      1.04065128e-01 5.09433150e-02 2.22877003e-02 1.00378439e-01
      5.41272722e-02 1.30709829e-02 1.65900923e-02 6.92091733e-02
      1.82491019e-01 2.29580067e-02 1.92713197e-02 3.56938355e-02
      1.69252474e-02 2.93259230e-02 0. 5.63057698e-02 2.98286527e-02
      2.04443578e-02 4.70890515e-02 4.76085395e-01 2.06119344e-02
      5.73112294e-02 2.21201237e-02 3.30126099e-02 5.47975786e-02
      1.67576698e-04 3.07838380e-01 1.50819030e-03</_>
    <_>
      4.51359361e-01 5.61453402e-01 9.88492742e-02 2.05543727e-01
      1.37029141e-01 1.96129512e-02 7.63597563e-02 3.13807204e-02
      1.22907825e-01 5.15166819e-02 2.58890949e-02 9.88492742e-02
      6.30229488e-02 1.59518663e-02 1.43828308e-02 6.58995137e-02
      1.72332466e-01 3.19037326e-02 2.27510221e-02 2.85041556e-02
      1.96129512e-02 3.08577083e-02 2.61506008e-04 6.95605949e-02
      3.34727690e-02 1.75209027e-02 4.91631292e-02 4.49528813e-01
      2.22280100e-02 7.03451186e-02 2.35355403e-02 2.98116840e-02
      5.93618639e-02 5.23012015e-04 3.33943158e-01 7.84518023e-04</_>
    <_>
      3.88972282e-01 6.09299242e-01 1.25577301e-01 1.98566258e-01
      1.56858280e-01 1.42804505e-02 9.33896154e-02 1.92672741e-02
      1.14470273e-01 5.39483689e-02 2.17606872e-02 1.08803429e-01
      5.41750416e-02 1.15603646e-02 9.97364800e-03 7.59357288e-02
      1.77712277e-01 1.88139267e-02 1.33737549e-02 2.60674879e-02
      9.74697433e-03 2.40274239e-02 2.26673816e-04 5.96152134e-02
      2.33474039e-02 1.20137120e-02 5.07749356e-02 4.82361883e-01
      1.47337979e-02 4.82815243e-02 1.81339048e-02 2.38007512e-02
      3.62678096e-02 0. 2.70875216e-01 1.58671674e-03</_>
    <_>
      3.97606015e-01 6.55166149e-01 9.92558300e-02 1.87440068e-01
      1.34218737e-01 7.38105970e-03 6.06023856e-02 1.84526499e-02
      1.23535633e-01 4.29266877e-02 1.53448349e-02 9.80903953e-02
      3.20493393e-02 7.38105970e-03 3.88476811e-03 6.46813884e-02
      1.70152843e-01 2.09777486e-02 1.20427813e-02 1.63160264e-02
      1.04888743e-02 2.19489411e-02 0. 6.06023856e-02 2.69991383e-02
      8.74072872e-03 3.98188755e-02 4.83653635e-01 7.57529819e-03
      3.92361581e-02 1.37909269e-02 1.59275495e-02 2.60279477e-02 0.
      2.00648278e-01 3.88476823e-04</_>
    <_>
      3.67109984e-01 6.56988561e-01 1.04627647e-01 2.02732369e-01
      1.44026086e-01 1.43504255e-02 8.06232989e-02 1.59159265e-02
      1.02279395e-01 3.86156924e-02 1.51331760e-02 1.07236817e-01
      3.60065214e-02 7.82750454e-03 7.82750454e-03 6.75774589e-02
      1.67508602e-01 1.56550091e-02 9.39300563e-03 3.23536880e-02
      8.08842201e-03 2.34825145e-02 0. 4.87914458e-02 1.48722595e-02
      1.61768440e-02 4.85305302e-02 4.95220155e-01 1.43504255e-02
      3.47019397e-02 1.77423451e-02 2.32215971e-02 2.87008509e-02
      5.21833659e-04 2.01427788e-01 5.21833659e-04</_>
    <_>
      3.95840198e-01 6.26930594e-01 9.32684690e-02 2.12240845e-01
      1.28029943e-01 1.34639516e-02 8.64140913e-02 2.05631275e-02
      1.23378761e-01 4.13710512e-02 1.95839293e-02 1.13097198e-01
      4.06366549e-02 1.17503582e-02 9.79196467e-03 6.09549843e-02
      1.87271327e-01 2.15423238e-02 1.46879479e-02 3.25582847e-02
      8.32317024e-03 3.59854735e-02 0. 6.19341806e-02 2.22767200e-02
      1.49327470e-02 4.79806289e-02 4.76868689e-01 1.68911405e-02
      4.82254289e-02 2.30111182e-02 2.05631275e-02 4.94494252e-02
      4.89598257e-04 2.40637541e-01 4.89598257e-04</_>
    <_>
      3.44814569e-01 6.40522897e-01 1.11674637e-01 1.77914530e-01
      1.65217280e-01 8.87278002e-03 7.26650059e-02 1.56038534e-02
      1.33856595e-01 3.48792039e-02 1.05555486e-02 1.03107817e-01
      3.07487715e-02 5.96617954e-03 5.35426335e-03 8.91867355e-02
      1.85410500e-01 1.45330010e-02 1.00966115e-02 2.01932229e-02
      5.96617954e-03 1.63687486e-02 0. 4.98711392e-02 2.23349277e-02
      9.33171622e-03 4.89532650e-02 5.28542280e-01 1.04025695e-02
      3.24315391e-02 1.26972534e-02 1.20853381e-02 2.40176972e-02 0.
      1.80821136e-01 4.58936876e-04</_>
    <_>
      3.83533895e-01 6.41797543e-01 1.27587184e-01 1.73617437e-01
      1.51374638e-01 8.64997879e-03 7.18257204e-02 1.54463910e-02
      1.07661344e-01 3.83070484e-02 1.28205046e-02 9.28328112e-02
      2.91936789e-02 7.72319548e-03 6.48748409e-03 8.91256779e-02
      1.80877239e-01 1.23571130e-02 1.12758651e-02 1.60642471e-02
      6.17855648e-03 1.82267409e-02 1.54463909e-04 4.60302457e-02
      2.11615562e-02 1.14303296e-02 4.60302457e-02 5.10503232e-01
      1.05035454e-02 3.12017091e-02 8.95890687e-03 1.17392568e-02
      2.25517303e-02 0. 1.85974553e-01 1.54463909e-04</_>
    <_>
      3.98162454e-01 5.85477650e-01 1.19919382e-01 1.67171761e-01
      1.97292790e-01 9.60108079e-03 6.83371052e-02 1.20484149e-02
      1.41192362e-01 3.67100127e-02 1.41192358e-02 7.66203851e-02
      4.38637622e-02 6.02420745e-03 4.70641209e-03 8.75392631e-02
      1.79220170e-01 1.26131848e-02 1.09188762e-02 1.29896970e-02
      5.27118146e-03 1.65665708e-02 0. 4.83819172e-02 2.10847259e-02
      7.53025943e-03 5.23353033e-02 5.39919615e-01 6.40072022e-03
      3.74630392e-02 9.97759402e-03 1.43074924e-02 2.48498563e-02
      3.76512966e-04 2.07835153e-01 0.</_>
    <_>
      4.92287904e-01 6.44335330e-01 1.12234831e-01 1.68548688e-01
      1.22057013e-01 1.45368334e-02 5.82782961e-02 1.62393451e-02
      9.39000845e-02 4.51820493e-02 1.27033591e-02 8.99712145e-02
      3.85029651e-02 9.82218515e-03 1.02150720e-02 5.23849875e-02
      1.62262499e-01 1.38820214e-02 1.06079597e-02 3.19548398e-02
      7.46486057e-03 2.18707323e-02 0. 4.11222130e-02 1.46677960e-02
      1.57154948e-02 4.04674001e-02 4.19734687e-01 1.04769971e-02
      3.71933393e-02 1.95134077e-02 2.69782674e-02 2.93355919e-02
      3.92887392e-04 2.18052506e-01 9.16737248e-04</_>
    <_>
      4.77880150e-01 5.74085534e-01 1.22279771e-01 1.77350625e-01
      1.53074503e-01 1.70832034e-02 7.88974240e-02 1.77575406e-02
      1.28124028e-01 4.96761575e-02 1.91062149e-02 9.26089436e-02
      4.31575663e-02 1.46106351e-02 9.21593886e-03 7.26036131e-02
      1.82745323e-01 1.57345291e-02 1.23628452e-02 2.92212702e-02
      9.66549665e-03 2.76478156e-02 0. 4.15841155e-02 1.79823190e-02
      1.37115186e-02 5.97912148e-02 4.56526130e-01 1.16885081e-02
      4.60796952e-02 1.61840878e-02 3.21433954e-02 4.47310209e-02 0.
      2.73556024e-01 1.12389494e-03</_>
    <_>
      3.14516783e-01 6.64273560e-01 1.14529923e-01 1.49329394e-01
      1.38316900e-01 6.90116221e-03 6.28446266e-02 1.14529924e-02
      1.04545265e-01 4.46373038e-02 1.65921561e-02 6.68091178e-02
      3.83234732e-02 6.90116221e-03 3.81766399e-03 7.09204525e-02
      1.78402379e-01 1.20403254e-02 1.39491577e-02 9.10366047e-03
      4.99232998e-03 1.15998257e-02 1.46833234e-04 4.12601382e-02
      2.67236494e-02 7.19482824e-03 3.67083102e-02 5.42255104e-01
      7.63532799e-03 3.37716453e-02 6.75432896e-03 8.95682722e-03
      1.93819869e-02 0. 2.12027192e-01 7.34166184e-04</_>
    <_>
      3.26793432e-01 6.08675897e-01 1.18089467e-01 1.71718463e-01
      1.37374774e-01 6.86873868e-03 7.26501197e-02 1.69076640e-02
      1.17825285e-01 4.09482494e-02 1.21523831e-02 7.95188546e-02
      4.25333418e-02 7.39710312e-03 6.07619155e-03 7.84621313e-02
      2.09232345e-01 1.24165658e-02 1.50583880e-02 1.16240187e-02
      5.81200933e-03 1.55867524e-02 2.64182250e-04 5.01946285e-02
      2.37764027e-02 8.98219645e-03 3.67213339e-02 5.65878391e-01
      1.13598369e-02 3.35511453e-02 8.98219645e-03 1.16240187e-02
      2.50973143e-02 0. 2.30895281e-01 7.92546780e-04</_>
    <_>
      3.94093543e-01 6.07797265e-01 1.45330176e-01 1.99883550e-01
      1.57550141e-01 1.30928094e-02 7.94297084e-02 1.77480299e-02
      1.37765452e-01 5.16438596e-02 1.89118348e-02 8.20482671e-02
      4.33517471e-02 1.39656626e-02 9.60139371e-03 7.92842358e-02
      2.00756401e-01 1.70206521e-02 1.42566143e-02 1.73116028e-02
      9.74686909e-03 2.09484939e-02 0. 4.64067347e-02 2.29851529e-02
      1.23654306e-02 5.60081266e-02 4.68868047e-01 1.55658955e-02
      4.50974554e-02 1.30928094e-02 2.35670563e-02 3.86965238e-02
      4.36426955e-04 2.71021158e-01 8.72853911e-04</_>
    <_>
      3.37468952e-01 6.47940397e-01 1.12585388e-01 1.90705866e-01
      1.42167777e-01 8.61622859e-03 6.97914511e-02 2.03917418e-02
      1.80653602e-01 4.10706922e-02 1.09138899e-02 9.67889726e-02
      3.84858213e-02 5.16973715e-03 6.03136001e-03 7.63972327e-02
      1.70888543e-01 2.03917418e-02 1.17755132e-02 1.26371356e-02
      6.31856779e-03 1.98173262e-02 2.87207629e-04 5.83031476e-02
      2.46998556e-02 8.90343636e-03 3.99218611e-02 5.18409789e-01
      6.03136001e-03 3.50393318e-02 7.75460619e-03 9.19064414e-03
      2.24021953e-02 0. 1.83812886e-01 1.43603818e-03</_>
    <_>
      3.65813702e-01 6.36740863e-01 1.09381728e-01 1.83479026e-01
      1.41614527e-01 1.34462286e-02 7.13317618e-02 1.62117649e-02
      1.06616192e-01 4.16737720e-02 1.39230452e-02 1.20348513e-01
      3.02301720e-02 7.53370253e-03 6.58006920e-03 7.69582018e-02
      1.66122898e-01 1.43998610e-02 1.03946021e-02 3.22328024e-02
      8.29660892e-03 2.57480964e-02 0. 5.47385477e-02 1.61164012e-02
      1.25879580e-02 4.64419387e-02 5.28408170e-01 1.30647747e-02
      3.00394464e-02 1.80236679e-02 1.60210375e-02 2.47944631e-02
      9.53633207e-05 1.95113361e-01 2.86089955e-04</_>
    <_>
      3.91508251e-01 6.31321013e-01 8.03093836e-02 1.92593813e-01
      1.15258843e-01 1.11540817e-02 6.32064641e-02 2.26799659e-02
      1.71772853e-01 4.49881293e-02 1.18976869e-02 9.62969065e-02
      3.60648632e-02 7.06425169e-03 5.94884343e-03 7.73349628e-02
      1.80696115e-01 2.37953737e-02 1.30130947e-02 1.52439112e-02
      7.43605429e-03 2.78852042e-02 0. 7.54759535e-02 2.71415990e-02
      7.80785689e-03 3.56930606e-02 5.09369731e-01 9.29506775e-03
      3.64366658e-02 1.07822791e-02 1.22694895e-02 2.15645581e-02
      3.71802715e-04 1.85901359e-01 7.43605429e-04</_>
    <_>
      3.50878626e-01 6.63272679e-01 9.85538885e-02 1.88072279e-01
      1.10433899e-01 1.22146588e-02 7.31206313e-02 1.53938159e-02
      1.37038425e-01 3.71459499e-02 1.08760661e-02 1.10768549e-01
      2.91143917e-02 7.86423218e-03 6.52563944e-03 7.73037300e-02
      1.91586077e-01 1.25493072e-02 9.03550070e-03 2.91143917e-02
      5.68901934e-03 2.47639660e-02 0. 5.35437092e-02 2.07481869e-02
      1.07087418e-02 4.36715893e-02 5.05151451e-01 1.65650845e-02
      2.59352345e-02 1.05414176e-02 1.17126862e-02 2.14174837e-02 0.
      1.84056506e-01 1.67324091e-04</_>
    <_>
      3.18818361e-01 6.78573430e-01 1.33383185e-01 1.65373459e-01
      1.03019536e-01 6.50649704e-03 7.48247132e-02 1.73506588e-02
      1.29858837e-01 3.09058614e-02 8.40422511e-03 6.61493838e-02
      2.08750106e-02 5.69318514e-03 6.23539276e-03 7.04870522e-02
      2.13087782e-01 7.31980894e-03 6.50649704e-03 1.84350759e-02
      4.33766469e-03 1.49107222e-02 0. 2.98214443e-02 1.21996822e-02
      1.05730575e-02 3.57857347e-02 5.25941849e-01 1.08441617e-02
      1.92483868e-02 7.59091321e-03 1.00308498e-02 1.43685145e-02 0.
      1.49920538e-01 5.42208087e-04</_>
    <_>
      3.24327946e-01 6.64211869e-01 9.33360085e-02 1.93422735e-01
      1.13294646e-01 1.32079255e-02 8.36501941e-02 1.61430202e-02
      1.37949437e-01 3.19925286e-02 8.51177424e-03 1.23567477e-01
      3.37535888e-02 5.28317038e-03 7.33773643e-03 7.68994763e-02
      2.12207332e-01 9.97932162e-03 9.09879338e-03 3.99172865e-02
      6.45720772e-03 2.43612844e-02 0. 4.66680042e-02 1.81975868e-02
      9.68581159e-03 3.78627181e-02 5.03368735e-01 1.61430202e-02
      3.31665687e-02 1.58495102e-02 1.26209063e-02 2.99379639e-02 0.
      1.92835703e-01 0.</_>
    <_>
      3.42380315e-01 6.61965072e-01 1.19788408e-01 1.75659865e-01
      1.27386928e-01 1.25152068e-02 7.64321610e-02 1.47500653e-02
      1.10848978e-01 3.88865359e-02 7.59851839e-03 8.35837051e-02
      2.36894991e-02 7.59851839e-03 6.70457538e-03 8.26897621e-02
      1.64485574e-01 1.29621783e-02 1.29621783e-02 2.01137252e-02
      7.15154689e-03 2.05606967e-02 0. 5.14017418e-02 2.14546397e-02
      1.38561223e-02 5.00608273e-02 5.26532650e-01 1.20682353e-02
      2.19016131e-02 1.25152068e-02 1.16212638e-02 1.65379513e-02 0.
      1.89962968e-01 4.46971681e-04</_>
    <_>
      4.12605315e-01 6.19337380e-01 1.19377039e-01 1.88083246e-01
      1.59128487e-01 1.27597246e-02 7.38591701e-02 1.53362071e-02
      1.07108071e-01 5.71733788e-02 2.38017943e-02 7.72944838e-02
      5.22657931e-02 1.07966894e-02 6.01179339e-03 7.11600035e-02
      1.67594075e-01 2.13479996e-02 1.82807595e-02 1.71765517e-02
      9.44710337e-03 1.72992423e-02 1.22689657e-04 5.49649671e-02
      2.40471736e-02 1.01832412e-02 4.62540016e-02 4.77262765e-01
      1.07966894e-02 4.66220677e-02 1.41093107e-02 1.93849653e-02
      3.31262089e-02 1.22689657e-04 2.62678564e-01 8.58827611e-04</_>
    <_>
      3.27185303e-01 6.15028739e-01 1.03085786e-01 1.80275619e-01
      1.66331649e-01 9.95997898e-03 6.27478659e-02 2.09159572e-02
      1.73303634e-01 3.78479213e-02 1.39439711e-02 9.81057957e-02
      4.53179069e-02 6.47398643e-03 1.14539759e-02 8.56558233e-02
      1.68821648e-01 2.04179566e-02 1.69319641e-02 1.84259620e-02
      5.97598776e-03 3.03779375e-02 4.97998961e-04 6.47398680e-02
      3.48599255e-02 1.24499742e-02 5.42818867e-02 5.38336873e-01
      9.46198031e-03 4.28279117e-02 1.49399685e-02 1.64339654e-02
      3.38639282e-02 4.97998961e-04 2.37047508e-01 9.95997922e-04</_>
    <_>
      3.16930979e-01 7.14502215e-01 9.25623924e-02 1.85621545e-01
      7.26921111e-02 1.02663115e-02 8.80915821e-02 1.01007260e-02
      1.42569274e-01 3.52697484e-02 8.27928353e-03 9.96825770e-02
      2.13605519e-02 6.45784149e-03 4.80198441e-03 5.99420145e-02
      2.05822989e-01 8.27928353e-03 6.12667017e-03 1.80488378e-02
      5.46432752e-03 2.23540664e-02 1.65585676e-04 4.73575033e-02
      1.39091965e-02 1.24189258e-02 2.91430783e-02 4.76390004e-01
      1.34124402e-02 2.08637957e-02 9.93514061e-03 1.02663115e-02
      1.37436111e-02 0. 1.49523869e-01 1.65585676e-04</_>
    <_>
      1.24072917e-01 4.59069788e-01 1.48887500e-01 2.85367697e-01
      2.35738546e-01 1.24072917e-02 4.96291667e-02 8.68510455e-02
      3.34996879e-01 1.24072917e-02 2.48145834e-02 6.20364584e-02
      4.96291667e-02 0. 1.24072917e-02 3.72218750e-02 3.22589576e-01 0.
      0. 2.48145834e-02 1.24072917e-02 2.48145834e-02 0. 1.24072917e-02
      2.48145834e-02 0. 0. 6.07957304e-01 0. 1.24072917e-02 0.
      3.72218750e-02 2.48145834e-02 0. 7.44437501e-02 1.24072917e-02</_>
    <_>
      3.18779200e-01 6.75328434e-01 1.27746701e-01 1.79785430e-01
      1.76595956e-01 9.90414619e-03 9.13195834e-02 1.17506813e-02
      1.83478504e-01 3.08875050e-02 7.55400956e-03 8.05760995e-02
      2.24941615e-02 6.04320783e-03 5.20387338e-03 8.74586403e-02
      2.28634685e-01 7.05040898e-03 4.02880507e-03 1.24221491e-02
      6.54680841e-03 1.81296226e-02 0. 3.22304405e-02 8.89694411e-03
      1.00720124e-02 4.39811237e-02 4.73720342e-01 1.14149479e-02
      2.16548275e-02 5.87534066e-03 1.04077468e-02 1.47722848e-02 0.
      1.52087390e-01 1.67866878e-04</_>
    <_>
      3.49663436e-01 6.39632642e-01 1.10796861e-01 1.78903818e-01
      1.27264246e-01 1.23505387e-02 7.55351782e-02 1.48564456e-02
      1.09991394e-01 4.95811477e-02 1.77203380e-02 8.93176645e-02
      3.62461470e-02 1.07395994e-02 6.71224948e-03 7.11498410e-02
      1.74339488e-01 1.42299682e-02 1.33350017e-02 1.40509754e-02
      8.41268618e-03 2.02262439e-02 2.68489966e-04 5.14605790e-02
      2.84599364e-02 1.28875189e-02 4.08999734e-02 5.30804694e-01
      1.25295324e-02 3.79465818e-02 1.30665116e-02 1.46774519e-02
      2.41640974e-02 0. 2.27142513e-01 5.36979933e-04</_>
    <_>
      4.30059433e-01 6.04809344e-01 1.21276416e-01 1.63915381e-01
      1.89079359e-01 9.61124338e-03 6.43079579e-02 1.48537392e-02
      9.99569297e-02 4.22894694e-02 1.20577412e-02 9.19184312e-02
      2.70862300e-02 6.64049527e-03 5.24249626e-03 8.68506879e-02
      1.63041636e-01 1.25819910e-02 9.43649374e-03 1.79992374e-02
      7.68899452e-03 2.16689855e-02 0. 4.75319661e-02 1.93972364e-02
      1.17082419e-02 5.80169596e-02 5.17783880e-01 1.55527387e-02
      3.07559781e-02 1.24072414e-02 1.22324917e-02 2.53387317e-02 0.
      1.86283365e-01 3.49499751e-04</_>
    <_>
      3.35632414e-01 6.11446679e-01 1.35654569e-01 1.71695635e-01
      1.64437354e-01 8.75998102e-03 6.63255677e-02 1.90216731e-02
      1.38157412e-01 3.85439172e-02 1.57679655e-02 8.83506685e-02
      4.05461974e-02 8.25941097e-03 5.25598880e-03 1.00364357e-01
      2.04983562e-01 1.02616921e-02 1.17634032e-02 9.51083656e-03
      4.75541828e-03 1.62685364e-02 0. 5.13084605e-02 1.97725277e-02
      8.75998102e-03 4.78044674e-02 5.51378250e-01 8.25941097e-03
      3.05347908e-02 6.50741439e-03 1.00114066e-02 1.75199620e-02 0.
      1.99477285e-01 5.00570342e-04</_>
    <_>
      4.01202559e-01 6.28980279e-01 1.24115042e-01 1.90795362e-01
      1.42045885e-01 1.40084699e-02 7.90077671e-02 1.70903336e-02
      1.27757236e-01 5.12709990e-02 2.54954156e-02 7.42448866e-02
      4.98701520e-02 1.28877917e-02 1.06464373e-02 6.55596405e-02
      1.81269601e-01 1.93316881e-02 1.68101639e-02 2.01721955e-02
      1.03662675e-02 1.90515183e-02 5.60338784e-04 4.00642231e-02
      2.57755835e-02 1.40084699e-02 5.35123535e-02 4.62839842e-01
      1.37283001e-02 4.62279506e-02 1.40084699e-02 2.60557532e-02
      4.45469320e-02 0. 2.70923793e-01 5.60338784e-04</_>
    <_>
      3.77805412e-01 6.49996161e-01 1.06391244e-01 1.89873427e-01
      1.37066096e-01 1.66964363e-02 6.95037693e-02 1.94144603e-02
      9.00830999e-02 3.84406336e-02 1.16486764e-02 1.26582280e-01
      3.14514264e-02 7.76578439e-03 1.08720977e-02 6.75623268e-02
