<?xml version="1.0"?>
<opencv_storage>
<my_svm type_id="opencv-ml-svm">
  <svm_type>C_SVC</svm_type>
  <kernel><type>RBF</type>
    <gamma>1.</gamma></kernel>
  <C>1.</C>
  <term_criteria><epsilon>1.1920928955078125e-07</epsilon>
    <iterations>1000</iterations></term_criteria>
  <var_all>36</var_all>
  <var_count>36</var_count>
  <class_count>2</class_count>
  <class_labels type_id="opencv-matrix">
    <rows>1</rows>
    <cols>2</cols>
    <dt>i</dt>
    <data>
      -1 1</data></class_labels>
  <sv_total>115</sv_total>
  <support_vectors>
    <_>
      3.88886571e-01 5.72908163e-01 1.24203868e-01 2.16143280e-01
      1.17779531e-01 1.41335437e-02 9.02262554e-02 2.05578804e-02
      1.13782160e-01 5.03953621e-02 2.02723555e-02 1.15923606e-01
      4.36854959e-02 1.18493345e-02 1.25631494e-02 9.15111229e-02
      1.84449881e-01 1.71315670e-02 2.11289339e-02 2.51262989e-02
      1.08499927e-02 2.44124830e-02 1.42763063e-04 6.65275902e-02
      3.26927416e-02 1.51328845e-02 4.91104946e-02 5.02668738e-01
      1.75598562e-02 5.32506220e-02 2.15572231e-02 2.07006447e-02
      4.15440500e-02 0. 3.05227429e-01 1.57039368e-03</_>
    <_>
      4.47378606e-01 5.60382724e-01 1.07920282e-01 2.33292133e-01
      9.66823027e-02 2.62516830e-02 8.64254162e-02 3.18112113e-02
      9.27876607e-02 5.58628663e-02 2.09894534e-02 1.33755744e-01
      4.76276278e-02 1.57272257e-02 1.40326098e-02 7.93793797e-02
      1.55845210e-01 3.20490524e-02 2.25056894e-02 3.63301896e-02
      2.09299941e-02 3.76680419e-02 2.97301049e-05 7.24225342e-02
      3.49328741e-02 2.00380906e-02 5.80331646e-02 4.32840586e-01
      2.52705887e-02 6.12440147e-02 3.61815393e-02 3.40112410e-02
      6.61197528e-02 1.48650521e-04 3.52628767e-01 6.83792401e-04</_>
    <_>
      4.81821209e-01 5.45936406e-01 9.95221511e-02 2.41628304e-01
      8.50483775e-02 3.37322690e-02 8.24167803e-02 3.92346941e-02
      8.32541063e-02 5.83735704e-02 2.14116164e-02 1.50838271e-01
      4.82060425e-02 2.12919991e-02 1.78230777e-02 7.26081058e-02
      1.43900424e-01 3.86366062e-02 1.92584936e-02 4.24643792e-02
      2.85886955e-02 5.01199290e-02 0. 7.75124431e-02 3.42107415e-02
      2.45216843e-02 6.67468309e-02 3.83495212e-01 3.26557048e-02
      6.68664500e-02 4.91629876e-02 4.79668081e-02 8.24167803e-02
      4.78471891e-04 3.72609973e-01 5.98089886e-04</_>
    <_>
      4.22465086e-01 5.83749115e-01 1.18770644e-01 2.28009135e-01
      1.33640796e-01 1.48701603e-02 9.83718336e-02 1.94455944e-02
      1.15339063e-01 4.80420589e-02 1.77298076e-02 1.11335561e-01
      4.27040495e-02 1.06760124e-02 8.57893843e-03 9.05554667e-02
      1.55564755e-01 1.88736655e-02 2.49742437e-02 2.00175233e-02
      1.27730863e-02 2.74526048e-02 3.81286169e-04 6.23402894e-02
      3.24093252e-02 1.54420901e-02 5.64303547e-02 4.74319994e-01
      1.81110930e-02 5.28081357e-02 1.90643091e-02 1.69672351e-02
      3.45063992e-02 0. 2.88442999e-01 1.33450155e-03</_>
    <_>
      4.22461927e-01 5.83984017e-01 1.14140019e-01 2.18972847e-01
      9.58640799e-02 2.29295362e-02 9.14643183e-02 2.56370846e-02
      9.12104845e-02 5.52508757e-02 2.27603149e-02 1.25985533e-01
      4.89050634e-02 1.58222262e-02 1.21839605e-02 7.63189793e-02
      1.62791252e-01 2.86830738e-02 2.35218126e-02 3.29982266e-02
      1.69221684e-02 3.06291226e-02 0. 7.16653764e-02 3.46058309e-02
      1.98835470e-02 5.45739904e-02 4.51906472e-01 2.15757638e-02
      5.64354286e-02 2.65678037e-02 3.30828391e-02 5.88891432e-02
      2.53832521e-04 3.33705157e-01 6.76886702e-04</_>
    <_>
      4.22052622e-01 5.96778452e-01 1.11135885e-01 2.33407333e-01
      1.33700058e-01 1.80220362e-02 1.02710955e-01 2.04396266e-02
      1.38535246e-01 5.05496114e-02 1.80220362e-02 1.18535176e-01
      4.63737734e-02 1.13553479e-02 1.02564432e-02 8.12456831e-02
      1.55971199e-01 2.19780914e-02 1.97802838e-02 2.60806698e-02
      1.35531565e-02 3.29671390e-02 1.46520615e-04 6.52016774e-02
      2.90843416e-02 1.56044457e-02 5.91943301e-02 4.44470286e-01
      2.01465841e-02 5.37730642e-02 2.37363391e-02 1.83150768e-02
      4.54946496e-02 1.46520615e-04 2.91209728e-01 1.09890464e-03</_>
    <_>
      4.67566878e-01 5.29739439e-01 9.88943949e-02 2.35237777e-01
      8.43511000e-02 3.23588289e-02 7.78066218e-02 3.38131562e-02
      9.19863284e-02 6.58084005e-02 2.32692696e-02 1.31980389e-01
      4.50842083e-02 1.92698631e-02 1.30889639e-02 8.65325928e-02
      1.52704582e-01 3.59946527e-02 1.81791168e-02 4.39934619e-02
      2.94501688e-02 5.27194403e-02 0. 7.05349743e-02 3.45403217e-02
      2.43600160e-02 6.10818341e-02 4.45388377e-01 2.90865861e-02
      4.98107821e-02 3.78125645e-02 4.50842083e-02 7.27164671e-02 0.
      3.57765019e-01 1.45432935e-03</_>
    <_>
      4.98189807e-01 5.22993743e-01 9.34105888e-02 2.35109702e-01
      9.05079991e-02 3.58865522e-02 7.67866671e-02 4.82885242e-02
      9.42021981e-02 6.22737259e-02 2.40123253e-02 1.44337833e-01
      5.30382134e-02 1.89987626e-02 1.92626342e-02 8.18002298e-02
      1.50406882e-01 3.79975252e-02 2.03181226e-02 4.51220647e-02
      2.87620164e-02 5.43575734e-02 2.63871712e-04 6.88705146e-02
      3.53588089e-02 2.63871718e-02 6.91343918e-02 3.77600431e-01
      3.56226824e-02 7.09814876e-02 5.48853166e-02 5.43575734e-02
      8.07447433e-02 5.27743425e-04 3.86044323e-01 1.84710196e-03</_>
    <_>
      4.50081289e-01 5.70511162e-01 1.06753975e-01 2.15753242e-01
      1.01038657e-01 2.46983375e-02 8.71585980e-02 3.12301293e-02
      1.04304552e-01 5.79696521e-02 1.97994933e-02 1.24512278e-01
      4.49060686e-02 1.51047688e-02 1.40841762e-02 8.81791860e-02
      1.64519504e-01 2.53106933e-02 1.65335983e-02 3.59248556e-02
      1.95953753e-02 4.83760834e-02 0. 6.63385093e-02 2.65354048e-02
      2.20447965e-02 5.83778881e-02 4.45998907e-01 2.79642344e-02
      4.75596078e-02 3.77619229e-02 4.10278179e-02 6.04190752e-02 0.
      3.23323697e-01 1.42882951e-03</_>
    <_>
      4.15617466e-01 5.67364216e-01 7.29227364e-02 2.57126421e-01
      1.48796111e-01 2.36050487e-02 8.43037441e-02 3.32999788e-02
      1.34885997e-01 4.67885770e-02 2.10759360e-02 1.33199915e-01
      4.84746546e-02 1.13810059e-02 1.39101176e-02 6.49138838e-02
      1.86311275e-01 3.20354216e-02 2.36050487e-02 3.70936468e-02
      1.60177108e-02 3.87797207e-02 0. 8.68328586e-02 2.73987167e-02
      1.60177108e-02 6.11202158e-02 4.22361761e-01 2.40265671e-02
      5.98556586e-02 2.78202351e-02 2.73987167e-02 6.57569170e-02
      1.26455619e-03 3.42694730e-01 2.10759370e-03</_>
    <_>
      5.21504164e-01 4.91568893e-01 9.96529907e-02 2.40270048e-01
      1.18953370e-01 3.97824198e-02 9.29569378e-02 4.29335013e-02
      9.17752832e-02 6.02644570e-02 2.44208910e-02 1.39041528e-01
      5.51439449e-02 2.16636937e-02 1.53615279e-02 9.33508277e-02
      1.46525338e-01 4.17518467e-02 1.96942668e-02 4.01763022e-02
      3.42680253e-02 5.55378310e-02 0. 6.30216524e-02 3.42680253e-02
      2.63903178e-02 6.61727339e-02 3.72615516e-01 2.59964317e-02
      6.89299330e-02 4.64784689e-02 5.47500625e-02 8.11403766e-02 0.
      3.90340358e-01 7.87770667e-04</_>
    <_>
      4.82465506e-01 5.40833056e-01 8.74767303e-02 2.36754417e-01
      8.85216743e-02 3.46324258e-02 6.91155717e-02 4.13499214e-02
      7.73258433e-02 6.13531321e-02 2.47800965e-02 1.43455863e-01
      5.17993607e-02 1.73162129e-02 1.62712689e-02 6.76227957e-02
      1.28378823e-01 4.59775291e-02 2.94077061e-02 4.43354733e-02
      3.03033721e-02 4.29919772e-02 0. 7.71765709e-02 4.04542536e-02
      2.32873205e-02 5.92632443e-02 3.69462281e-01 2.50786524e-02
      7.22504035e-02 4.59775291e-02 4.16484773e-02 8.24012905e-02
      2.98555387e-04 4.09767270e-01 1.79133238e-03</_>
    <_>
      4.86421049e-01 5.40873110e-01 1.11770019e-01 2.48290986e-01
      9.37930271e-02 3.49118486e-02 8.93639103e-02 4.03831080e-02
      8.59769359e-02 5.86206391e-02 2.70957630e-02 1.29486486e-01
      4.92413379e-02 2.37087924e-02 1.53716346e-02 7.16474503e-02
      1.51632056e-01 3.72566730e-02 2.18850393e-02 4.19463255e-02
      2.91800518e-02 3.98620367e-02 0. 7.19079822e-02 3.46513130e-02
      2.52720099e-02 6.04443923e-02 3.67877096e-01 2.86589805e-02
      6.79999441e-02 3.93409617e-02 5.47125973e-02 8.51953328e-02
      5.21072361e-04 3.84811938e-01 3.12643405e-03</_>
    <_>
      4.34252024e-01 5.55690408e-01 7.28630424e-02 2.70675957e-01
      1.36069536e-01 2.63360385e-02 9.24687609e-02 3.30663621e-02
      1.44555598e-01 5.70614189e-02 1.96057186e-02 1.34021178e-01
      5.91097772e-02 9.07130260e-03 1.22901518e-02 6.70105889e-02
      1.56553119e-01 2.83843987e-02 2.31171902e-02 3.65778320e-02
      2.07762085e-02 4.59417589e-02 0. 7.22777992e-02 3.45294736e-02
      1.66794918e-02 5.53056821e-02 4.07038122e-01 1.98983401e-02
      6.49622306e-02 2.54581720e-02 2.83843987e-02 6.26212507e-02
      2.92622659e-04 3.59633237e-01 5.85245318e-04</_>
    <_>
      4.77950156e-01 5.43169439e-01 1.22407801e-01 2.15369597e-01
      1.68888703e-01 2.31187697e-02 8.42009932e-02 3.13928574e-02
      9.92890373e-02 5.52416928e-02 1.87383723e-02 1.15837209e-01
      4.50207628e-02 1.82516612e-02 1.14377076e-02 1.03182726e-01
      1.43579736e-01 2.74991691e-02 1.77649502e-02 3.47998329e-02
      2.28754152e-02 4.16137874e-02 0. 5.84053136e-02 3.16362120e-02
      2.31187697e-02 7.76304007e-02 4.45583880e-01 2.04418600e-02
      4.86710966e-02 2.77425237e-02 3.79634537e-02 5.49983382e-02
      4.86710953e-04 3.09061468e-01 4.86710953e-04</_>
    <_>
      4.42515016e-01 5.77297211e-01 1.06752276e-01 2.31694192e-01
      1.01384841e-01 2.77317371e-02 9.81047451e-02 3.10118347e-02
      9.98938903e-02 5.57616651e-02 2.23643035e-02 1.23450957e-01
      4.26412709e-02 1.64004900e-02 1.19276289e-02 9.39300731e-02
      1.51480883e-01 2.92226896e-02 1.66986808e-02 3.99575569e-02
      2.59425920e-02 4.08521295e-02 2.98190716e-04 5.63580468e-02
      2.98190713e-02 2.11715400e-02 7.15657696e-02 4.30289209e-01
      2.32588761e-02 5.66562377e-02 3.28009799e-02 4.62195612e-02
      7.33549148e-02 8.94572120e-04 3.30395311e-01 2.68371636e-03</_>
    <_>
      5.06845415e-01 5.36487818e-01 1.00628026e-01 2.54300296e-01
      8.58068466e-02 3.88080962e-02 8.56118277e-02 4.23183739e-02
      9.12672803e-02 6.31850436e-02 1.96965709e-02 1.53867275e-01
      4.56336401e-02 1.89165082e-02 1.79414321e-02 7.33258501e-02
      1.44506529e-01 4.13432978e-02 2.04766337e-02 4.95339520e-02
      3.00323963e-02 4.91439216e-02 0. 7.04006180e-02 3.62728946e-02
      2.37918980e-02 6.47451654e-02 3.50637972e-01 2.88623031e-02
      6.88404888e-02 4.95339520e-02 5.42143248e-02 9.32174325e-02
      3.90031113e-04 3.68189365e-01 2.14517117e-03</_>
    <_>
      4.45475966e-01 5.58877587e-01 6.80409968e-02 2.50767440e-01
      1.17253035e-01 2.01127473e-02 7.57437497e-02 2.90992931e-02
      1.16825104e-01 4.96399701e-02 2.22524013e-02 1.33086473e-01
      4.49327342e-02 8.98654666e-03 1.41217159e-02 6.20499663e-02
      1.70316458e-01 2.82434318e-02 2.35361941e-02 3.89417037e-02
      1.66893005e-02 3.20948102e-02 0. 8.30185711e-02 3.20948102e-02
      1.54055087e-02 5.43472096e-02 4.36061472e-01 2.56758481e-02
      5.77706583e-02 3.25227417e-02 2.52479166e-02 5.86265177e-02 0.
      3.41916710e-01 2.13965401e-03</_>
    <_>
      4.66525227e-01 5.28447628e-01 1.35840207e-01 2.08137035e-01
      2.18511462e-01 1.94520596e-02 8.75342637e-02 2.75570843e-02
      9.56392884e-02 4.79817465e-02 1.65342502e-02 1.17036559e-01
      4.37671319e-02 1.52374459e-02 1.23196375e-02 1.14118747e-01
      1.43945232e-01 2.65844800e-02 1.68584511e-02 3.07990927e-02
      1.52374459e-02 3.72831114e-02 0. 7.10000172e-02 2.52876766e-02
      1.39406426e-02 9.95296985e-02 4.70739841e-01 2.10730638e-02
      5.67351729e-02 2.36666724e-02 3.07990927e-02 5.34931608e-02
      6.48401969e-04 2.72653013e-01 1.29680394e-03</_>
    <_>
      4.29011047e-01 5.94842494e-01 1.19987264e-01 2.17335418e-01
      1.21119216e-01 2.26391070e-02 8.71605575e-02 2.88648605e-02
      1.11497596e-01 4.86740768e-02 2.37710606e-02 1.29608884e-01
      5.15039675e-02 1.75453071e-02 1.86772626e-02 1.08101733e-01
      1.63567543e-01 3.16947475e-02 1.92432404e-02 2.43370384e-02
      1.64133515e-02 3.45246382e-02 0. 7.41430745e-02 3.11287716e-02
      2.20731292e-02 7.24451393e-02 4.27879095e-01 2.26391070e-02
      4.92400564e-02 2.32050829e-02 3.33926827e-02 6.16915636e-02
      5.65977651e-04 3.09589773e-01 5.65977651e-04</_>
    <_>
      4.19994265e-01 5.62642634e-01 7.90412351e-02 2.54428595e-01
      1.35165200e-01 2.10464839e-02 8.88629332e-02 2.89973766e-02
      1.34229794e-01 5.56562580e-02 2.15141829e-02 1.25811204e-01
      5.33177592e-02 1.02893915e-02 1.68371871e-02 6.17363527e-02
      1.72113463e-01 2.61911787e-02 1.91756841e-02 4.06898670e-02
      1.49663882e-02 3.97544689e-02 0. 7.15580434e-02 3.46097723e-02
      1.59017872e-02 5.79947531e-02 4.33557570e-01 2.01110840e-02
      5.98655529e-02 3.41420732e-02 2.85296775e-02 6.64133504e-02 0.
      3.48903924e-01 4.67699632e-04</_>
    <_>
      4.27408069e-01 5.73634863e-01 1.26813382e-01 2.15426192e-01
      1.15541086e-01 2.66151540e-02 8.01585838e-02 2.78676320e-02
      9.55014378e-02 5.26040718e-02 1.78478099e-02 1.25874028e-01
      2.78676320e-02 2.00396460e-02 1.25247790e-02 9.95719880e-02
      1.54994130e-01 2.75545139e-02 1.69084519e-02 3.66349779e-02
      2.06658840e-02 4.25842479e-02 0. 7.57749081e-02 3.19381841e-02
      2.03527659e-02 6.73206821e-02 4.58093792e-01 2.28577219e-02
      4.91597578e-02 3.16250660e-02 3.69480960e-02 6.04320578e-02
      6.26238936e-04 3.25644255e-01 2.19183625e-03</_>
    <_>
      4.69772816e-01 5.55999219e-01 1.05546825e-01 2.35065296e-01
      1.10913612e-01 2.93384399e-02 9.51710343e-02 2.96962243e-02
      1.10555828e-01 5.68879507e-02 2.28982940e-02 1.24509476e-01
      4.65121605e-02 1.57425776e-02 1.75315067e-02 8.47952440e-02
      1.58856913e-01 2.43294369e-02 1.71737205e-02 3.75675149e-02
      2.00360082e-02 5.65301627e-02 3.57785844e-04 6.33280948e-02
      2.43294369e-02 1.93204358e-02 6.40436634e-02 4.24691796e-01
      2.71917246e-02 5.61723784e-02 4.25765142e-02 4.68699448e-02
      6.58325925e-02 1.07335753e-03 3.26300681e-01 1.78892922e-03</_>
    <_>
      4.30196345e-01 5.56515813e-01 1.17695227e-01 2.05459341e-01
      1.43567890e-01 2.48580426e-02 8.72568041e-02 2.73945779e-02
      1.13129459e-01 5.12380078e-02 2.33361218e-02 1.25812143e-01
      3.90626378e-02 1.82630531e-02 1.62338242e-02 9.99394804e-02
      1.49655566e-01 2.38434300e-02 1.67411305e-02 3.29749547e-02
      1.52192097e-02 5.17453142e-02 5.07307006e-04 6.79791421e-02
      2.13068947e-02 1.47119034e-02 6.84864447e-02 4.95131642e-01
      2.38434300e-02 4.92087789e-02 3.09457276e-02 4.10918668e-02
      5.32672368e-02 5.07307006e-04 2.91194230e-01 2.53653503e-03</_>
    <_>
      4.75356609e-01 5.38914442e-01 1.17756575e-01 2.12325022e-01
      1.30468145e-01 2.72390656e-02 7.73868859e-02 3.40837538e-02
      9.00984481e-02 5.54559454e-02 2.13721897e-02 1.29071265e-01
      4.30237539e-02 1.96959395e-02 1.53656267e-02 9.79209468e-02
      1.47090957e-01 2.93343775e-02 1.69021897e-02 3.86934429e-02
      2.23500021e-02 4.67953160e-02 1.39687516e-04 6.84468821e-02
      2.87756287e-02 2.22103149e-02 7.01231360e-02 4.47139740e-01
      2.86359414e-02 5.69925047e-02 3.82743776e-02 4.20459434e-02
      6.60721958e-02 1.39687516e-04 3.31478477e-01 1.11750013e-03</_>
    <_>
      4.58328336e-01 5.69671392e-01 9.33256894e-02 2.41918012e-01
      7.99645334e-02 3.11760455e-02 8.96817371e-02 3.54273245e-02
      7.87498802e-02 5.78983687e-02 2.69247666e-02 1.39077544e-01
      4.79787178e-02 1.55880228e-02 1.66002326e-02 7.10570887e-02
      1.40697092e-01 4.02859263e-02 2.26734877e-02 4.51445319e-02
      2.12563947e-02 4.19054627e-02 2.02441850e-04 7.53083676e-02
      3.52248810e-02 2.16612779e-02 5.72910421e-02 3.84437084e-01
      2.75320914e-02 5.91130219e-02 4.04883698e-02 4.77762781e-02
      8.25962722e-02 8.09767400e-04 3.79983366e-01 1.41709298e-03</_>
    <_>
      4.13038373e-01 5.60950756e-01 7.32584968e-02 2.53962785e-01
      1.88378990e-01 1.60470996e-02 8.44216943e-02 3.27918977e-02
      1.47912398e-01 4.67458963e-02 2.58148983e-02 1.27679095e-01
      6.62814975e-02 1.25585990e-02 1.67447999e-02 7.46538937e-02
      1.89076692e-01 2.86056977e-02 2.86056977e-02 4.04665992e-02
      1.60470996e-02 3.41872983e-02 0. 7.67469928e-02 2.93033980e-02
      1.74424984e-02 6.69791996e-02 3.92107368e-01 2.16286983e-02
      6.55837953e-02 2.23263986e-02 3.41872983e-02 7.53515959e-02
      6.97699958e-04 3.62803966e-01 2.79079983e-03</_>
    <_>
      4.22035396e-01 5.98102450e-01 7.04268292e-02 2.37033576e-01
      1.14574984e-01 2.20740791e-02 8.14638659e-02 3.52134146e-02
      9.35520530e-02 4.41481583e-02 1.62927732e-02 1.15100555e-01
      4.25714403e-02 1.05114663e-02 8.93474650e-03 6.04409315e-02
      1.49788395e-01 3.15343998e-02 2.04973593e-02 3.36366929e-02
      1.36649068e-02 3.10088266e-02 0. 8.25150087e-02 3.67901325e-02
      1.20881861e-02 5.57107739e-02 4.45160598e-01 2.15485059e-02
      5.62363453e-02 3.04832533e-02 2.10229326e-02 4.83527444e-02 0.
      3.29534471e-01 3.67901335e-03</_>
    <_>
      4.52964664e-01 6.12408221e-01 1.24655880e-01 2.14524060e-01
      1.39875486e-01 2.02928167e-02 7.97217786e-02 2.46412773e-02
      1.01464085e-01 5.43557592e-02 1.95680745e-02 1.05087802e-01
      5.94289638e-02 1.81185864e-02 2.39165351e-02 8.62444714e-02
      1.40600234e-01 2.10175607e-02 2.39165351e-02 2.97144819e-02
      1.88433304e-02 3.69619168e-02 7.24743470e-04 6.37774244e-02
      3.40629444e-02 1.95680745e-02 6.88506290e-02 3.90636742e-01
      1.73938423e-02 5.36310151e-02 2.53660213e-02 4.05856334e-02
      6.30526841e-02 0. 3.14538658e-01 4.34846058e-03</_>
    <_>
      4.41080630e-01 5.51570594e-01 7.09245950e-02 2.37978384e-01
      1.24557652e-01 1.93430707e-02 7.73722827e-02 2.87215281e-02
      1.37453035e-01 5.92015199e-02 2.02223007e-02 1.21626884e-01
      5.04092127e-02 1.11369193e-02 1.17230732e-02 6.27184436e-02
      1.73501477e-01 3.31176817e-02 2.25669146e-02 3.95653695e-02
      1.72915328e-02 4.51338291e-02 0. 7.50276670e-02 3.78069095e-02
      1.69984549e-02 5.97876720e-02 4.35512155e-01 2.05153786e-02
      5.86153641e-02 2.60838382e-02 3.25315259e-02 6.74076676e-02
      2.93076824e-04 3.55209112e-01 1.17230730e-03</_>
    <_>
      4.20779347e-01 5.45355141e-01 8.15568045e-02 2.32123226e-01
      1.53703213e-01 1.74764581e-02 8.37973803e-02 3.18161175e-02
      1.33089960e-01 5.06369174e-02 1.92689169e-02 1.20094642e-01
      6.72171488e-02 1.25472015e-02 1.38915442e-02 7.34907463e-02
      1.66698530e-01 3.49529162e-02 2.55425163e-02 3.18161175e-02
      2.41981745e-02 4.88444604e-02 8.96228652e-04 7.39388615e-02
      3.80897187e-02 1.65802296e-02 6.99058324e-02 4.30637866e-01
      1.74764581e-02 7.61794373e-02 2.24057157e-02 2.19576024e-02
      7.08020627e-02 4.48114326e-04 3.80000949e-01 3.58491461e-03</_>
    <_>
      4.59481001e-01 5.70049345e-01 1.15694016e-01 2.17475459e-01
      1.11666694e-01 2.85573844e-02 8.16448256e-02 2.89235041e-02
      9.95847210e-02 6.18743338e-02 2.41639409e-02 1.09103851e-01
      6.07759729e-02 1.31803313e-02 1.53770531e-02 7.43224248e-02
      1.38759598e-01 3.29508260e-02 2.16010977e-02 3.03879865e-02
      1.79398954e-02 3.69781516e-02 0. 6.66338950e-02 3.95409949e-02
      2.30655801e-02 5.89453690e-02 3.92480969e-01 2.37978194e-02
      6.26065731e-02 2.96557453e-02 3.40491869e-02 6.29726946e-02
      7.32240616e-04 3.85524690e-01 1.09836087e-03</_>
    <_>
      4.77632910e-01 5.38643181e-01 9.42681730e-02 2.38984987e-01
      9.26951617e-02 3.01118828e-02 7.41561279e-02 3.76398563e-02
      7.75268674e-02 6.21338487e-02 2.21344810e-02 1.38312414e-01
      4.91003469e-02 1.75278131e-02 1.47188688e-02 7.60662109e-02
      1.35615841e-01 4.15723771e-02 2.22468395e-02 4.60666865e-02
      2.64040772e-02 4.62914035e-02 1.12357775e-04 7.96616599e-02
      3.82016450e-02 2.15726923e-02 6.02237657e-02 3.76398534e-01
      2.42692791e-02 7.01112524e-02 4.59543318e-02 3.79769281e-02
      8.20211768e-02 1.12357775e-04 4.07634020e-01 8.98862199e-04</_>
    <_>
      4.91272777e-01 5.53062856e-01 1.00582078e-01 2.43558243e-01
      9.64257941e-02 3.51898707e-02 8.09089988e-02 3.96232419e-02
      9.97508168e-02 6.23442605e-02 2.77085602e-02 1.51565835e-01
      5.12608364e-02 1.71793085e-02 1.80105641e-02 7.61985406e-02
      1.39374062e-01 3.29731889e-02 2.46606190e-02 4.43336964e-02
      3.29731889e-02 4.76587228e-02 0. 7.59214535e-02 3.15877609e-02
      2.05043349e-02 7.01026618e-02 3.59657109e-01 2.88169030e-02
      7.34276846e-02 4.48878668e-02 4.87670675e-02 9.89195630e-02
      5.54171216e-04 3.60211283e-01 2.21668486e-03</_>
    <_>
      4.47507739e-01 5.78386486e-01 1.37788489e-01 2.31273308e-01
      1.37788489e-01 2.43873429e-02 8.57621580e-02 3.33293676e-02
      1.06084943e-01 5.97489886e-02 2.64196210e-02 1.32504568e-01
      5.04005104e-02 1.54453171e-02 1.50388610e-02 1.00394562e-01
      1.50795072e-01 2.72325333e-02 2.68260762e-02 3.45487371e-02
      2.11356971e-02 4.18649390e-02 4.06455714e-04 7.39749372e-02
      2.92648114e-02 1.74775962e-02 7.76330382e-02 4.02391165e-01
      2.15421524e-02 5.69038019e-02 3.08906343e-02 2.96712667e-02
      6.34070933e-02 0. 3.26790392e-01 8.12911429e-04</_>
    <_>
      4.64495122e-01 5.57504892e-01 9.20409039e-02 2.29064196e-01
      8.88575315e-02 2.92039551e-02 8.06914940e-02 4.16606180e-02
      7.18334243e-02 6.28369451e-02 2.42212899e-02 1.39237806e-01
      4.99650612e-02 1.38407368e-02 1.77161433e-02 6.69891685e-02
      1.33978337e-01 3.66779529e-02 2.29756236e-02 4.37367298e-02
      2.86503248e-02 4.19374332e-02 0. 7.95842409e-02 4.17990237e-02
      2.14531422e-02 5.41172810e-02 3.98751616e-01 2.49133259e-02
      6.56050965e-02 3.95845063e-02 3.98613214e-02 7.51551986e-02
      1.38407369e-04 3.87817442e-01 1.93770323e-03</_>
    <_>
      4.31492597e-01 5.81245899e-01 7.21974522e-02 2.37461939e-01
      1.27473623e-01 2.22796816e-02 8.43243673e-02 3.44065987e-02
      1.52855545e-01 5.33020236e-02 1.72032993e-02 1.26627564e-01
      5.01997918e-02 1.21269161e-02 1.15628736e-02 6.57109618e-02
      1.61316186e-01 2.67920233e-02 2.48178747e-02 2.76380870e-02
      2.00235117e-02 4.14571315e-02 0. 6.14806414e-02 3.13043632e-02
      1.04347877e-02 5.27379811e-02 4.25852150e-01 2.05875542e-02
      5.69683015e-02 2.19976604e-02 2.67920233e-02 5.58402166e-02
      2.82021298e-04 3.35323334e-01 2.82021298e-04</_>
    <_>
      5.77499628e-01 4.96906370e-01 1.21659927e-01 1.75816551e-01
      1.96349874e-01 2.07899865e-02 6.15999624e-02 2.61799842e-02
      7.82832876e-02 4.18366417e-02 1.59133226e-02 1.11649930e-01
      3.51633132e-02 1.69399902e-02 8.46999511e-03 1.21146590e-01
      1.21916592e-01 2.05333196e-02 1.10366596e-02 2.33566519e-02
      1.48866577e-02 3.46499793e-02 2.56666506e-04 5.90332970e-02
      2.64366493e-02 1.46299908e-02 8.39299485e-02 4.42236394e-01
      1.25766592e-02 4.31199744e-02 2.36133188e-02 2.51533184e-02
      4.90233041e-02 0. 2.52046496e-01 1.53999904e-03</_>
    <_>
      4.54313308e-01 5.50881863e-01 1.14527598e-01 2.28747323e-01
      1.05188876e-01 2.91450154e-02 8.32274929e-02 3.42761800e-02
      8.49720836e-02 6.61920235e-02 1.93958022e-02 1.35360122e-01
      3.97152156e-02 1.78564526e-02 1.45725077e-02 8.64088163e-02
      1.49830014e-01 3.33525687e-02 1.90879330e-02 3.93047221e-02
      2.17561387e-02 4.64883521e-02 0. 7.44018853e-02 3.04791182e-02
      2.43217200e-02 6.80392459e-02 4.33172911e-01 2.61689406e-02
      6.01372495e-02 3.67391407e-02 4.14598100e-02 6.81418702e-02
      1.02623293e-04 3.54050368e-01 1.12885621e-03</_>
    <_>
      3.61325771e-01 6.98632777e-01 4.51657213e-02 1.27926022e-01
      1.19571671e-01 7.31005892e-03 5.84804714e-02 1.25315292e-02
      8.19770843e-02 5.82193956e-02 5.03871888e-02 3.31563391e-02
      6.29187226e-02 5.48254419e-03 6.00469112e-03 6.10912032e-02
      5.01261167e-02 1.93194412e-02 4.64710891e-02 6.78791152e-03
      3.13288230e-03 1.46201178e-02 0. 2.89791618e-02 6.52683824e-02
      8.09327886e-03 2.66295001e-02 4.79069918e-01 4.17717639e-03
      8.48488957e-02 3.13288230e-03 6.78791152e-03 2.32355446e-02 0.
      2.73866117e-01 2.34966166e-03</_>
    <_>
      4.12126184e-01 6.57258630e-01 8.48363787e-02 2.16556013e-01
      2.37095341e-01 1.11626815e-02 1.10287286e-01 2.09858399e-02
      1.79049402e-01 5.13483323e-02 4.06321585e-02 5.71529269e-02
      9.28735062e-02 2.23253621e-03 4.01856517e-03 7.81387687e-02
      9.42130312e-02 1.25022028e-02 3.17020155e-02 2.23253630e-02
      3.57205793e-03 1.83067974e-02 4.46507242e-04 3.12555060e-02
      2.54509132e-02 6.69760862e-03 6.25110120e-02 3.46043110e-01
      5.80459414e-03 8.08178112e-02 1.20556951e-02 1.07161738e-02
      4.55437377e-02 1.33952172e-03 2.75048465e-01 1.33952172e-03</_>
    <_>
      4.28689539e-01 5.71792543e-01 9.54020023e-02 2.11247295e-01
      1.72838703e-01 1.36288581e-02 7.61977062e-02 2.84967031e-02
      1.39386043e-01 4.46035340e-02 1.36288581e-02 1.19562253e-01
      5.51349260e-02 7.43392250e-03 1.36288581e-02 8.42511207e-02
      1.78414136e-01 2.53992360e-02 1.67263262e-02 2.84967031e-02
      6.81442907e-03 2.29212604e-02 0. 5.94713800e-02 3.34526524e-02
      1.79653130e-02 6.07103668e-02 4.91877884e-01 1.54873384e-02
      5.82323931e-02 1.54873384e-02 2.16822736e-02 5.76128997e-02 0.
      2.45319441e-01 2.47797417e-03</_>
    <_>
      4.35309768e-01 5.61474383e-01 1.16973832e-01 2.23921344e-01
      1.64598897e-01 1.37862014e-02 7.72862807e-02 3.63454409e-02
      1.86740369e-01 4.92961146e-02 1.75460745e-02 1.14467248e-01
      4.84605879e-02 1.04440926e-02 1.12796193e-02 9.10724849e-02
      1.98019981e-01 2.38125306e-02 1.50394924e-02 2.00526565e-02
      1.08618559e-02 3.38388570e-02 8.35527375e-04 5.18026985e-02
      2.75724027e-02 1.42039657e-02 6.30823150e-02 4.64970976e-01
      1.58750210e-02 5.34737520e-02 1.96348932e-02 2.59013493e-02
      4.84605879e-02 4.17763687e-04 2.51493752e-01 4.17763687e-04</_>
    <_>
      4.61725622e-01 5.66601336e-01 1.29392132e-01 1.98855281e-01
      2.13837534e-01 1.63442697e-02 7.89973065e-02 4.90328074e-02
      1.15771912e-01 6.40150532e-02 2.04303376e-02 1.03513710e-01
      6.67391047e-02 1.22582018e-02 1.08961798e-02 7.21871927e-02
      1.53908536e-01 2.72404496e-02 3.13265175e-02 3.13265175e-02
      8.17213487e-03 2.72404496e-02 0. 6.26530349e-02 3.94986533e-02
      1.36202248e-02 5.44808991e-02 4.61725622e-01 1.63442697e-02
      7.89973065e-02 1.36202248e-02 2.31543817e-02 5.03948331e-02 0.
      2.39715964e-01 4.08606743e-03</_>
    <_>
      3.66316736e-01 6.75180018e-01 4.35994342e-02 1.23463817e-01
      1.33243129e-01 7.53821991e-03 4.95077707e-02 8.96437000e-03
      7.04925433e-02 5.76571971e-02 5.41936904e-02 3.66724208e-02
      6.74365088e-02 4.88965632e-03 4.27844934e-03 6.86589256e-02
      5.15451245e-02 1.36502907e-02 4.44143787e-02 6.31580595e-03
      3.87097779e-03 1.16129331e-02 4.07471351e-04 2.52632238e-02
      4.82853539e-02 5.70459897e-03 2.87267305e-02 5.23600698e-01
      4.27844934e-03 8.19017440e-02 4.27844934e-03 4.68592066e-03
      2.54669599e-02 2.03735675e-04 2.45297760e-01 1.22241408e-03</_>
    <_>
      4.80671257e-01 6.48764551e-01 8.35744739e-02 1.77536726e-01
      1.27486482e-01 9.91561543e-03 6.65762722e-02 2.31364369e-02
      9.44344327e-02 6.56319335e-02 5.94936907e-02 7.31866881e-02
      6.46875873e-02 8.49909894e-03 9.44344327e-03 6.13823831e-02
      1.02461360e-01 2.88025029e-02 4.39120121e-02 1.79425422e-02
      1.22764762e-02 1.98312309e-02 0. 5.19389361e-02 4.95780781e-02
      8.97127111e-03 4.43841815e-02 3.56962144e-01 2.83303298e-03
      8.78240243e-02 8.97127111e-03 9.91561543e-03 5.52441441e-02
      4.72172163e-04 3.13522309e-01 1.88868865e-03</_>
    <_>
      4.68343437e-01 6.77261353e-01 8.72404426e-02 1.97438896e-01
      1.30860671e-01 9.18320473e-03 7.34656379e-02 3.21412161e-02
      1.67593479e-01 5.05076274e-02 5.05076274e-02 5.96908294e-02
      8.49446431e-02 9.18320473e-03 6.88740332e-03 4.36202213e-02
      8.49446431e-02 1.60706080e-02 2.06622109e-02 1.60706080e-02
      1.37748066e-02 1.60706080e-02 0. 2.98454147e-02 2.29580123e-02
      4.59160237e-03 4.82118241e-02 3.16820562e-01 6.88740332e-03
      1.07902654e-01 1.14790061e-02 1.14790061e-02 6.19866326e-02
      4.59160237e-03 2.77791947e-01 2.29580118e-03</_>
    <_>
      4.04648185e-01 7.25863755e-01 1.41835451e-01 2.71156013e-01
      5.84028326e-02 2.92014163e-02 5.84028326e-02 3.33730467e-02
      9.59475115e-02 5.42312004e-02 4.58879396e-02 7.09177256e-02
      7.92609826e-02 0. 8.34326167e-03 1.66865233e-02 7.50893578e-02
      2.92014163e-02 2.08581537e-02 5.00595719e-02 2.08581537e-02
      4.17163074e-02 0. 5.42312004e-02 2.08581537e-02 2.08581537e-02
      3.75446789e-02 2.54469484e-01 2.08581537e-02 7.50893578e-02
      2.50297859e-02 5.00595719e-02 5.00595719e-02 0. 2.96185791e-01
      4.17163083e-03</_>
    <_>
      4.57972914e-01 5.67090869e-01 1.16643339e-01 2.20386028e-01
      1.48357421e-01 2.15010755e-02 6.39657006e-02 3.33266668e-02
      1.35456786e-01 5.26776388e-02 1.88134424e-02 1.04817748e-01
      5.48277460e-02 1.07505377e-02 1.45132262e-02 7.63288215e-02
      1.95659801e-01 1.88134424e-02 1.88134424e-02 2.68763453e-02
      1.34381726e-02 3.11765615e-02 0. 6.12780675e-02 3.60143036e-02
      1.77383889e-02 5.75153790e-02 4.48834956e-01 1.45132262e-02
      5.69778532e-02 2.15010755e-02 2.63388194e-02 5.05275279e-02 0.
      2.81126589e-01 2.15010764e-03</_>
    <_>
      4.33332950e-01 5.82013190e-01 1.08015545e-01 2.30009571e-01
      1.33430973e-01 1.65200252e-02 8.26001242e-02 3.43108214e-02
      1.84261814e-01 5.21016158e-02 1.39784822e-02 9.53078344e-02
      4.44769897e-02 6.35385560e-03 1.65200252e-02 7.75170401e-02
      2.22384945e-01 1.52492542e-02 2.16031093e-02 2.03323383e-02
      8.89539812e-03 2.16031093e-02 1.27077114e-03 5.46431579e-02
      2.66861934e-02 2.16031093e-02 4.06646766e-02 4.29520637e-01
      1.14369402e-02 6.35385588e-02 1.65200252e-02 2.92277355e-02
      3.93939056e-02 0. 2.83381969e-01 3.81231355e-03</_>
    <_>
      4.13249671e-01 5.52951515e-01 1.31336436e-01 2.19172910e-01
      1.71490252e-01 2.17499826e-02 7.02691749e-02 2.09134445e-02
      2.09970981e-01 5.60480319e-02 1.75672937e-02 1.12096064e-01
      4.34999652e-02 1.25480667e-02 1.58942174e-02 9.62018445e-02
      2.05788299e-01 2.09134445e-02 1.92403700e-02 2.17499826e-02
      1.33846048e-02 3.42980511e-02 0. 5.35384193e-02 3.76442000e-02
      1.08749913e-02 5.85576445e-02 4.79336172e-01 1.25480667e-02
      5.35384193e-02 2.67692097e-02 2.92788222e-02 4.85191941e-02
      8.36537802e-04 2.48451725e-01 2.50961352e-03</_>
    <_>
      4.15671408e-01 6.72917068e-01 2.82342844e-02 1.18034989e-01
      1.03525706e-01 2.74499971e-03 4.35278527e-02 9.80357081e-03
      6.27428517e-02 7.05857128e-02 7.41149932e-02 2.50971410e-02
      8.74478519e-02 4.31357091e-03 3.92142823e-03 3.45085673e-02
      2.70578545e-02 2.15678550e-02 7.01935664e-02 9.01928544e-03
      2.74499971e-03 1.09799989e-02 0. 2.47049984e-02 7.45071396e-02
      5.88214258e-03 1.80385709e-02 4.18416411e-01 1.96071411e-03
      1.13721423e-01 5.48999943e-03 4.70571406e-03 3.37242819e-02 0.
      3.47830683e-01 7.84285658e-04</_>
    <_>
      4.26557600e-01 6.92807615e-01 4.25163619e-02 1.49155766e-01
      9.13056284e-02 1.25458119e-02 5.01832478e-02 1.60307586e-02
      9.54875648e-02 7.73658380e-02 6.27290606e-02 4.94862571e-02
      5.50621748e-02 7.66688492e-03 4.18193731e-03 4.46073301e-02
      6.27290606e-02 2.16066763e-02 5.43651842e-02 9.06086434e-03
      9.75785311e-03 1.60307586e-02 6.96989533e-04 3.69404443e-02
      6.13350794e-02 5.57591626e-03 2.85765715e-02 4.03556943e-01
      6.27290597e-03 1.06639400e-01 6.96989521e-03 6.27290597e-03
      4.39103395e-02 0. 2.93432593e-01 1.39397907e-03</_>
    <_>
      3.80082041e-01 7.21667051e-01 2.71923654e-02 1.27712458e-01
      8.73822048e-02 4.27745050e-03 4.70519550e-02 1.34434160e-02
      7.39387870e-02 7.02724010e-02 6.38562292e-02 3.02476864e-02
      6.66060150e-02 3.97191849e-03 6.41617598e-03 3.75804603e-02
      4.58298288e-02 1.86374635e-02 5.40791973e-02 1.06936265e-02
      3.36085400e-03 8.86043347e-03 0. 3.11642829e-02 6.26340955e-02
      9.77702998e-03 1.43600125e-02 4.20717835e-01 2.74978974e-03
      9.19651911e-02 3.97191849e-03 6.11064397e-03 2.38315109e-02 0.
      2.99116015e-01 3.05532187e-04</_>
    <_>
      4.10313070e-01 6.57068133e-01 6.42886832e-02 1.90029785e-01
      2.09883645e-01 8.03608540e-03 8.08335617e-02 1.60721708e-02
      1.55994594e-01 5.62525988e-02 5.43617532e-02 4.58529592e-02
      8.93423632e-02 4.25439794e-03 1.03996396e-02 6.75976574e-02
      7.84700066e-02 1.18177729e-02 5.15254885e-02 1.32359052e-02
      3.78168724e-03 1.51267489e-02 9.45421809e-04 2.41082553e-02
      5.24709113e-02 8.03608540e-03 4.49075364e-02 3.68714511e-01
      5.19981980e-03 1.06359951e-01 8.03608540e-03 1.22904833e-02
      4.58529592e-02 0. 3.14825475e-01 2.83626537e-03</_>
    <_>
      2.97631770e-01 6.95198238e-01 5.38778640e-02 1.09493725e-01
      1.70323581e-01 4.77948785e-03 5.17053716e-02 9.12447739e-03
      7.34303147e-02 4.21463959e-02 2.86769290e-02 2.82424297e-02
      7.12578222e-02 4.77948785e-03 4.77948785e-03 9.08102766e-02
      7.42993131e-02 6.51748385e-03 2.21594442e-02 5.64848585e-03
      1.30349677e-03 7.38648139e-03 0. 2.17249449e-02 2.91114263e-02
      7.38648139e-03 3.38909142e-02 5.60503602e-01 3.91049031e-03
      5.12708724e-02 8.68997828e-04 4.77948785e-03 1.78144556e-02 0.
      1.82924047e-01 0.</_>
    <_>
      4.54971135e-01 5.35313249e-01 1.06521018e-01 2.16652915e-01
      1.88668579e-01 1.98598504e-02 7.04121962e-02 3.24979387e-02
      1.69711456e-01 5.23577891e-02 1.35408072e-02 1.18256383e-01
      6.22877143e-02 1.17353667e-02 1.35408072e-02 9.74938124e-02
      2.19361082e-01 1.53462486e-02 2.16652919e-02 2.34707333e-02
      1.08326459e-02 3.34006585e-02 0. 6.68013170e-02 3.24979387e-02
      1.17353667e-02 7.76339620e-02 4.44138497e-01 1.53462486e-02
      5.50659485e-02 2.52761729e-02 2.52761729e-02 4.78441864e-02 0.
      2.83454239e-01 1.80544099e-03</_>
    <_>
      4.10614043e-01 5.70032060e-01 1.15650982e-01 2.17508733e-01
      1.14324711e-01 1.40584912e-02 9.39001143e-02 2.25466378e-02
      1.03714533e-01 5.11941276e-02 2.20161285e-02 1.22017093e-01
      3.97881828e-02 1.32627273e-02 1.53847644e-02 8.80645141e-02
      1.81964621e-01 2.25466378e-02 2.12203637e-02 2.86474917e-02
      1.14059458e-02 2.14856192e-02 0. 6.36610910e-02 3.58093642e-02
      1.67110376e-02 4.66848016e-02 4.81967509e-01 1.80373099e-02
      5.46424389e-02 2.22813822e-02 2.30771452e-02 4.19102199e-02 0.
      3.20958018e-01 5.30509104e-04</_>
    <_>
      5.31224847e-01 4.63926822e-01 7.01617748e-02 2.82794923e-01
      6.65820912e-02 5.36952354e-02 7.08777085e-02 5.65589815e-02
      5.51271103e-02 6.65820912e-02 2.72055864e-02 1.48914784e-01
      5.51271103e-02 1.93302855e-02 2.00462211e-02 7.30255172e-02
      1.10970154e-01 6.58661574e-02 2.21940316e-02 6.65820912e-02
      2.43418403e-02 5.72749190e-02 0. 7.51733333e-02 3.36490162e-02
      2.86374595e-02 5.79908527e-02 3.26467037e-01 3.72286960e-02
      7.66052008e-02 6.15705363e-02 6.58661574e-02 1.23857014e-01
      3.57968244e-03 4.34573442e-01 3.57968244e-03</_>
    <_>
      4.09058332e-01 5.70898712e-01 1.19408689e-01 2.22701922e-01
      1.30980954e-01 1.33724017e-02 9.54069421e-02 2.12586895e-02
      1.13665417e-01 5.05751073e-02 2.05729250e-02 1.18294321e-01
      4.28602621e-02 1.17437113e-02 1.09722270e-02 9.02637094e-02
      1.71355322e-01 1.86013542e-02 2.17730124e-02 2.16872916e-02
      1.18294321e-02 2.53732745e-02 0. 6.64334074e-02 3.34310047e-02
      1.47439297e-02 5.26324026e-02 4.85949636e-01 1.79155897e-02
      5.76899126e-02 2.14301310e-02 1.77441482e-02 3.63455005e-02
      8.57205232e-05 3.06622326e-01 9.42925748e-04</_>
    <_>
      4.03023899e-01 5.73941946e-01 1.21559843e-01 2.16197044e-01
      1.03407450e-01 1.48890410e-02 9.52490717e-02 2.34553386e-02
      1.08914353e-01 5.36413416e-02 2.08038650e-02 1.13401465e-01
      4.28314880e-02 1.20336087e-02 1.42771630e-02 8.79065320e-02
      1.89682305e-01 1.99880283e-02 2.14157440e-02 2.56988928e-02
      9.79005452e-03 2.32513789e-02 4.07918938e-04 6.50630742e-02
      3.73245813e-02 1.55009199e-02 4.77265157e-02 4.87667084e-01
      1.73365548e-02 5.34373820e-02 2.01919880e-02 2.30474193e-02
      4.11998145e-02 0. 3.13485712e-01 2.03959469e-04</_>
    <_>
      4.01829422e-01 5.81750035e-01 1.21096499e-01 2.26777032e-01
      1.22313552e-01 1.35903945e-02 9.71611813e-02 2.08926965e-02
      1.11562937e-01 4.88848500e-02 1.96756460e-02 1.16431139e-01
      4.25967574e-02 1.31847113e-02 9.12787672e-03 8.43821466e-02
      1.63287580e-01 1.96756460e-02 2.49495301e-02 2.21097469e-02
      1.01420851e-02 2.69779470e-02 2.02841708e-04 6.55178726e-02
      3.30631994e-02 1.62273366e-02 4.92905341e-02 4.88240004e-01
      1.82557534e-02 5.55786267e-02 2.04870123e-02 1.72415450e-02
      3.77285592e-02 0. 3.00002873e-01 1.01420854e-03</_>
    <_>
      4.04117048e-01 5.63585341e-01 1.17422685e-01 2.30706170e-01
      1.25265390e-01 1.13283480e-02 9.62909609e-02 2.54887845e-02
      1.18294097e-01 5.27203903e-02 2.30924021e-02 1.24393977e-01
      4.40062769e-02 1.19819073e-02 1.02390843e-02 9.04089361e-02
      1.72103748e-01 2.04781685e-02 2.24388447e-02 2.17852853e-02
      1.26354657e-02 2.46173721e-02 0. 7.12378845e-02 3.35493386e-02
      1.37247294e-02 5.38096540e-02 4.89079654e-01 1.96067560e-02
      6.12166524e-02 1.91710517e-02 1.67746693e-02 3.65992785e-02
      2.17852852e-04 3.11093867e-01 1.30711705e-03</_>
    <_>
      4.32526439e-01 6.01596296e-01 1.14408173e-01 2.32947752e-01
      1.58582434e-01 1.52544230e-02 1.03602953e-01 2.16104314e-02
      1.47777215e-01 5.30726798e-02 1.36654200e-02 1.23624384e-01
      4.19496633e-02 8.58061295e-03 7.94501137e-03 8.45349282e-02
      1.42692417e-01 1.90680288e-02 2.19282322e-02 1.87502280e-02
      1.01696150e-02 3.17800455e-02 0. 6.03820905e-02 2.73308400e-02
      1.23942187e-02 7.15051070e-02 4.43331659e-01 1.77968256e-02
      4.79878709e-02 1.93858296e-02 1.62078235e-02 3.59114520e-02 0.
      2.53922582e-01 1.58900232e-03</_>
    <_>
      3.98877442e-01 5.81428170e-01 1.06353909e-01 2.18940288e-01
      1.26860708e-01 1.26659665e-02 9.20795649e-02 2.11099442e-02
      9.89151672e-02 5.04628196e-02 2.11099442e-02 1.14797890e-01
      4.24209349e-02 1.02534015e-02 9.44921374e-03 9.04711932e-02
      1.58425108e-01 2.47287918e-02 2.29193680e-02 2.29193680e-02
      1.18617788e-02 2.47287918e-02 2.01047093e-04 6.77528679e-02
      3.51832397e-02 1.68879554e-02 5.72984219e-02 4.92967457e-01
      1.68879554e-02 5.77005148e-02 1.64858624e-02 1.68879554e-02
      3.96062769e-02 0. 3.10818791e-01 2.21151812e-03</_>
    <_>
      3.91765386e-01 5.71693301e-01 1.25309020e-01 2.20338911e-01
      1.37653589e-01 1.23445690e-02 9.77084264e-02 2.08460167e-02
      1.15875907e-01 4.93782759e-02 1.93320606e-02 1.09703623e-01
      4.50693220e-02 1.14129037e-02 1.10635292e-02 9.10703093e-02
      1.87264785e-01 1.81674790e-02 2.00308096e-02 2.42233053e-02
      1.04812384e-02 2.63195522e-02 2.32916398e-04 6.56824261e-02
      3.12107969e-02 1.58383157e-02 5.91607653e-02 4.88775074e-01
      1.85168535e-02 5.63657694e-02 1.97978932e-02 2.11953931e-02
      4.01780792e-02 0. 3.10477555e-01 3.49374604e-04</_>
    <_>
      3.90808046e-01 5.83807051e-01 1.36281773e-01 2.13441312e-01
      1.12232052e-01 1.18244486e-02 9.31926817e-02 1.88389514e-02
      1.04415886e-01 5.41118830e-02 1.78368799e-02 1.04415886e-01
      4.08845320e-02 9.82030481e-03 9.21906158e-03 8.81823227e-02
      1.86385363e-01 1.56323221e-02 1.86385363e-02 2.14443374e-02
      1.24256909e-02 2.60538682e-02 0. 6.17276281e-02 3.34692001e-02
      1.82377081e-02 5.41118830e-02 4.84201133e-01 1.64339785e-02
      5.63164391e-02 1.80372931e-02 2.18451675e-02 3.78783159e-02
      2.00414375e-04 3.17656785e-01 1.00207189e-03</_>
    <_>
      4.00144011e-01 5.79998195e-01 1.12742327e-01 2.26327062e-01
      1.50791109e-01 1.37593374e-02 9.60345566e-02 2.03582030e-02
      1.15831159e-01 5.15273139e-02 1.97965987e-02 1.10355504e-01
      4.40860391e-02 1.06705064e-02 1.15129147e-02 9.53325555e-02
      1.53458729e-01 2.31662318e-02 2.07794085e-02 2.26046257e-02
      1.22149223e-02 2.59742588e-02 2.80802808e-04 6.58482611e-02
      3.34155336e-02 1.71289705e-02 6.50058463e-02 4.83963639e-01
      1.64269637e-02 5.81261814e-02 1.79713797e-02 1.69885699e-02
      3.83295827e-02 1.40401404e-04 3.02143812e-01 1.26361265e-03</_>
    <_>
      3.96837711e-01 5.86428821e-01 1.12810306e-01 2.24286184e-01
      1.42680913e-01 1.31389620e-02 9.87475142e-02 1.91952027e-02
      1.19379789e-01 5.15293665e-02 1.92978512e-02 1.10757343e-01
      4.45492938e-02 1.02648139e-02 1.19071845e-02 8.89959410e-02
      1.61876112e-01 2.11455170e-02 2.05296278e-02 2.30958313e-02
      1.10859992e-02 2.77149975e-02 1.02648140e-04 6.44630343e-02
      3.21288668e-02 1.71422400e-02 6.25127181e-02 4.81214494e-01
      1.58078130e-02 5.64564764e-02 1.85793135e-02 1.66289993e-02
      3.73639241e-02 1.02648140e-04 3.00553769e-01 9.23833286e-04</_>
    <_>
      3.92659545e-01 5.69236815e-01 1.25004396e-01 2.18359232e-01
      1.26939803e-01 1.19539732e-02 9.62010175e-02 2.03786772e-02
      1.09407313e-01 5.20282425e-02 1.92402042e-02 1.09862700e-01
      4.39450815e-02 1.11570414e-02 1.18401255e-02 9.03948024e-02
      1.81017309e-01 1.93540510e-02 1.92402042e-02 2.49325726e-02
      1.01324152e-02 2.53879614e-02 1.13847360e-04 6.23883530e-02
      3.08526345e-02 1.69632565e-02 5.46467341e-02 4.97285277e-01
      1.71909519e-02 5.90867810e-02 2.02648304e-02 2.00371351e-02
      3.80250178e-02 1.13847360e-04 3.14218700e-01 7.96931505e-04</_>
    <_>
      4.15095925e-01 6.14093244e-01 1.18154652e-01 2.30867967e-01
      1.49247974e-01 2.05993298e-02 1.02219321e-01 1.98219977e-02
      1.49636641e-01 4.54739928e-02 1.86559968e-02 1.06105983e-01
      4.62513268e-02 9.32799838e-03 9.71666537e-03 9.32799876e-02
      1.46915972e-01 2.21539959e-02 1.94333307e-02 2.79839952e-02
      1.39919976e-02 2.33199969e-02 0. 6.21866584e-02 2.75953300e-02
      1.51579976e-02 6.64619878e-02 4.42302614e-01 1.51579976e-02
      5.71339913e-02 1.71013307e-02 1.78786647e-02 4.35306616e-02 0.
      2.60406613e-01 7.77333218e-04</_>
    <_>
      3.88011903e-01 5.94274282e-01 1.15468219e-01 2.20776513e-01
      1.14178069e-01 1.51592353e-02 9.46645811e-02 1.96747519e-02
      1.04985766e-01 5.43474704e-02 2.20937785e-02 1.07566059e-01
      4.51551676e-02 1.11275231e-02 1.06437178e-02 9.06328708e-02
      1.75460085e-01 2.01585572e-02 2.17712410e-02 2.20937785e-02
      9.35357064e-03 2.64480263e-02 0. 6.80552870e-02 3.28987651e-02
      1.56430397e-02 5.40249348e-02 4.80096191e-01 2.16099732e-02
      5.19284420e-02 1.91909466e-02 2.03198250e-02 3.91882360e-02 0.
      3.11893195e-01 9.67610744e-04</_>
    <_>
      3.95271093e-01 5.79724729e-01 1.14212200e-01 2.12307990e-01
      1.12162717e-01 1.44395521e-02 9.42763016e-02 1.86316799e-02
      1.11696921e-01 5.66403084e-02 2.21716985e-02 1.15330100e-01
      4.47160304e-02 1.17379585e-02 1.08063743e-02 8.46809819e-02
      1.77746221e-01 2.02153735e-02 2.22648568e-02 2.17059068e-02
      1.08995326e-02 2.59911940e-02 2.79475207e-04 6.14845455e-02
      3.33507061e-02 1.60232447e-02 5.36592379e-02 4.91969496e-01
      2.06811652e-02 5.53360879e-02 2.06811652e-02 1.96564216e-02
      4.06170636e-02 0. 3.14409614e-01 1.21105916e-03</_>
    <_>
      4.01939571e-01 5.76964200e-01 1.16683088e-01 2.30140567e-01
      1.20469682e-01 1.44451419e-02 9.76098925e-02 2.06158832e-02
      1.03359900e-01 5.31525128e-02 2.17378344e-02 1.11914791e-01
      4.15122546e-02 1.12195276e-02 9.25611053e-03 8.80732909e-02
      1.77829519e-01 1.99146625e-02 1.89329535e-02 2.25792993e-02
      1.17805041e-02 2.52439380e-02 0. 6.47927746e-02 3.68841961e-02
      1.57073382e-02 5.46951964e-02 4.88470197e-01 2.06158832e-02
      5.37134893e-02 2.18780786e-02 1.79512445e-02 3.53415124e-02
      1.40244098e-04 3.02787006e-01 9.81708639e-04</_>
    <_>
      4.01518077e-01 6.34218931e-01 9.03094932e-02 2.40910843e-01
      1.70356542e-01 1.00058811e-02 1.22123063e-01 2.05248855e-02
      1.81901798e-01 4.20760140e-02 1.59067865e-02 1.02367863e-01
      4.82334793e-02 1.15452474e-02 1.05190035e-02 8.64610747e-02
      1.55732572e-01 2.25773733e-02 1.51371025e-02 2.48864237e-02
      1.38542978e-02 3.15570123e-02 2.56561063e-04 5.25950193e-02
      2.59126667e-02 1.53936641e-02 6.05484098e-02 4.12037075e-01
      1.97552014e-02 5.31081408e-02 1.77027136e-02 2.07814462e-02
      4.15628925e-02 0. 2.46298626e-01 1.28280534e-03</_>
    <_>
      4.47483301e-01 5.72721601e-01 1.12643167e-01 2.31465086e-01
      1.43774509e-01 1.49715608e-02 1.02424487e-01 2.35267375e-02
      1.48289740e-01 5.08557782e-02 2.21008752e-02 1.17871337e-01
      4.51523252e-02 1.30704101e-02 1.02186846e-02 9.17305127e-02
      1.67301252e-01 1.90115049e-02 2.37643812e-02 2.21008752e-02
      9.50575247e-03 2.56655328e-02 2.37643821e-04 6.79661334e-02
      3.20819169e-02 1.06939720e-02 5.98862432e-02 4.41542208e-01
      1.71103552e-02 5.27569279e-02 2.35267375e-02 1.92491487e-02
      4.01618071e-02 2.37643821e-04 2.89450169e-01 9.50575282e-04</_>
    <_>
      3.92257124e-01 5.91876149e-01 1.01388499e-01 2.10755110e-01
      9.60697532e-02 1.74521189e-02 9.02523845e-02 1.86155923e-02
      9.52387005e-02 5.95034137e-02 2.21060161e-02 1.11693561e-01
      3.72311845e-02 1.29644312e-02 1.18009560e-02 7.41299540e-02
      1.65047184e-01 2.41005439e-02 2.27708593e-02 2.74247583e-02
      1.24657992e-02 2.87544429e-02 1.66210652e-04 6.96422607e-02
      3.64001319e-02 1.82831716e-02 4.62065600e-02 4.91817325e-01
      1.69534869e-02 5.56805693e-02 2.02776995e-02 2.02776995e-02
      4.18850854e-02 3.32421303e-04 3.22116256e-01 1.82831718e-03</_>
    <_>
      3.92062724e-01 5.86855948e-01 1.22323565e-01 2.09155142e-01
      1.18361667e-01 1.74983777e-02 9.45902914e-02 1.96444057e-02
      1.02844238e-01 5.49713187e-02 2.06348803e-02 1.08456925e-01
      4.32507060e-02 1.18856905e-02 1.10602956e-02 8.31998363e-02
      1.77459970e-01 2.11301167e-02 1.91491675e-02 2.04697996e-02
      1.18856905e-02 3.05396225e-02 1.65079036e-04 6.19046390e-02
      3.45015191e-02 2.04697996e-02 5.44760823e-02 4.86983150e-01
      1.65079031e-02 5.08443415e-02 1.89840887e-02 1.94793269e-02
      3.97840478e-02 0. 3.16456527e-01 4.95237124e-04</_>
    <_>
      3.96976054e-01 5.87412536e-01 1.23223610e-01 2.10973755e-01
      1.17622532e-01 1.65698417e-02 9.77853984e-02 2.28710491e-02
      1.10621192e-01 5.78777529e-02 1.98371336e-02 1.03853226e-01
      4.15412933e-02 1.05020115e-02 1.14355246e-02 8.02820474e-02
      1.72466367e-01 2.28710491e-02 1.79701094e-02 1.91369988e-02
      1.28357923e-02 2.38045603e-02 0. 6.62793666e-02 3.36064398e-02
      1.56363286e-02 4.87760119e-02 4.85659719e-01 1.61030851e-02
      5.83445095e-02 2.26376709e-02 1.35359261e-02 3.40731926e-02 0.
      3.11559677e-01 9.33512172e-04</_>
    <_>
      3.73413414e-01 6.22060716e-01 1.19161941e-01 2.22691253e-01
      1.57211170e-01 1.68124530e-02 1.10903196e-01 2.15317365e-02
      1.58980906e-01 4.74878028e-02 1.82872284e-02 9.26159620e-02
      5.13222218e-02 1.17982123e-02 9.14361421e-03 8.87815431e-02
      1.61045596e-01 2.15317365e-02 1.59275867e-02 1.88771393e-02
      1.17982123e-02 3.27400379e-02 2.94955302e-04 5.04373573e-02
      2.62510218e-02 1.47477649e-02 6.25305250e-02 4.52756375e-01
      1.59275867e-02 5.42717762e-02 2.27115583e-02 1.82872284e-02
      4.54231165e-02 2.94955302e-04 2.79617637e-01 1.17982121e-03</_>
    <_>
      3.97208452e-01 5.72265565e-01 1.19400382e-01 2.28811085e-01
      2.68294096e-01 2.09307447e-02 1.08459309e-01 2.71148272e-02
      1.59834772e-01 4.13857885e-02 2.09307447e-02 6.80249184e-02
      6.65978193e-02 1.71251539e-02 1.18924687e-02 1.15594789e-01
      1.17497586e-01 1.80765521e-02 1.99793465e-02 1.47466604e-02
      1.09410705e-02 3.37746106e-02 0. 4.66184765e-02 2.18821410e-02
      1.04653724e-02 9.46640447e-02 4.42875534e-01 1.23681668e-02
      6.32679313e-02 1.95036475e-02 2.42606346e-02 5.70838489e-02 0.
      2.83516437e-01 3.80558986e-03</_>
    <_>
      3.82213533e-01 6.12550437e-01 9.54599828e-02 1.95216596e-01
      8.01415518e-02 1.77469626e-02 8.14492181e-02 1.98018756e-02
      7.80866370e-02 5.88451922e-02 1.75601523e-02 1.13393754e-01
      3.45598757e-02 1.04613677e-02 1.06481779e-02 6.87461346e-02
      1.65326968e-01 2.39116978e-02 1.90546345e-02 2.78347116e-02
      1.45711908e-02 2.67138500e-02 0. 6.66912198e-02 3.53071168e-02
      1.84942037e-02 4.37135734e-02 5.03266513e-01 1.58788618e-02
      4.78233956e-02 2.31644567e-02 2.22304072e-02 3.68015990e-02
      3.73620278e-04 3.04500520e-01 9.34050709e-04</_>
    <_>
      3.87193203e-01 5.85144758e-01 1.31439820e-01 2.12204054e-01
      1.09269246e-01 1.29856206e-02 9.21662375e-02 1.88449863e-02
      1.06102027e-01 5.24175689e-02 2.18538493e-02 1.13703363e-01
      4.30742539e-02 1.12436479e-02 9.02658980e-03 8.63068700e-02
      1.91617087e-01 1.59944836e-02 2.10620444e-02 2.07453221e-02
      1.18770925e-02 2.24872958e-02 0. 6.03356287e-02 2.67630480e-02
      1.86866261e-02 5.22592068e-02 4.85693902e-01 1.61528457e-02
      5.52680716e-02 2.12204047e-02 2.04285998e-02 3.70565280e-02 0.
      3.16405743e-01 6.33444928e-04</_>
    <_>
      3.94189894e-01 5.85318267e-01 1.22711986e-01 2.20961139e-01
      1.36633933e-01 1.25297494e-02 9.36747938e-02 1.88940670e-02
      1.21319793e-01 5.27045019e-02 2.46617291e-02 1.09187819e-01
      5.01189977e-02 1.29275192e-02 8.15428142e-03 8.73104781e-02
      1.72035441e-01 2.40650736e-02 1.94907207e-02 1.94907207e-02
      1.35241738e-02 2.18773410e-02 3.97769822e-04 6.36431724e-02
      3.67937088e-02 1.57119073e-02 5.42955808e-02 4.76528257e-01
      1.86951812e-02 6.18532076e-02 2.20762249e-02 1.57119073e-02
      3.81859019e-02 0. 3.10061574e-01 9.94424568e-04</_>
    <_>
      4.09777820e-01 5.87477148e-01 1.11716218e-01 2.47777924e-01
      1.61317304e-01 1.63820125e-02 1.04890384e-01 1.82022359e-02
      1.51306078e-01 4.86909784e-02 1.88848190e-02 1.08075775e-01
      4.66432273e-02 9.55617335e-03 9.55617335e-03 9.26038697e-02
      1.57449335e-01 2.73033530e-02 1.50168445e-02 2.48005446e-02
      1.22865085e-02 2.61657126e-02 0. 5.91572635e-02 3.00336890e-02
      1.70645956e-02 6.89409673e-02 4.60516542e-01 1.68370679e-02
      5.87022081e-02 2.25252658e-02 1.72921233e-02 3.70870531e-02
      2.27527940e-04 2.69393086e-01 1.13763975e-03</_>
    <_>
      3.95769209e-01 5.83930612e-01 1.23250395e-01 2.04657346e-01
      1.14667125e-01 1.56912897e-02 9.01243389e-02 1.93123575e-02
      1.03535697e-01 5.39136641e-02 2.10558344e-02 1.10509604e-01
      4.53303941e-02 1.22043369e-02 1.12655424e-02 8.38209987e-02
      1.80382788e-01 1.87759027e-02 2.13240609e-02 2.10558344e-02
      1.22043369e-02 2.53474694e-02 1.34113594e-04 6.35698438e-02
      3.44671942e-02 1.94464717e-02 5.04267104e-02 4.84284192e-01
      1.48866093e-02 5.29748686e-02 1.93123575e-02 1.77029949e-02
      3.60765569e-02 0. 3.24823111e-01 6.70567970e-04</_>
    <_>
      3.86601746e-01 5.94404757e-01 1.14548668e-01 2.08782077e-01
      8.71353075e-02 1.43185835e-02 8.75024572e-02 1.84795391e-02
      9.65586528e-02 5.20119481e-02 1.92138255e-02 1.11733906e-01
      3.54905054e-02 9.66810342e-03 1.35842972e-02 7.93029219e-02
      1.78676337e-01 2.12943032e-02 1.92138255e-02 2.77804993e-02
      1.29723921e-02 2.41090674e-02 1.22381054e-04 6.65752962e-02
      2.94938348e-02 1.81123968e-02 4.68719453e-02 4.99559462e-01
      1.76228713e-02 4.95643280e-02 2.09271610e-02 2.33747810e-02
      3.95290814e-02 1.22381054e-04 3.08277875e-01 8.56667408e-04</_>
    <_>
      3.93690854e-01 5.76710522e-01 1.24202818e-01 2.06393614e-01
      1.18703067e-01 1.25272218e-02 8.87599513e-02 1.80269778e-02
      1.10300660e-01 5.28587662e-02 2.33739633e-02 1.12286679e-01
      4.64423820e-02 1.02356570e-02 1.11522824e-02 8.60100687e-02
      1.80880859e-01 1.61937252e-02 2.03185435e-02 2.23045647e-02
      1.16105955e-02 2.26101074e-02 3.05541995e-04 6.53859898e-02
      2.85681766e-02 1.92491449e-02 5.33170775e-02 4.96352971e-01
      1.40549317e-02 5.56086414e-02 2.10823976e-02 2.19990239e-02
      3.71233523e-02 0. 3.15013796e-01 9.16625955e-04</_>
    <_>
      3.93454492e-01 5.82992077e-01 1.25797808e-01 2.11737216e-01
      1.16043434e-01 1.35384006e-02 9.35074612e-02 1.91723928e-02
      1.04439087e-01 5.40695116e-02 2.27041487e-02 1.11670777e-01
      4.54082973e-02 1.19407009e-02 9.67028551e-03 8.68643969e-02
      1.80960476e-01 1.81633197e-02 2.06860024e-02 2.06019133e-02
      1.31179532e-02 2.32086871e-02 8.40894427e-05 6.50011376e-02
      3.01040206e-02 1.79951414e-02 5.20513654e-02 4.86289233e-01
      1.70701575e-02 5.63399270e-02 2.04337351e-02 1.83314979e-02
      3.73357125e-02 1.68178885e-04 3.16764921e-01 6.72715541e-04</_>
    <_>
      3.86505812e-01 5.94459832e-01 1.19034521e-01 2.24169806e-01
      1.15648806e-01 1.38992406e-02 9.46217552e-02 1.74631476e-02
      1.05135277e-01 4.75781709e-02 2.08488610e-02 1.10481143e-01
      3.92029844e-02 1.46120219e-02 8.19698814e-03 8.25044662e-02
      1.70889378e-01 1.85323209e-02 2.31654011e-02 2.26308145e-02
      1.03353327e-02 2.56601367e-02 0. 5.98736517e-02 3.42135131e-02
      1.49684129e-02 5.64879403e-02 4.87542599e-01 2.03142744e-02
      5.77353053e-02 2.35217921e-02 1.79977342e-02 3.67082506e-02 0.
      3.03644955e-01 1.06917229e-03</_>
    <_>
      3.91695470e-01 5.73616266e-01 1.24689728e-01 2.26095334e-01
      1.27518639e-01 1.27301030e-02 9.67270210e-02 2.20872723e-02
      1.13700494e-01 5.13556302e-02 1.98023822e-02 1.15441360e-01
      4.47185673e-02 1.10980384e-02 1.24036903e-02 9.46597382e-02
      1.91495568e-01 1.74086876e-02 2.33929250e-02 2.35017277e-02
      8.70434381e-03 2.20872723e-02 2.17608598e-04 6.64794296e-02
      3.06828115e-02 1.53414058e-02 5.92983440e-02 4.83091086e-01
      1.94759704e-02 5.64694330e-02 2.11080331e-02 1.86055358e-02
      4.19984609e-02 0. 3.11180294e-01 8.70434393e-04</_>
    <_>
      3.89904350e-01 5.81379235e-01 1.15713552e-01 2.21808970e-01
      1.17193267e-01 1.34653877e-02 9.33698863e-02 1.93842389e-02
      1.03283964e-01 5.03102392e-02 1.90882962e-02 1.12014271e-01
      3.99522483e-02 1.24295885e-02 1.05059622e-02 8.64152387e-02
      1.82004690e-01 1.74606126e-02 2.30835229e-02 2.13078670e-02
      9.17422026e-03 2.50071492e-02 0. 6.79188222e-02 3.66968811e-02
      1.42052444e-02 5.47493808e-02 4.92744416e-01 1.90882962e-02
      5.66730052e-02 2.13078670e-02 1.79045275e-02 3.98042798e-02
      1.47971296e-04 3.09703916e-01 1.03579904e-03</_>
    <_>
      4.00216252e-01 5.68856597e-01 1.17885821e-01 2.27109537e-01
      1.16261676e-01 1.43466089e-02 9.54184830e-02 2.09785327e-02
      1.10577166e-01 4.79122624e-02 2.21966412e-02 1.19645305e-01
      4.20924090e-02 1.10983206e-02 1.02862483e-02 8.83805230e-02
      1.81227446e-01 1.84069704e-02 2.04371512e-02 2.34147497e-02
      1.10983206e-02 2.54449304e-02 0. 6.46950901e-02 3.47837582e-02
      1.67828258e-02 4.95364070e-02 4.91709739e-01 1.82716250e-02
      5.75217828e-02 2.34147497e-02 1.85423158e-02 3.62725593e-02 0.
      3.12512457e-01 9.47417575e-04</_>
    <_>
      4.28809643e-01 5.68687677e-01 1.14598908e-01 2.36126170e-01
      1.60475925e-01 1.17969457e-02 9.96186584e-02 2.58409306e-02
      1.52798533e-01 5.09328470e-02 2.17213612e-02 1.14224397e-01
      4.38172296e-02 9.36265569e-03 9.92441550e-03 9.04432535e-02
      1.61599442e-01 1.85380578e-02 1.90998167e-02 2.15341076e-02
      1.25459582e-02 2.77134608e-02 1.87253114e-04 6.40405640e-02
      2.86497269e-02 1.17969457e-02 6.21680319e-02 4.66073006e-01
      1.85380578e-02 5.63631877e-02 1.94743238e-02 1.49802491e-02
      3.40800658e-02 0. 2.79194385e-01 9.36265569e-04</_>
    <_>
      3.92130554e-01 6.09352350e-01 1.12910070e-01 2.38491401e-01
      1.42551780e-01 1.47077236e-02 1.09742247e-01 1.62916332e-02
      1.62690058e-01 4.77435365e-02 1.71967242e-02 1.11099884e-01
      4.52545360e-02 7.69327115e-03 9.72972531e-03 8.73412564e-02
      1.56580687e-01 1.81018151e-02 2.10433584e-02 2.24009957e-02
      1.38026336e-02 2.89629027e-02 0. 5.79258054e-02 2.94154473e-02
      1.49339968e-02 5.79258054e-02 4.48472440e-01 1.81018151e-02
      5.13638966e-02 2.42111757e-02 1.49339968e-02 3.46197188e-02 0.
      2.83745944e-01 1.58390868e-03</_>
    <_>
      3.96460474e-01 5.68775058e-01 1.34565771e-01 2.25906193e-01
      1.24590687e-01 1.21265659e-02 9.83816534e-02 2.07325164e-02
      1.15397967e-01 5.04621603e-02 2.24928241e-02 1.19114175e-01
      4.22473922e-02 1.19309761e-02 8.80153943e-03 9.11448374e-02
      1.88352957e-01 1.60383619e-02 1.95589773e-02 2.07325164e-02
      1.25177456e-02 2.50354912e-02 0. 6.27843142e-02 3.24679017e-02
      1.60383619e-02 5.12445197e-02 4.86431777e-01 1.83854382e-02
      5.63298538e-02 2.40575429e-02 1.66251305e-02 3.50105688e-02
      1.95589775e-04 3.10009807e-01 1.17353862e-03</_>
    <_>
      4.14393574e-01 5.65903068e-01 1.18197486e-01 2.22548410e-01
      1.43281847e-01 1.08364420e-02 9.03036818e-02 2.46830080e-02
      1.20404914e-01 5.01687154e-02 2.18735598e-02 1.13983318e-01
      4.47504930e-02 1.26425158e-02 9.83306766e-03 9.37151536e-02
      1.71376333e-01 1.92647856e-02 2.28769332e-02 2.06695106e-02
      1.26425158e-02 2.44823322e-02 0. 7.12395757e-02 3.33120264e-02
      1.32445404e-02 5.43828867e-02 4.86837208e-01 1.82614122e-02
      6.22092038e-02 1.92647856e-02 1.60539877e-02 3.49174254e-02 0.
      2.99607545e-01 6.02024549e-04</_>
    <_>
      4.03076082e-01 5.76897681e-01 1.21358365e-01 2.16386124e-01
      1.04530536e-01 1.32642910e-02 9.44338366e-02 2.21731439e-02
      1.04332559e-01 5.20672947e-02 2.09852979e-02 1.14033312e-01
      4.29604650e-02 1.30663170e-02 1.36602409e-02 8.31492916e-02
      1.82334512e-01 2.19751690e-02 2.21731439e-02 2.77164299e-02
      1.02946740e-02 2.27670670e-02 1.97974499e-04 6.61234856e-02
      3.50414850e-02 1.56399850e-02 4.75138798e-02 4.88997012e-01
      1.78177059e-02 5.36510907e-02 2.11832710e-02 2.19751690e-02
      3.95948999e-02 1.97974499e-04 3.12997669e-01 1.58379599e-03</_>
    <_>
      3.90013456e-01 5.86100578e-01 1.22351870e-01 2.20125318e-01
      1.39097601e-01 1.35046216e-02 9.45323482e-02 2.26877630e-02
      1.17490202e-01 4.51054350e-02 1.40448064e-02 1.09117337e-01
      4.69960831e-02 1.13438815e-02 1.24242511e-02 8.21080953e-02
      1.71508685e-01 1.94466542e-02 2.56587807e-02 2.80896127e-02
      1.26943439e-02 2.59288736e-02 0. 6.15810715e-02 2.97101662e-02
      1.48550831e-02 5.13175614e-02 4.94539231e-01 1.59354527e-02
      5.26680239e-02 2.59288736e-02 1.97167471e-02 3.99736799e-02
      2.70092423e-04 2.91429728e-01 1.62055460e-03</_>
    <_>
      4.32849705e-01 5.36767542e-01 1.25337660e-01 2.36678228e-01
      1.70934275e-01 1.29367132e-02 9.28898454e-02 2.99028959e-02
      1.49302393e-01 4.89898510e-02 2.01473404e-02 1.13673419e-01
      4.45362255e-02 1.03917858e-02 9.75555461e-03 1.00524627e-01
      1.68389350e-01 2.03594174e-02 1.95111092e-02 2.16318816e-02
      1.50574865e-02 2.56613493e-02 0. 6.57439530e-02 3.01149730e-02
      1.27246361e-02 6.29869476e-02 4.80991244e-01 1.92990322e-02
      5.95937110e-02 2.05714945e-02 1.54816406e-02 3.15995142e-02 0.
      2.94575334e-01 1.48454087e-03</_>
    <_>
      3.93703669e-01 5.83590269e-01 1.25706568e-01 2.19406053e-01
      1.11112662e-01 1.47597417e-02 8.87242928e-02 1.99007764e-02
      1.00664757e-01 5.78780882e-02 2.38809306e-02 1.10615142e-01
      4.39475477e-02 1.02820676e-02 9.95038822e-03 8.50758180e-02
      1.83418810e-01 1.92374159e-02 2.08958145e-02 2.90219635e-02
      1.21063050e-02 2.81927660e-02 1.65839796e-04 6.56725615e-02
      3.51580381e-02 1.69156585e-02 5.38979322e-02 4.77784455e-01
      1.85740571e-02 5.42296134e-02 2.30517313e-02 2.00666152e-02
      4.01332304e-02 0. 3.23885113e-01 6.63359184e-04</_>
    <_>
      3.82881820e-01 5.76912582e-01 1.31033778e-01 2.16009751e-01
      1.07514895e-01 1.13394614e-02 9.08556879e-02 1.86191164e-02
      9.89753008e-02 5.48773929e-02 2.43588444e-02 1.12974636e-01
      4.05980721e-02 1.06394952e-02 9.93952807e-03 8.60959142e-02
      1.89131021e-01 1.58192497e-02 2.28189174e-02 2.58987695e-02
      1.07794879e-02 2.37988699e-02 0. 6.83167577e-02 3.44383642e-02
      1.59592424e-02 5.22175208e-02 4.89696741e-01 2.01590434e-02
      5.30574806e-02 2.16989703e-02 1.90390963e-02 3.82181853e-02 0.
      3.30104321e-01 5.59973414e-04</_>
    <_>
      4.22276407e-01 5.95161974e-01 1.08087517e-01 2.35777810e-01
      1.46748543e-01 1.76969487e-02 1.07542992e-01 1.90582518e-02
      1.36947155e-01 5.33631071e-02 1.79692097e-02 1.09721079e-01
      5.22740632e-02 8.16782191e-03 8.71234387e-03 9.17518735e-02
      1.60361573e-01 2.25976426e-02 2.09640767e-02 2.50479877e-02
      1.27962548e-02 2.72260755e-02 5.44521492e-04 6.34367540e-02
      2.88596395e-02 1.38852978e-02 5.88083193e-02 4.47596669e-01
      1.66079048e-02 4.90069352e-02 2.31421627e-02 1.57911237e-02
      3.72997224e-02 0. 2.81517625e-01 8.16782238e-04</_>
    <_>
      3.88794422e-01 5.70395052e-01 1.22402370e-01 2.23885059e-01
      1.43322051e-01 1.51333837e-02 9.43610966e-02 2.53706723e-02
      1.29078865e-01 5.00736944e-02 2.35902742e-02 1.10384680e-01
      4.31746542e-02 1.26853362e-02 9.79218911e-03 9.19130519e-02
      1.76481962e-01 2.09196769e-02 2.44804733e-02 2.18098760e-02
      1.04598384e-02 2.15873271e-02 6.67649263e-04 6.09786324e-02
      3.07118669e-02 1.40206348e-02 5.18540926e-02 4.86938864e-01
      1.60235818e-02 5.78629375e-02 2.27000751e-02 1.93618294e-02
      3.67207117e-02 0. 3.19136351e-01 1.55784830e-03</_>
    <_>
      3.93806189e-01 5.82163155e-01 1.20739885e-01 2.15362772e-01
      1.14655033e-01 1.48361018e-02 9.40759256e-02 2.04423703e-02
      1.07407905e-01 5.57208434e-02 2.11260617e-02 1.12877436e-01
      4.32776622e-02 1.13492757e-02 1.12809064e-02 9.02472511e-02
      1.80015922e-01 2.07842160e-02 1.96903106e-02 2.22883373e-02
      1.15543837e-02 2.79629752e-02 2.05107397e-04 6.51557818e-02
      3.26120779e-02 1.66136995e-02 5.44901974e-02 4.87061709e-01
      1.89382490e-02 5.44218309e-02 1.97586790e-02 1.87331419e-02
      4.05428968e-02 0. 3.13335747e-01 1.23064441e-03</_>
    <_>
      4.01019961e-01 5.91527998e-01 1.10387839e-01 2.26221755e-01
      1.29449114e-01 1.49767185e-02 9.43638012e-02 2.06322614e-02
      1.18661687e-01 5.35182022e-02 2.16795858e-02 1.07979000e-01
      4.52443510e-02 1.02637652e-02 1.12063559e-02 9.33164731e-02
      1.69142663e-01 2.14701202e-02 2.01086011e-02 2.22032461e-02
      1.12063559e-02 2.72303969e-02 3.14196892e-04 6.65050074e-02
      3.20480838e-02 1.40341278e-02 6.02210686e-02 4.75798815e-01
      2.12606564e-02 5.24708815e-02 2.00038683e-02 2.04227977e-02
      4.16834541e-02 1.04732295e-04 2.95449793e-01 8.37858359e-04</_>
    <_>
      3.87544245e-01 5.88348448e-01 1.22062549e-01 2.14260578e-01
      1.13815077e-01 1.42377364e-02 9.36738923e-02 1.94466654e-02
      1.04091749e-01 5.46937436e-02 2.02280041e-02 1.09561123e-01
      4.32341024e-02 1.09387487e-02 1.08519336e-02 8.82913321e-02
      1.82138845e-01 2.02280041e-02 2.06620805e-02 2.31797304e-02
      1.15464572e-02 2.76941340e-02 2.60446395e-04 6.40698150e-02
      3.34239565e-02 1.62344929e-02 5.28706200e-02 4.86513883e-01
      1.93598494e-02 5.20024635e-02 1.87521409e-02 2.14434210e-02
      3.98482978e-02 1.73630935e-04 3.13837916e-01 3.47261870e-04</_>
    <_>
      3.89360934e-01 6.05156183e-01 1.14767522e-01 2.10339770e-01
      8.08221996e-02 1.49521064e-02 9.13290828e-02 2.14178823e-02
      7.81954750e-02 5.23323752e-02 1.65685508e-02 1.15979858e-01
      3.69761549e-02 8.68838653e-03 9.49660875e-03 7.61749223e-02
      1.71747178e-01 2.00034939e-02 1.77808832e-02 2.60651596e-02
      1.21233296e-02 2.38425490e-02 2.02055497e-04 7.33461455e-02
      3.79864350e-02 1.73767731e-02 4.16234322e-02 4.96046245e-01
      1.91952717e-02 4.74830419e-02 2.04076059e-02 1.79829393e-02
      4.08152118e-02 2.02055497e-04 2.96213359e-01 1.01027754e-03</_>
    <_>
      4.04159695e-01 5.97918630e-01 1.07280627e-01 2.25556776e-01
      1.50371179e-01 1.84249263e-02 1.04903214e-01 1.66418701e-02
      1.36106715e-01 5.28973714e-02 1.87221039e-02 9.71766338e-02
      5.64634874e-02 1.09955212e-02 1.01039922e-02 1.04011685e-01
      1.63446933e-01 1.54531645e-02 1.93164553e-02 2.08023377e-02
      1.09955212e-02 2.58543324e-02 0. 6.32985383e-02 2.91232727e-02
      1.57503411e-02 7.34025314e-02 4.63297755e-01 2.02079844e-02
      5.14114909e-02 1.84249263e-02 2.10995134e-02 4.42792587e-02 0.
      2.78751314e-01 5.94352488e-04</_>
    <_>
      4.17832077e-01 5.89602709e-01 1.02203526e-01 2.47993857e-01
      1.70482352e-01 1.67476367e-02 1.07786074e-01 2.44773161e-02
      1.64899811e-01 4.72369231e-02 1.93241965e-02 1.10792056e-01
      4.65927832e-02 1.20239444e-02 1.26680844e-02 8.86765867e-02
      1.61679104e-01 2.27596089e-02 1.76064894e-02 2.96304338e-02
      1.05209509e-02 3.22069936e-02 2.14713291e-04 5.84020168e-02
      3.13481390e-02 1.76064894e-02 6.69905469e-02 4.41235811e-01
      1.99683364e-02 5.11017628e-02 1.84653439e-02 1.88947693e-02
      4.44456525e-02 0. 2.70753473e-01 6.44139887e-04</_>
    <_>
      4.06127930e-01 5.69292188e-01 1.19019933e-01 2.32436940e-01
      1.16642930e-01 1.44318035e-02 9.74571183e-02 1.88462380e-02
      1.02720484e-01 5.43314964e-02 2.15628128e-02 1.11888923e-01
      4.26162668e-02 9.84758325e-03 8.48929584e-03 8.57418925e-02
      1.78445011e-01 2.05440968e-02 1.81670934e-02 2.22419556e-02
      1.20548010e-02 2.64866054e-02 0. 6.53675795e-02 3.90507616e-02
      1.56203052e-02 5.51804267e-02 4.93907273e-01 1.95253808e-02
      5.38221374e-02 2.20721699e-02 1.88462380e-02 3.70133333e-02 0.
      3.01370025e-01 8.48929631e-04</_>
    <_>
      4.29563969e-01 5.86557329e-01 1.15691334e-01 2.28416219e-01
      1.36798725e-01 1.25503419e-02 9.97181684e-02 2.06510164e-02
      1.17402740e-01 4.99731787e-02 1.98523588e-02 1.10899381e-01
      4.22147848e-02 1.04966490e-02 1.04966490e-02 8.77382979e-02
      1.68174580e-01 1.72281954e-02 1.97382644e-02 2.25906149e-02
      1.27785299e-02 2.61275303e-02 2.28188030e-04 6.38926476e-02
      3.49127688e-02 1.39194699e-02 5.94429821e-02 4.58657950e-01
      1.95100773e-02 5.23691513e-02 2.09932979e-02 1.55167859e-02
      3.86778712e-02 1.14094015e-04 2.87973285e-01 1.02684612e-03</_>
    <_>
      4.04283166e-01 5.89408994e-01 1.11838028e-01 2.25511774e-01
      1.27088666e-01 1.49682211e-02 9.81406942e-02 1.83572527e-02
      1.05907224e-01 5.26711941e-02 1.97693482e-02 1.05342388e-01
      4.36337776e-02 1.07319318e-02 9.31983534e-03 8.33136812e-02
      1.75805986e-01 2.06166059e-02 1.83572527e-02 2.11814456e-02
      1.29912859e-02 2.83831358e-02 0. 6.10025600e-02 3.50199901e-02
      1.46858022e-02 5.32360300e-02 4.80536371e-01 1.87808815e-02
      5.45069166e-02 2.10402347e-02 1.84984617e-02 3.58672477e-02 0.
      2.95834184e-01 8.47257790e-04</_>
    <_>
      3.99120212e-01 6.18628323e-01 9.85383093e-02 2.32806772e-01
      1.47887573e-01 1.36191165e-02 1.10074505e-01 1.89065374e-02
      1.47567123e-01 4.61447686e-02 1.81054138e-02 1.06229104e-01
      4.74265702e-02 1.12157427e-02 9.77371819e-03 8.47589672e-02
      1.65031642e-01 2.21110359e-02 1.87463127e-02 2.48348583e-02
      1.29782166e-02 2.91609317e-02 1.60224896e-04 5.83218634e-02
      3.17245312e-02 1.63429398e-02 5.67196123e-02 4.41259354e-01
      1.81054138e-02 5.36753386e-02 2.01883372e-02 1.93872117e-02
      4.00562249e-02 1.60224896e-04 2.76548177e-01 1.28179917e-03</_>
    <_>
      4.12265062e-01 6.17433846e-01 1.03869379e-01 2.02170506e-01
      9.01629031e-02 1.86322387e-02 7.79555738e-02 1.99172217e-02
      1.03226885e-01 6.46774247e-02 1.60622746e-02 1.14363395e-01
      3.04112397e-02 8.56654625e-03 6.42490992e-03 8.37379918e-02
      1.85251564e-01 1.82039123e-02 2.01313850e-02 2.46288218e-02
      5.99658256e-03 2.42004935e-02 0. 6.55340850e-02 3.12678963e-02
      1.52056199e-02 4.24044058e-02 4.91719782e-01 1.75614208e-02
      4.21902426e-02 1.47772925e-02 1.67047661e-02 2.80554406e-02
      2.14163665e-04 2.39220813e-01 8.56654660e-04</_></support_vectors>
  <decision_functions>
    <_>
      <sv_count>115</sv_count>
      <rho>-4.7674305887314272e-01</rho>
      <alpha>
        1. 1. 1. 1. 1. 1. 1. 1. 1. 1. 1. 1. 1. 1. 1. 1. 1. 1. 1. 1. 1.
        1. 1. 1. 1. 1. 1. 1. 1. 1. 1. 1. 1. 1. 1. 1. 1. 1. 1. 1. 1. 1.
        1. 1. 1. 1. 1. 8.4954201554115871e-01 1. 1. 1. 1. 1. 1. 1. 1. 1.
        -1. -1. -1. -1. -1. -1. -1. -1. -1. -1. -1. -1. -1. -1. -1. -1.
        -1. -1. -1. -1. -1. -1. -1. -1. -1. -1. -1. -1. -1. -1. -1. -1.
        -1. -1. -1. -1. -1. -1. -7.4791813599773449e-01 -1. -1. -1. -1.
        -1. -1. -1. -1. -1. -1. -1. -1. -1. -1. -1. -1. -1. -1.
        -1.0162387954342443e-01</alpha>
      <index>
        0 1 2 3 4 5 6 7 8 9 10 11 12 13 14 15 16 17 18 19 20 21 22 23 24
        25 26 27 28 29 30 31 32 33 34 35 36 37 38 39 40 41 42 43 44 45
        46 47 48 49 50 51 52 53 54 55 56 57 58 59 60 61 62 63 64 65 66
        67 68 69 70 71 72 73 74 75 76 77 78 79 80 81 82 83 84 85 86 87
        88 89 90 91 92 93 94 95 96 97 98 99 100 101 102 103 104 105 106
        107 108 109 110 111 112 113 114</index></_></decision_functions></my_svm>
</opencv_storage>
