<?xml version="1.0"?>
<opencv_storage>
<my_svm type_id="opencv-ml-svm">
  <svm_type>C_SVC</svm_type>
  <kernel><type>RBF</type>
    <gamma>1.</gamma></kernel>
  <C>1.</C>
  <term_criteria><epsilon>1.1920928955078125e-07</epsilon>
    <iterations>1000</iterations></term_criteria>
  <var_all>72</var_all>
  <var_count>72</var_count>
  <class_count>2</class_count>
  <class_labels type_id="opencv-matrix">
    <rows>1</rows>
    <cols>2</cols>
    <dt>i</dt>
    <data>
      -1 1</data></class_labels>
  <sv_total>932</sv_total>
  <support_vectors>
    <_>
      3.99469554e-01 6.33039176e-01 9.49558765e-02 2.33023897e-01
      1.60442680e-01 2.01917663e-02 9.22272578e-02 3.49262990e-02
      1.59351245e-01 3.82006392e-02 2.07374897e-02 7.96756223e-02
      5.83924055e-02 9.27729812e-03 9.82302148e-03 8.73157457e-02
      1.54985458e-01 1.80088729e-02 1.80088729e-02 1.52802560e-02
      2.18289364e-02 2.72861719e-02 0. 4.25664261e-02 3.05605121e-02
      1.69174261e-02 5.56637906e-02 4.23481375e-01 1.20059149e-02
      4.96608317e-02 1.74631495e-02 2.45575532e-02 4.63864915e-02 0.
      2.79956102e-01 3.27434065e-03 3.91575634e-01 6.71411335e-01
      1.34573758e-01 1.60808355e-01 2.23479897e-01 5.34408446e-03
      5.44124953e-02 2.13763379e-02 1.42832801e-01 3.06070279e-02
      1.02023426e-02 6.75297901e-02 4.03235443e-02 5.34408446e-03
      3.40078096e-03 1.01051778e-01 1.88986257e-01 6.31573610e-03
      7.28738774e-03 5.34408446e-03 5.82991028e-03 1.31172976e-02 0.
      2.67204214e-02 9.23069101e-03 4.37243283e-03 3.78944166e-02
      4.49874729e-01 3.88660678e-03 3.06070279e-02 7.28738774e-03
      6.31573610e-03 1.16598206e-02 0. 1.37002885e-01 9.71651694e-04</_>
    <_>
      3.99469554e-01 6.33039176e-01 9.49558765e-02 2.33023897e-01
      1.60442680e-01 2.01917663e-02 9.22272578e-02 3.49262990e-02
      1.59351245e-01 3.82006392e-02 2.07374897e-02 7.96756223e-02
      5.83924055e-02 9.27729812e-03 9.82302148e-03 8.73157457e-02
      1.54985458e-01 1.80088729e-02 1.80088729e-02 1.52802560e-02
      2.18289364e-02 2.72861719e-02 0. 4.25664261e-02 3.05605121e-02
      1.69174261e-02 5.56637906e-02 4.23481375e-01 1.20059149e-02
      4.96608317e-02 1.74631495e-02 2.45575532e-02 4.63864915e-02 0.
      2.79956102e-01 3.27434065e-03 3.91575634e-01 6.71411335e-01
      1.34573758e-01 1.60808355e-01 2.23479897e-01 5.34408446e-03
      5.44124953e-02 2.13763379e-02 1.42832801e-01 3.06070279e-02
      1.02023426e-02 6.75297901e-02 4.03235443e-02 5.34408446e-03
      3.40078096e-03 1.01051778e-01 1.88986257e-01 6.31573610e-03
      7.28738774e-03 5.34408446e-03 5.82991028e-03 1.31172976e-02 0.
      2.67204214e-02 9.23069101e-03 4.37243283e-03 3.78944166e-02
      4.49874729e-01 3.88660678e-03 3.06070279e-02 7.28738774e-03
      6.31573610e-03 1.16598206e-02 0. 1.37002885e-01 9.71651694e-04</_>
    <_>
      3.99469554e-01 6.33039176e-01 9.49558765e-02 2.33023897e-01
      1.60442680e-01 2.01917663e-02 9.22272578e-02 3.49262990e-02
      1.59351245e-01 3.82006392e-02 2.07374897e-02 7.96756223e-02
      5.83924055e-02 9.27729812e-03 9.82302148e-03 8.73157457e-02
      1.54985458e-01 1.80088729e-02 1.80088729e-02 1.52802560e-02
      2.18289364e-02 2.72861719e-02 0. 4.25664261e-02 3.05605121e-02
      1.69174261e-02 5.56637906e-02 4.23481375e-01 1.20059149e-02
      4.96608317e-02 1.74631495e-02 2.45575532e-02 4.63864915e-02 0.
      2.79956102e-01 3.27434065e-03 3.91575634e-01 6.71411335e-01
      1.34573758e-01 1.60808355e-01 2.23479897e-01 5.34408446e-03
      5.44124953e-02 2.13763379e-02 1.42832801e-01 3.06070279e-02
      1.02023426e-02 6.75297901e-02 4.03235443e-02 5.34408446e-03
      3.40078096e-03 1.01051778e-01 1.88986257e-01 6.31573610e-03
      7.28738774e-03 5.34408446e-03 5.82991028e-03 1.31172976e-02 0.
      2.67204214e-02 9.23069101e-03 4.37243283e-03 3.78944166e-02
      4.49874729e-01 3.88660678e-03 3.06070279e-02 7.28738774e-03
      6.31573610e-03 1.16598206e-02 0. 1.37002885e-01 9.71651694e-04</_>
    <_>
      4.30629134e-01 6.16595089e-01 1.02582991e-01 2.47954622e-01
      1.32205889e-01 1.75543092e-02 8.66743997e-02 2.96228975e-02
      1.47565916e-01 3.84000503e-02 1.75543092e-02 8.94172639e-02
      6.03429377e-02 1.15200151e-02 9.32572689e-03 8.99658352e-02
      1.57988787e-01 2.13943142e-02 1.81028806e-02 2.19428875e-02
      2.02971697e-02 2.96228975e-02 0. 4.11429107e-02 3.01714689e-02
      1.75543092e-02 6.03429377e-02 4.13623422e-01 1.48114488e-02
      5.92457950e-02 1.92000251e-02 2.24914588e-02 4.66286354e-02 0.
      2.84160376e-01 0. 4.13133353e-01 6.52876616e-01 1.33190706e-01
      1.70968428e-01 2.09230483e-01 4.84329835e-03 5.03703021e-02
      2.32478306e-02 1.26410082e-01 2.76068002e-02 1.16239153e-02
      7.11964816e-02 3.58404070e-02 6.29628776e-03 2.42164917e-03
      1.04615241e-01 1.99543893e-01 7.26494752e-03 4.35896823e-03
      6.29628776e-03 8.23360682e-03 1.16239153e-02 0. 2.80911289e-02
      1.06552560e-02 3.39030870e-03 3.72933969e-02 4.63019311e-01
      4.84329835e-03 2.76068002e-02 5.32762799e-03 3.87463858e-03
      1.11395856e-02 0. 1.31253377e-01 0.</_>
    <_>
      4.30629134e-01 6.16595089e-01 1.02582991e-01 2.47954622e-01
      1.32205889e-01 1.75543092e-02 8.66743997e-02 2.96228975e-02
      1.47565916e-01 3.84000503e-02 1.75543092e-02 8.94172639e-02
      6.03429377e-02 1.15200151e-02 9.32572689e-03 8.99658352e-02
      1.57988787e-01 2.13943142e-02 1.81028806e-02 2.19428875e-02
      2.02971697e-02 2.96228975e-02 0. 4.11429107e-02 3.01714689e-02
      1.75543092e-02 6.03429377e-02 4.13623422e-01 1.48114488e-02
      5.92457950e-02 1.92000251e-02 2.24914588e-02 4.66286354e-02 0.
      2.84160376e-01 0. 4.13133353e-01 6.52876616e-01 1.33190706e-01
      1.70968428e-01 2.09230483e-01 4.84329835e-03 5.03703021e-02
      2.32478306e-02 1.26410082e-01 2.76068002e-02 1.16239153e-02
      7.11964816e-02 3.58404070e-02 6.29628776e-03 2.42164917e-03
      1.04615241e-01 1.99543893e-01 7.26494752e-03 4.35896823e-03
      6.29628776e-03 8.23360682e-03 1.16239153e-02 0. 2.80911289e-02
      1.06552560e-02 3.39030870e-03 3.72933969e-02 4.63019311e-01
      4.84329835e-03 2.76068002e-02 5.32762799e-03 3.87463858e-03
      1.11395856e-02 0. 1.31253377e-01 0.</_>
    <_>
      4.30629134e-01 6.16595089e-01 1.02582991e-01 2.47954622e-01
      1.32205889e-01 1.75543092e-02 8.66743997e-02 2.96228975e-02
      1.47565916e-01 3.84000503e-02 1.75543092e-02 8.94172639e-02
      6.03429377e-02 1.15200151e-02 9.32572689e-03 8.99658352e-02
      1.57988787e-01 2.13943142e-02 1.81028806e-02 2.19428875e-02
      2.02971697e-02 2.96228975e-02 0. 4.11429107e-02 3.01714689e-02
      1.75543092e-02 6.03429377e-02 4.13623422e-01 1.48114488e-02
      5.92457950e-02 1.92000251e-02 2.24914588e-02 4.66286354e-02 0.
      2.84160376e-01 0. 4.13133353e-01 6.52876616e-01 1.33190706e-01
      1.70968428e-01 2.09230483e-01 4.84329835e-03 5.03703021e-02
      2.32478306e-02 1.26410082e-01 2.76068002e-02 1.16239153e-02
      7.11964816e-02 3.58404070e-02 6.29628776e-03 2.42164917e-03
      1.04615241e-01 1.99543893e-01 7.26494752e-03 4.35896823e-03
      6.29628776e-03 8.23360682e-03 1.16239153e-02 0. 2.80911289e-02
      1.06552560e-02 3.39030870e-03 3.72933969e-02 4.63019311e-01
      4.84329835e-03 2.76068002e-02 5.32762799e-03 3.87463858e-03
      1.11395856e-02 0. 1.31253377e-01 0.</_>
    <_>
      4.32660460e-01 6.38215661e-01 1.10513531e-01 2.45340034e-01
      1.35931641e-01 2.26552747e-02 9.22788009e-02 3.26014906e-02
      1.56376645e-01 3.81271690e-02 1.54718943e-02 8.56479853e-02
      6.52029812e-02 1.21564884e-02 1.16039207e-02 8.67531225e-02
      1.54718935e-01 2.32078414e-02 1.71295963e-02 2.48655453e-02
      2.04450041e-02 3.92323025e-02 0. 4.80733849e-02 2.70758159e-02
      1.60244629e-02 6.35452792e-02 3.66352350e-01 1.10513531e-02
      6.02298751e-02 1.87873002e-02 2.37604082e-02 4.69682515e-02 0.
      2.88440317e-01 0. 3.91547203e-01 6.60825074e-01 1.27026856e-01
      1.61281288e-01 2.16944739e-01 5.23331622e-03 4.85271141e-02
      2.14090198e-02 1.13705687e-01 2.66423374e-02 1.14181442e-02
      7.04118907e-02 3.13998982e-02 5.70907211e-03 1.90302404e-03
      9.84814912e-02 1.85544848e-01 8.56360793e-03 4.28180397e-03
      3.80604807e-03 6.66058436e-03 8.08785204e-03 0. 2.75938492e-02
      1.04666324e-02 4.75755986e-03 3.28271650e-02 4.82416600e-01
      5.23331622e-03 2.94968728e-02 3.80604807e-03 3.33029218e-03
      1.04666324e-02 0. 1.34638950e-01 0.</_>
    <_>
      4.32660460e-01 6.38215661e-01 1.10513531e-01 2.45340034e-01
      1.35931641e-01 2.26552747e-02 9.22788009e-02 3.26014906e-02
      1.56376645e-01 3.81271690e-02 1.54718943e-02 8.56479853e-02
      6.52029812e-02 1.21564884e-02 1.16039207e-02 8.67531225e-02
      1.54718935e-01 2.32078414e-02 1.71295963e-02 2.48655453e-02
      2.04450041e-02 3.92323025e-02 0. 4.80733849e-02 2.70758159e-02
      1.60244629e-02 6.35452792e-02 3.66352350e-01 1.10513531e-02
      6.02298751e-02 1.87873002e-02 2.37604082e-02 4.69682515e-02 0.
      2.88440317e-01 0. 3.91547203e-01 6.60825074e-01 1.27026856e-01
      1.61281288e-01 2.16944739e-01 5.23331622e-03 4.85271141e-02
      2.14090198e-02 1.13705687e-01 2.66423374e-02 1.14181442e-02
      7.04118907e-02 3.13998982e-02 5.70907211e-03 1.90302404e-03
      9.84814912e-02 1.85544848e-01 8.56360793e-03 4.28180397e-03
      3.80604807e-03 6.66058436e-03 8.08785204e-03 0. 2.75938492e-02
      1.04666324e-02 4.75755986e-03 3.28271650e-02 4.82416600e-01
      5.23331622e-03 2.94968728e-02 3.80604807e-03 3.33029218e-03
      1.04666324e-02 0. 1.34638950e-01 0.</_>
    <_>
      4.32660460e-01 6.38215661e-01 1.10513531e-01 2.45340034e-01
      1.35931641e-01 2.26552747e-02 9.22788009e-02 3.26014906e-02
      1.56376645e-01 3.81271690e-02 1.54718943e-02 8.56479853e-02
      6.52029812e-02 1.21564884e-02 1.16039207e-02 8.67531225e-02
      1.54718935e-01 2.32078414e-02 1.71295963e-02 2.48655453e-02
      2.04450041e-02 3.92323025e-02 0. 4.80733849e-02 2.70758159e-02
      1.60244629e-02 6.35452792e-02 3.66352350e-01 1.10513531e-02
      6.02298751e-02 1.87873002e-02 2.37604082e-02 4.69682515e-02 0.
      2.88440317e-01 0. 3.91547203e-01 6.60825074e-01 1.27026856e-01
      1.61281288e-01 2.16944739e-01 5.23331622e-03 4.85271141e-02
      2.14090198e-02 1.13705687e-01 2.66423374e-02 1.14181442e-02
      7.04118907e-02 3.13998982e-02 5.70907211e-03 1.90302404e-03
      9.84814912e-02 1.85544848e-01 8.56360793e-03 4.28180397e-03
      3.80604807e-03 6.66058436e-03 8.08785204e-03 0. 2.75938492e-02
      1.04666324e-02 4.75755986e-03 3.28271650e-02 4.82416600e-01
      5.23331622e-03 2.94968728e-02 3.80604807e-03 3.33029218e-03
      1.04666324e-02 0. 1.34638950e-01 0.</_>
    <_>
      4.18094009e-01 6.55500114e-01 1.03713244e-01 2.42267653e-01
      1.40985191e-01 2.43077911e-02 9.39901248e-02 3.56514268e-02
      1.66913509e-01 3.16001289e-02 1.53949345e-02 8.34567547e-02
      6.88720793e-02 1.29641555e-02 1.21538956e-02 8.26464891e-02
      1.57190382e-01 2.26872712e-02 1.62051953e-02 2.75488310e-02
      1.86359733e-02 3.88924666e-02 0. 4.94258441e-02 2.51180511e-02
      1.53949345e-02 6.40105158e-02 3.58134806e-01 9.72311664e-03
      5.75284399e-02 1.78257134e-02 2.10667532e-02 4.37540263e-02 0.
      2.78729349e-01 0. 3.62681657e-01 6.54510617e-01 1.24869123e-01
      1.62049249e-01 2.19573230e-01 6.31360710e-03 4.91058342e-02
      2.45529171e-02 1.22764587e-01 2.80604772e-02 1.40302386e-02
      6.80466592e-02 2.66574528e-02 5.61209535e-03 2.10453570e-03
      9.82116684e-02 1.97826356e-01 1.12241907e-02 3.50755965e-03
      4.20907140e-03 7.01511931e-03 4.91058361e-03 0. 2.59559415e-02
      9.11965501e-03 4.91058361e-03 3.43740843e-02 5.08596122e-01
      5.61209535e-03 2.94634998e-02 2.80604768e-03 4.20907140e-03
      7.71663105e-03 0. 1.22063071e-01 0.</_>
    <_>
      4.18094009e-01 6.55500114e-01 1.03713244e-01 2.42267653e-01
      1.40985191e-01 2.43077911e-02 9.39901248e-02 3.56514268e-02
      1.66913509e-01 3.16001289e-02 1.53949345e-02 8.34567547e-02
      6.88720793e-02 1.29641555e-02 1.21538956e-02 8.26464891e-02
      1.57190382e-01 2.26872712e-02 1.62051953e-02 2.75488310e-02
      1.86359733e-02 3.88924666e-02 0. 4.94258441e-02 2.51180511e-02
      1.53949345e-02 6.40105158e-02 3.58134806e-01 9.72311664e-03
      5.75284399e-02 1.78257134e-02 2.10667532e-02 4.37540263e-02 0.
      2.78729349e-01 0. 3.62681657e-01 6.54510617e-01 1.24869123e-01
      1.62049249e-01 2.19573230e-01 6.31360710e-03 4.91058342e-02
      2.45529171e-02 1.22764587e-01 2.80604772e-02 1.40302386e-02
      6.80466592e-02 2.66574528e-02 5.61209535e-03 2.10453570e-03
      9.82116684e-02 1.97826356e-01 1.12241907e-02 3.50755965e-03
      4.20907140e-03 7.01511931e-03 4.91058361e-03 0. 2.59559415e-02
      9.11965501e-03 4.91058361e-03 3.43740843e-02 5.08596122e-01
      5.61209535e-03 2.94634998e-02 2.80604768e-03 4.20907140e-03
      7.71663105e-03 0. 1.22063071e-01 0.</_>
    <_>
      4.18094009e-01 6.55500114e-01 1.03713244e-01 2.42267653e-01
      1.40985191e-01 2.43077911e-02 9.39901248e-02 3.56514268e-02
      1.66913509e-01 3.16001289e-02 1.53949345e-02 8.34567547e-02
      6.88720793e-02 1.29641555e-02 1.21538956e-02 8.26464891e-02
      1.57190382e-01 2.26872712e-02 1.62051953e-02 2.75488310e-02
      1.86359733e-02 3.88924666e-02 0. 4.94258441e-02 2.51180511e-02
      1.53949345e-02 6.40105158e-02 3.58134806e-01 9.72311664e-03
      5.75284399e-02 1.78257134e-02 2.10667532e-02 4.37540263e-02 0.
      2.78729349e-01 0. 3.62681657e-01 6.54510617e-01 1.24869123e-01
      1.62049249e-01 2.19573230e-01 6.31360710e-03 4.91058342e-02
      2.45529171e-02 1.22764587e-01 2.80604772e-02 1.40302386e-02
      6.80466592e-02 2.66574528e-02 5.61209535e-03 2.10453570e-03
      9.82116684e-02 1.97826356e-01 1.12241907e-02 3.50755965e-03
      4.20907140e-03 7.01511931e-03 4.91058361e-03 0. 2.59559415e-02
      9.11965501e-03 4.91058361e-03 3.43740843e-02 5.08596122e-01
      5.61209535e-03 2.94634998e-02 2.80604768e-03 4.20907140e-03
      7.71663105e-03 0. 1.22063071e-01 0.</_>
    <_>
      3.78068864e-01 6.60313845e-01 1.20215446e-01 2.12554842e-01
      1.67256266e-01 2.09070332e-02 1.04535170e-01 4.00718153e-02
      1.72483027e-01 3.65873091e-02 1.91647820e-02 8.01436305e-02
      7.49168694e-02 1.04535166e-02 1.21957697e-02 7.66591281e-02
      1.55060500e-01 3.13605517e-02 1.91647820e-02 2.26492863e-02
      2.43915394e-02 4.00718153e-02 0. 5.74943423e-02 2.96182986e-02
      1.74225289e-02 6.27211034e-02 3.74584377e-01 5.22675831e-03
      7.84013793e-02 1.91647820e-02 2.43915394e-02 4.70408276e-02 0.
      2.90956229e-01 0. 3.59940439e-01 6.87950671e-01 1.37880415e-01
      1.69810608e-01 2.17705905e-01 5.80549100e-03 4.64439280e-02
      1.74164735e-02 1.03047468e-01 3.19302008e-02 1.30623551e-02
      6.96658939e-02 2.17705909e-02 4.35411837e-03 2.90274550e-03
      8.85337368e-02 1.82872966e-01 1.16109820e-02 1.45137275e-03
      4.35411837e-03 4.35411837e-03 4.35411837e-03 0. 2.61247102e-02
      7.25686364e-03 8.70823674e-03 3.62843201e-02 4.74598885e-01
      7.25686364e-03 2.75760815e-02 2.90274550e-03 5.80549100e-03
      8.70823674e-03 0. 1.11755699e-01 0.</_>
    <_>
      3.78068864e-01 6.60313845e-01 1.20215446e-01 2.12554842e-01
      1.67256266e-01 2.09070332e-02 1.04535170e-01 4.00718153e-02
      1.72483027e-01 3.65873091e-02 1.91647820e-02 8.01436305e-02
      7.49168694e-02 1.04535166e-02 1.21957697e-02 7.66591281e-02
      1.55060500e-01 3.13605517e-02 1.91647820e-02 2.26492863e-02
      2.43915394e-02 4.00718153e-02 0. 5.74943423e-02 2.96182986e-02
      1.74225289e-02 6.27211034e-02 3.74584377e-01 5.22675831e-03
      7.84013793e-02 1.91647820e-02 2.43915394e-02 4.70408276e-02 0.
      2.90956229e-01 0. 3.59940439e-01 6.87950671e-01 1.37880415e-01
      1.69810608e-01 2.17705905e-01 5.80549100e-03 4.64439280e-02
      1.74164735e-02 1.03047468e-01 3.19302008e-02 1.30623551e-02
      6.96658939e-02 2.17705909e-02 4.35411837e-03 2.90274550e-03
      8.85337368e-02 1.82872966e-01 1.16109820e-02 1.45137275e-03
      4.35411837e-03 4.35411837e-03 4.35411837e-03 0. 2.61247102e-02
      7.25686364e-03 8.70823674e-03 3.62843201e-02 4.74598885e-01
      7.25686364e-03 2.75760815e-02 2.90274550e-03 5.80549100e-03
      8.70823674e-03 0. 1.11755699e-01 0.</_>
    <_>
      3.78068864e-01 6.60313845e-01 1.20215446e-01 2.12554842e-01
      1.67256266e-01 2.09070332e-02 1.04535170e-01 4.00718153e-02
      1.72483027e-01 3.65873091e-02 1.91647820e-02 8.01436305e-02
      7.49168694e-02 1.04535166e-02 1.21957697e-02 7.66591281e-02
      1.55060500e-01 3.13605517e-02 1.91647820e-02 2.26492863e-02
      2.43915394e-02 4.00718153e-02 0. 5.74943423e-02 2.96182986e-02
      1.74225289e-02 6.27211034e-02 3.74584377e-01 5.22675831e-03
      7.84013793e-02 1.91647820e-02 2.43915394e-02 4.70408276e-02 0.
      2.90956229e-01 0. 3.59940439e-01 6.87950671e-01 1.37880415e-01
      1.69810608e-01 2.17705905e-01 5.80549100e-03 4.64439280e-02
      1.74164735e-02 1.03047468e-01 3.19302008e-02 1.30623551e-02
      6.96658939e-02 2.17705909e-02 4.35411837e-03 2.90274550e-03
      8.85337368e-02 1.82872966e-01 1.16109820e-02 1.45137275e-03
      4.35411837e-03 4.35411837e-03 4.35411837e-03 0. 2.61247102e-02
      7.25686364e-03 8.70823674e-03 3.62843201e-02 4.74598885e-01
      7.25686364e-03 2.75760815e-02 2.90274550e-03 5.80549100e-03
      8.70823674e-03 0. 1.11755699e-01 0.</_>
    <_>
      4.62146014e-01 5.27843237e-01 1.14026226e-01 2.12194502e-01
      1.85764581e-01 2.03887951e-02 9.13720056e-02 4.45532948e-02
      1.35925293e-01 4.00224477e-02 1.28373895e-02 8.98617283e-02
      6.34318069e-02 1.73682328e-02 1.35925300e-02 1.23843051e-01
      1.32904738e-01 2.71850601e-02 3.32261845e-02 2.49196384e-02
      2.71850601e-02 3.17159034e-02 0. 5.21046966e-02 3.92673090e-02
      1.58579517e-02 6.11663833e-02 4.26654428e-01 1.28373895e-02
      6.41869456e-02 1.88785139e-02 3.85121703e-02 7.47589171e-02 0.
      3.63977760e-01 1.51028112e-03 3.76408219e-01 6.50275469e-01
      1.65594146e-01 1.63683444e-01 2.80236244e-01 7.00590573e-03
      5.34996465e-02 1.84701160e-02 1.56040639e-01 1.27380108e-02
      1.14642102e-02 5.09520434e-02 3.63033302e-02 5.09520434e-03
      4.45830356e-03 1.16552800e-01 1.77058354e-01 7.00590573e-03
      5.73210511e-03 4.45830356e-03 4.45830356e-03 8.27970728e-03 0.
      2.35653203e-02 1.27380108e-02 2.54760217e-03 4.58568409e-02
      4.53473181e-01 4.45830356e-03 2.80236229e-02 5.09520434e-03
      5.73210511e-03 1.33749116e-02 0. 1.27380103e-01 0.</_>
    <_>
      4.62146014e-01 5.27843237e-01 1.14026226e-01 2.12194502e-01
      1.85764581e-01 2.03887951e-02 9.13720056e-02 4.45532948e-02
      1.35925293e-01 4.00224477e-02 1.28373895e-02 8.98617283e-02
      6.34318069e-02 1.73682328e-02 1.35925300e-02 1.23843051e-01
      1.32904738e-01 2.71850601e-02 3.32261845e-02 2.49196384e-02
      2.71850601e-02 3.17159034e-02 0. 5.21046966e-02 3.92673090e-02
      1.58579517e-02 6.11663833e-02 4.26654428e-01 1.28373895e-02
      6.41869456e-02 1.88785139e-02 3.85121703e-02 7.47589171e-02 0.
      3.63977760e-01 1.51028112e-03 3.76408219e-01 6.50275469e-01
      1.65594146e-01 1.63683444e-01 2.80236244e-01 7.00590573e-03
      5.34996465e-02 1.84701160e-02 1.56040639e-01 1.27380108e-02
      1.14642102e-02 5.09520434e-02 3.63033302e-02 5.09520434e-03
      4.45830356e-03 1.16552800e-01 1.77058354e-01 7.00590573e-03
      5.73210511e-03 4.45830356e-03 4.45830356e-03 8.27970728e-03 0.
      2.35653203e-02 1.27380108e-02 2.54760217e-03 4.58568409e-02
      4.53473181e-01 4.45830356e-03 2.80236229e-02 5.09520434e-03
      5.73210511e-03 1.33749116e-02 0. 1.27380103e-01 0.</_>
    <_>
      4.45407480e-01 5.47160029e-01 1.04632355e-01 2.13104442e-01
      1.63188085e-01 2.30383165e-02 9.11933407e-02 4.41567749e-02
      1.29590541e-01 3.74372676e-02 1.24790883e-02 8.73536170e-02
      6.14355132e-02 2.20783874e-02 1.15191583e-02 9.88727808e-02
      1.51668921e-01 2.59181075e-02 3.64773348e-02 2.78379675e-02
      2.20783874e-02 3.07177566e-02 0. 5.37560731e-02 3.45574766e-02
      2.01585274e-02 6.33553714e-02 4.21409220e-01 1.43989483e-02
      6.04755841e-02 2.11184584e-02 3.35975476e-02 7.10348114e-02 0.
      3.80132228e-01 0. 3.60669613e-01 6.35465503e-01 1.53754845e-01
      1.65204674e-01 2.70706683e-01 2.45353486e-03 4.98885401e-02
      1.71747431e-02 1.82379425e-01 1.30855190e-02 9.81413946e-03
      4.25279364e-02 3.02602630e-02 4.08922462e-03 3.27137974e-03
      1.15316138e-01 1.87286496e-01 8.17844924e-03 8.99629388e-03
      7.36060459e-03 4.90706973e-03 5.72491437e-03 0. 2.12639682e-02
      1.22676743e-02 1.63568987e-03 4.82528508e-02 4.80892807e-01
      4.90706973e-03 2.53531933e-02 4.90706973e-03 4.90706973e-03
      1.30855190e-02 0. 1.38215795e-01 0.</_>
    <_>
      4.45407480e-01 5.47160029e-01 1.04632355e-01 2.13104442e-01
      1.63188085e-01 2.30383165e-02 9.11933407e-02 4.41567749e-02
      1.29590541e-01 3.74372676e-02 1.24790883e-02 8.73536170e-02
      6.14355132e-02 2.20783874e-02 1.15191583e-02 9.88727808e-02
      1.51668921e-01 2.59181075e-02 3.64773348e-02 2.78379675e-02
      2.20783874e-02 3.07177566e-02 0. 5.37560731e-02 3.45574766e-02
      2.01585274e-02 6.33553714e-02 4.21409220e-01 1.43989483e-02
      6.04755841e-02 2.11184584e-02 3.35975476e-02 7.10348114e-02 0.
      3.80132228e-01 0. 3.60669613e-01 6.35465503e-01 1.53754845e-01
      1.65204674e-01 2.70706683e-01 2.45353486e-03 4.98885401e-02
      1.71747431e-02 1.82379425e-01 1.30855190e-02 9.81413946e-03
      4.25279364e-02 3.02602630e-02 4.08922462e-03 3.27137974e-03
      1.15316138e-01 1.87286496e-01 8.17844924e-03 8.99629388e-03
      7.36060459e-03 4.90706973e-03 5.72491437e-03 0. 2.12639682e-02
      1.22676743e-02 1.63568987e-03 4.82528508e-02 4.80892807e-01
      4.90706973e-03 2.53531933e-02 4.90706973e-03 4.90706973e-03
      1.30855190e-02 0. 1.38215795e-01 0.</_>
    <_>
      4.05530363e-01 5.45973778e-01 1.05332561e-01 2.24709466e-01
      1.54487759e-01 2.45775972e-02 9.30437669e-02 3.51108536e-02
      1.43954501e-01 3.15997675e-02 1.40443416e-02 7.72438794e-02
      4.73996513e-02 2.28220560e-02 7.02217082e-03 9.83103886e-02
      1.91354156e-01 2.63331402e-02 2.63331402e-02 2.63331402e-02
      2.10665129e-02 3.33553106e-02 0. 5.44218235e-02 2.45775972e-02
      1.93109699e-02 7.54883364e-02 4.59952176e-01 1.22887986e-02
      5.26662804e-02 2.45775972e-02 2.63331402e-02 6.84661642e-02 0.
      3.61641794e-01 0. 3.14789623e-01 6.31064117e-01 1.27697676e-01
      1.67788804e-01 2.42031649e-01 4.45456989e-03 5.04851267e-02
      1.78182796e-02 2.04910219e-01 8.90913978e-03 1.18788537e-02
      3.26668471e-02 1.78182796e-02 2.96971342e-03 4.45456989e-03
      1.14333965e-01 2.18273938e-01 2.96971342e-03 1.03939967e-02
      7.42428377e-03 2.96971342e-03 2.96971342e-03 0. 1.78182796e-02
      8.90913978e-03 2.96971342e-03 5.19699864e-02 5.18215001e-01
      4.45456989e-03 1.93031374e-02 5.93942683e-03 7.42428377e-03
      1.33637106e-02 0. 1.41061381e-01 0.</_>
    <_>
      4.05530363e-01 5.45973778e-01 1.05332561e-01 2.24709466e-01
      1.54487759e-01 2.45775972e-02 9.30437669e-02 3.51108536e-02
      1.43954501e-01 3.15997675e-02 1.40443416e-02 7.72438794e-02
      4.73996513e-02 2.28220560e-02 7.02217082e-03 9.83103886e-02
      1.91354156e-01 2.63331402e-02 2.63331402e-02 2.63331402e-02
      2.10665129e-02 3.33553106e-02 0. 5.44218235e-02 2.45775972e-02
      1.93109699e-02 7.54883364e-02 4.59952176e-01 1.22887986e-02
      5.26662804e-02 2.45775972e-02 2.63331402e-02 6.84661642e-02 0.
      3.61641794e-01 0. 3.14789623e-01 6.31064117e-01 1.27697676e-01
      1.67788804e-01 2.42031649e-01 4.45456989e-03 5.04851267e-02
      1.78182796e-02 2.04910219e-01 8.90913978e-03 1.18788537e-02
      3.26668471e-02 1.78182796e-02 2.96971342e-03 4.45456989e-03
      1.14333965e-01 2.18273938e-01 2.96971342e-03 1.03939967e-02
      7.42428377e-03 2.96971342e-03 2.96971342e-03 0. 1.78182796e-02
      8.90913978e-03 2.96971342e-03 5.19699864e-02 5.18215001e-01
      4.45456989e-03 1.93031374e-02 5.93942683e-03 7.42428377e-03
      1.33637106e-02 0. 1.41061381e-01 0.</_>
    <_>
      3.84762794e-01 5.13017058e-01 9.32758301e-02 2.79827476e-01
      1.63232699e-01 4.66379151e-02 1.28254265e-01 8.16163495e-02
      1.51573226e-01 1.16594788e-02 0. 1.16594791e-01 8.16163495e-02
      1.16594788e-02 0. 5.82973957e-02 2.56508529e-01 0. 2.33189575e-02
      3.49784344e-02 4.66379151e-02 5.82973957e-02 0. 9.32758301e-02
      1.16594788e-02 3.49784344e-02 5.82973957e-02 3.84762794e-01
      2.33189575e-02 3.49784344e-02 2.33189575e-02 1.16594788e-02
      9.32758301e-02 0. 3.96422267e-01 0. 2.86900789e-01 5.35548151e-01
      7.65068755e-02 2.86900789e-01 1.91267192e-01 0. 4.78167981e-02
      2.86900774e-02 2.48647347e-01 0. 1.91267189e-02 5.73801547e-02
      2.86900774e-02 0. 0. 2.86900774e-02 2.29520619e-01 0.
      1.91267189e-02 9.56335943e-03 0. 0. 0. 0. 9.56335943e-03 0.
      7.65068755e-02 5.64238191e-01 0. 2.86900774e-02 9.56335943e-03 0.
      1.91267189e-02 0. 2.39083990e-01 0.</_>
    <_>
      3.84762794e-01 5.13017058e-01 9.32758301e-02 2.79827476e-01
      1.63232699e-01 4.66379151e-02 1.28254265e-01 8.16163495e-02
      1.51573226e-01 1.16594788e-02 0. 1.16594791e-01 8.16163495e-02
      1.16594788e-02 0. 5.82973957e-02 2.56508529e-01 0. 2.33189575e-02
      3.49784344e-02 4.66379151e-02 5.82973957e-02 0. 9.32758301e-02
      1.16594788e-02 3.49784344e-02 5.82973957e-02 3.84762794e-01
      2.33189575e-02 3.49784344e-02 2.33189575e-02 1.16594788e-02
      9.32758301e-02 0. 3.96422267e-01 0. 2.86900789e-01 5.35548151e-01
      7.65068755e-02 2.86900789e-01 1.91267192e-01 0. 4.78167981e-02
      2.86900774e-02 2.48647347e-01 0. 1.91267189e-02 5.73801547e-02
      2.86900774e-02 0. 0. 2.86900774e-02 2.29520619e-01 0.
      1.91267189e-02 9.56335943e-03 0. 0. 0. 0. 9.56335943e-03 0.
      7.65068755e-02 5.64238191e-01 0. 2.86900774e-02 9.56335943e-03 0.
      1.91267189e-02 0. 2.39083990e-01 0.</_>
    <_>
      4.27958190e-01 5.78575611e-01 1.16056457e-01 2.13339075e-01
      1.42083824e-01 2.26139426e-02 7.72287473e-02 4.13877815e-02
      9.51492265e-02 3.62676419e-02 1.23736663e-02 1.02402762e-01
      5.12013808e-02 1.28003452e-02 1.49337361e-02 9.21624824e-02
      1.59150958e-01 3.11475061e-02 2.26139426e-02 2.56006904e-02
      1.62137710e-02 3.24275419e-02 0. 5.37614487e-02 3.24275419e-02
      1.96271949e-02 6.10149764e-02 4.74892795e-01 1.66404489e-02
      5.20547368e-02 2.81607583e-02 2.73074023e-02 5.97349443e-02
      4.26678162e-04 3.02941501e-01 3.41342529e-03 4.54166174e-01
      6.76417708e-01 1.56757116e-01 1.60336047e-01 1.85746461e-01
      4.29471582e-03 4.65260856e-02 2.82735452e-02 1.23473078e-01
      2.32630428e-02 7.15785939e-03 7.83785582e-02 2.14735791e-02
      6.79996656e-03 3.57892970e-03 8.80416706e-02 2.30840966e-01
      6.08418044e-03 5.01050148e-03 8.23153835e-03 2.14735791e-03
      7.51575269e-03 0. 2.75577586e-02 6.79996656e-03 5.36839478e-03
      3.32840458e-02 3.96903306e-01 5.72628761e-03 1.39578264e-02
      2.86314380e-03 4.29471582e-03 6.79996656e-03 0. 7.01470226e-02
      7.15785951e-04</_>
    <_>
      3.98068964e-01 5.99044204e-01 1.10406995e-01 2.15638667e-01
      1.45771742e-01 2.37202533e-02 9.01369601e-02 3.49334627e-02
      1.26364261e-01 4.14026231e-02 1.29383197e-02 1.00918896e-01
      5.08907251e-02 1.46634290e-02 1.50947068e-02 8.58241841e-02
      1.83292866e-01 2.71704718e-02 1.89762022e-02 2.32889764e-02
      1.68198161e-02 2.71704718e-02 0. 5.73598854e-02 2.67391950e-02
      1.89762022e-02 6.55541569e-02 4.51547354e-01 1.50947068e-02
      5.99475466e-02 2.63079163e-02 3.40709090e-02 6.12413809e-02
      4.31277324e-04 3.10088396e-01 3.45021859e-03 4.42525595e-01
      6.59522653e-01 1.88064113e-01 1.59502104e-01 2.22561076e-01
      4.08028625e-03 5.11890464e-02 2.78201345e-02 1.31681964e-01
      2.29979772e-02 9.64431372e-03 7.34451562e-02 2.41107829e-02
      8.90244357e-03 4.82215686e-03 9.34756547e-02 2.08465546e-01
      5.93496207e-03 5.93496207e-03 8.90244357e-03 1.85467559e-03
      7.41870236e-03 0. 2.37398483e-02 8.16057250e-03 8.53150804e-03
      4.78506312e-02 4.09141451e-01 6.30589714e-03 2.18851734e-02
      3.70935118e-03 8.16057250e-03 1.48374047e-02 0. 8.82825628e-02
      1.11280545e-03</_>
    <_>
      3.90133440e-01 5.72398245e-01 1.11528695e-01 2.14378104e-01
      1.59264714e-01 2.38680076e-02 9.54720303e-02 3.77548486e-02
      1.38868406e-01 4.55661975e-02 1.69245880e-02 9.98116732e-02
      5.38115092e-02 1.56226959e-02 1.30189136e-02 8.54908675e-02
      1.80528939e-01 2.73397174e-02 1.64906234e-02 2.34340448e-02
      1.64906234e-02 3.03774644e-02 0. 5.33775464e-02 2.08302625e-02
      1.60566606e-02 6.55285344e-02 4.69114840e-01 1.34528773e-02
      5.81511483e-02 1.99623331e-02 3.25472839e-02 6.07549287e-02
      4.33963782e-04 3.33284199e-01 3.03774653e-03 4.09381479e-01
      6.51376605e-01 1.76664159e-01 1.58881769e-01 2.35809922e-01
      4.63888375e-03 6.68772385e-02 2.97661703e-02 1.50377139e-01
      3.24721858e-02 1.39166508e-02 7.73147270e-02 3.24721858e-02
      9.66434088e-03 5.41203097e-03 8.54327753e-02 2.02564582e-01
      7.34489923e-03 9.66434088e-03 1.19837830e-02 3.47916270e-03
      1.08240619e-02 0. 2.55138595e-02 1.31435040e-02 9.66434088e-03
      4.87082787e-02 4.33349043e-01 8.89119320e-03 2.86064483e-02
      6.18517818e-03 1.39166508e-02 1.97152551e-02 3.86573636e-04
      1.35300770e-01 1.54629454e-03</_>
    <_>
      3.90133440e-01 5.72398245e-01 1.11528695e-01 2.14378104e-01
      1.59264714e-01 2.38680076e-02 9.54720303e-02 3.77548486e-02
      1.38868406e-01 4.55661975e-02 1.69245880e-02 9.98116732e-02
      5.38115092e-02 1.56226959e-02 1.30189136e-02 8.54908675e-02
      1.80528939e-01 2.73397174e-02 1.64906234e-02 2.34340448e-02
      1.64906234e-02 3.03774644e-02 0. 5.33775464e-02 2.08302625e-02
      1.60566606e-02 6.55285344e-02 4.69114840e-01 1.34528773e-02
      5.81511483e-02 1.99623331e-02 3.25472839e-02 6.07549287e-02
      4.33963782e-04 3.33284199e-01 3.03774653e-03 4.09381479e-01
      6.51376605e-01 1.76664159e-01 1.58881769e-01 2.35809922e-01
      4.63888375e-03 6.68772385e-02 2.97661703e-02 1.50377139e-01
      3.24721858e-02 1.39166508e-02 7.73147270e-02 3.24721858e-02
      9.66434088e-03 5.41203097e-03 8.54327753e-02 2.02564582e-01
      7.34489923e-03 9.66434088e-03 1.19837830e-02 3.47916270e-03
      1.08240619e-02 0. 2.55138595e-02 1.31435040e-02 9.66434088e-03
      4.87082787e-02 4.33349043e-01 8.89119320e-03 2.86064483e-02
      6.18517818e-03 1.39166508e-02 1.97152551e-02 3.86573636e-04
      1.35300770e-01 1.54629454e-03</_>
    <_>
      3.90133440e-01 5.72398245e-01 1.11528695e-01 2.14378104e-01
      1.59264714e-01 2.38680076e-02 9.54720303e-02 3.77548486e-02
      1.38868406e-01 4.55661975e-02 1.69245880e-02 9.98116732e-02
      5.38115092e-02 1.56226959e-02 1.30189136e-02 8.54908675e-02
      1.80528939e-01 2.73397174e-02 1.64906234e-02 2.34340448e-02
      1.64906234e-02 3.03774644e-02 0. 5.33775464e-02 2.08302625e-02
      1.60566606e-02 6.55285344e-02 4.69114840e-01 1.34528773e-02
      5.81511483e-02 1.99623331e-02 3.25472839e-02 6.07549287e-02
      4.33963782e-04 3.33284199e-01 3.03774653e-03 4.09381479e-01
      6.51376605e-01 1.76664159e-01 1.58881769e-01 2.35809922e-01
      4.63888375e-03 6.68772385e-02 2.97661703e-02 1.50377139e-01
      3.24721858e-02 1.39166508e-02 7.73147270e-02 3.24721858e-02
      9.66434088e-03 5.41203097e-03 8.54327753e-02 2.02564582e-01
      7.34489923e-03 9.66434088e-03 1.19837830e-02 3.47916270e-03
      1.08240619e-02 0. 2.55138595e-02 1.31435040e-02 9.66434088e-03
      4.87082787e-02 4.33349043e-01 8.89119320e-03 2.86064483e-02
      6.18517818e-03 1.39166508e-02 1.97152551e-02 3.86573636e-04
      1.35300770e-01 1.54629454e-03</_>
    <_>
      3.90133440e-01 5.72398245e-01 1.11528695e-01 2.14378104e-01
      1.59264714e-01 2.38680076e-02 9.54720303e-02 3.77548486e-02
      1.38868406e-01 4.55661975e-02 1.69245880e-02 9.98116732e-02
      5.38115092e-02 1.56226959e-02 1.30189136e-02 8.54908675e-02
      1.80528939e-01 2.73397174e-02 1.64906234e-02 2.34340448e-02
      1.64906234e-02 3.03774644e-02 0. 5.33775464e-02 2.08302625e-02
      1.60566606e-02 6.55285344e-02 4.69114840e-01 1.34528773e-02
      5.81511483e-02 1.99623331e-02 3.25472839e-02 6.07549287e-02
      4.33963782e-04 3.33284199e-01 3.03774653e-03 4.09381479e-01
      6.51376605e-01 1.76664159e-01 1.58881769e-01 2.35809922e-01
      4.63888375e-03 6.68772385e-02 2.97661703e-02 1.50377139e-01
      3.24721858e-02 1.39166508e-02 7.73147270e-02 3.24721858e-02
      9.66434088e-03 5.41203097e-03 8.54327753e-02 2.02564582e-01
      7.34489923e-03 9.66434088e-03 1.19837830e-02 3.47916270e-03
      1.08240619e-02 0. 2.55138595e-02 1.31435040e-02 9.66434088e-03
      4.87082787e-02 4.33349043e-01 8.89119320e-03 2.86064483e-02
      6.18517818e-03 1.39166508e-02 1.97152551e-02 3.86573636e-04
      1.35300770e-01 1.54629454e-03</_>
    <_>
      3.99720937e-01 5.96938312e-01 1.08164571e-01 2.01690316e-01
      1.14670709e-01 1.66719817e-02 7.72604048e-02 3.37505974e-02
      8.21400136e-02 3.65970358e-02 1.30122788e-02 1.02471694e-01
      4.51363437e-02 8.13267380e-03 8.53930786e-03 9.18992162e-02
      1.67939723e-01 2.60245577e-02 1.95184182e-02 1.95184182e-02
      1.13857444e-02 2.76510920e-02 0. 6.42481297e-02 3.09041627e-02
      1.46388132e-02 5.24557494e-02 5.12358487e-01 1.42321801e-02
      4.22899053e-02 2.07383186e-02 1.78918839e-02 3.90368365e-02 0.
      2.76104301e-01 0. 5.10596275e-01 6.77819133e-01 1.31512016e-01
      1.52114421e-01 1.39409617e-01 4.46385471e-03 3.94879431e-02
      2.71265004e-02 9.82047990e-02 2.09457781e-02 6.86746836e-03
      7.27951676e-02 1.78554188e-02 5.83734829e-03 3.09036090e-03
      7.51987770e-02 2.40704775e-01 6.52409485e-03 3.43373418e-03
      8.58433545e-03 2.74698739e-03 9.95782949e-03 0. 3.26204747e-02
      7.21084187e-03 5.49397478e-03 2.91867405e-02 3.63289088e-01
      4.80722776e-03 9.61445551e-03 2.06024060e-03 3.43373418e-03
      5.83734829e-03 0. 6.24939613e-02 0.</_>
    <_>
      3.85343581e-01 6.07482851e-01 9.89117250e-02 2.06478223e-01
      1.15809143e-01 1.73095521e-02 8.69598910e-02 3.17341797e-02
      1.11687824e-01 4.45102751e-02 1.11275688e-02 9.89117250e-02
      4.57466729e-02 9.47904028e-03 9.06690769e-03 9.35540050e-02
      1.79689631e-01 2.43157987e-02 1.60731543e-02 1.64852869e-02
      1.19518330e-02 2.63764597e-02 0. 6.55290186e-02 2.63764597e-02
      1.64852869e-02 5.68742417e-02 4.92497951e-01 1.40124941e-02
      4.69830707e-02 2.01944765e-02 2.18430050e-02 4.20374833e-02 0.
      2.86431879e-01 0. 4.84650820e-01 6.77668869e-01 1.64240822e-01
      1.50203153e-01 1.81436986e-01 2.80753546e-03 4.24639732e-02
      2.49168780e-02 9.29996148e-02 2.35131104e-02 1.01773161e-02
      7.43996873e-02 1.75470971e-02 5.96601283e-03 3.15847737e-03
      8.56298283e-02 2.04599142e-01 6.31695474e-03 4.21130331e-03
      7.72072235e-03 2.45659356e-03 9.12449043e-03 0. 2.77244132e-02
      9.12449043e-03 6.66789664e-03 3.57960761e-02 3.86387080e-01
      5.26412902e-03 1.36867352e-02 3.15847737e-03 3.15847737e-03
      7.36978045e-03 0. 6.80827349e-02 0.</_>
    <_>
      4.02526081e-01 5.66294730e-01 9.95540917e-02 2.08589524e-01
      1.50839537e-01 2.06865650e-02 9.09346938e-02 3.53395492e-02
      1.36617526e-01 5.34402914e-02 1.81007441e-02 1.03863798e-01
      5.34402914e-02 1.20671634e-02 1.12052225e-02 9.17966291e-02
      1.62906706e-01 3.14608179e-02 1.55149233e-02 2.28414163e-02
      1.63768642e-02 3.05988770e-02 0. 5.68880551e-02 2.32723858e-02
      1.50839537e-02 6.55074567e-02 4.77083892e-01 1.46529833e-02
      6.16287254e-02 2.02555954e-02 2.67201457e-02 5.86119331e-02 0.
      3.36156666e-01 0. 4.45981890e-01 6.56051159e-01 1.57644257e-01
      1.48414493e-01 2.13391989e-01 2.21514190e-03 5.75936846e-02
      2.36281790e-02 1.11864656e-01 3.02736051e-02 1.29216602e-02
      7.93759152e-02 2.87968423e-02 7.75299640e-03 3.32271261e-03
      8.60213414e-02 1.89394623e-01 6.27623498e-03 7.38380570e-03
      1.03373285e-02 2.95352237e-03 8.86056758e-03 0. 2.76892725e-02
      1.47676114e-02 6.27623498e-03 3.98725532e-02 4.40074831e-01
      6.27623498e-03 2.14130376e-02 5.90704475e-03 9.22975782e-03
      1.47676114e-02 0. 1.13710612e-01 0.</_>
    <_>
      4.02526081e-01 5.66294730e-01 9.95540917e-02 2.08589524e-01
      1.50839537e-01 2.06865650e-02 9.09346938e-02 3.53395492e-02
      1.36617526e-01 5.34402914e-02 1.81007441e-02 1.03863798e-01
      5.34402914e-02 1.20671634e-02 1.12052225e-02 9.17966291e-02
      1.62906706e-01 3.14608179e-02 1.55149233e-02 2.28414163e-02
      1.63768642e-02 3.05988770e-02 0. 5.68880551e-02 2.32723858e-02
      1.50839537e-02 6.55074567e-02 4.77083892e-01 1.46529833e-02
      6.16287254e-02 2.02555954e-02 2.67201457e-02 5.86119331e-02 0.
      3.36156666e-01 0. 4.45981890e-01 6.56051159e-01 1.57644257e-01
      1.48414493e-01 2.13391989e-01 2.21514190e-03 5.75936846e-02
      2.36281790e-02 1.11864656e-01 3.02736051e-02 1.29216602e-02
      7.93759152e-02 2.87968423e-02 7.75299640e-03 3.32271261e-03
      8.60213414e-02 1.89394623e-01 6.27623498e-03 7.38380570e-03
      1.03373285e-02 2.95352237e-03 8.86056758e-03 0. 2.76892725e-02
      1.47676114e-02 6.27623498e-03 3.98725532e-02 4.40074831e-01
      6.27623498e-03 2.14130376e-02 5.90704475e-03 9.22975782e-03
      1.47676114e-02 0. 1.13710612e-01 0.</_>
    <_>
      4.02526081e-01 5.66294730e-01 9.95540917e-02 2.08589524e-01
      1.50839537e-01 2.06865650e-02 9.09346938e-02 3.53395492e-02
      1.36617526e-01 5.34402914e-02 1.81007441e-02 1.03863798e-01
      5.34402914e-02 1.20671634e-02 1.12052225e-02 9.17966291e-02
      1.62906706e-01 3.14608179e-02 1.55149233e-02 2.28414163e-02
      1.63768642e-02 3.05988770e-02 0. 5.68880551e-02 2.32723858e-02
      1.50839537e-02 6.55074567e-02 4.77083892e-01 1.46529833e-02
      6.16287254e-02 2.02555954e-02 2.67201457e-02 5.86119331e-02 0.
      3.36156666e-01 0. 4.45981890e-01 6.56051159e-01 1.57644257e-01
      1.48414493e-01 2.13391989e-01 2.21514190e-03 5.75936846e-02
      2.36281790e-02 1.11864656e-01 3.02736051e-02 1.29216602e-02
      7.93759152e-02 2.87968423e-02 7.75299640e-03 3.32271261e-03
      8.60213414e-02 1.89394623e-01 6.27623498e-03 7.38380570e-03
      1.03373285e-02 2.95352237e-03 8.86056758e-03 0. 2.76892725e-02
      1.47676114e-02 6.27623498e-03 3.98725532e-02 4.40074831e-01
      6.27623498e-03 2.14130376e-02 5.90704475e-03 9.22975782e-03
      1.47676114e-02 0. 1.13710612e-01 0.</_>
    <_>
      4.02526081e-01 5.66294730e-01 9.95540917e-02 2.08589524e-01
      1.50839537e-01 2.06865650e-02 9.09346938e-02 3.53395492e-02
      1.36617526e-01 5.34402914e-02 1.81007441e-02 1.03863798e-01
      5.34402914e-02 1.20671634e-02 1.12052225e-02 9.17966291e-02
      1.62906706e-01 3.14608179e-02 1.55149233e-02 2.28414163e-02
      1.63768642e-02 3.05988770e-02 0. 5.68880551e-02 2.32723858e-02
      1.50839537e-02 6.55074567e-02 4.77083892e-01 1.46529833e-02
      6.16287254e-02 2.02555954e-02 2.67201457e-02 5.86119331e-02 0.
      3.36156666e-01 0. 4.45981890e-01 6.56051159e-01 1.57644257e-01
      1.48414493e-01 2.13391989e-01 2.21514190e-03 5.75936846e-02
      2.36281790e-02 1.11864656e-01 3.02736051e-02 1.29216602e-02
      7.93759152e-02 2.87968423e-02 7.75299640e-03 3.32271261e-03
      8.60213414e-02 1.89394623e-01 6.27623498e-03 7.38380570e-03
      1.03373285e-02 2.95352237e-03 8.86056758e-03 0. 2.76892725e-02
      1.47676114e-02 6.27623498e-03 3.98725532e-02 4.40074831e-01
      6.27623498e-03 2.14130376e-02 5.90704475e-03 9.22975782e-03
      1.47676114e-02 0. 1.13710612e-01 0.</_>
    <_>
      3.87178898e-01 5.97419024e-01 1.07126184e-01 1.95394948e-01
      1.10335954e-01 1.56476442e-02 7.74357766e-02 3.04928459e-02
      8.62626582e-02 3.81160565e-02 1.28390929e-02 9.54907537e-02
      4.61404882e-02 6.82076812e-03 4.81465971e-03 9.50895324e-02
      1.86969295e-01 1.84561964e-02 1.44439796e-02 1.52464230e-02
      1.20366495e-02 2.40732990e-02 0. 6.13869131e-02 3.41038406e-02
      1.40427575e-02 5.17575927e-02 5.24797916e-01 1.44439796e-02
      3.69123928e-02 1.64500885e-02 1.64500885e-02 3.37026194e-02 0.
      2.68016070e-01 0. 5.42223394e-01 6.62980556e-01 1.21095434e-01
      1.57965273e-01 1.22786708e-01 3.38255404e-03 3.51785608e-02
      2.70604324e-02 9.09906998e-02 1.69127695e-02 5.75034181e-03
      6.76510781e-02 1.65745150e-02 4.73557552e-03 3.04429862e-03
      7.54309520e-02 2.53015041e-01 7.10336352e-03 2.36778776e-03
      8.45638476e-03 3.38255404e-03 1.15006836e-02 0. 3.17960083e-02
      8.45638476e-03 5.41208638e-03 2.70604324e-02 3.47388297e-01
      3.38255404e-03 6.76510809e-03 2.02953233e-03 3.38255404e-03
      3.72080947e-03 0. 6.08859733e-02 0.</_>
    <_>
      3.86085063e-01 6.16613507e-01 1.01432525e-01 1.95648506e-01
      1.07847229e-01 1.48340054e-02 8.17874894e-02 2.80643348e-02
      9.38150585e-02 4.65066098e-02 1.16266524e-02 9.50178206e-02
      4.77093682e-02 7.61746196e-03 6.81562396e-03 9.58196521e-02
      1.71593353e-01 2.00459529e-02 1.24284904e-02 1.32303294e-02
      1.20275719e-02 2.44560633e-02 0. 6.49488866e-02 3.04698478e-02
      1.36312479e-02 4.97139618e-02 5.07162631e-01 1.28294099e-02
      4.04928252e-02 1.48340054e-02 1.84422769e-02 3.64836343e-02 0.
      2.67413020e-01 0. 5.19558966e-01 6.74161077e-01 1.45709097e-01
      1.53576016e-01 1.42972767e-01 2.39428086e-03 3.93346138e-02
      2.70211697e-02 7.96953514e-02 2.22326070e-02 6.84080226e-03
      7.11443424e-02 1.57338455e-02 4.44652140e-03 2.73632095e-03
      8.61941129e-02 2.19247714e-01 6.49876241e-03 3.42040113e-03
      7.86692277e-03 3.07836104e-03 9.23508313e-03 0. 2.87313703e-02
      9.57712345e-03 5.47264190e-03 3.11256517e-02 3.66324961e-01
      5.13060158e-03 8.89304280e-03 2.73632095e-03 2.73632095e-03
      4.78856172e-03 0. 6.19092621e-02 0.</_>
    <_>
      4.22069281e-01 5.78595459e-01 9.96847004e-02 2.04883873e-01
      1.40831158e-01 2.07853206e-02 9.12008956e-02 3.47835980e-02
      1.15803927e-01 5.68414889e-02 1.73917990e-02 1.03078224e-01
      5.59931099e-02 8.90799426e-03 1.14531359e-02 8.99283290e-02
      1.53981045e-01 3.01175062e-02 1.44224679e-02 1.86643694e-02
      1.48466574e-02 2.71481741e-02 0. 6.15075827e-02 2.71481741e-02
      1.23015167e-02 5.85382506e-02 4.69154388e-01 1.39982775e-02
      5.59931099e-02 2.16337014e-02 2.50272229e-02 5.59931099e-02 0.
      3.23232949e-01 0. 4.78286296e-01 6.62824810e-01 1.71202704e-01
      1.44170702e-01 2.05443248e-01 3.24384077e-03 4.72159050e-02
      2.27068849e-02 9.94777828e-02 2.77528595e-02 8.65024235e-03
      7.10040703e-02 2.59507261e-02 6.12725504e-03 1.80213375e-03
      9.19088200e-02 1.90305322e-01 5.76682808e-03 6.48768153e-03
      7.56896194e-03 2.16256059e-03 8.28981493e-03 0. 3.17175537e-02
      1.22545101e-02 5.04597463e-03 3.74843813e-02 4.04038399e-01
      6.12725504e-03 1.65796299e-02 4.32512118e-03 5.04597463e-03
      1.29753631e-02 0. 9.55130905e-02 0.</_>
    <_>
      4.22069281e-01 5.78595459e-01 9.96847004e-02 2.04883873e-01
      1.40831158e-01 2.07853206e-02 9.12008956e-02 3.47835980e-02
      1.15803927e-01 5.68414889e-02 1.73917990e-02 1.03078224e-01
      5.59931099e-02 8.90799426e-03 1.14531359e-02 8.99283290e-02
      1.53981045e-01 3.01175062e-02 1.44224679e-02 1.86643694e-02
      1.48466574e-02 2.71481741e-02 0. 6.15075827e-02 2.71481741e-02
      1.23015167e-02 5.85382506e-02 4.69154388e-01 1.39982775e-02
      5.59931099e-02 2.16337014e-02 2.50272229e-02 5.59931099e-02 0.
      3.23232949e-01 0. 4.78286296e-01 6.62824810e-01 1.71202704e-01
      1.44170702e-01 2.05443248e-01 3.24384077e-03 4.72159050e-02
      2.27068849e-02 9.94777828e-02 2.77528595e-02 8.65024235e-03
      7.10040703e-02 2.59507261e-02 6.12725504e-03 1.80213375e-03
      9.19088200e-02 1.90305322e-01 5.76682808e-03 6.48768153e-03
      7.56896194e-03 2.16256059e-03 8.28981493e-03 0. 3.17175537e-02
      1.22545101e-02 5.04597463e-03 3.74843813e-02 4.04038399e-01
      6.12725504e-03 1.65796299e-02 4.32512118e-03 5.04597463e-03
      1.29753631e-02 0. 9.55130905e-02 0.</_>
    <_>
      4.22069281e-01 5.78595459e-01 9.96847004e-02 2.04883873e-01
      1.40831158e-01 2.07853206e-02 9.12008956e-02 3.47835980e-02
      1.15803927e-01 5.68414889e-02 1.73917990e-02 1.03078224e-01
      5.59931099e-02 8.90799426e-03 1.14531359e-02 8.99283290e-02
      1.53981045e-01 3.01175062e-02 1.44224679e-02 1.86643694e-02
      1.48466574e-02 2.71481741e-02 0. 6.15075827e-02 2.71481741e-02
      1.23015167e-02 5.85382506e-02 4.69154388e-01 1.39982775e-02
      5.59931099e-02 2.16337014e-02 2.50272229e-02 5.59931099e-02 0.
      3.23232949e-01 0. 4.78286296e-01 6.62824810e-01 1.71202704e-01
      1.44170702e-01 2.05443248e-01 3.24384077e-03 4.72159050e-02
      2.27068849e-02 9.94777828e-02 2.77528595e-02 8.65024235e-03
      7.10040703e-02 2.59507261e-02 6.12725504e-03 1.80213375e-03
      9.19088200e-02 1.90305322e-01 5.76682808e-03 6.48768153e-03
      7.56896194e-03 2.16256059e-03 8.28981493e-03 0. 3.17175537e-02
      1.22545101e-02 5.04597463e-03 3.74843813e-02 4.04038399e-01
      6.12725504e-03 1.65796299e-02 4.32512118e-03 5.04597463e-03
      1.29753631e-02 0. 9.55130905e-02 0.</_>
    <_>
      4.22069281e-01 5.78595459e-01 9.96847004e-02 2.04883873e-01
      1.40831158e-01 2.07853206e-02 9.12008956e-02 3.47835980e-02
      1.15803927e-01 5.68414889e-02 1.73917990e-02 1.03078224e-01
      5.59931099e-02 8.90799426e-03 1.14531359e-02 8.99283290e-02
      1.53981045e-01 3.01175062e-02 1.44224679e-02 1.86643694e-02
      1.48466574e-02 2.71481741e-02 0. 6.15075827e-02 2.71481741e-02
      1.23015167e-02 5.85382506e-02 4.69154388e-01 1.39982775e-02
      5.59931099e-02 2.16337014e-02 2.50272229e-02 5.59931099e-02 0.
      3.23232949e-01 0. 4.78286296e-01 6.62824810e-01 1.71202704e-01
      1.44170702e-01 2.05443248e-01 3.24384077e-03 4.72159050e-02
      2.27068849e-02 9.94777828e-02 2.77528595e-02 8.65024235e-03
      7.10040703e-02 2.59507261e-02 6.12725504e-03 1.80213375e-03
      9.19088200e-02 1.90305322e-01 5.76682808e-03 6.48768153e-03
      7.56896194e-03 2.16256059e-03 8.28981493e-03 0. 3.17175537e-02
      1.22545101e-02 5.04597463e-03 3.74843813e-02 4.04038399e-01
      6.12725504e-03 1.65796299e-02 4.32512118e-03 5.04597463e-03
      1.29753631e-02 0. 9.55130905e-02 0.</_>
    <_>
      3.74805450e-01 6.16205573e-01 1.11965187e-01 1.87799767e-01
      1.09185904e-01 1.58815868e-02 7.46434554e-02 2.58075781e-02
      8.65546465e-02 3.45424525e-02 1.27052693e-02 9.60835963e-02
      4.68506813e-02 6.74967421e-03 5.16151544e-03 9.37013626e-02
      1.93755358e-01 1.82638243e-02 1.42934276e-02 1.34993484e-02
      1.15141505e-02 2.30283011e-02 0. 5.91589101e-02 3.09690945e-02
      1.54845472e-02 5.47914729e-02 5.22504210e-01 1.11171110e-02
      3.85128483e-02 1.46904672e-02 1.58815868e-02 3.13661322e-02 0.
      2.48546824e-01 0. 5.52902639e-01 6.57478511e-01 1.17394827e-01
      1.66646674e-01 1.23804316e-01 4.04809741e-03 3.81195843e-02
      2.83366814e-02 8.83834586e-02 1.99031457e-02 5.06012188e-03
      6.20708279e-02 1.55177070e-02 4.38543875e-03 1.34936580e-03
      7.96125829e-02 2.32428253e-01 7.42151216e-03 4.38543875e-03
      5.06012188e-03 3.37341451e-03 1.04575846e-02 0. 2.96860486e-02
      8.77087750e-03 3.37341451e-03 2.76619997e-02 3.52859169e-01
      2.36139027e-03 9.10821930e-03 2.69873161e-03 4.38543875e-03
      3.71075608e-03 0. 5.97094372e-02 0.</_>
    <_>
      3.78618121e-01 6.28648937e-01 1.02393575e-01 1.97643414e-01
      9.96154547e-02 1.30968532e-02 7.34217539e-02 2.61937063e-02
      8.65186006e-02 4.32593003e-02 1.23031037e-02 9.12810937e-02
      4.80217934e-02 9.12810955e-03 8.33436102e-03 9.32654664e-02
      1.71052828e-01 2.30187103e-02 1.50812240e-02 1.15093552e-02
      1.46843502e-02 2.65905801e-02 0. 6.03248961e-02 3.25436965e-02
      1.19062299e-02 5.11967875e-02 5.06014764e-01 1.07156066e-02
      3.80999371e-02 1.58749726e-02 1.70655958e-02 3.49249393e-02 0.
      2.62333930e-01 0. 5.33409238e-01 6.57108188e-01 1.23357289e-01
      1.61628798e-01 1.30874902e-01 3.75880930e-03 4.16886136e-02
      2.76785046e-02 8.47440660e-02 2.63116658e-02 5.12564927e-03
      6.80002794e-02 1.67437866e-02 5.46735898e-03 1.70854968e-03
      8.40606466e-02 2.23478302e-01 8.20103846e-03 6.49248902e-03
      6.49248902e-03 3.41709936e-03 8.54274817e-03 0. 2.83619240e-02
      8.88445787e-03 3.75880930e-03 2.63116658e-02 3.83398563e-01
      4.78393910e-03 9.22616851e-03 3.75880930e-03 4.10051923e-03
      4.78393910e-03 0. 6.21912070e-02 0.</_>
    <_>
      4.07073021e-01 6.07313395e-01 1.05476409e-01 2.03124493e-01
      1.13304734e-01 1.85407754e-02 7.86952898e-02 3.09012923e-02
      9.92961526e-02 4.98540848e-02 1.40085854e-02 9.43519473e-02
      5.10901362e-02 9.06437915e-03 1.11244647e-02 8.40515122e-02
      1.68927059e-01 2.71931365e-02 1.64806880e-02 1.89527925e-02
      1.77167412e-02 2.63691023e-02 0. 5.76824099e-02 3.29613760e-02
      1.11244647e-02 5.10901362e-02 4.74643826e-01 1.19484998e-02
      4.86180335e-02 2.10128780e-02 2.26609465e-02 4.90300506e-02 0.
      3.03656697e-01 0. 4.90362555e-01 6.54642820e-01 1.69945136e-01
      1.47285789e-01 1.75609976e-01 4.95673344e-03 4.03619707e-02
      2.47836672e-02 8.46185163e-02 3.00944522e-02 6.01889053e-03
      7.22266883e-02 1.87647752e-02 6.72699511e-03 7.08104752e-04
      9.13455114e-02 2.09953055e-01 8.14320426e-03 8.49725679e-03
      6.01889053e-03 1.41620950e-03 8.49725679e-03 0. 3.15106623e-02
      1.02675185e-02 3.89457610e-03 2.97403987e-02 4.14595336e-01
      3.89457610e-03 1.48701994e-02 3.18647129e-03 4.60268091e-03
      8.49725679e-03 0. 8.17860961e-02 0.</_>
    <_>
      4.07073021e-01 6.07313395e-01 1.05476409e-01 2.03124493e-01
      1.13304734e-01 1.85407754e-02 7.86952898e-02 3.09012923e-02
      9.92961526e-02 4.98540848e-02 1.40085854e-02 9.43519473e-02
      5.10901362e-02 9.06437915e-03 1.11244647e-02 8.40515122e-02
      1.68927059e-01 2.71931365e-02 1.64806880e-02 1.89527925e-02
      1.77167412e-02 2.63691023e-02 0. 5.76824099e-02 3.29613760e-02
      1.11244647e-02 5.10901362e-02 4.74643826e-01 1.19484998e-02
      4.86180335e-02 2.10128780e-02 2.26609465e-02 4.90300506e-02 0.
      3.03656697e-01 0. 4.90362555e-01 6.54642820e-01 1.69945136e-01
      1.47285789e-01 1.75609976e-01 4.95673344e-03 4.03619707e-02
      2.47836672e-02 8.46185163e-02 3.00944522e-02 6.01889053e-03
      7.22266883e-02 1.87647752e-02 6.72699511e-03 7.08104752e-04
      9.13455114e-02 2.09953055e-01 8.14320426e-03 8.49725679e-03
      6.01889053e-03 1.41620950e-03 8.49725679e-03 0. 3.15106623e-02
      1.02675185e-02 3.89457610e-03 2.97403987e-02 4.14595336e-01
      3.89457610e-03 1.48701994e-02 3.18647129e-03 4.60268091e-03
      8.49725679e-03 0. 8.17860961e-02 0.</_>
    <_>
      4.07073021e-01 6.07313395e-01 1.05476409e-01 2.03124493e-01
      1.13304734e-01 1.85407754e-02 7.86952898e-02 3.09012923e-02
      9.92961526e-02 4.98540848e-02 1.40085854e-02 9.43519473e-02
      5.10901362e-02 9.06437915e-03 1.11244647e-02 8.40515122e-02
      1.68927059e-01 2.71931365e-02 1.64806880e-02 1.89527925e-02
      1.77167412e-02 2.63691023e-02 0. 5.76824099e-02 3.29613760e-02
      1.11244647e-02 5.10901362e-02 4.74643826e-01 1.19484998e-02
      4.86180335e-02 2.10128780e-02 2.26609465e-02 4.90300506e-02 0.
      3.03656697e-01 0. 4.90362555e-01 6.54642820e-01 1.69945136e-01
      1.47285789e-01 1.75609976e-01 4.95673344e-03 4.03619707e-02
      2.47836672e-02 8.46185163e-02 3.00944522e-02 6.01889053e-03
      7.22266883e-02 1.87647752e-02 6.72699511e-03 7.08104752e-04
      9.13455114e-02 2.09953055e-01 8.14320426e-03 8.49725679e-03
      6.01889053e-03 1.41620950e-03 8.49725679e-03 0. 3.15106623e-02
      1.02675185e-02 3.89457610e-03 2.97403987e-02 4.14595336e-01
      3.89457610e-03 1.48701994e-02 3.18647129e-03 4.60268091e-03
      8.49725679e-03 0. 8.17860961e-02 0.</_>
    <_>
      4.07073021e-01 6.07313395e-01 1.05476409e-01 2.03124493e-01
      1.13304734e-01 1.85407754e-02 7.86952898e-02 3.09012923e-02
      9.92961526e-02 4.98540848e-02 1.40085854e-02 9.43519473e-02
      5.10901362e-02 9.06437915e-03 1.11244647e-02 8.40515122e-02
      1.68927059e-01 2.71931365e-02 1.64806880e-02 1.89527925e-02
      1.77167412e-02 2.63691023e-02 0. 5.76824099e-02 3.29613760e-02
      1.11244647e-02 5.10901362e-02 4.74643826e-01 1.19484998e-02
      4.86180335e-02 2.10128780e-02 2.26609465e-02 4.90300506e-02 0.
      3.03656697e-01 0. 4.90362555e-01 6.54642820e-01 1.69945136e-01
      1.47285789e-01 1.75609976e-01 4.95673344e-03 4.03619707e-02
      2.47836672e-02 8.46185163e-02 3.00944522e-02 6.01889053e-03
      7.22266883e-02 1.87647752e-02 6.72699511e-03 7.08104752e-04
      9.13455114e-02 2.09953055e-01 8.14320426e-03 8.49725679e-03
      6.01889053e-03 1.41620950e-03 8.49725679e-03 0. 3.15106623e-02
      1.02675185e-02 3.89457610e-03 2.97403987e-02 4.14595336e-01
      3.89457610e-03 1.48701994e-02 3.18647129e-03 4.60268091e-03
      8.49725679e-03 0. 8.17860961e-02 0.</_>
    <_>
      4.04996395e-01 6.19644463e-01 1.02059089e-01 2.06143156e-01
      1.00439101e-01 1.82248373e-02 7.69493133e-02 3.28047089e-02
      8.99091959e-02 4.37396094e-02 1.25548877e-02 9.23391804e-02
      4.85995673e-02 1.05299065e-02 9.71991383e-03 8.30242634e-02
      1.66858509e-01 2.55147722e-02 1.70098487e-02 1.86298341e-02
      1.53898625e-02 2.71347575e-02 0. 5.62944971e-02 3.52346860e-02
      1.49848666e-02 4.90045622e-02 4.78300750e-01 1.09349024e-02
      4.17146273e-02 1.98448226e-02 2.14648079e-02 4.21196260e-02 0.
      2.88357437e-01 0. 5.13407290e-01 6.60095036e-01 1.54682621e-01
      1.39040560e-01 1.63025051e-01 5.21402108e-03 3.78885530e-02
      3.02413218e-02 7.89055154e-02 3.09365243e-02 4.51881811e-03
      7.43867010e-02 1.59896649e-02 5.56162233e-03 1.04280422e-03
      8.75955522e-02 2.13774860e-01 9.73283872e-03 9.03763622e-03
      4.86641936e-03 1.73800695e-03 7.99483247e-03 0. 2.91985180e-02
      1.04280422e-02 3.82361538e-03 2.88509149e-02 3.93137187e-01
      4.17121686e-03 1.18184472e-02 2.08560843e-03 3.47601390e-03
      6.60442654e-03 0. 7.23010898e-02 0.</_>
    <_>
      4.04996395e-01 6.19644463e-01 1.02059089e-01 2.06143156e-01
      1.00439101e-01 1.82248373e-02 7.69493133e-02 3.28047089e-02
      8.99091959e-02 4.37396094e-02 1.25548877e-02 9.23391804e-02
      4.85995673e-02 1.05299065e-02 9.71991383e-03 8.30242634e-02
      1.66858509e-01 2.55147722e-02 1.70098487e-02 1.86298341e-02
      1.53898625e-02 2.71347575e-02 0. 5.62944971e-02 3.52346860e-02
      1.49848666e-02 4.90045622e-02 4.78300750e-01 1.09349024e-02
      4.17146273e-02 1.98448226e-02 2.14648079e-02 4.21196260e-02 0.
      2.88357437e-01 0. 5.13407290e-01 6.60095036e-01 1.54682621e-01
      1.39040560e-01 1.63025051e-01 5.21402108e-03 3.78885530e-02
      3.02413218e-02 7.89055154e-02 3.09365243e-02 4.51881811e-03
      7.43867010e-02 1.59896649e-02 5.56162233e-03 1.04280422e-03
      8.75955522e-02 2.13774860e-01 9.73283872e-03 9.03763622e-03
      4.86641936e-03 1.73800695e-03 7.99483247e-03 0. 2.91985180e-02
      1.04280422e-02 3.82361538e-03 2.88509149e-02 3.93137187e-01
      4.17121686e-03 1.18184472e-02 2.08560843e-03 3.47601390e-03
      6.60442654e-03 0. 7.23010898e-02 0.</_>
    <_>
      4.04996395e-01 6.19644463e-01 1.02059089e-01 2.06143156e-01
      1.00439101e-01 1.82248373e-02 7.69493133e-02 3.28047089e-02
      8.99091959e-02 4.37396094e-02 1.25548877e-02 9.23391804e-02
      4.85995673e-02 1.05299065e-02 9.71991383e-03 8.30242634e-02
      1.66858509e-01 2.55147722e-02 1.70098487e-02 1.86298341e-02
      1.53898625e-02 2.71347575e-02 0. 5.62944971e-02 3.52346860e-02
      1.49848666e-02 4.90045622e-02 4.78300750e-01 1.09349024e-02
      4.17146273e-02 1.98448226e-02 2.14648079e-02 4.21196260e-02 0.
      2.88357437e-01 0. 5.13407290e-01 6.60095036e-01 1.54682621e-01
      1.39040560e-01 1.63025051e-01 5.21402108e-03 3.78885530e-02
      3.02413218e-02 7.89055154e-02 3.09365243e-02 4.51881811e-03
      7.43867010e-02 1.59896649e-02 5.56162233e-03 1.04280422e-03
      8.75955522e-02 2.13774860e-01 9.73283872e-03 9.03763622e-03
      4.86641936e-03 1.73800695e-03 7.99483247e-03 0. 2.91985180e-02
      1.04280422e-02 3.82361538e-03 2.88509149e-02 3.93137187e-01
      4.17121686e-03 1.18184472e-02 2.08560843e-03 3.47601390e-03
      6.60442654e-03 0. 7.23010898e-02 0.</_>
    <_>
      4.04996395e-01 6.19644463e-01 1.02059089e-01 2.06143156e-01
      1.00439101e-01 1.82248373e-02 7.69493133e-02 3.28047089e-02
      8.99091959e-02 4.37396094e-02 1.25548877e-02 9.23391804e-02
      4.85995673e-02 1.05299065e-02 9.71991383e-03 8.30242634e-02
      1.66858509e-01 2.55147722e-02 1.70098487e-02 1.86298341e-02
      1.53898625e-02 2.71347575e-02 0. 5.62944971e-02 3.52346860e-02
      1.49848666e-02 4.90045622e-02 4.78300750e-01 1.09349024e-02
      4.17146273e-02 1.98448226e-02 2.14648079e-02 4.21196260e-02 0.
      2.88357437e-01 0. 5.13407290e-01 6.60095036e-01 1.54682621e-01
      1.39040560e-01 1.63025051e-01 5.21402108e-03 3.78885530e-02
      3.02413218e-02 7.89055154e-02 3.09365243e-02 4.51881811e-03
      7.43867010e-02 1.59896649e-02 5.56162233e-03 1.04280422e-03
      8.75955522e-02 2.13774860e-01 9.73283872e-03 9.03763622e-03
      4.86641936e-03 1.73800695e-03 7.99483247e-03 0. 2.91985180e-02
      1.04280422e-02 3.82361538e-03 2.88509149e-02 3.93137187e-01
      4.17121686e-03 1.18184472e-02 2.08560843e-03 3.47601390e-03
      6.60442654e-03 0. 7.23010898e-02 0.</_>
    <_>
      3.74160320e-01 6.18195117e-01 8.66185129e-02 1.93803981e-01
      1.28147930e-01 1.10745132e-02 7.87081420e-02 2.57086903e-02
      9.72975045e-02 4.23204601e-02 1.18655497e-02 8.97826552e-02
      4.11339067e-02 7.51484791e-03 5.93277486e-03 9.65064690e-02
      1.41200036e-01 2.29400620e-02 1.42386593e-02 1.54252145e-02
      1.06789945e-02 2.57086903e-02 0. 6.13053404e-02 3.99473496e-02
      8.70140269e-03 5.29994555e-02 5.28807998e-01 8.30588490e-03
      4.07383852e-02 1.58207323e-02 1.46341780e-02 3.71787213e-02 0.
      2.56295860e-01 0. 4.99063522e-01 6.68986857e-01 1.27097145e-01
      1.39530569e-01 1.50237113e-01 3.45372688e-03 4.35169563e-02
      3.00474241e-02 8.11625794e-02 2.93566771e-02 6.56208117e-03
      8.21987018e-02 1.93408709e-02 4.83521773e-03 2.76298146e-03
      8.39255601e-02 2.02043012e-01 8.28894414e-03 7.59819895e-03
      4.83521773e-03 1.72686344e-03 6.56208117e-03 0. 2.93566771e-02
      1.00158080e-02 2.41760886e-03 2.69390699e-02 4.13756460e-01
      4.14447207e-03 1.48510253e-02 1.72686344e-03 2.76298146e-03
      7.94357155e-03 0. 8.04718360e-02 0.</_>
    <_>
      3.74160320e-01 6.18195117e-01 8.66185129e-02 1.93803981e-01
      1.28147930e-01 1.10745132e-02 7.87081420e-02 2.57086903e-02
      9.72975045e-02 4.23204601e-02 1.18655497e-02 8.97826552e-02
      4.11339067e-02 7.51484791e-03 5.93277486e-03 9.65064690e-02
      1.41200036e-01 2.29400620e-02 1.42386593e-02 1.54252145e-02
      1.06789945e-02 2.57086903e-02 0. 6.13053404e-02 3.99473496e-02
      8.70140269e-03 5.29994555e-02 5.28807998e-01 8.30588490e-03
      4.07383852e-02 1.58207323e-02 1.46341780e-02 3.71787213e-02 0.
      2.56295860e-01 0. 4.99063522e-01 6.68986857e-01 1.27097145e-01
      1.39530569e-01 1.50237113e-01 3.45372688e-03 4.35169563e-02
      3.00474241e-02 8.11625794e-02 2.93566771e-02 6.56208117e-03
      8.21987018e-02 1.93408709e-02 4.83521773e-03 2.76298146e-03
      8.39255601e-02 2.02043012e-01 8.28894414e-03 7.59819895e-03
      4.83521773e-03 1.72686344e-03 6.56208117e-03 0. 2.93566771e-02
      1.00158080e-02 2.41760886e-03 2.69390699e-02 4.13756460e-01
      4.14447207e-03 1.48510253e-02 1.72686344e-03 2.76298146e-03
      7.94357155e-03 0. 8.04718360e-02 0.</_>
    <_>
      3.74160320e-01 6.18195117e-01 8.66185129e-02 1.93803981e-01
      1.28147930e-01 1.10745132e-02 7.87081420e-02 2.57086903e-02
      9.72975045e-02 4.23204601e-02 1.18655497e-02 8.97826552e-02
      4.11339067e-02 7.51484791e-03 5.93277486e-03 9.65064690e-02
      1.41200036e-01 2.29400620e-02 1.42386593e-02 1.54252145e-02
      1.06789945e-02 2.57086903e-02 0. 6.13053404e-02 3.99473496e-02
      8.70140269e-03 5.29994555e-02 5.28807998e-01 8.30588490e-03
      4.07383852e-02 1.58207323e-02 1.46341780e-02 3.71787213e-02 0.
      2.56295860e-01 0. 4.99063522e-01 6.68986857e-01 1.27097145e-01
      1.39530569e-01 1.50237113e-01 3.45372688e-03 4.35169563e-02
      3.00474241e-02 8.11625794e-02 2.93566771e-02 6.56208117e-03
      8.21987018e-02 1.93408709e-02 4.83521773e-03 2.76298146e-03
      8.39255601e-02 2.02043012e-01 8.28894414e-03 7.59819895e-03
      4.83521773e-03 1.72686344e-03 6.56208117e-03 0. 2.93566771e-02
      1.00158080e-02 2.41760886e-03 2.69390699e-02 4.13756460e-01
      4.14447207e-03 1.48510253e-02 1.72686344e-03 2.76298146e-03
      7.94357155e-03 0. 8.04718360e-02 0.</_>
    <_>
      3.74160320e-01 6.18195117e-01 8.66185129e-02 1.93803981e-01
      1.28147930e-01 1.10745132e-02 7.87081420e-02 2.57086903e-02
      9.72975045e-02 4.23204601e-02 1.18655497e-02 8.97826552e-02
      4.11339067e-02 7.51484791e-03 5.93277486e-03 9.65064690e-02
      1.41200036e-01 2.29400620e-02 1.42386593e-02 1.54252145e-02
      1.06789945e-02 2.57086903e-02 0. 6.13053404e-02 3.99473496e-02
      8.70140269e-03 5.29994555e-02 5.28807998e-01 8.30588490e-03
      4.07383852e-02 1.58207323e-02 1.46341780e-02 3.71787213e-02 0.
      2.56295860e-01 0. 4.99063522e-01 6.68986857e-01 1.27097145e-01
      1.39530569e-01 1.50237113e-01 3.45372688e-03 4.35169563e-02
      3.00474241e-02 8.11625794e-02 2.93566771e-02 6.56208117e-03
      8.21987018e-02 1.93408709e-02 4.83521773e-03 2.76298146e-03
      8.39255601e-02 2.02043012e-01 8.28894414e-03 7.59819895e-03
      4.83521773e-03 1.72686344e-03 6.56208117e-03 0. 2.93566771e-02
      1.00158080e-02 2.41760886e-03 2.69390699e-02 4.13756460e-01
      4.14447207e-03 1.48510253e-02 1.72686344e-03 2.76298146e-03
      7.94357155e-03 0. 8.04718360e-02 0.</_>
    <_>
      3.61136794e-01 6.22792542e-01 8.39371011e-02 1.88599408e-01
      1.32641345e-01 7.77195394e-03 7.82376677e-02 2.17614714e-02
      1.03107922e-01 4.40410711e-02 9.84447449e-03 8.91184062e-02
      4.04141583e-02 6.21756306e-03 5.69943292e-03 8.86002705e-02
      1.56993464e-01 2.12433413e-02 1.24351261e-02 1.19169960e-02
      1.19169960e-02 2.33158618e-02 0. 6.63206726e-02 3.78235094e-02
      6.73569320e-03 4.71498519e-02 5.35228550e-01 8.80821422e-03
      3.93778980e-02 1.39895165e-02 1.19169960e-02 3.52328569e-02 0.
      2.46629998e-01 0. 4.66079593e-01 6.75584674e-01 1.25056997e-01
      1.53667822e-01 1.63358599e-01 3.23025463e-03 4.38391715e-02
      2.86108274e-02 9.04471278e-02 2.44576428e-02 7.38343922e-03
      7.84490407e-02 2.39961781e-02 5.07611455e-03 2.76878965e-03
      7.47573227e-02 2.09505081e-01 7.38343922e-03 6.46050926e-03
      5.07611455e-03 1.38439483e-03 5.99904452e-03 0. 2.90722921e-02
      7.84490444e-03 2.30732467e-03 2.72264313e-02 4.25932139e-01
      4.61464934e-03 1.75356679e-02 1.84585981e-03 2.30732467e-03
      8.30636919e-03 0. 9.46003124e-02 0.</_>
    <_>
      3.61136794e-01 6.22792542e-01 8.39371011e-02 1.88599408e-01
      1.32641345e-01 7.77195394e-03 7.82376677e-02 2.17614714e-02
      1.03107922e-01 4.40410711e-02 9.84447449e-03 8.91184062e-02
      4.04141583e-02 6.21756306e-03 5.69943292e-03 8.86002705e-02
      1.56993464e-01 2.12433413e-02 1.24351261e-02 1.19169960e-02
      1.19169960e-02 2.33158618e-02 0. 6.63206726e-02 3.78235094e-02
      6.73569320e-03 4.71498519e-02 5.35228550e-01 8.80821422e-03
      3.93778980e-02 1.39895165e-02 1.19169960e-02 3.52328569e-02 0.
      2.46629998e-01 0. 4.66079593e-01 6.75584674e-01 1.25056997e-01
      1.53667822e-01 1.63358599e-01 3.23025463e-03 4.38391715e-02
      2.86108274e-02 9.04471278e-02 2.44576428e-02 7.38343922e-03
      7.84490407e-02 2.39961781e-02 5.07611455e-03 2.76878965e-03
      7.47573227e-02 2.09505081e-01 7.38343922e-03 6.46050926e-03
      5.07611455e-03 1.38439483e-03 5.99904452e-03 0. 2.90722921e-02
      7.84490444e-03 2.30732467e-03 2.72264313e-02 4.25932139e-01
      4.61464934e-03 1.75356679e-02 1.84585981e-03 2.30732467e-03
      8.30636919e-03 0. 9.46003124e-02 0.</_>
    <_>
      3.61136794e-01 6.22792542e-01 8.39371011e-02 1.88599408e-01
      1.32641345e-01 7.77195394e-03 7.82376677e-02 2.17614714e-02
      1.03107922e-01 4.40410711e-02 9.84447449e-03 8.91184062e-02
      4.04141583e-02 6.21756306e-03 5.69943292e-03 8.86002705e-02
      1.56993464e-01 2.12433413e-02 1.24351261e-02 1.19169960e-02
      1.19169960e-02 2.33158618e-02 0. 6.63206726e-02 3.78235094e-02
      6.73569320e-03 4.71498519e-02 5.35228550e-01 8.80821422e-03
      3.93778980e-02 1.39895165e-02 1.19169960e-02 3.52328569e-02 0.
      2.46629998e-01 0. 4.66079593e-01 6.75584674e-01 1.25056997e-01
      1.53667822e-01 1.63358599e-01 3.23025463e-03 4.38391715e-02
      2.86108274e-02 9.04471278e-02 2.44576428e-02 7.38343922e-03
      7.84490407e-02 2.39961781e-02 5.07611455e-03 2.76878965e-03
      7.47573227e-02 2.09505081e-01 7.38343922e-03 6.46050926e-03
      5.07611455e-03 1.38439483e-03 5.99904452e-03 0. 2.90722921e-02
      7.84490444e-03 2.30732467e-03 2.72264313e-02 4.25932139e-01
      4.61464934e-03 1.75356679e-02 1.84585981e-03 2.30732467e-03
      8.30636919e-03 0. 9.46003124e-02 0.</_>
    <_>
      3.61136794e-01 6.22792542e-01 8.39371011e-02 1.88599408e-01
      1.32641345e-01 7.77195394e-03 7.82376677e-02 2.17614714e-02
      1.03107922e-01 4.40410711e-02 9.84447449e-03 8.91184062e-02
      4.04141583e-02 6.21756306e-03 5.69943292e-03 8.86002705e-02
      1.56993464e-01 2.12433413e-02 1.24351261e-02 1.19169960e-02
      1.19169960e-02 2.33158618e-02 0. 6.63206726e-02 3.78235094e-02
      6.73569320e-03 4.71498519e-02 5.35228550e-01 8.80821422e-03
      3.93778980e-02 1.39895165e-02 1.19169960e-02 3.52328569e-02 0.
      2.46629998e-01 0. 4.66079593e-01 6.75584674e-01 1.25056997e-01
      1.53667822e-01 1.63358599e-01 3.23025463e-03 4.38391715e-02
      2.86108274e-02 9.04471278e-02 2.44576428e-02 7.38343922e-03
      7.84490407e-02 2.39961781e-02 5.07611455e-03 2.76878965e-03
      7.47573227e-02 2.09505081e-01 7.38343922e-03 6.46050926e-03
      5.07611455e-03 1.38439483e-03 5.99904452e-03 0. 2.90722921e-02
      7.84490444e-03 2.30732467e-03 2.72264313e-02 4.25932139e-01
      4.61464934e-03 1.75356679e-02 1.84585981e-03 2.30732467e-03
      8.30636919e-03 0. 9.46003124e-02 0.</_>
    <_>
      3.64109874e-01 6.37936413e-01 1.02188878e-01 2.01401383e-01
      1.30960509e-01 8.92912503e-03 8.82991254e-02 1.78582501e-02
      1.07149504e-01 4.06771265e-02 6.94487523e-03 9.12754983e-02
      3.96849997e-02 5.95275033e-03 7.93700013e-03 8.82991254e-02
      1.65684879e-01 2.28188746e-02 1.48818754e-02 1.19055007e-02
      1.48818754e-02 1.98424999e-02 0. 6.44881278e-02 4.16692495e-02
      7.93700013e-03 5.05983755e-02 5.03007412e-01 9.92124993e-03
      3.77007499e-02 1.78582501e-02 7.93700013e-03 4.06771265e-02 0.
      2.43070632e-01 0. 4.29500818e-01 6.87547684e-01 1.22961923e-01
      1.53269440e-01 1.67990237e-01 1.73185812e-03 4.84920293e-02
      2.59778723e-02 9.52521935e-02 1.90504398e-02 1.03911487e-02
      7.70676881e-02 1.90504398e-02 5.19557437e-03 8.65929062e-04
      7.27380440e-02 2.04359263e-01 9.52521991e-03 4.32964507e-03
      6.06150366e-03 1.73185812e-03 3.46371625e-03 0. 2.51119435e-02
      7.79336132e-03 2.59778718e-03 2.33800840e-02 4.45953459e-01
      4.32964507e-03 1.90504398e-02 1.73185812e-03 2.59778718e-03
      1.03911487e-02 0. 9.61181223e-02 0.</_>
    <_>
      3.64109874e-01 6.37936413e-01 1.02188878e-01 2.01401383e-01
      1.30960509e-01 8.92912503e-03 8.82991254e-02 1.78582501e-02
      1.07149504e-01 4.06771265e-02 6.94487523e-03 9.12754983e-02
      3.96849997e-02 5.95275033e-03 7.93700013e-03 8.82991254e-02
      1.65684879e-01 2.28188746e-02 1.48818754e-02 1.19055007e-02
      1.48818754e-02 1.98424999e-02 0. 6.44881278e-02 4.16692495e-02
      7.93700013e-03 5.05983755e-02 5.03007412e-01 9.92124993e-03
      3.77007499e-02 1.78582501e-02 7.93700013e-03 4.06771265e-02 0.
      2.43070632e-01 0. 4.29500818e-01 6.87547684e-01 1.22961923e-01
      1.53269440e-01 1.67990237e-01 1.73185812e-03 4.84920293e-02
      2.59778723e-02 9.52521935e-02 1.90504398e-02 1.03911487e-02
      7.70676881e-02 1.90504398e-02 5.19557437e-03 8.65929062e-04
      7.27380440e-02 2.04359263e-01 9.52521991e-03 4.32964507e-03
      6.06150366e-03 1.73185812e-03 3.46371625e-03 0. 2.51119435e-02
      7.79336132e-03 2.59778718e-03 2.33800840e-02 4.45953459e-01
      4.32964507e-03 1.90504398e-02 1.73185812e-03 2.59778718e-03
      1.03911487e-02 0. 9.61181223e-02 0.</_>
    <_>
      3.64109874e-01 6.37936413e-01 1.02188878e-01 2.01401383e-01
      1.30960509e-01 8.92912503e-03 8.82991254e-02 1.78582501e-02
      1.07149504e-01 4.06771265e-02 6.94487523e-03 9.12754983e-02
      3.96849997e-02 5.95275033e-03 7.93700013e-03 8.82991254e-02
      1.65684879e-01 2.28188746e-02 1.48818754e-02 1.19055007e-02
      1.48818754e-02 1.98424999e-02 0. 6.44881278e-02 4.16692495e-02
      7.93700013e-03 5.05983755e-02 5.03007412e-01 9.92124993e-03
      3.77007499e-02 1.78582501e-02 7.93700013e-03 4.06771265e-02 0.
      2.43070632e-01 0. 4.29500818e-01 6.87547684e-01 1.22961923e-01
      1.53269440e-01 1.67990237e-01 1.73185812e-03 4.84920293e-02
      2.59778723e-02 9.52521935e-02 1.90504398e-02 1.03911487e-02
      7.70676881e-02 1.90504398e-02 5.19557437e-03 8.65929062e-04
      7.27380440e-02 2.04359263e-01 9.52521991e-03 4.32964507e-03
      6.06150366e-03 1.73185812e-03 3.46371625e-03 0. 2.51119435e-02
      7.79336132e-03 2.59778718e-03 2.33800840e-02 4.45953459e-01
      4.32964507e-03 1.90504398e-02 1.73185812e-03 2.59778718e-03
      1.03911487e-02 0. 9.61181223e-02 0.</_>
    <_>
      3.64109874e-01 6.37936413e-01 1.02188878e-01 2.01401383e-01
      1.30960509e-01 8.92912503e-03 8.82991254e-02 1.78582501e-02
      1.07149504e-01 4.06771265e-02 6.94487523e-03 9.12754983e-02
      3.96849997e-02 5.95275033e-03 7.93700013e-03 8.82991254e-02
      1.65684879e-01 2.28188746e-02 1.48818754e-02 1.19055007e-02
      1.48818754e-02 1.98424999e-02 0. 6.44881278e-02 4.16692495e-02
      7.93700013e-03 5.05983755e-02 5.03007412e-01 9.92124993e-03
      3.77007499e-02 1.78582501e-02 7.93700013e-03 4.06771265e-02 0.
      2.43070632e-01 0. 4.29500818e-01 6.87547684e-01 1.22961923e-01
      1.53269440e-01 1.67990237e-01 1.73185812e-03 4.84920293e-02
      2.59778723e-02 9.52521935e-02 1.90504398e-02 1.03911487e-02
      7.70676881e-02 1.90504398e-02 5.19557437e-03 8.65929062e-04
      7.27380440e-02 2.04359263e-01 9.52521991e-03 4.32964507e-03
      6.06150366e-03 1.73185812e-03 3.46371625e-03 0. 2.51119435e-02
      7.79336132e-03 2.59778718e-03 2.33800840e-02 4.45953459e-01
      4.32964507e-03 1.90504398e-02 1.73185812e-03 2.59778718e-03
      1.03911487e-02 0. 9.61181223e-02 0.</_>
    <_>
      3.43951255e-01 6.42645776e-01 9.95648354e-02 1.71975628e-01
      2.08181024e-01 9.05134901e-03 1.17667541e-01 9.05134901e-03
      1.08616188e-01 4.52567451e-02 1.81026980e-02 9.95648354e-02
      6.33594394e-02 1.81026980e-02 9.05134901e-03 5.43080941e-02
      1.53872937e-01 5.43080941e-02 2.71540470e-02 0. 9.05134901e-03
      2.71540470e-02 0. 7.24107921e-02 9.05134901e-03 9.05134901e-03
      2.71540470e-02 5.06875515e-01 2.71540470e-02 4.52567451e-02
      9.05134901e-03 0. 5.43080941e-02 0. 2.08181024e-01 0.
      3.61945689e-01 5.89213908e-01 1.09425440e-01 2.27268234e-01
      2.10433543e-01 0. 2.52520256e-02 5.89213930e-02 1.43094808e-01
      2.52520256e-02 8.41734186e-03 8.41734186e-02 4.20867093e-02 0. 0.
      6.73387349e-02 3.36693674e-01 0. 0. 8.41734186e-03 0. 0. 0.
      3.36693674e-02 8.41734186e-03 0. 2.52520256e-02 4.88205820e-01 0.
      3.36693674e-02 0. 0. 0. 0. 1.43094808e-01 0.</_>
    <_>
      3.43951255e-01 6.42645776e-01 9.95648354e-02 1.71975628e-01
      2.08181024e-01 9.05134901e-03 1.17667541e-01 9.05134901e-03
      1.08616188e-01 4.52567451e-02 1.81026980e-02 9.95648354e-02
      6.33594394e-02 1.81026980e-02 9.05134901e-03 5.43080941e-02
      1.53872937e-01 5.43080941e-02 2.71540470e-02 0. 9.05134901e-03
      2.71540470e-02 0. 7.24107921e-02 9.05134901e-03 9.05134901e-03
      2.71540470e-02 5.06875515e-01 2.71540470e-02 4.52567451e-02
      9.05134901e-03 0. 5.43080941e-02 0. 2.08181024e-01 0.
      3.61945689e-01 5.89213908e-01 1.09425440e-01 2.27268234e-01
      2.10433543e-01 0. 2.52520256e-02 5.89213930e-02 1.43094808e-01
      2.52520256e-02 8.41734186e-03 8.41734186e-02 4.20867093e-02 0. 0.
      6.73387349e-02 3.36693674e-01 0. 0. 8.41734186e-03 0. 0. 0.
      3.36693674e-02 8.41734186e-03 0. 2.52520256e-02 4.88205820e-01 0.
      3.36693674e-02 0. 0. 0. 0. 1.43094808e-01 0.</_>
    <_>
      3.43951255e-01 6.42645776e-01 9.95648354e-02 1.71975628e-01
      2.08181024e-01 9.05134901e-03 1.17667541e-01 9.05134901e-03
      1.08616188e-01 4.52567451e-02 1.81026980e-02 9.95648354e-02
      6.33594394e-02 1.81026980e-02 9.05134901e-03 5.43080941e-02
      1.53872937e-01 5.43080941e-02 2.71540470e-02 0. 9.05134901e-03
      2.71540470e-02 0. 7.24107921e-02 9.05134901e-03 9.05134901e-03
      2.71540470e-02 5.06875515e-01 2.71540470e-02 4.52567451e-02
      9.05134901e-03 0. 5.43080941e-02 0. 2.08181024e-01 0.
      3.61945689e-01 5.89213908e-01 1.09425440e-01 2.27268234e-01
      2.10433543e-01 0. 2.52520256e-02 5.89213930e-02 1.43094808e-01
      2.52520256e-02 8.41734186e-03 8.41734186e-02 4.20867093e-02 0. 0.
      6.73387349e-02 3.36693674e-01 0. 0. 8.41734186e-03 0. 0. 0.
      3.36693674e-02 8.41734186e-03 0. 2.52520256e-02 4.88205820e-01 0.
      3.36693674e-02 0. 0. 0. 0. 1.43094808e-01 0.</_>
    <_>
      3.43951255e-01 6.42645776e-01 9.95648354e-02 1.71975628e-01
      2.08181024e-01 9.05134901e-03 1.17667541e-01 9.05134901e-03
      1.08616188e-01 4.52567451e-02 1.81026980e-02 9.95648354e-02
      6.33594394e-02 1.81026980e-02 9.05134901e-03 5.43080941e-02
      1.53872937e-01 5.43080941e-02 2.71540470e-02 0. 9.05134901e-03
      2.71540470e-02 0. 7.24107921e-02 9.05134901e-03 9.05134901e-03
      2.71540470e-02 5.06875515e-01 2.71540470e-02 4.52567451e-02
      9.05134901e-03 0. 5.43080941e-02 0. 2.08181024e-01 0.
      3.61945689e-01 5.89213908e-01 1.09425440e-01 2.27268234e-01
      2.10433543e-01 0. 2.52520256e-02 5.89213930e-02 1.43094808e-01
      2.52520256e-02 8.41734186e-03 8.41734186e-02 4.20867093e-02 0. 0.
      6.73387349e-02 3.36693674e-01 0. 0. 8.41734186e-03 0. 0. 0.
      3.36693674e-02 8.41734186e-03 0. 2.52520256e-02 4.88205820e-01 0.
      3.36693674e-02 0. 0. 0. 0. 1.43094808e-01 0.</_>
    <_>
      4.90279317e-01 5.02604783e-01 1.01799153e-01 2.39661679e-01
      1.33297548e-01 2.96723992e-02 8.17132220e-02 4.79323380e-02
      1.12298615e-01 5.24973199e-02 2.09989287e-02 1.00886159e-01
      7.39527494e-02 2.00859308e-02 1.78034399e-02 8.94736946e-02
      1.46535993e-01 4.24543545e-02 2.51074135e-02 3.42373848e-02
      2.55639125e-02 4.74758372e-02 0. 6.25402853e-02 4.06283624e-02
      2.05424298e-02 7.39527494e-02 3.55155796e-01 1.59774460e-02
      7.25832507e-02 4.10848595e-02 4.93018329e-02 9.22126845e-02
      4.56498441e-04 4.33217019e-01 3.65198753e-03 3.07750642e-01
      6.34343207e-01 1.21918023e-01 1.65143505e-01 1.52212813e-01
      6.65007439e-03 6.31757081e-02 1.40390452e-02 1.36695966e-01
      2.69697458e-02 1.18223540e-02 6.87174350e-02 3.02947816e-02
      6.28062570e-03 4.43338277e-03 8.12786818e-02 2.18713552e-01
      8.49731732e-03 8.86676554e-03 1.14529058e-02 2.95558851e-03
      1.18223540e-02 0. 3.73143032e-02 2.25363616e-02 4.80283145e-03
      3.80532034e-02 5.63778520e-01 5.54172834e-03 2.73391940e-02
      5.54172834e-03 7.38897128e-03 9.97511111e-03 0. 1.76226959e-01 0.</_>
    <_>
      4.90279317e-01 5.02604783e-01 1.01799153e-01 2.39661679e-01
      1.33297548e-01 2.96723992e-02 8.17132220e-02 4.79323380e-02
      1.12298615e-01 5.24973199e-02 2.09989287e-02 1.00886159e-01
      7.39527494e-02 2.00859308e-02 1.78034399e-02 8.94736946e-02
      1.46535993e-01 4.24543545e-02 2.51074135e-02 3.42373848e-02
      2.55639125e-02 4.74758372e-02 0. 6.25402853e-02 4.06283624e-02
      2.05424298e-02 7.39527494e-02 3.55155796e-01 1.59774460e-02
      7.25832507e-02 4.10848595e-02 4.93018329e-02 9.22126845e-02
      4.56498441e-04 4.33217019e-01 3.65198753e-03 3.07750642e-01
      6.34343207e-01 1.21918023e-01 1.65143505e-01 1.52212813e-01
      6.65007439e-03 6.31757081e-02 1.40390452e-02 1.36695966e-01
      2.69697458e-02 1.18223540e-02 6.87174350e-02 3.02947816e-02
      6.28062570e-03 4.43338277e-03 8.12786818e-02 2.18713552e-01
      8.49731732e-03 8.86676554e-03 1.14529058e-02 2.95558851e-03
      1.18223540e-02 0. 3.73143032e-02 2.25363616e-02 4.80283145e-03
      3.80532034e-02 5.63778520e-01 5.54172834e-03 2.73391940e-02
      5.54172834e-03 7.38897128e-03 9.97511111e-03 0. 1.76226959e-01 0.</_>
    <_>
      4.90279317e-01 5.02604783e-01 1.01799153e-01 2.39661679e-01
      1.33297548e-01 2.96723992e-02 8.17132220e-02 4.79323380e-02
      1.12298615e-01 5.24973199e-02 2.09989287e-02 1.00886159e-01
      7.39527494e-02 2.00859308e-02 1.78034399e-02 8.94736946e-02
      1.46535993e-01 4.24543545e-02 2.51074135e-02 3.42373848e-02
      2.55639125e-02 4.74758372e-02 0. 6.25402853e-02 4.06283624e-02
      2.05424298e-02 7.39527494e-02 3.55155796e-01 1.59774460e-02
      7.25832507e-02 4.10848595e-02 4.93018329e-02 9.22126845e-02
      4.56498441e-04 4.33217019e-01 3.65198753e-03 3.07750642e-01
      6.34343207e-01 1.21918023e-01 1.65143505e-01 1.52212813e-01
      6.65007439e-03 6.31757081e-02 1.40390452e-02 1.36695966e-01
      2.69697458e-02 1.18223540e-02 6.87174350e-02 3.02947816e-02
      6.28062570e-03 4.43338277e-03 8.12786818e-02 2.18713552e-01
      8.49731732e-03 8.86676554e-03 1.14529058e-02 2.95558851e-03
      1.18223540e-02 0. 3.73143032e-02 2.25363616e-02 4.80283145e-03
      3.80532034e-02 5.63778520e-01 5.54172834e-03 2.73391940e-02
      5.54172834e-03 7.38897128e-03 9.97511111e-03 0. 1.76226959e-01 0.</_>
    <_>
      4.90279317e-01 5.02604783e-01 1.01799153e-01 2.39661679e-01
      1.33297548e-01 2.96723992e-02 8.17132220e-02 4.79323380e-02
      1.12298615e-01 5.24973199e-02 2.09989287e-02 1.00886159e-01
      7.39527494e-02 2.00859308e-02 1.78034399e-02 8.94736946e-02
      1.46535993e-01 4.24543545e-02 2.51074135e-02 3.42373848e-02
      2.55639125e-02 4.74758372e-02 0. 6.25402853e-02 4.06283624e-02
      2.05424298e-02 7.39527494e-02 3.55155796e-01 1.59774460e-02
      7.25832507e-02 4.10848595e-02 4.93018329e-02 9.22126845e-02
      4.56498441e-04 4.33217019e-01 3.65198753e-03 3.07750642e-01
      6.34343207e-01 1.21918023e-01 1.65143505e-01 1.52212813e-01
      6.65007439e-03 6.31757081e-02 1.40390452e-02 1.36695966e-01
      2.69697458e-02 1.18223540e-02 6.87174350e-02 3.02947816e-02
      6.28062570e-03 4.43338277e-03 8.12786818e-02 2.18713552e-01
      8.49731732e-03 8.86676554e-03 1.14529058e-02 2.95558851e-03
      1.18223540e-02 0. 3.73143032e-02 2.25363616e-02 4.80283145e-03
      3.80532034e-02 5.63778520e-01 5.54172834e-03 2.73391940e-02
      5.54172834e-03 7.38897128e-03 9.97511111e-03 0. 1.76226959e-01 0.</_>
    <_>
      4.35956895e-01 5.47706723e-01 1.08216248e-01 2.23057985e-01
      1.29859492e-01 2.47351415e-02 9.01065916e-02 3.57776172e-02
      1.18375324e-01 4.41698954e-02 1.50177646e-02 9.98239666e-02
      5.43289743e-02 1.72262602e-02 1.41343670e-02 9.54069793e-02
      1.66962206e-01 3.66610140e-02 2.25266479e-02 2.07598507e-02
      2.51768418e-02 4.15197015e-02 0. 5.83042651e-02 3.62193137e-02
      2.16432493e-02 6.62548468e-02 4.18730617e-01 1.36926677e-02
      6.13961555e-02 2.78270356e-02 4.24031019e-02 7.15552345e-02 0.
      3.92228693e-01 0. 3.02050859e-01 6.51240528e-01 1.20747827e-01
      1.52294546e-01 1.39603347e-01 5.43909101e-03 6.05552159e-02
      1.26912128e-02 1.13495700e-01 2.93710921e-02 9.79036372e-03
      7.57846683e-02 3.04589104e-02 1.01529704e-02 3.62606067e-03
      7.17960000e-02 2.13574976e-01 1.01529704e-02 9.79036372e-03
      9.06515215e-03 2.90084863e-03 1.30538186e-02 0. 4.16997001e-02
      2.03059409e-02 6.16430352e-03 3.19093354e-02 5.62764645e-01
      6.52690930e-03 2.24815775e-02 5.07648522e-03 7.61472760e-03
      8.70254636e-03 0. 1.76226556e-01 0.</_>
    <_>
      4.35956895e-01 5.47706723e-01 1.08216248e-01 2.23057985e-01
      1.29859492e-01 2.47351415e-02 9.01065916e-02 3.57776172e-02
      1.18375324e-01 4.41698954e-02 1.50177646e-02 9.98239666e-02
      5.43289743e-02 1.72262602e-02 1.41343670e-02 9.54069793e-02
      1.66962206e-01 3.66610140e-02 2.25266479e-02 2.07598507e-02
      2.51768418e-02 4.15197015e-02 0. 5.83042651e-02 3.62193137e-02
      2.16432493e-02 6.62548468e-02 4.18730617e-01 1.36926677e-02
      6.13961555e-02 2.78270356e-02 4.24031019e-02 7.15552345e-02 0.
      3.92228693e-01 0. 3.02050859e-01 6.51240528e-01 1.20747827e-01
      1.52294546e-01 1.39603347e-01 5.43909101e-03 6.05552159e-02
      1.26912128e-02 1.13495700e-01 2.93710921e-02 9.79036372e-03
      7.57846683e-02 3.04589104e-02 1.01529704e-02 3.62606067e-03
      7.17960000e-02 2.13574976e-01 1.01529704e-02 9.79036372e-03
      9.06515215e-03 2.90084863e-03 1.30538186e-02 0. 4.16997001e-02
      2.03059409e-02 6.16430352e-03 3.19093354e-02 5.62764645e-01
      6.52690930e-03 2.24815775e-02 5.07648522e-03 7.61472760e-03
      8.70254636e-03 0. 1.76226556e-01 0.</_>
    <_>
      4.35956895e-01 5.47706723e-01 1.08216248e-01 2.23057985e-01
      1.29859492e-01 2.47351415e-02 9.01065916e-02 3.57776172e-02
      1.18375324e-01 4.41698954e-02 1.50177646e-02 9.98239666e-02
      5.43289743e-02 1.72262602e-02 1.41343670e-02 9.54069793e-02
      1.66962206e-01 3.66610140e-02 2.25266479e-02 2.07598507e-02
      2.51768418e-02 4.15197015e-02 0. 5.83042651e-02 3.62193137e-02
      2.16432493e-02 6.62548468e-02 4.18730617e-01 1.36926677e-02
      6.13961555e-02 2.78270356e-02 4.24031019e-02 7.15552345e-02 0.
      3.92228693e-01 0. 3.02050859e-01 6.51240528e-01 1.20747827e-01
      1.52294546e-01 1.39603347e-01 5.43909101e-03 6.05552159e-02
      1.26912128e-02 1.13495700e-01 2.93710921e-02 9.79036372e-03
      7.57846683e-02 3.04589104e-02 1.01529704e-02 3.62606067e-03
      7.17960000e-02 2.13574976e-01 1.01529704e-02 9.79036372e-03
      9.06515215e-03 2.90084863e-03 1.30538186e-02 0. 4.16997001e-02
      2.03059409e-02 6.16430352e-03 3.19093354e-02 5.62764645e-01
      6.52690930e-03 2.24815775e-02 5.07648522e-03 7.61472760e-03
      8.70254636e-03 0. 1.76226556e-01 0.</_>
    <_>
      4.35956895e-01 5.47706723e-01 1.08216248e-01 2.23057985e-01
      1.29859492e-01 2.47351415e-02 9.01065916e-02 3.57776172e-02
      1.18375324e-01 4.41698954e-02 1.50177646e-02 9.98239666e-02
      5.43289743e-02 1.72262602e-02 1.41343670e-02 9.54069793e-02
      1.66962206e-01 3.66610140e-02 2.25266479e-02 2.07598507e-02
      2.51768418e-02 4.15197015e-02 0. 5.83042651e-02 3.62193137e-02
      2.16432493e-02 6.62548468e-02 4.18730617e-01 1.36926677e-02
      6.13961555e-02 2.78270356e-02 4.24031019e-02 7.15552345e-02 0.
      3.92228693e-01 0. 3.02050859e-01 6.51240528e-01 1.20747827e-01
      1.52294546e-01 1.39603347e-01 5.43909101e-03 6.05552159e-02
      1.26912128e-02 1.13495700e-01 2.93710921e-02 9.79036372e-03
      7.57846683e-02 3.04589104e-02 1.01529704e-02 3.62606067e-03
      7.17960000e-02 2.13574976e-01 1.01529704e-02 9.79036372e-03
      9.06515215e-03 2.90084863e-03 1.30538186e-02 0. 4.16997001e-02
      2.03059409e-02 6.16430352e-03 3.19093354e-02 5.62764645e-01
      6.52690930e-03 2.24815775e-02 5.07648522e-03 7.61472760e-03
      8.70254636e-03 0. 1.76226556e-01 0.</_>
    <_>
      3.95063758e-01 5.88101447e-01 1.12141609e-01 2.22999156e-01
      1.24126211e-01 1.96889862e-02 9.33086723e-02 2.91054565e-02
      1.14281721e-01 4.06620353e-02 1.71208568e-02 1.08717442e-01
      5.26466332e-02 1.84049215e-02 1.41247064e-02 9.20246020e-02
      1.80197015e-01 2.61093061e-02 2.01170072e-02 1.66928358e-02
      1.92609634e-02 3.29576507e-02 0. 5.47867417e-02 2.95334775e-02
      2.01170072e-02 5.09345494e-02 4.54986781e-01 1.24126207e-02
      4.83664200e-02 2.61093061e-02 3.59537974e-02 5.69268502e-02 0.
      3.38992953e-01 0. 3.08053911e-01 6.61136568e-01 1.08998187e-01
      1.53312206e-01 1.20076694e-01 5.00319572e-03 6.46841750e-02
      1.35801025e-02 1.09355561e-01 2.71602049e-02 9.64901969e-03
      8.21953565e-02 2.60880906e-02 1.00063914e-02 5.00319572e-03
      6.86152577e-02 2.02272058e-01 8.21953546e-03 8.93427804e-03
      8.57690722e-03 3.21633997e-03 1.14358757e-02 0. 3.85960788e-02
      1.92980394e-02 5.71793783e-03 3.25207710e-02 5.61430037e-01
      7.50479335e-03 2.25143805e-02 5.36056655e-03 8.21953546e-03
      8.93427804e-03 0. 1.69036537e-01 0.</_>
    <_>
      3.95063758e-01 5.88101447e-01 1.12141609e-01 2.22999156e-01
      1.24126211e-01 1.96889862e-02 9.33086723e-02 2.91054565e-02
      1.14281721e-01 4.06620353e-02 1.71208568e-02 1.08717442e-01
      5.26466332e-02 1.84049215e-02 1.41247064e-02 9.20246020e-02
      1.80197015e-01 2.61093061e-02 2.01170072e-02 1.66928358e-02
      1.92609634e-02 3.29576507e-02 0. 5.47867417e-02 2.95334775e-02
      2.01170072e-02 5.09345494e-02 4.54986781e-01 1.24126207e-02
      4.83664200e-02 2.61093061e-02 3.59537974e-02 5.69268502e-02 0.
      3.38992953e-01 0. 3.08053911e-01 6.61136568e-01 1.08998187e-01
      1.53312206e-01 1.20076694e-01 5.00319572e-03 6.46841750e-02
      1.35801025e-02 1.09355561e-01 2.71602049e-02 9.64901969e-03
      8.21953565e-02 2.60880906e-02 1.00063914e-02 5.00319572e-03
      6.86152577e-02 2.02272058e-01 8.21953546e-03 8.93427804e-03
      8.57690722e-03 3.21633997e-03 1.14358757e-02 0. 3.85960788e-02
      1.92980394e-02 5.71793783e-03 3.25207710e-02 5.61430037e-01
      7.50479335e-03 2.25143805e-02 5.36056655e-03 8.21953546e-03
      8.93427804e-03 0. 1.69036537e-01 0.</_>
    <_>
      3.95063758e-01 5.88101447e-01 1.12141609e-01 2.22999156e-01
      1.24126211e-01 1.96889862e-02 9.33086723e-02 2.91054565e-02
      1.14281721e-01 4.06620353e-02 1.71208568e-02 1.08717442e-01
      5.26466332e-02 1.84049215e-02 1.41247064e-02 9.20246020e-02
      1.80197015e-01 2.61093061e-02 2.01170072e-02 1.66928358e-02
      1.92609634e-02 3.29576507e-02 0. 5.47867417e-02 2.95334775e-02
      2.01170072e-02 5.09345494e-02 4.54986781e-01 1.24126207e-02
      4.83664200e-02 2.61093061e-02 3.59537974e-02 5.69268502e-02 0.
      3.38992953e-01 0. 3.08053911e-01 6.61136568e-01 1.08998187e-01
      1.53312206e-01 1.20076694e-01 5.00319572e-03 6.46841750e-02
      1.35801025e-02 1.09355561e-01 2.71602049e-02 9.64901969e-03
      8.21953565e-02 2.60880906e-02 1.00063914e-02 5.00319572e-03
      6.86152577e-02 2.02272058e-01 8.21953546e-03 8.93427804e-03
      8.57690722e-03 3.21633997e-03 1.14358757e-02 0. 3.85960788e-02
      1.92980394e-02 5.71793783e-03 3.25207710e-02 5.61430037e-01
      7.50479335e-03 2.25143805e-02 5.36056655e-03 8.21953546e-03
      8.93427804e-03 0. 1.69036537e-01 0.</_>
    <_>
      3.95063758e-01 5.88101447e-01 1.12141609e-01 2.22999156e-01
      1.24126211e-01 1.96889862e-02 9.33086723e-02 2.91054565e-02
      1.14281721e-01 4.06620353e-02 1.71208568e-02 1.08717442e-01
      5.26466332e-02 1.84049215e-02 1.41247064e-02 9.20246020e-02
      1.80197015e-01 2.61093061e-02 2.01170072e-02 1.66928358e-02
      1.92609634e-02 3.29576507e-02 0. 5.47867417e-02 2.95334775e-02
      2.01170072e-02 5.09345494e-02 4.54986781e-01 1.24126207e-02
      4.83664200e-02 2.61093061e-02 3.59537974e-02 5.69268502e-02 0.
      3.38992953e-01 0. 3.08053911e-01 6.61136568e-01 1.08998187e-01
      1.53312206e-01 1.20076694e-01 5.00319572e-03 6.46841750e-02
      1.35801025e-02 1.09355561e-01 2.71602049e-02 9.64901969e-03
      8.21953565e-02 2.60880906e-02 1.00063914e-02 5.00319572e-03
      6.86152577e-02 2.02272058e-01 8.21953546e-03 8.93427804e-03
      8.57690722e-03 3.21633997e-03 1.14358757e-02 0. 3.85960788e-02
      1.92980394e-02 5.71793783e-03 3.25207710e-02 5.61430037e-01
      7.50479335e-03 2.25143805e-02 5.36056655e-03 8.21953546e-03
      8.93427804e-03 0. 1.69036537e-01 0.</_>
    <_>
      4.01406139e-01 5.94064176e-01 1.21946171e-01 2.11712107e-01
      1.28297538e-01 1.90540887e-02 9.65407193e-02 2.79459972e-02
      1.19829051e-01 4.31892686e-02 1.52432714e-02 1.02045231e-01
      5.37748747e-02 1.82072408e-02 1.43964235e-02 8.80722329e-02
      1.86306655e-01 1.86306648e-02 1.86306648e-02 1.56666953e-02
      1.73603930e-02 3.09099667e-02 0. 4.61532399e-02 3.00631188e-02
      1.73603930e-02 5.03874794e-02 4.61955816e-01 1.18558779e-02
      4.57298160e-02 2.28649080e-02 3.38739380e-02 5.25046028e-02 0.
      3.13757330e-01 0. 3.31522882e-01 6.72860622e-01 1.08326554e-01
      1.61399305e-01 1.22140013e-01 5.81619097e-03 6.97942898e-02
      1.49039896e-02 1.07236020e-01 2.94444673e-02 1.09053580e-02
      8.90604258e-02 2.68998835e-02 1.12688700e-02 4.72565508e-03
      6.65226877e-02 2.05384240e-01 9.45131015e-03 1.01783341e-02
      6.54321490e-03 4.72565508e-03 1.52675016e-02 0. 3.78052406e-02
      1.89026203e-02 7.63375079e-03 3.63511927e-02 5.25274754e-01
      8.72428622e-03 2.25377399e-02 4.36214311e-03 1.05418460e-02
      1.12688700e-02 0. 1.76666796e-01 0.</_>
    <_>
      4.01406139e-01 5.94064176e-01 1.21946171e-01 2.11712107e-01
      1.28297538e-01 1.90540887e-02 9.65407193e-02 2.79459972e-02
      1.19829051e-01 4.31892686e-02 1.52432714e-02 1.02045231e-01
      5.37748747e-02 1.82072408e-02 1.43964235e-02 8.80722329e-02
      1.86306655e-01 1.86306648e-02 1.86306648e-02 1.56666953e-02
      1.73603930e-02 3.09099667e-02 0. 4.61532399e-02 3.00631188e-02
      1.73603930e-02 5.03874794e-02 4.61955816e-01 1.18558779e-02
      4.57298160e-02 2.28649080e-02 3.38739380e-02 5.25046028e-02 0.
      3.13757330e-01 0. 3.31522882e-01 6.72860622e-01 1.08326554e-01
      1.61399305e-01 1.22140013e-01 5.81619097e-03 6.97942898e-02
      1.49039896e-02 1.07236020e-01 2.94444673e-02 1.09053580e-02
      8.90604258e-02 2.68998835e-02 1.12688700e-02 4.72565508e-03
      6.65226877e-02 2.05384240e-01 9.45131015e-03 1.01783341e-02
      6.54321490e-03 4.72565508e-03 1.52675016e-02 0. 3.78052406e-02
      1.89026203e-02 7.63375079e-03 3.63511927e-02 5.25274754e-01
      8.72428622e-03 2.25377399e-02 4.36214311e-03 1.05418460e-02
      1.12688700e-02 0. 1.76666796e-01 0.</_>
    <_>
      4.01406139e-01 5.94064176e-01 1.21946171e-01 2.11712107e-01
      1.28297538e-01 1.90540887e-02 9.65407193e-02 2.79459972e-02
      1.19829051e-01 4.31892686e-02 1.52432714e-02 1.02045231e-01
      5.37748747e-02 1.82072408e-02 1.43964235e-02 8.80722329e-02
      1.86306655e-01 1.86306648e-02 1.86306648e-02 1.56666953e-02
      1.73603930e-02 3.09099667e-02 0. 4.61532399e-02 3.00631188e-02
      1.73603930e-02 5.03874794e-02 4.61955816e-01 1.18558779e-02
      4.57298160e-02 2.28649080e-02 3.38739380e-02 5.25046028e-02 0.
      3.13757330e-01 0. 3.31522882e-01 6.72860622e-01 1.08326554e-01
      1.61399305e-01 1.22140013e-01 5.81619097e-03 6.97942898e-02
      1.49039896e-02 1.07236020e-01 2.94444673e-02 1.09053580e-02
      8.90604258e-02 2.68998835e-02 1.12688700e-02 4.72565508e-03
      6.65226877e-02 2.05384240e-01 9.45131015e-03 1.01783341e-02
      6.54321490e-03 4.72565508e-03 1.52675016e-02 0. 3.78052406e-02
      1.89026203e-02 7.63375079e-03 3.63511927e-02 5.25274754e-01
      8.72428622e-03 2.25377399e-02 4.36214311e-03 1.05418460e-02
      1.12688700e-02 0. 1.76666796e-01 0.</_>
    <_>
      4.01406139e-01 5.94064176e-01 1.21946171e-01 2.11712107e-01
      1.28297538e-01 1.90540887e-02 9.65407193e-02 2.79459972e-02
      1.19829051e-01 4.31892686e-02 1.52432714e-02 1.02045231e-01
      5.37748747e-02 1.82072408e-02 1.43964235e-02 8.80722329e-02
      1.86306655e-01 1.86306648e-02 1.86306648e-02 1.56666953e-02
      1.73603930e-02 3.09099667e-02 0. 4.61532399e-02 3.00631188e-02
      1.73603930e-02 5.03874794e-02 4.61955816e-01 1.18558779e-02
      4.57298160e-02 2.28649080e-02 3.38739380e-02 5.25046028e-02 0.
      3.13757330e-01 0. 3.31522882e-01 6.72860622e-01 1.08326554e-01
      1.61399305e-01 1.22140013e-01 5.81619097e-03 6.97942898e-02
      1.49039896e-02 1.07236020e-01 2.94444673e-02 1.09053580e-02
      8.90604258e-02 2.68998835e-02 1.12688700e-02 4.72565508e-03
      6.65226877e-02 2.05384240e-01 9.45131015e-03 1.01783341e-02
      6.54321490e-03 4.72565508e-03 1.52675016e-02 0. 3.78052406e-02
      1.89026203e-02 7.63375079e-03 3.63511927e-02 5.25274754e-01
      8.72428622e-03 2.25377399e-02 4.36214311e-03 1.05418460e-02
      1.12688700e-02 0. 1.76666796e-01 0.</_>
    <_>
      4.31306869e-01 5.85376143e-01 1.22297913e-01 2.24140301e-01
      1.52328357e-01 2.08907463e-02 9.13970172e-02 3.30770165e-02
      1.32743284e-01 5.04859723e-02 1.69737320e-02 1.02277614e-01
      6.26722425e-02 2.08907463e-02 1.74089558e-02 9.57492590e-02
      1.66255519e-01 2.78543290e-02 1.74089558e-02 1.95850749e-02
      1.65385082e-02 3.39474641e-02 0. 4.65689562e-02 3.13361213e-02
      1.43623883e-02 5.48382103e-02 4.13027465e-01 1.39271645e-02
      5.13564199e-02 2.39373147e-02 3.56883593e-02 6.39779121e-02 0.
      3.34687173e-01 0. 3.45478505e-01 6.27176404e-01 1.20348014e-01
      1.76915377e-01 1.37432113e-01 6.07434753e-03 7.02346414e-02
      1.32876355e-02 1.20348014e-01 3.07513848e-02 1.55655155e-02
      8.58001560e-02 2.99920905e-02 1.17690479e-02 5.31505421e-03
      7.93461651e-02 2.46770367e-01 9.49116796e-03 9.49116796e-03
      8.35222751e-03 4.55576088e-03 1.67044550e-02 0. 3.49274985e-02
      1.93619821e-02 8.35222751e-03 4.21407856e-02 5.31125784e-01
      9.49116796e-03 2.65752710e-02 4.55576088e-03 1.48062222e-02
      1.55655155e-02 0. 1.97036654e-01 0.</_>
    <_>
      4.31306869e-01 5.85376143e-01 1.22297913e-01 2.24140301e-01
      1.52328357e-01 2.08907463e-02 9.13970172e-02 3.30770165e-02
      1.32743284e-01 5.04859723e-02 1.69737320e-02 1.02277614e-01
      6.26722425e-02 2.08907463e-02 1.74089558e-02 9.57492590e-02
      1.66255519e-01 2.78543290e-02 1.74089558e-02 1.95850749e-02
      1.65385082e-02 3.39474641e-02 0. 4.65689562e-02 3.13361213e-02
      1.43623883e-02 5.48382103e-02 4.13027465e-01 1.39271645e-02
      5.13564199e-02 2.39373147e-02 3.56883593e-02 6.39779121e-02 0.
      3.34687173e-01 0. 3.45478505e-01 6.27176404e-01 1.20348014e-01
      1.76915377e-01 1.37432113e-01 6.07434753e-03 7.02346414e-02
      1.32876355e-02 1.20348014e-01 3.07513848e-02 1.55655155e-02
      8.58001560e-02 2.99920905e-02 1.17690479e-02 5.31505421e-03
      7.93461651e-02 2.46770367e-01 9.49116796e-03 9.49116796e-03
      8.35222751e-03 4.55576088e-03 1.67044550e-02 0. 3.49274985e-02
      1.93619821e-02 8.35222751e-03 4.21407856e-02 5.31125784e-01
      9.49116796e-03 2.65752710e-02 4.55576088e-03 1.48062222e-02
      1.55655155e-02 0. 1.97036654e-01 0.</_>
    <_>
      4.31306869e-01 5.85376143e-01 1.22297913e-01 2.24140301e-01
      1.52328357e-01 2.08907463e-02 9.13970172e-02 3.30770165e-02
      1.32743284e-01 5.04859723e-02 1.69737320e-02 1.02277614e-01
      6.26722425e-02 2.08907463e-02 1.74089558e-02 9.57492590e-02
      1.66255519e-01 2.78543290e-02 1.74089558e-02 1.95850749e-02
      1.65385082e-02 3.39474641e-02 0. 4.65689562e-02 3.13361213e-02
      1.43623883e-02 5.48382103e-02 4.13027465e-01 1.39271645e-02
      5.13564199e-02 2.39373147e-02 3.56883593e-02 6.39779121e-02 0.
      3.34687173e-01 0. 3.45478505e-01 6.27176404e-01 1.20348014e-01
      1.76915377e-01 1.37432113e-01 6.07434753e-03 7.02346414e-02
      1.32876355e-02 1.20348014e-01 3.07513848e-02 1.55655155e-02
      8.58001560e-02 2.99920905e-02 1.17690479e-02 5.31505421e-03
      7.93461651e-02 2.46770367e-01 9.49116796e-03 9.49116796e-03
      8.35222751e-03 4.55576088e-03 1.67044550e-02 0. 3.49274985e-02
      1.93619821e-02 8.35222751e-03 4.21407856e-02 5.31125784e-01
      9.49116796e-03 2.65752710e-02 4.55576088e-03 1.48062222e-02
      1.55655155e-02 0. 1.97036654e-01 0.</_>
    <_>
      4.31306869e-01 5.85376143e-01 1.22297913e-01 2.24140301e-01
      1.52328357e-01 2.08907463e-02 9.13970172e-02 3.30770165e-02
      1.32743284e-01 5.04859723e-02 1.69737320e-02 1.02277614e-01
      6.26722425e-02 2.08907463e-02 1.74089558e-02 9.57492590e-02
      1.66255519e-01 2.78543290e-02 1.74089558e-02 1.95850749e-02
      1.65385082e-02 3.39474641e-02 0. 4.65689562e-02 3.13361213e-02
      1.43623883e-02 5.48382103e-02 4.13027465e-01 1.39271645e-02
      5.13564199e-02 2.39373147e-02 3.56883593e-02 6.39779121e-02 0.
      3.34687173e-01 0. 3.45478505e-01 6.27176404e-01 1.20348014e-01
      1.76915377e-01 1.37432113e-01 6.07434753e-03 7.02346414e-02
      1.32876355e-02 1.20348014e-01 3.07513848e-02 1.55655155e-02
      8.58001560e-02 2.99920905e-02 1.17690479e-02 5.31505421e-03
      7.93461651e-02 2.46770367e-01 9.49116796e-03 9.49116796e-03
      8.35222751e-03 4.55576088e-03 1.67044550e-02 0. 3.49274985e-02
      1.93619821e-02 8.35222751e-03 4.21407856e-02 5.31125784e-01
      9.49116796e-03 2.65752710e-02 4.55576088e-03 1.48062222e-02
      1.55655155e-02 0. 1.97036654e-01 0.</_>
    <_>
      4.41139311e-01 5.62341213e-01 1.21647507e-01 2.24134415e-01
      1.75564542e-01 2.45077405e-02 9.66941714e-02 3.34196463e-02
      1.52839184e-01 5.48082180e-02 1.51502397e-02 9.31294113e-02
      6.46113157e-02 1.91605967e-02 1.47046437e-02 1.02041319e-01
      1.62642270e-01 3.16372626e-02 1.78238116e-02 2.53989305e-02
      2.04973817e-02 3.47564295e-02 0. 4.63419072e-02 3.43108363e-02
      1.55958347e-02 6.55025020e-02 3.94351810e-01 1.29222628e-02
      6.55025020e-02 2.67357156e-02 3.43108363e-02 6.81760758e-02 0.
      3.56921822e-01 0. 3.57818663e-01 6.05690837e-01 1.47777542e-01
      1.70633793e-01 1.80879712e-01 7.88146816e-03 7.48739541e-02
      1.41866431e-02 1.51718274e-01 3.38903144e-02 1.65510848e-02
      8.63020793e-02 3.46784629e-02 1.37925697e-02 7.88146816e-03
      7.56620988e-02 2.62058824e-01 9.06368904e-03 9.45776235e-03
      1.06399823e-02 5.91110159e-03 1.77333038e-02 0. 3.23140211e-02
      1.45807173e-02 1.10340565e-02 4.33480777e-02 5.11507332e-01
      1.14281299e-02 2.71910671e-02 7.88146816e-03 1.65510848e-02
      1.93095990e-02 0. 2.01765597e-01 0.</_>
    <_>
      4.41139311e-01 5.62341213e-01 1.21647507e-01 2.24134415e-01
      1.75564542e-01 2.45077405e-02 9.66941714e-02 3.34196463e-02
      1.52839184e-01 5.48082180e-02 1.51502397e-02 9.31294113e-02
      6.46113157e-02 1.91605967e-02 1.47046437e-02 1.02041319e-01
      1.62642270e-01 3.16372626e-02 1.78238116e-02 2.53989305e-02
      2.04973817e-02 3.47564295e-02 0. 4.63419072e-02 3.43108363e-02
      1.55958347e-02 6.55025020e-02 3.94351810e-01 1.29222628e-02
      6.55025020e-02 2.67357156e-02 3.43108363e-02 6.81760758e-02 0.
      3.56921822e-01 0. 3.57818663e-01 6.05690837e-01 1.47777542e-01
      1.70633793e-01 1.80879712e-01 7.88146816e-03 7.48739541e-02
      1.41866431e-02 1.51718274e-01 3.38903144e-02 1.65510848e-02
      8.63020793e-02 3.46784629e-02 1.37925697e-02 7.88146816e-03
      7.56620988e-02 2.62058824e-01 9.06368904e-03 9.45776235e-03
      1.06399823e-02 5.91110159e-03 1.77333038e-02 0. 3.23140211e-02
      1.45807173e-02 1.10340565e-02 4.33480777e-02 5.11507332e-01
      1.14281299e-02 2.71910671e-02 7.88146816e-03 1.65510848e-02
      1.93095990e-02 0. 2.01765597e-01 0.</_>
    <_>
      4.41139311e-01 5.62341213e-01 1.21647507e-01 2.24134415e-01
      1.75564542e-01 2.45077405e-02 9.66941714e-02 3.34196463e-02
      1.52839184e-01 5.48082180e-02 1.51502397e-02 9.31294113e-02
