<?xml version="1.0"?>
<opencv_storage>
<my_svm type_id="opencv-ml-svm">
  <svm_type>C_SVC</svm_type>
  <kernel><type>RBF</type>
    <gamma>1.</gamma></kernel>
  <C>1.</C>
  <term_criteria><epsilon>1.1920928955078125e-07</epsilon>
    <iterations>1000</iterations></term_criteria>
  <var_all>72</var_all>
  <var_count>72</var_count>
  <class_count>2</class_count>
  <class_labels type_id="opencv-matrix">
    <rows>1</rows>
    <cols>2</cols>
    <dt>i</dt>
    <data>
      -1 1</data></class_labels>
  <sv_total>1058</sv_total>
  <support_vectors>
    <_>
      3.42158139e-01 6.27175212e-01 1.35624051e-01 1.76242426e-01
      1.56277463e-01 6.19602297e-03 5.50757572e-02 2.06534099e-02
      8.81212130e-02 2.75378786e-02 5.50757581e-03 7.29753822e-02
      3.09801139e-02 3.44223483e-03 3.44223483e-03 9.98248085e-02
      1.94830492e-01 9.63825732e-03 1.10151516e-02 1.10151516e-02
      6.88446965e-03 2.06534099e-02 0. 4.81912866e-02 2.27187499e-02
      6.19602297e-03 3.99299264e-02 5.57642043e-01 8.26136395e-03
      2.96032205e-02 1.23920459e-02 6.19602297e-03 2.20303033e-02 0.
      1.77619323e-01 0. 7.08092332e-01 5.89886546e-01 9.42219570e-02
      1.53039306e-01 9.07957107e-02 4.56833746e-03 3.02652363e-02
      2.74100248e-02 8.79404992e-02 1.08498018e-02 2.28416873e-03
      5.65331765e-02 1.19918855e-02 5.71042206e-03 2.28416873e-03
      6.96671456e-02 1.91299126e-01 5.71042206e-03 6.28146389e-03
      4.56833746e-03 3.99729516e-03 6.28146389e-03 0. 1.94154344e-02
      3.99729516e-03 2.85521103e-03 2.39837710e-02 2.28987917e-01
      2.28416873e-03 9.70771722e-03 5.71042206e-03 5.13937976e-03
      8.56563263e-03 0. 4.39702496e-02 0.</_>
    <_>
      3.88641953e-01 6.93725884e-01 1.45740733e-01 2.17639491e-01
      1.32138267e-01 5.82962949e-03 4.85802442e-02 1.55456783e-02
      8.35580230e-02 2.72049364e-02 5.82962949e-03 5.63530847e-02
      2.13753078e-02 5.82962949e-03 3.88641958e-03 8.93876478e-02
      1.76832095e-01 1.16592590e-02 1.55456783e-02 1.55456783e-02
      9.71604884e-03 1.16592590e-02 0. 5.44098727e-02 2.33185180e-02
      3.88641958e-03 3.88641953e-02 4.46938246e-01 9.71604884e-03
      2.33185180e-02 1.36024682e-02 7.77283916e-03 2.33185180e-02 0.
      1.45740733e-01 0. 6.79304123e-01 6.19070232e-01 1.00389771e-01
      1.62296787e-01 8.86776298e-02 1.67316280e-03 3.68095823e-02
      2.84437668e-02 9.53702778e-02 1.17121395e-02 1.67316280e-03
      5.18680476e-02 1.33853024e-02 8.36581364e-03 5.01948828e-03
      6.35801852e-02 1.70662612e-01 5.01948828e-03 1.17121395e-02
      3.34632560e-03 0. 8.36581364e-03 0. 2.50974428e-02 3.34632560e-03
      5.01948828e-03 2.17511170e-02 2.40935445e-01 1.67316280e-03
      1.67316273e-02 3.34632560e-03 5.01948828e-03 1.00389766e-02 0.
      6.02338612e-02 0.</_>
    <_>
      3.88641953e-01 6.93725884e-01 1.45740733e-01 2.17639491e-01
      1.32138267e-01 5.82962949e-03 4.85802442e-02 1.55456783e-02
      8.35580230e-02 2.72049364e-02 5.82962949e-03 5.63530847e-02
      2.13753078e-02 5.82962949e-03 3.88641958e-03 8.93876478e-02
      1.76832095e-01 1.16592590e-02 1.55456783e-02 1.55456783e-02
      9.71604884e-03 1.16592590e-02 0. 5.44098727e-02 2.33185180e-02
      3.88641958e-03 3.88641953e-02 4.46938246e-01 9.71604884e-03
      2.33185180e-02 1.36024682e-02 7.77283916e-03 2.33185180e-02 0.
      1.45740733e-01 0. 6.79304123e-01 6.19070232e-01 1.00389771e-01
      1.62296787e-01 8.86776298e-02 1.67316280e-03 3.68095823e-02
      2.84437668e-02 9.53702778e-02 1.17121395e-02 1.67316280e-03
      5.18680476e-02 1.33853024e-02 8.36581364e-03 5.01948828e-03
      6.35801852e-02 1.70662612e-01 5.01948828e-03 1.17121395e-02
      3.34632560e-03 0. 8.36581364e-03 0. 2.50974428e-02 3.34632560e-03
      5.01948828e-03 2.17511170e-02 2.40935445e-01 1.67316280e-03
      1.67316273e-02 3.34632560e-03 5.01948828e-03 1.00389766e-02 0.
      6.02338612e-02 0.</_>
    <_>
      3.88641953e-01 6.93725884e-01 1.45740733e-01 2.17639491e-01
      1.32138267e-01 5.82962949e-03 4.85802442e-02 1.55456783e-02
      8.35580230e-02 2.72049364e-02 5.82962949e-03 5.63530847e-02
      2.13753078e-02 5.82962949e-03 3.88641958e-03 8.93876478e-02
      1.76832095e-01 1.16592590e-02 1.55456783e-02 1.55456783e-02
      9.71604884e-03 1.16592590e-02 0. 5.44098727e-02 2.33185180e-02
      3.88641958e-03 3.88641953e-02 4.46938246e-01 9.71604884e-03
      2.33185180e-02 1.36024682e-02 7.77283916e-03 2.33185180e-02 0.
      1.45740733e-01 0. 6.79304123e-01 6.19070232e-01 1.00389771e-01
      1.62296787e-01 8.86776298e-02 1.67316280e-03 3.68095823e-02
      2.84437668e-02 9.53702778e-02 1.17121395e-02 1.67316280e-03
      5.18680476e-02 1.33853024e-02 8.36581364e-03 5.01948828e-03
      6.35801852e-02 1.70662612e-01 5.01948828e-03 1.17121395e-02
      3.34632560e-03 0. 8.36581364e-03 0. 2.50974428e-02 3.34632560e-03
      5.01948828e-03 2.17511170e-02 2.40935445e-01 1.67316280e-03
      1.67316273e-02 3.34632560e-03 5.01948828e-03 1.00389766e-02 0.
      6.02338612e-02 0.</_>
    <_>
      3.88641953e-01 6.93725884e-01 1.45740733e-01 2.17639491e-01
      1.32138267e-01 5.82962949e-03 4.85802442e-02 1.55456783e-02
      8.35580230e-02 2.72049364e-02 5.82962949e-03 5.63530847e-02
      2.13753078e-02 5.82962949e-03 3.88641958e-03 8.93876478e-02
      1.76832095e-01 1.16592590e-02 1.55456783e-02 1.55456783e-02
      9.71604884e-03 1.16592590e-02 0. 5.44098727e-02 2.33185180e-02
      3.88641958e-03 3.88641953e-02 4.46938246e-01 9.71604884e-03
      2.33185180e-02 1.36024682e-02 7.77283916e-03 2.33185180e-02 0.
      1.45740733e-01 0. 6.79304123e-01 6.19070232e-01 1.00389771e-01
      1.62296787e-01 8.86776298e-02 1.67316280e-03 3.68095823e-02
      2.84437668e-02 9.53702778e-02 1.17121395e-02 1.67316280e-03
      5.18680476e-02 1.33853024e-02 8.36581364e-03 5.01948828e-03
      6.35801852e-02 1.70662612e-01 5.01948828e-03 1.17121395e-02
      3.34632560e-03 0. 8.36581364e-03 0. 2.50974428e-02 3.34632560e-03
      5.01948828e-03 2.17511170e-02 2.40935445e-01 1.67316280e-03
      1.67316273e-02 3.34632560e-03 5.01948828e-03 1.00389766e-02 0.
      6.02338612e-02 0.</_>
    <_>
      4.89797622e-01 5.46709120e-01 1.03068113e-01 2.56325930e-01
      1.04412481e-01 3.54016572e-02 8.06620046e-02 5.15340567e-02
      1.07997462e-01 4.48122248e-02 1.74767673e-02 1.00827508e-01
      5.46709150e-02 2.28542350e-02 2.28542350e-02 7.52845332e-02
      1.60427764e-01 3.27129252e-02 2.10617445e-02 3.62979025e-02
      3.18166800e-02 4.66047116e-02 0. 6.18408695e-02 4.25716117e-02
      2.24061124e-02 6.81145787e-02 3.78663301e-01 1.70286447e-02
      7.03551918e-02 3.67460251e-02 4.70528342e-02 8.24544951e-02
      4.48122242e-04 3.58049661e-01 4.48122242e-04 5.34334302e-01
      6.85248137e-01 1.40631750e-01 1.59869120e-01 1.56884000e-01
      4.64350125e-03 3.18411514e-02 2.68659722e-02 1.04147099e-01
      1.79106481e-02 7.29693053e-03 6.00338392e-02 1.22721102e-02
      2.98510795e-03 1.32671464e-03 7.33009875e-02 2.15259448e-01
      2.32175062e-03 3.31678661e-03 6.96525164e-03 9.95035982e-04
      6.63357321e-03 3.31678661e-04 1.75789688e-02 6.30189478e-03
      2.65342928e-03 1.92373618e-02 3.21728289e-01 1.99007196e-03
      9.61868092e-03 1.32671464e-03 9.95035982e-04 3.31678661e-03 0.
      4.54399772e-02 9.95035982e-04</_>
    <_>
      5.17575383e-01 5.20750642e-01 1.12496659e-01 2.37240940e-01
      1.07053272e-01 3.90109383e-02 7.43929520e-02 5.62483296e-02
      9.66201127e-02 4.53615561e-02 2.04127003e-02 1.07960507e-01
      5.76091781e-02 1.95054691e-02 2.76705492e-02 8.70941877e-02
      1.51507601e-01 3.62892449e-02 1.99590847e-02 4.08254005e-02
      3.44747826e-02 5.12585565e-02 0. 6.25989437e-02 4.12790179e-02
      2.49488559e-02 6.62278682e-02 3.50644827e-01 1.72373913e-02
      7.89291114e-02 3.76500934e-02 5.39802536e-02 8.75478014e-02
      1.36084668e-03 3.90563011e-01 0. 5.24418712e-01 6.74398363e-01
      1.41477421e-01 1.54400840e-01 1.48619309e-01 5.78152947e-03
      3.70698050e-02 2.38062963e-02 1.06108069e-01 2.00653076e-02
      8.16215947e-03 6.56373650e-02 1.53040485e-02 4.42116940e-03
      2.04053987e-03 7.41396099e-02 2.23439097e-01 3.74098960e-03
      5.78152947e-03 7.14188907e-03 3.40089959e-04 7.14188907e-03
      3.40089959e-04 2.34662071e-02 8.50224867e-03 4.76125954e-03
      2.24459376e-02 3.53693545e-01 4.42116940e-03 1.36035979e-02
      6.80179917e-04 2.04053987e-03 3.74098960e-03 0. 6.25765547e-02
      1.02026993e-03</_>
    <_>
      5.17575383e-01 5.20750642e-01 1.12496659e-01 2.37240940e-01
      1.07053272e-01 3.90109383e-02 7.43929520e-02 5.62483296e-02
      9.66201127e-02 4.53615561e-02 2.04127003e-02 1.07960507e-01
      5.76091781e-02 1.95054691e-02 2.76705492e-02 8.70941877e-02
      1.51507601e-01 3.62892449e-02 1.99590847e-02 4.08254005e-02
      3.44747826e-02 5.12585565e-02 0. 6.25989437e-02 4.12790179e-02
      2.49488559e-02 6.62278682e-02 3.50644827e-01 1.72373913e-02
      7.89291114e-02 3.76500934e-02 5.39802536e-02 8.75478014e-02
      1.36084668e-03 3.90563011e-01 0. 5.24418712e-01 6.74398363e-01
      1.41477421e-01 1.54400840e-01 1.48619309e-01 5.78152947e-03
      3.70698050e-02 2.38062963e-02 1.06108069e-01 2.00653076e-02
      8.16215947e-03 6.56373650e-02 1.53040485e-02 4.42116940e-03
      2.04053987e-03 7.41396099e-02 2.23439097e-01 3.74098960e-03
      5.78152947e-03 7.14188907e-03 3.40089959e-04 7.14188907e-03
      3.40089959e-04 2.34662071e-02 8.50224867e-03 4.76125954e-03
      2.24459376e-02 3.53693545e-01 4.42116940e-03 1.36035979e-02
      6.80179917e-04 2.04053987e-03 3.74098960e-03 0. 6.25765547e-02
      1.02026993e-03</_>
    <_>
      5.17575383e-01 5.20750642e-01 1.12496659e-01 2.37240940e-01
      1.07053272e-01 3.90109383e-02 7.43929520e-02 5.62483296e-02
      9.66201127e-02 4.53615561e-02 2.04127003e-02 1.07960507e-01
      5.76091781e-02 1.95054691e-02 2.76705492e-02 8.70941877e-02
      1.51507601e-01 3.62892449e-02 1.99590847e-02 4.08254005e-02
      3.44747826e-02 5.12585565e-02 0. 6.25989437e-02 4.12790179e-02
      2.49488559e-02 6.62278682e-02 3.50644827e-01 1.72373913e-02
      7.89291114e-02 3.76500934e-02 5.39802536e-02 8.75478014e-02
      1.36084668e-03 3.90563011e-01 0. 5.24418712e-01 6.74398363e-01
      1.41477421e-01 1.54400840e-01 1.48619309e-01 5.78152947e-03
      3.70698050e-02 2.38062963e-02 1.06108069e-01 2.00653076e-02
      8.16215947e-03 6.56373650e-02 1.53040485e-02 4.42116940e-03
      2.04053987e-03 7.41396099e-02 2.23439097e-01 3.74098960e-03
      5.78152947e-03 7.14188907e-03 3.40089959e-04 7.14188907e-03
      3.40089959e-04 2.34662071e-02 8.50224867e-03 4.76125954e-03
      2.24459376e-02 3.53693545e-01 4.42116940e-03 1.36035979e-02
      6.80179917e-04 2.04053987e-03 3.74098960e-03 0. 6.25765547e-02
      1.02026993e-03</_>
    <_>
      5.17575383e-01 5.20750642e-01 1.12496659e-01 2.37240940e-01
      1.07053272e-01 3.90109383e-02 7.43929520e-02 5.62483296e-02
      9.66201127e-02 4.53615561e-02 2.04127003e-02 1.07960507e-01
      5.76091781e-02 1.95054691e-02 2.76705492e-02 8.70941877e-02
      1.51507601e-01 3.62892449e-02 1.99590847e-02 4.08254005e-02
      3.44747826e-02 5.12585565e-02 0. 6.25989437e-02 4.12790179e-02
      2.49488559e-02 6.62278682e-02 3.50644827e-01 1.72373913e-02
      7.89291114e-02 3.76500934e-02 5.39802536e-02 8.75478014e-02
      1.36084668e-03 3.90563011e-01 0. 5.24418712e-01 6.74398363e-01
      1.41477421e-01 1.54400840e-01 1.48619309e-01 5.78152947e-03
      3.70698050e-02 2.38062963e-02 1.06108069e-01 2.00653076e-02
      8.16215947e-03 6.56373650e-02 1.53040485e-02 4.42116940e-03
      2.04053987e-03 7.41396099e-02 2.23439097e-01 3.74098960e-03
      5.78152947e-03 7.14188907e-03 3.40089959e-04 7.14188907e-03
      3.40089959e-04 2.34662071e-02 8.50224867e-03 4.76125954e-03
      2.24459376e-02 3.53693545e-01 4.42116940e-03 1.36035979e-02
      6.80179917e-04 2.04053987e-03 3.74098960e-03 0. 6.25765547e-02
      1.02026993e-03</_>
    <_>
      4.90628302e-01 5.33906043e-01 1.03336655e-01 2.43768513e-01
      9.84789431e-02 3.26791108e-02 8.03729519e-02 4.63690087e-02
      9.58292857e-02 4.19529155e-02 1.76643841e-02 9.84789431e-02
      5.69676422e-02 1.89892128e-02 2.11972613e-02 8.92051458e-02
      1.41315073e-01 3.31207216e-02 2.34053098e-02 3.97448651e-02
      2.42885295e-02 4.23945226e-02 0. 6.49166107e-02 3.79784256e-02
      2.29637008e-02 6.00589067e-02 4.17321086e-01 1.50147267e-02
      6.80078790e-02 3.44455503e-02 4.28361334e-02 8.21393877e-02 0.
      3.57262194e-01 0. 5.54546356e-01 6.63267970e-01 1.23637654e-01
      1.61425039e-01 1.37890786e-01 6.29789662e-03 2.98321415e-02
      3.11580151e-02 9.14852321e-02 1.78992841e-02 6.29789662e-03
      6.56307116e-02 9.94404685e-03 2.98321410e-03 9.94404778e-04
      7.95523748e-02 2.25729868e-01 1.98880956e-03 2.98321410e-03
      6.96083298e-03 2.32027774e-03 8.28670617e-03 0. 1.62419435e-02
      6.96083298e-03 1.98880956e-03 2.12139674e-02 3.41743767e-01
      2.65174592e-03 1.09384516e-02 1.98880956e-03 1.65734114e-03
      3.31468228e-03 0. 4.50796820e-02 0.</_>
    <_>
      5.15454113e-01 5.16351283e-01 1.07218042e-01 2.40455523e-01
      1.00937486e-01 3.72347161e-02 7.22263753e-02 5.42819351e-02
      8.29930454e-02 4.75527719e-02 1.92902740e-02 1.09461091e-01
      5.96652701e-02 1.61499977e-02 2.73652729e-02 9.42083150e-02
      1.34583309e-01 3.72347161e-02 2.24305522e-02 3.99263836e-02
      2.91597173e-02 4.62069362e-02 0. 6.19083233e-02 4.12722155e-02
      2.91597173e-02 6.14597127e-02 3.76833260e-01 1.74958315e-02
      7.94041529e-02 3.67861055e-02 4.44124937e-02 8.83763731e-02 0.
      3.86254102e-01 0. 5.39411724e-01 6.52759016e-01 1.21443540e-01
      1.57876596e-01 1.21106200e-01 6.74686348e-03 3.54210325e-02
      2.56380811e-02 9.00706276e-02 2.09152773e-02 7.08420668e-03
      6.64566010e-02 1.38310697e-02 4.38546110e-03 2.02405895e-03
      7.79262707e-02 2.43899107e-01 3.03608854e-03 5.39749069e-03
      7.75889307e-03 1.68671587e-03 9.10826586e-03 0. 2.22646482e-02
      8.09623580e-03 4.04811790e-03 2.22646482e-02 3.78161699e-01
      6.07217709e-03 1.28190406e-02 1.01202948e-03 1.68671587e-03
      4.04811790e-03 0. 5.80230244e-02 0.</_>
    <_>
      5.15454113e-01 5.16351283e-01 1.07218042e-01 2.40455523e-01
      1.00937486e-01 3.72347161e-02 7.22263753e-02 5.42819351e-02
      8.29930454e-02 4.75527719e-02 1.92902740e-02 1.09461091e-01
      5.96652701e-02 1.61499977e-02 2.73652729e-02 9.42083150e-02
      1.34583309e-01 3.72347161e-02 2.24305522e-02 3.99263836e-02
      2.91597173e-02 4.62069362e-02 0. 6.19083233e-02 4.12722155e-02
      2.91597173e-02 6.14597127e-02 3.76833260e-01 1.74958315e-02
      7.94041529e-02 3.67861055e-02 4.44124937e-02 8.83763731e-02 0.
      3.86254102e-01 0. 5.39411724e-01 6.52759016e-01 1.21443540e-01
      1.57876596e-01 1.21106200e-01 6.74686348e-03 3.54210325e-02
      2.56380811e-02 9.00706276e-02 2.09152773e-02 7.08420668e-03
      6.64566010e-02 1.38310697e-02 4.38546110e-03 2.02405895e-03
      7.79262707e-02 2.43899107e-01 3.03608854e-03 5.39749069e-03
      7.75889307e-03 1.68671587e-03 9.10826586e-03 0. 2.22646482e-02
      8.09623580e-03 4.04811790e-03 2.22646482e-02 3.78161699e-01
      6.07217709e-03 1.28190406e-02 1.01202948e-03 1.68671587e-03
      4.04811790e-03 0. 5.80230244e-02 0.</_>
    <_>
      5.15454113e-01 5.16351283e-01 1.07218042e-01 2.40455523e-01
      1.00937486e-01 3.72347161e-02 7.22263753e-02 5.42819351e-02
      8.29930454e-02 4.75527719e-02 1.92902740e-02 1.09461091e-01
      5.96652701e-02 1.61499977e-02 2.73652729e-02 9.42083150e-02
      1.34583309e-01 3.72347161e-02 2.24305522e-02 3.99263836e-02
      2.91597173e-02 4.62069362e-02 0. 6.19083233e-02 4.12722155e-02
      2.91597173e-02 6.14597127e-02 3.76833260e-01 1.74958315e-02
      7.94041529e-02 3.67861055e-02 4.44124937e-02 8.83763731e-02 0.
      3.86254102e-01 0. 5.39411724e-01 6.52759016e-01 1.21443540e-01
      1.57876596e-01 1.21106200e-01 6.74686348e-03 3.54210325e-02
      2.56380811e-02 9.00706276e-02 2.09152773e-02 7.08420668e-03
      6.64566010e-02 1.38310697e-02 4.38546110e-03 2.02405895e-03
      7.79262707e-02 2.43899107e-01 3.03608854e-03 5.39749069e-03
      7.75889307e-03 1.68671587e-03 9.10826586e-03 0. 2.22646482e-02
      8.09623580e-03 4.04811790e-03 2.22646482e-02 3.78161699e-01
      6.07217709e-03 1.28190406e-02 1.01202948e-03 1.68671587e-03
      4.04811790e-03 0. 5.80230244e-02 0.</_>
    <_>
      5.15454113e-01 5.16351283e-01 1.07218042e-01 2.40455523e-01
      1.00937486e-01 3.72347161e-02 7.22263753e-02 5.42819351e-02
      8.29930454e-02 4.75527719e-02 1.92902740e-02 1.09461091e-01
      5.96652701e-02 1.61499977e-02 2.73652729e-02 9.42083150e-02
      1.34583309e-01 3.72347161e-02 2.24305522e-02 3.99263836e-02
      2.91597173e-02 4.62069362e-02 0. 6.19083233e-02 4.12722155e-02
      2.91597173e-02 6.14597127e-02 3.76833260e-01 1.74958315e-02
      7.94041529e-02 3.67861055e-02 4.44124937e-02 8.83763731e-02 0.
      3.86254102e-01 0. 5.39411724e-01 6.52759016e-01 1.21443540e-01
      1.57876596e-01 1.21106200e-01 6.74686348e-03 3.54210325e-02
      2.56380811e-02 9.00706276e-02 2.09152773e-02 7.08420668e-03
      6.64566010e-02 1.38310697e-02 4.38546110e-03 2.02405895e-03
      7.79262707e-02 2.43899107e-01 3.03608854e-03 5.39749069e-03
      7.75889307e-03 1.68671587e-03 9.10826586e-03 0. 2.22646482e-02
      8.09623580e-03 4.04811790e-03 2.22646482e-02 3.78161699e-01
      6.07217709e-03 1.28190406e-02 1.01202948e-03 1.68671587e-03
      4.04811790e-03 0. 5.80230244e-02 0.</_>
    <_>
      4.77160841e-01 5.43369770e-01 1.07304119e-01 2.35726595e-01
      1.14153311e-01 2.96798609e-02 7.36288875e-02 4.45197932e-02
      9.70303193e-02 4.22367267e-02 1.25568649e-02 9.41764861e-02
      6.27843216e-02 1.76937636e-02 1.88352969e-02 8.78980532e-02
      1.37554750e-01 3.02506275e-02 2.56844964e-02 3.88121270e-02
      1.88352969e-02 3.65290605e-02 0. 6.27843216e-02 3.36752273e-02
      2.56844964e-02 6.10720217e-02 4.32070285e-01 1.59814637e-02
      6.22135550e-02 3.19629274e-02 4.05244268e-02 8.16196203e-02 0.
      3.50450665e-01 0. 5.34680665e-01 6.59762502e-01 1.24200955e-01
      1.59875691e-01 1.34330809e-01 5.72557561e-03 2.95087360e-02
      3.25917378e-02 9.86560732e-02 2.11405866e-02 5.72557561e-03
      7.17899129e-02 1.14511512e-02 2.20214459e-03 1.32128666e-03
      8.45623463e-02 2.43997619e-01 8.80857813e-04 3.08300229e-03
      7.04686251e-03 1.76171563e-03 1.01298653e-02 0. 1.84980147e-02
      7.48729147e-03 2.20214459e-03 2.20214445e-02 3.62472981e-01
      3.08300229e-03 1.18915802e-02 3.08300229e-03 2.20214459e-03
      2.64257332e-03 0. 5.50536141e-02 0.</_>
    <_>
      4.96104777e-01 5.23956299e-01 9.86407176e-02 2.38478437e-01
      1.10825747e-01 3.19131725e-02 6.61473051e-02 5.39622754e-02
      8.70359242e-02 5.16413152e-02 1.45059880e-02 1.04443111e-01
      6.09251484e-02 1.27652697e-02 2.55305395e-02 9.45790410e-02
      1.38097003e-01 3.36538926e-02 2.61107776e-02 3.77155691e-02
      2.43700594e-02 3.77155691e-02 0. 6.15053885e-02 3.71353291e-02
      2.95922160e-02 5.97646721e-02 3.99785042e-01 1.68269463e-02
      7.60113746e-02 3.82958092e-02 4.06167656e-02 9.28383246e-02 0.
      3.81797612e-01 0. 5.29581368e-01 6.44532740e-01 1.19871460e-01
      1.60126805e-01 1.23002432e-01 6.26194198e-03 3.57825272e-02
      2.63896137e-02 1.04663886e-01 2.32586414e-02 7.60378689e-03
      6.88813627e-02 1.61021370e-02 3.13097099e-03 1.78912631e-03
      8.40889364e-02 2.55845070e-01 1.34184468e-03 5.36737870e-03
      9.84019507e-03 1.78912631e-03 1.02874767e-02 0. 2.37059239e-02
      6.70922361e-03 3.13097099e-03 2.28113607e-02 3.89582247e-01
      5.81466034e-03 1.29711656e-02 1.34184468e-03 1.34184468e-03
      3.57825262e-03 0. 6.70922399e-02 0.</_>
    <_>
      4.96104777e-01 5.23956299e-01 9.86407176e-02 2.38478437e-01
      1.10825747e-01 3.19131725e-02 6.61473051e-02 5.39622754e-02
      8.70359242e-02 5.16413152e-02 1.45059880e-02 1.04443111e-01
      6.09251484e-02 1.27652697e-02 2.55305395e-02 9.45790410e-02
      1.38097003e-01 3.36538926e-02 2.61107776e-02 3.77155691e-02
      2.43700594e-02 3.77155691e-02 0. 6.15053885e-02 3.71353291e-02
      2.95922160e-02 5.97646721e-02 3.99785042e-01 1.68269463e-02
      7.60113746e-02 3.82958092e-02 4.06167656e-02 9.28383246e-02 0.
      3.81797612e-01 0. 5.29581368e-01 6.44532740e-01 1.19871460e-01
      1.60126805e-01 1.23002432e-01 6.26194198e-03 3.57825272e-02
      2.63896137e-02 1.04663886e-01 2.32586414e-02 7.60378689e-03
      6.88813627e-02 1.61021370e-02 3.13097099e-03 1.78912631e-03
      8.40889364e-02 2.55845070e-01 1.34184468e-03 5.36737870e-03
      9.84019507e-03 1.78912631e-03 1.02874767e-02 0. 2.37059239e-02
      6.70922361e-03 3.13097099e-03 2.28113607e-02 3.89582247e-01
      5.81466034e-03 1.29711656e-02 1.34184468e-03 1.34184468e-03
      3.57825262e-03 0. 6.70922399e-02 0.</_>
    <_>
      4.96104777e-01 5.23956299e-01 9.86407176e-02 2.38478437e-01
      1.10825747e-01 3.19131725e-02 6.61473051e-02 5.39622754e-02
      8.70359242e-02 5.16413152e-02 1.45059880e-02 1.04443111e-01
      6.09251484e-02 1.27652697e-02 2.55305395e-02 9.45790410e-02
      1.38097003e-01 3.36538926e-02 2.61107776e-02 3.77155691e-02
      2.43700594e-02 3.77155691e-02 0. 6.15053885e-02 3.71353291e-02
      2.95922160e-02 5.97646721e-02 3.99785042e-01 1.68269463e-02
      7.60113746e-02 3.82958092e-02 4.06167656e-02 9.28383246e-02 0.
      3.81797612e-01 0. 5.29581368e-01 6.44532740e-01 1.19871460e-01
      1.60126805e-01 1.23002432e-01 6.26194198e-03 3.57825272e-02
      2.63896137e-02 1.04663886e-01 2.32586414e-02 7.60378689e-03
      6.88813627e-02 1.61021370e-02 3.13097099e-03 1.78912631e-03
      8.40889364e-02 2.55845070e-01 1.34184468e-03 5.36737870e-03
      9.84019507e-03 1.78912631e-03 1.02874767e-02 0. 2.37059239e-02
      6.70922361e-03 3.13097099e-03 2.28113607e-02 3.89582247e-01
      5.81466034e-03 1.29711656e-02 1.34184468e-03 1.34184468e-03
      3.57825262e-03 0. 6.70922399e-02 0.</_>
    <_>
      4.96104777e-01 5.23956299e-01 9.86407176e-02 2.38478437e-01
      1.10825747e-01 3.19131725e-02 6.61473051e-02 5.39622754e-02
      8.70359242e-02 5.16413152e-02 1.45059880e-02 1.04443111e-01
      6.09251484e-02 1.27652697e-02 2.55305395e-02 9.45790410e-02
      1.38097003e-01 3.36538926e-02 2.61107776e-02 3.77155691e-02
      2.43700594e-02 3.77155691e-02 0. 6.15053885e-02 3.71353291e-02
      2.95922160e-02 5.97646721e-02 3.99785042e-01 1.68269463e-02
      7.60113746e-02 3.82958092e-02 4.06167656e-02 9.28383246e-02 0.
      3.81797612e-01 0. 5.29581368e-01 6.44532740e-01 1.19871460e-01
      1.60126805e-01 1.23002432e-01 6.26194198e-03 3.57825272e-02
      2.63896137e-02 1.04663886e-01 2.32586414e-02 7.60378689e-03
      6.88813627e-02 1.61021370e-02 3.13097099e-03 1.78912631e-03
      8.40889364e-02 2.55845070e-01 1.34184468e-03 5.36737870e-03
      9.84019507e-03 1.78912631e-03 1.02874767e-02 0. 2.37059239e-02
      6.70922361e-03 3.13097099e-03 2.28113607e-02 3.89582247e-01
      5.81466034e-03 1.29711656e-02 1.34184468e-03 1.34184468e-03
      3.57825262e-03 0. 6.70922399e-02 0.</_>
    <_>
      4.67463195e-01 5.47479391e-01 1.00020282e-01 2.29520217e-01
      1.06337346e-01 2.73739714e-02 7.79105350e-02 4.63251807e-02
      1.00020282e-01 3.79024222e-02 1.68455206e-02 9.68617424e-02
      6.31707013e-02 1.68455206e-02 1.89512111e-02 9.26503614e-02
      1.35817006e-01 2.63211261e-02 3.05325054e-02 4.00081128e-02
      1.15812952e-02 3.57967317e-02 0. 5.47479428e-02 2.84268167e-02
      2.31625903e-02 5.36950976e-02 4.55881894e-01 1.26341404e-02
      6.42235503e-02 2.84268167e-02 4.10609581e-02 8.21219161e-02 0.
      3.35857570e-01 0. 5.47752976e-01 6.20002627e-01 1.24336563e-01
      1.57941043e-01 1.35258019e-01 6.72089541e-03 2.68835817e-02
      3.36044766e-02 1.00813434e-01 2.60434691e-02 5.88078331e-03
      7.30897412e-02 1.42819025e-02 4.20055958e-03 8.40111927e-04
      9.32524204e-02 2.58754462e-01 8.40111927e-04 4.20055958e-03
      2.52033584e-03 2.52033584e-03 1.26016792e-02 0. 1.59621257e-02
      6.72089541e-03 3.36044771e-03 2.26830225e-02 3.95692706e-01
      4.20055958e-03 1.59621257e-02 2.52033584e-03 3.36044771e-03
      4.20055958e-03 0. 7.05694035e-02 0.</_>
    <_>
      4.88894403e-01 5.16892731e-01 8.50719288e-02 2.49831498e-01
      1.14147149e-01 2.69214977e-02 6.35347366e-02 5.81504330e-02
      9.90711078e-02 5.16892746e-02 1.83066186e-02 1.00147970e-01
      5.59967160e-02 1.29223187e-02 2.26140581e-02 9.90711078e-02
      1.34607479e-01 2.90752165e-02 3.33826579e-02 4.09206748e-02
      1.72297582e-02 3.76900956e-02 0. 4.73818332e-02 3.44595164e-02
      2.79983580e-02 6.13810122e-02 4.26436514e-01 1.50760384e-02
      8.18413496e-02 3.55363749e-02 3.98438163e-02 9.26099494e-02 0.
      3.67209226e-01 0. 5.48993528e-01 6.22814953e-01 1.30672351e-01
      1.58673555e-01 1.39157563e-01 6.78817369e-03 3.47893909e-02
      2.63041724e-02 1.03519648e-01 2.80012172e-02 9.33373906e-03
      6.78817332e-02 2.29100864e-02 5.93965221e-03 0. 8.73977393e-02
      2.40980163e-01 8.48521711e-04 5.93965221e-03 5.93965221e-03
      2.54556513e-03 1.35763474e-02 0. 1.86674781e-02 7.63669517e-03
      3.39408685e-03 2.29100864e-02 3.95411104e-01 6.78817369e-03
      1.61219127e-02 1.69704342e-03 1.69704342e-03 5.93965221e-03 0.
      8.23066086e-02 0.</_>
    <_>
      4.88894403e-01 5.16892731e-01 8.50719288e-02 2.49831498e-01
      1.14147149e-01 2.69214977e-02 6.35347366e-02 5.81504330e-02
      9.90711078e-02 5.16892746e-02 1.83066186e-02 1.00147970e-01
      5.59967160e-02 1.29223187e-02 2.26140581e-02 9.90711078e-02
      1.34607479e-01 2.90752165e-02 3.33826579e-02 4.09206748e-02
      1.72297582e-02 3.76900956e-02 0. 4.73818332e-02 3.44595164e-02
      2.79983580e-02 6.13810122e-02 4.26436514e-01 1.50760384e-02
      8.18413496e-02 3.55363749e-02 3.98438163e-02 9.26099494e-02 0.
      3.67209226e-01 0. 5.48993528e-01 6.22814953e-01 1.30672351e-01
      1.58673555e-01 1.39157563e-01 6.78817369e-03 3.47893909e-02
      2.63041724e-02 1.03519648e-01 2.80012172e-02 9.33373906e-03
      6.78817332e-02 2.29100864e-02 5.93965221e-03 0. 8.73977393e-02
      2.40980163e-01 8.48521711e-04 5.93965221e-03 5.93965221e-03
      2.54556513e-03 1.35763474e-02 0. 1.86674781e-02 7.63669517e-03
      3.39408685e-03 2.29100864e-02 3.95411104e-01 6.78817369e-03
      1.61219127e-02 1.69704342e-03 1.69704342e-03 5.93965221e-03 0.
      8.23066086e-02 0.</_>
    <_>
      4.88894403e-01 5.16892731e-01 8.50719288e-02 2.49831498e-01
      1.14147149e-01 2.69214977e-02 6.35347366e-02 5.81504330e-02
      9.90711078e-02 5.16892746e-02 1.83066186e-02 1.00147970e-01
      5.59967160e-02 1.29223187e-02 2.26140581e-02 9.90711078e-02
      1.34607479e-01 2.90752165e-02 3.33826579e-02 4.09206748e-02
      1.72297582e-02 3.76900956e-02 0. 4.73818332e-02 3.44595164e-02
      2.79983580e-02 6.13810122e-02 4.26436514e-01 1.50760384e-02
      8.18413496e-02 3.55363749e-02 3.98438163e-02 9.26099494e-02 0.
      3.67209226e-01 0. 5.48993528e-01 6.22814953e-01 1.30672351e-01
      1.58673555e-01 1.39157563e-01 6.78817369e-03 3.47893909e-02
      2.63041724e-02 1.03519648e-01 2.80012172e-02 9.33373906e-03
      6.78817332e-02 2.29100864e-02 5.93965221e-03 0. 8.73977393e-02
      2.40980163e-01 8.48521711e-04 5.93965221e-03 5.93965221e-03
      2.54556513e-03 1.35763474e-02 0. 1.86674781e-02 7.63669517e-03
      3.39408685e-03 2.29100864e-02 3.95411104e-01 6.78817369e-03
      1.61219127e-02 1.69704342e-03 1.69704342e-03 5.93965221e-03 0.
      8.23066086e-02 0.</_>
    <_>
      4.88894403e-01 5.16892731e-01 8.50719288e-02 2.49831498e-01
      1.14147149e-01 2.69214977e-02 6.35347366e-02 5.81504330e-02
      9.90711078e-02 5.16892746e-02 1.83066186e-02 1.00147970e-01
      5.59967160e-02 1.29223187e-02 2.26140581e-02 9.90711078e-02
      1.34607479e-01 2.90752165e-02 3.33826579e-02 4.09206748e-02
      1.72297582e-02 3.76900956e-02 0. 4.73818332e-02 3.44595164e-02
      2.79983580e-02 6.13810122e-02 4.26436514e-01 1.50760384e-02
      8.18413496e-02 3.55363749e-02 3.98438163e-02 9.26099494e-02 0.
      3.67209226e-01 0. 5.48993528e-01 6.22814953e-01 1.30672351e-01
      1.58673555e-01 1.39157563e-01 6.78817369e-03 3.47893909e-02
      2.63041724e-02 1.03519648e-01 2.80012172e-02 9.33373906e-03
      6.78817332e-02 2.29100864e-02 5.93965221e-03 0. 8.73977393e-02
      2.40980163e-01 8.48521711e-04 5.93965221e-03 5.93965221e-03
      2.54556513e-03 1.35763474e-02 0. 1.86674781e-02 7.63669517e-03
      3.39408685e-03 2.29100864e-02 3.95411104e-01 6.78817369e-03
      1.61219127e-02 1.69704342e-03 1.69704342e-03 5.93965221e-03 0.
      8.23066086e-02 0.</_>
    <_>
      4.00569260e-01 5.08414805e-01 8.47358033e-02 3.00426930e-01
      1.38658583e-01 3.08130197e-02 5.39227836e-02 5.39227836e-02
      1.15548827e-01 2.31097639e-02 1.54065099e-02 1.07845567e-01
      6.16260394e-02 1.54065099e-02 0. 4.62195277e-02 1.61768347e-01
      2.31097639e-02 5.39227836e-02 3.08130197e-02 0. 3.08130197e-02 0.
      3.08130197e-02 2.31097639e-02 3.85162756e-02 5.39227836e-02
      4.23679024e-01 0. 8.47358033e-02 7.70325493e-03 1.54065099e-02
      9.24390554e-02 0. 4.39085543e-01 0. 3.28096420e-01 4.39649194e-01
      8.53050724e-02 9.18669999e-02 1.96857855e-01 0. 2.62477137e-02
      1.96857862e-02 2.36229420e-01 2.62477137e-02 6.56192843e-03
      2.62477137e-02 3.28096412e-02 0. 6.56192843e-03 1.18114710e-01
      3.87153774e-01 0. 6.56192843e-03 0. 0. 1.31238569e-02 0.
      6.56192843e-03 1.31238569e-02 6.56192843e-03 3.93715724e-02
      6.23383224e-01 0. 3.93715724e-02 0. 6.56192843e-03 0. 0.
      1.70610145e-01 0.</_>
    <_>
      4.83226120e-01 4.44256246e-01 4.67638150e-02 2.64994949e-01
      1.40291452e-01 2.33819075e-02 3.89698483e-02 7.01457262e-02
      1.01321600e-01 3.89698483e-02 1.55879389e-02 7.79396966e-02
      6.23517558e-02 7.79396947e-03 7.79396947e-03 7.01457262e-02
      1.40291452e-01 3.11758779e-02 7.01457262e-02 5.45577854e-02
      1.55879389e-02 3.11758779e-02 0. 5.45577854e-02 1.55879389e-02
      2.33819075e-02 3.89698483e-02 3.97492439e-01 0. 1.16909541e-01
      2.33819075e-02 3.11758779e-02 9.35276300e-02 0. 4.75432128e-01 0.
      4.58247662e-01 5.72809577e-01 9.43451077e-02 1.21300846e-01
      2.08907023e-01 6.73893606e-03 4.71725538e-02 2.02168077e-02
      2.29123831e-01 2.02168077e-02 1.34778721e-02 3.36946808e-02
      5.39114885e-02 0. 0. 1.21300846e-01 2.35862762e-01 0.
      6.73893606e-03 0. 0. 2.02168077e-02 0. 1.34778721e-02
      1.34778721e-02 0. 5.39114885e-02 4.78464454e-01 0. 3.36946808e-02
      0. 0. 0. 0. 1.75212339e-01 0.</_>
    <_>
      4.83226120e-01 4.44256246e-01 4.67638150e-02 2.64994949e-01
      1.40291452e-01 2.33819075e-02 3.89698483e-02 7.01457262e-02
      1.01321600e-01 3.89698483e-02 1.55879389e-02 7.79396966e-02
      6.23517558e-02 7.79396947e-03 7.79396947e-03 7.01457262e-02
      1.40291452e-01 3.11758779e-02 7.01457262e-02 5.45577854e-02
      1.55879389e-02 3.11758779e-02 0. 5.45577854e-02 1.55879389e-02
      2.33819075e-02 3.89698483e-02 3.97492439e-01 0. 1.16909541e-01
      2.33819075e-02 3.11758779e-02 9.35276300e-02 0. 4.75432128e-01 0.
      4.58247662e-01 5.72809577e-01 9.43451077e-02 1.21300846e-01
      2.08907023e-01 6.73893606e-03 4.71725538e-02 2.02168077e-02
      2.29123831e-01 2.02168077e-02 1.34778721e-02 3.36946808e-02
      5.39114885e-02 0. 0. 1.21300846e-01 2.35862762e-01 0.
      6.73893606e-03 0. 0. 2.02168077e-02 0. 1.34778721e-02
      1.34778721e-02 0. 5.39114885e-02 4.78464454e-01 0. 3.36946808e-02
      0. 0. 0. 0. 1.75212339e-01 0.</_>
    <_>
      4.83226120e-01 4.44256246e-01 4.67638150e-02 2.64994949e-01
      1.40291452e-01 2.33819075e-02 3.89698483e-02 7.01457262e-02
      1.01321600e-01 3.89698483e-02 1.55879389e-02 7.79396966e-02
      6.23517558e-02 7.79396947e-03 7.79396947e-03 7.01457262e-02
      1.40291452e-01 3.11758779e-02 7.01457262e-02 5.45577854e-02
      1.55879389e-02 3.11758779e-02 0. 5.45577854e-02 1.55879389e-02
      2.33819075e-02 3.89698483e-02 3.97492439e-01 0. 1.16909541e-01
      2.33819075e-02 3.11758779e-02 9.35276300e-02 0. 4.75432128e-01 0.
      4.58247662e-01 5.72809577e-01 9.43451077e-02 1.21300846e-01
      2.08907023e-01 6.73893606e-03 4.71725538e-02 2.02168077e-02
      2.29123831e-01 2.02168077e-02 1.34778721e-02 3.36946808e-02
      5.39114885e-02 0. 0. 1.21300846e-01 2.35862762e-01 0.
      6.73893606e-03 0. 0. 2.02168077e-02 0. 1.34778721e-02
      1.34778721e-02 0. 5.39114885e-02 4.78464454e-01 0. 3.36946808e-02
      0. 0. 0. 0. 1.75212339e-01 0.</_>
    <_>
      4.83226120e-01 4.44256246e-01 4.67638150e-02 2.64994949e-01
      1.40291452e-01 2.33819075e-02 3.89698483e-02 7.01457262e-02
      1.01321600e-01 3.89698483e-02 1.55879389e-02 7.79396966e-02
      6.23517558e-02 7.79396947e-03 7.79396947e-03 7.01457262e-02
      1.40291452e-01 3.11758779e-02 7.01457262e-02 5.45577854e-02
      1.55879389e-02 3.11758779e-02 0. 5.45577854e-02 1.55879389e-02
      2.33819075e-02 3.89698483e-02 3.97492439e-01 0. 1.16909541e-01
      2.33819075e-02 3.11758779e-02 9.35276300e-02 0. 4.75432128e-01 0.
      4.58247662e-01 5.72809577e-01 9.43451077e-02 1.21300846e-01
      2.08907023e-01 6.73893606e-03 4.71725538e-02 2.02168077e-02
      2.29123831e-01 2.02168077e-02 1.34778721e-02 3.36946808e-02
      5.39114885e-02 0. 0. 1.21300846e-01 2.35862762e-01 0.
      6.73893606e-03 0. 0. 2.02168077e-02 0. 1.34778721e-02
      1.34778721e-02 0. 5.39114885e-02 4.78464454e-01 0. 3.36946808e-02
      0. 0. 0. 0. 1.75212339e-01 0.</_>
    <_>
      4.13124770e-01 5.81541479e-01 1.11318171e-01 2.36551121e-01
      1.60739601e-01 1.77533291e-02 1.01721779e-01 3.21479216e-02
      1.20434746e-01 4.27039564e-02 9.59639437e-03 8.49280879e-02
      5.75783662e-02 9.59639437e-03 1.48744117e-02 9.88428593e-02
      1.88089326e-01 1.72735099e-02 1.53542310e-02 1.48744117e-02
      1.72735099e-02 4.31837738e-02 0. 5.46994470e-02 2.63900850e-02
      1.82331502e-02 6.62151203e-02 4.56788361e-01 1.05560338e-02
      4.65425141e-02 1.67936906e-02 2.49506254e-02 4.51030545e-02
      4.79819719e-04 2.96048760e-01 2.39909859e-03 5.98641396e-01
      5.80817759e-01 1.53438181e-01 1.24765389e-01 2.52243072e-01
      3.09976120e-03 3.48723121e-02 2.36356799e-02 9.02805477e-02
      1.89860370e-02 9.29928385e-03 5.30834123e-02 1.82110965e-02
      3.48723144e-03 3.48723144e-03 1.03454530e-01 1.51888296e-01
      2.32482096e-03 2.32482096e-03 1.16241048e-03 1.93735072e-03
      4.26217169e-03 0. 2.09233873e-02 9.68675409e-03 3.09976120e-03
      3.02226711e-02 3.82820517e-01 3.48723144e-03 1.74361560e-02
      3.09976120e-03 3.48723144e-03 3.09976120e-03 0. 7.63316229e-02
      3.87470151e-04</_>
    <_>
      4.13124770e-01 5.81541479e-01 1.11318171e-01 2.36551121e-01
      1.60739601e-01 1.77533291e-02 1.01721779e-01 3.21479216e-02
      1.20434746e-01 4.27039564e-02 9.59639437e-03 8.49280879e-02
      5.75783662e-02 9.59639437e-03 1.48744117e-02 9.88428593e-02
      1.88089326e-01 1.72735099e-02 1.53542310e-02 1.48744117e-02
      1.72735099e-02 4.31837738e-02 0. 5.46994470e-02 2.63900850e-02
      1.82331502e-02 6.62151203e-02 4.56788361e-01 1.05560338e-02
      4.65425141e-02 1.67936906e-02 2.49506254e-02 4.51030545e-02
      4.79819719e-04 2.96048760e-01 2.39909859e-03 5.98641396e-01
      5.80817759e-01 1.53438181e-01 1.24765389e-01 2.52243072e-01
      3.09976120e-03 3.48723121e-02 2.36356799e-02 9.02805477e-02
      1.89860370e-02 9.29928385e-03 5.30834123e-02 1.82110965e-02
      3.48723144e-03 3.48723144e-03 1.03454530e-01 1.51888296e-01
      2.32482096e-03 2.32482096e-03 1.16241048e-03 1.93735072e-03
      4.26217169e-03 0. 2.09233873e-02 9.68675409e-03 3.09976120e-03
      3.02226711e-02 3.82820517e-01 3.48723144e-03 1.74361560e-02
      3.09976120e-03 3.48723144e-03 3.09976120e-03 0. 7.63316229e-02
      3.87470151e-04</_>
    <_>
      4.13124770e-01 5.81541479e-01 1.11318171e-01 2.36551121e-01
      1.60739601e-01 1.77533291e-02 1.01721779e-01 3.21479216e-02
      1.20434746e-01 4.27039564e-02 9.59639437e-03 8.49280879e-02
      5.75783662e-02 9.59639437e-03 1.48744117e-02 9.88428593e-02
      1.88089326e-01 1.72735099e-02 1.53542310e-02 1.48744117e-02
      1.72735099e-02 4.31837738e-02 0. 5.46994470e-02 2.63900850e-02
      1.82331502e-02 6.62151203e-02 4.56788361e-01 1.05560338e-02
      4.65425141e-02 1.67936906e-02 2.49506254e-02 4.51030545e-02
      4.79819719e-04 2.96048760e-01 2.39909859e-03 5.98641396e-01
      5.80817759e-01 1.53438181e-01 1.24765389e-01 2.52243072e-01
      3.09976120e-03 3.48723121e-02 2.36356799e-02 9.02805477e-02
      1.89860370e-02 9.29928385e-03 5.30834123e-02 1.82110965e-02
      3.48723144e-03 3.48723144e-03 1.03454530e-01 1.51888296e-01
      2.32482096e-03 2.32482096e-03 1.16241048e-03 1.93735072e-03
      4.26217169e-03 0. 2.09233873e-02 9.68675409e-03 3.09976120e-03
      3.02226711e-02 3.82820517e-01 3.48723144e-03 1.74361560e-02
      3.09976120e-03 3.48723144e-03 3.09976120e-03 0. 7.63316229e-02
      3.87470151e-04</_>
    <_>
      3.67238283e-01 5.30830622e-01 1.34637952e-01 1.95442200e-01
      1.78069562e-01 1.59249194e-02 8.63806233e-02 2.94369720e-02
      9.98926759e-02 3.61929983e-02 1.78552121e-02 7.67291561e-02
      6.94905594e-02 1.30294794e-02 1.15817599e-02 1.15817599e-01
      1.73243821e-01 1.73726398e-02 2.17157993e-02 2.17157993e-02
      2.02680789e-02 3.13672647e-02 0. 5.50133586e-02 2.89543997e-02
      1.01340394e-02 6.94905594e-02 5.33726096e-01 1.39946267e-02
      6.27345294e-02 1.88203603e-02 1.73726398e-02 5.93565181e-02 0.
      3.40696752e-01 0. 4.16629076e-01 6.08919382e-01 1.13812871e-01
      1.47504762e-01 1.79142281e-01 6.57402864e-03 4.80725840e-02
      2.30091009e-02 1.31069690e-01 2.42417306e-02 9.86104272e-03
      6.36859015e-02 2.91722529e-02 8.62841215e-03 2.87613762e-03
      9.73777995e-02 1.93112090e-01 5.34139806e-03 5.75227523e-03
      6.57402864e-03 5.75227523e-03 1.31480573e-02 0. 2.54743602e-02
      1.02719199e-02 6.98490534e-03 3.98550481e-02 5.41946471e-01
      5.34139806e-03 2.71178689e-02 5.34139806e-03 6.57402864e-03
      1.15045505e-02 0. 1.37643725e-01 0.</_>
    <_>
      3.67238283e-01 5.30830622e-01 1.34637952e-01 1.95442200e-01
      1.78069562e-01 1.59249194e-02 8.63806233e-02 2.94369720e-02
      9.98926759e-02 3.61929983e-02 1.78552121e-02 7.67291561e-02
      6.94905594e-02 1.30294794e-02 1.15817599e-02 1.15817599e-01
      1.73243821e-01 1.73726398e-02 2.17157993e-02 2.17157993e-02
      2.02680789e-02 3.13672647e-02 0. 5.50133586e-02 2.89543997e-02
      1.01340394e-02 6.94905594e-02 5.33726096e-01 1.39946267e-02
      6.27345294e-02 1.88203603e-02 1.73726398e-02 5.93565181e-02 0.
      3.40696752e-01 0. 4.16629076e-01 6.08919382e-01 1.13812871e-01
      1.47504762e-01 1.79142281e-01 6.57402864e-03 4.80725840e-02
      2.30091009e-02 1.31069690e-01 2.42417306e-02 9.86104272e-03
      6.36859015e-02 2.91722529e-02 8.62841215e-03 2.87613762e-03
      9.73777995e-02 1.93112090e-01 5.34139806e-03 5.75227523e-03
      6.57402864e-03 5.75227523e-03 1.31480573e-02 0. 2.54743602e-02
      1.02719199e-02 6.98490534e-03 3.98550481e-02 5.41946471e-01
      5.34139806e-03 2.71178689e-02 5.34139806e-03 6.57402864e-03
      1.15045505e-02 0. 1.37643725e-01 0.</_>
    <_>
      3.67238283e-01 5.30830622e-01 1.34637952e-01 1.95442200e-01
      1.78069562e-01 1.59249194e-02 8.63806233e-02 2.94369720e-02
      9.98926759e-02 3.61929983e-02 1.78552121e-02 7.67291561e-02
      6.94905594e-02 1.30294794e-02 1.15817599e-02 1.15817599e-01
      1.73243821e-01 1.73726398e-02 2.17157993e-02 2.17157993e-02
      2.02680789e-02 3.13672647e-02 0. 5.50133586e-02 2.89543997e-02
      1.01340394e-02 6.94905594e-02 5.33726096e-01 1.39946267e-02
      6.27345294e-02 1.88203603e-02 1.73726398e-02 5.93565181e-02 0.
      3.40696752e-01 0. 4.16629076e-01 6.08919382e-01 1.13812871e-01
      1.47504762e-01 1.79142281e-01 6.57402864e-03 4.80725840e-02
      2.30091009e-02 1.31069690e-01 2.42417306e-02 9.86104272e-03
      6.36859015e-02 2.91722529e-02 8.62841215e-03 2.87613762e-03
      9.73777995e-02 1.93112090e-01 5.34139806e-03 5.75227523e-03
      6.57402864e-03 5.75227523e-03 1.31480573e-02 0. 2.54743602e-02
      1.02719199e-02 6.98490534e-03 3.98550481e-02 5.41946471e-01
      5.34139806e-03 2.71178689e-02 5.34139806e-03 6.57402864e-03
      1.15045505e-02 0. 1.37643725e-01 0.</_>
    <_>
      4.02753562e-01 5.23902714e-01 1.23841338e-01 2.14837804e-01
      1.91146418e-01 1.72300991e-02 9.26117823e-02 2.96142325e-02
      1.12534083e-01 4.14599255e-02 2.31529456e-02 7.16125965e-02
      7.96892047e-02 1.66916586e-02 1.50763365e-02 9.85346287e-02
      1.56686217e-01 2.42298264e-02 2.31529456e-02 2.79989112e-02
      2.26145051e-02 3.17679942e-02 0. 5.59978224e-02 2.96142325e-02
      9.69193038e-03 8.29198509e-02 4.86750305e-01 1.29225738e-02
      7.32279196e-02 2.26145051e-02 2.79989112e-02 6.99972808e-02 0.
      3.62370521e-01 0. 3.69223654e-01 6.29633248e-01 1.43225297e-01
      1.57640830e-01 2.18558073e-01 8.37030914e-03 5.62670790e-02
      1.76706538e-02 1.52525634e-01 2.60409620e-02 1.11604128e-02
      7.02175945e-02 3.62713411e-02 1.16254296e-02 3.72013752e-03
      9.53285247e-02 1.85541853e-01 6.04522368e-03 6.51024049e-03
      1.11604128e-02 4.18515457e-03 1.58105846e-02 0. 2.65059806e-02
      1.11604128e-02 6.51024049e-03 5.34769781e-02 5.13844013e-01
      3.72013752e-03 3.30162197e-02 6.97525777e-03 1.30204810e-02
      1.95307229e-02 0. 1.63221031e-01 0.</_>
    <_>
      4.02753562e-01 5.23902714e-01 1.23841338e-01 2.14837804e-01
      1.91146418e-01 1.72300991e-02 9.26117823e-02 2.96142325e-02
      1.12534083e-01 4.14599255e-02 2.31529456e-02 7.16125965e-02
      7.96892047e-02 1.66916586e-02 1.50763365e-02 9.85346287e-02
      1.56686217e-01 2.42298264e-02 2.31529456e-02 2.79989112e-02
      2.26145051e-02 3.17679942e-02 0. 5.59978224e-02 2.96142325e-02
      9.69193038e-03 8.29198509e-02 4.86750305e-01 1.29225738e-02
      7.32279196e-02 2.26145051e-02 2.79989112e-02 6.99972808e-02 0.
      3.62370521e-01 0. 3.69223654e-01 6.29633248e-01 1.43225297e-01
      1.57640830e-01 2.18558073e-01 8.37030914e-03 5.62670790e-02
      1.76706538e-02 1.52525634e-01 2.60409620e-02 1.11604128e-02
      7.02175945e-02 3.62713411e-02 1.16254296e-02 3.72013752e-03
      9.53285247e-02 1.85541853e-01 6.04522368e-03 6.51024049e-03
      1.11604128e-02 4.18515457e-03 1.58105846e-02 0. 2.65059806e-02
      1.11604128e-02 6.51024049e-03 5.34769781e-02 5.13844013e-01
      3.72013752e-03 3.30162197e-02 6.97525777e-03 1.30204810e-02
      1.95307229e-02 0. 1.63221031e-01 0.</_>
    <_>
      4.02753562e-01 5.23902714e-01 1.23841338e-01 2.14837804e-01
      1.91146418e-01 1.72300991e-02 9.26117823e-02 2.96142325e-02
      1.12534083e-01 4.14599255e-02 2.31529456e-02 7.16125965e-02
      7.96892047e-02 1.66916586e-02 1.50763365e-02 9.85346287e-02
      1.56686217e-01 2.42298264e-02 2.31529456e-02 2.79989112e-02
      2.26145051e-02 3.17679942e-02 0. 5.59978224e-02 2.96142325e-02
      9.69193038e-03 8.29198509e-02 4.86750305e-01 1.29225738e-02
      7.32279196e-02 2.26145051e-02 2.79989112e-02 6.99972808e-02 0.
      3.62370521e-01 0. 3.69223654e-01 6.29633248e-01 1.43225297e-01
      1.57640830e-01 2.18558073e-01 8.37030914e-03 5.62670790e-02
      1.76706538e-02 1.52525634e-01 2.60409620e-02 1.11604128e-02
      7.02175945e-02 3.62713411e-02 1.16254296e-02 3.72013752e-03
      9.53285247e-02 1.85541853e-01 6.04522368e-03 6.51024049e-03
      1.11604128e-02 4.18515457e-03 1.58105846e-02 0. 2.65059806e-02
      1.11604128e-02 6.51024049e-03 5.34769781e-02 5.13844013e-01
      3.72013752e-03 3.30162197e-02 6.97525777e-03 1.30204810e-02
      1.95307229e-02 0. 1.63221031e-01 0.</_>
    <_>
      4.22442943e-01 5.13662279e-01 1.21330574e-01 2.26719901e-01
      1.81553051e-01 2.21406147e-02 9.38762054e-02 3.09968609e-02
      1.27529949e-01 4.42812294e-02 2.65687387e-02 7.61637166e-02
      7.61637166e-02 1.50556182e-02 1.94837414e-02 8.05918425e-02
      1.41699940e-01 2.74543632e-02 2.56831143e-02 3.36537361e-02
      2.39118654e-02 3.01112365e-02 0. 5.49087264e-02 3.36537361e-02
      8.85624625e-03 8.05918425e-02 4.66724157e-01 1.50556182e-02
      7.17355907e-02 2.65687387e-02 3.36537361e-02 8.05918425e-02 0.
      3.79932970e-01 0. 3.89838457e-01 6.29377782e-01 1.88656762e-01
      1.63606912e-01 2.44236156e-01 5.47965709e-03 6.26246557e-02
      1.80045888e-02 1.78480268e-01 2.81810947e-02 9.39369760e-03
      7.43667781e-02 3.75747904e-02 1.40905473e-02 3.91404098e-03
      8.61089006e-02 1.94919229e-01 7.82808196e-03 8.61089025e-03
      1.56561639e-02 3.13123269e-03 1.87873952e-02 0. 2.34842449e-02
      7.82808196e-03 7.04527367e-03 5.55793792e-02 4.50897515e-01
      4.69684880e-03 3.52263674e-02 8.61089025e-03 1.87873952e-02
      2.50498615e-02 0. 1.73783422e-01 0.</_>
    <_>
      4.22442943e-01 5.13662279e-01 1.21330574e-01 2.26719901e-01
      1.81553051e-01 2.21406147e-02 9.38762054e-02 3.09968609e-02
      1.27529949e-01 4.42812294e-02 2.65687387e-02 7.61637166e-02
      7.61637166e-02 1.50556182e-02 1.94837414e-02 8.05918425e-02
      1.41699940e-01 2.74543632e-02 2.56831143e-02 3.36537361e-02
      2.39118654e-02 3.01112365e-02 0. 5.49087264e-02 3.36537361e-02
      8.85624625e-03 8.05918425e-02 4.66724157e-01 1.50556182e-02
      7.17355907e-02 2.65687387e-02 3.36537361e-02 8.05918425e-02 0.
      3.79932970e-01 0. 3.89838457e-01 6.29377782e-01 1.88656762e-01
      1.63606912e-01 2.44236156e-01 5.47965709e-03 6.26246557e-02
      1.80045888e-02 1.78480268e-01 2.81810947e-02 9.39369760e-03
      7.43667781e-02 3.75747904e-02 1.40905473e-02 3.91404098e-03
      8.61089006e-02 1.94919229e-01 7.82808196e-03 8.61089025e-03
      1.56561639e-02 3.13123269e-03 1.87873952e-02 0. 2.34842449e-02
      7.82808196e-03 7.04527367e-03 5.55793792e-02 4.50897515e-01
      4.69684880e-03 3.52263674e-02 8.61089025e-03 1.87873952e-02
      2.50498615e-02 0. 1.73783422e-01 0.</_>
    <_>
      4.22442943e-01 5.13662279e-01 1.21330574e-01 2.26719901e-01
      1.81553051e-01 2.21406147e-02 9.38762054e-02 3.09968609e-02
      1.27529949e-01 4.42812294e-02 2.65687387e-02 7.61637166e-02
      7.61637166e-02 1.50556182e-02 1.94837414e-02 8.05918425e-02
      1.41699940e-01 2.74543632e-02 2.56831143e-02 3.36537361e-02
      2.39118654e-02 3.01112365e-02 0. 5.49087264e-02 3.36537361e-02
      8.85624625e-03 8.05918425e-02 4.66724157e-01 1.50556182e-02
      7.17355907e-02 2.65687387e-02 3.36537361e-02 8.05918425e-02 0.
      3.79932970e-01 0. 3.89838457e-01 6.29377782e-01 1.88656762e-01
      1.63606912e-01 2.44236156e-01 5.47965709e-03 6.26246557e-02
      1.80045888e-02 1.78480268e-01 2.81810947e-02 9.39369760e-03
      7.43667781e-02 3.75747904e-02 1.40905473e-02 3.91404098e-03
      8.61089006e-02 1.94919229e-01 7.82808196e-03 8.61089025e-03
      1.56561639e-02 3.13123269e-03 1.87873952e-02 0. 2.34842449e-02
      7.82808196e-03 7.04527367e-03 5.55793792e-02 4.50897515e-01
      4.69684880e-03 3.52263674e-02 8.61089025e-03 1.87873952e-02
      2.50498615e-02 0. 1.73783422e-01 0.</_>
    <_>
      4.31675225e-01 5.11441290e-01 1.03226684e-01 2.11145490e-01
      1.94723055e-01 2.11145487e-02 9.38424394e-02 3.04987915e-02
      1.54840022e-01 4.45751585e-02 2.11145487e-02 6.33436441e-02
      8.21121335e-02 1.87684875e-02 1.87684875e-02 7.03818277e-02
      1.66570321e-01 3.28448527e-02 2.34606098e-02 2.11145487e-02
      2.11145487e-02 2.58066710e-02 0. 4.69212197e-02 2.81527303e-02
      9.38424375e-03 9.38424394e-02 4.59827930e-01 9.38424375e-03
      5.86515218e-02 1.87684875e-02 4.69212197e-02 5.39594032e-02 0.
      3.77715796e-01 0. 3.81606251e-01 6.31839871e-01 2.10613295e-01
      1.62651852e-01 2.87768662e-01 6.25584042e-03 6.88142478e-02
      1.04264002e-02 1.52225450e-01 2.29380820e-02 1.04264002e-02
      6.46436810e-02 3.96203212e-02 8.34112056e-03 4.17056028e-03
      9.38376039e-02 1.81419373e-01 6.25584042e-03 1.25116808e-02
      1.45969614e-02 0. 1.25116808e-02 0. 2.08528005e-02 1.25116808e-02
      2.08528014e-03 5.83878458e-02 4.37908828e-01 0. 3.54497619e-02
      1.04264002e-02 1.66822411e-02 2.91939229e-02 0. 1.62651852e-01 0.</_>
    <_>
      4.31675225e-01 5.11441290e-01 1.03226684e-01 2.11145490e-01
      1.94723055e-01 2.11145487e-02 9.38424394e-02 3.04987915e-02
      1.54840022e-01 4.45751585e-02 2.11145487e-02 6.33436441e-02
      8.21121335e-02 1.87684875e-02 1.87684875e-02 7.03818277e-02
      1.66570321e-01 3.28448527e-02 2.34606098e-02 2.11145487e-02
      2.11145487e-02 2.58066710e-02 0. 4.69212197e-02 2.81527303e-02
      9.38424375e-03 9.38424394e-02 4.59827930e-01 9.38424375e-03
      5.86515218e-02 1.87684875e-02 4.69212197e-02 5.39594032e-02 0.
      3.77715796e-01 0. 3.81606251e-01 6.31839871e-01 2.10613295e-01
      1.62651852e-01 2.87768662e-01 6.25584042e-03 6.88142478e-02
      1.04264002e-02 1.52225450e-01 2.29380820e-02 1.04264002e-02
      6.46436810e-02 3.96203212e-02 8.34112056e-03 4.17056028e-03
      9.38376039e-02 1.81419373e-01 6.25584042e-03 1.25116808e-02
      1.45969614e-02 0. 1.25116808e-02 0. 2.08528005e-02 1.25116808e-02
      2.08528014e-03 5.83878458e-02 4.37908828e-01 0. 3.54497619e-02
      1.04264002e-02 1.66822411e-02 2.91939229e-02 0. 1.62651852e-01 0.</_>
    <_>
      4.31675225e-01 5.11441290e-01 1.03226684e-01 2.11145490e-01
      1.94723055e-01 2.11145487e-02 9.38424394e-02 3.04987915e-02
      1.54840022e-01 4.45751585e-02 2.11145487e-02 6.33436441e-02
      8.21121335e-02 1.87684875e-02 1.87684875e-02 7.03818277e-02
      1.66570321e-01 3.28448527e-02 2.34606098e-02 2.11145487e-02
      2.11145487e-02 2.58066710e-02 0. 4.69212197e-02 2.81527303e-02
      9.38424375e-03 9.38424394e-02 4.59827930e-01 9.38424375e-03
      5.86515218e-02 1.87684875e-02 4.69212197e-02 5.39594032e-02 0.
      3.77715796e-01 0. 3.81606251e-01 6.31839871e-01 2.10613295e-01
      1.62651852e-01 2.87768662e-01 6.25584042e-03 6.88142478e-02
      1.04264002e-02 1.52225450e-01 2.29380820e-02 1.04264002e-02
      6.46436810e-02 3.96203212e-02 8.34112056e-03 4.17056028e-03
      9.38376039e-02 1.81419373e-01 6.25584042e-03 1.25116808e-02
      1.45969614e-02 0. 1.25116808e-02 0. 2.08528005e-02 1.25116808e-02
      2.08528014e-03 5.83878458e-02 4.37908828e-01 0. 3.54497619e-02
      1.04264002e-02 1.66822411e-02 2.91939229e-02 0. 1.62651852e-01 0.</_>
    <_>
      3.98644805e-01 6.55815661e-01 1.42672867e-01 2.10412517e-01
      1.70847774e-01 1.91829074e-02 9.95113328e-02 1.73845105e-02
      1.43871799e-01 3.29706222e-02 1.31882485e-02 8.45246837e-02
      4.19626087e-02 8.99198744e-03 1.37877148e-02 9.83124003e-02
      1.96025342e-01 9.59145371e-03 1.19893169e-02 2.69759633e-02
      1.67850442e-02 2.75754295e-02 0. 3.95647474e-02 1.91829074e-02
      1.85834412e-02 5.81481867e-02 4.02841061e-01 1.07903853e-02
      3.89652811e-02 1.91829074e-02 2.69759633e-02 3.77663486e-02
      5.99465857e-04 2.30794355e-01 5.99465857e-04 5.27046144e-01
      6.22642815e-01 1.37578264e-01 1.51234940e-01 2.18506664e-01
      4.04641964e-03 4.29932103e-02 3.13597508e-02 1.14311352e-01
      1.46682709e-02 7.08123436e-03 5.76614812e-02 2.07379013e-02
      7.58703705e-03 1.51740736e-03 1.01160489e-01 1.97262958e-01
      5.05802454e-04 7.58703705e-03 2.02320982e-03 5.05802454e-04
      6.57543167e-03 0. 1.61856785e-02 4.04641964e-03 5.05802454e-03
      2.68075299e-02 4.12734807e-01 2.02320982e-03 1.01160491e-02
      1.01160491e-03 1.51740736e-03 2.52901227e-03 5.05802454e-04
      6.52485192e-02 0.</_>
    <_>
      3.98644805e-01 6.55815661e-01 1.42672867e-01 2.10412517e-01
      1.70847774e-01 1.91829074e-02 9.95113328e-02 1.73845105e-02
      1.43871799e-01 3.29706222e-02 1.31882485e-02 8.45246837e-02
      4.19626087e-02 8.99198744e-03 1.37877148e-02 9.83124003e-02
      1.96025342e-01 9.59145371e-03 1.19893169e-02 2.69759633e-02
      1.67850442e-02 2.75754295e-02 0. 3.95647474e-02 1.91829074e-02
      1.85834412e-02 5.81481867e-02 4.02841061e-01 1.07903853e-02
      3.89652811e-02 1.91829074e-02 2.69759633e-02 3.77663486e-02
      5.99465857e-04 2.30794355e-01 5.99465857e-04 5.27046144e-01
      6.22642815e-01 1.37578264e-01 1.51234940e-01 2.18506664e-01
      4.04641964e-03 4.29932103e-02 3.13597508e-02 1.14311352e-01
      1.46682709e-02 7.08123436e-03 5.76614812e-02 2.07379013e-02
      7.58703705e-03 1.51740736e-03 1.01160489e-01 1.97262958e-01
      5.05802454e-04 7.58703705e-03 2.02320982e-03 5.05802454e-04
      6.57543167e-03 0. 1.61856785e-02 4.04641964e-03 5.05802454e-03
      2.68075299e-02 4.12734807e-01 2.02320982e-03 1.01160491e-02
      1.01160491e-03 1.51740736e-03 2.52901227e-03 5.05802454e-04
      6.52485192e-02 0.</_>
    <_>
      4.31835532e-01 5.94440281e-01 1.26618445e-01 2.25247547e-01
      1.93259731e-01 2.33244505e-02 9.39642116e-02 3.06549929e-02
      1.16622254e-01 3.59862968e-02 1.73267350e-02 8.33016112e-02
      5.59786819e-02 9.99619346e-03 1.53274965e-02 1.11290947e-01
      1.77265823e-01 1.53274965e-02 1.46610830e-02 2.59901024e-02
      1.79931484e-02 2.06587985e-02 0. 4.99809645e-02 2.39908639e-02
      1.86595600e-02 5.79779185e-02 4.19840097e-01 1.26618445e-02
      5.39794415e-02 1.99923869e-02 3.53198834e-02 5.13137914e-02 0.
      2.89889604e-01 0. 4.96639073e-01 6.24176443e-01 1.41588077e-01
      1.39966831e-01 1.86982721e-01 3.78288748e-03 3.99905257e-02
      2.64802128e-02 9.78146642e-02 1.62123740e-02 7.02536246e-03
      5.56624867e-02 2.05356739e-02 7.02536246e-03 1.08082499e-03
      1.15107864e-01 1.88603967e-01 5.40412497e-04 7.02536246e-03
      1.62123749e-03 5.40412497e-04 5.40412497e-03 0. 2.10760869e-02
      5.94453746e-03 7.02536246e-03 3.56672257e-02 4.65835571e-01
      1.62123749e-03 1.35103129e-02 1.62123749e-03 1.08082499e-03
      3.24247498e-03 0. 7.40365088e-02 0.</_>
    <_>
      4.31835532e-01 5.94440281e-01 1.26618445e-01 2.25247547e-01
      1.93259731e-01 2.33244505e-02 9.39642116e-02 3.06549929e-02
      1.16622254e-01 3.59862968e-02 1.73267350e-02 8.33016112e-02
      5.59786819e-02 9.99619346e-03 1.53274965e-02 1.11290947e-01
      1.77265823e-01 1.53274965e-02 1.46610830e-02 2.59901024e-02
      1.79931484e-02 2.06587985e-02 0. 4.99809645e-02 2.39908639e-02
      1.86595600e-02 5.79779185e-02 4.19840097e-01 1.26618445e-02
      5.39794415e-02 1.99923869e-02 3.53198834e-02 5.13137914e-02 0.
      2.89889604e-01 0. 4.96639073e-01 6.24176443e-01 1.41588077e-01
      1.39966831e-01 1.86982721e-01 3.78288748e-03 3.99905257e-02
      2.64802128e-02 9.78146642e-02 1.62123740e-02 7.02536246e-03
      5.56624867e-02 2.05356739e-02 7.02536246e-03 1.08082499e-03
      1.15107864e-01 1.88603967e-01 5.40412497e-04 7.02536246e-03
      1.62123749e-03 5.40412497e-04 5.40412497e-03 0. 2.10760869e-02
      5.94453746e-03 7.02536246e-03 3.56672257e-02 4.65835571e-01
      1.62123749e-03 1.35103129e-02 1.62123749e-03 1.08082499e-03
      3.24247498e-03 0. 7.40365088e-02 0.</_>
    <_>
      4.55188304e-01 5.49327016e-01 1.43976837e-01 2.22610340e-01
      2.21502826e-01 1.99352540e-02 8.86011273e-02 4.20855358e-02
      1.14073955e-01 3.76554802e-02 2.21502818e-02 8.97086486e-02
      6.86658770e-02 1.10751409e-02 1.55051984e-02 1.24041587e-01
      1.74987227e-01 1.66127123e-02 1.55051984e-02 2.32577976e-02
      1.99352540e-02 2.21502818e-02 0. 4.87306230e-02 2.76878532e-02
      1.43976836e-02 6.53433353e-02 4.00920123e-01 9.96762700e-03
      5.53757064e-02 1.88277401e-02 3.65479663e-02 6.53433353e-02 0.
      3.28931689e-01 0. 4.84580129e-01 6.01973891e-01 1.55348092e-01
      1.58878729e-01 1.98598415e-01 1.76531926e-03 3.79543640e-02
      2.29491498e-02 1.10332452e-01 1.76531933e-02 5.29595790e-03
      4.58982997e-02 1.76531933e-02 5.29595790e-03 8.82659631e-04
      1.26220331e-01 1.68587983e-01 8.82659631e-04 4.41329833e-03
      8.82659631e-04 0. 5.29595790e-03 0. 2.38318108e-02 2.64797895e-03
      6.17861748e-03 4.14850041e-02 4.93406743e-01 1.76531926e-03
      1.58878732e-02 1.76531926e-03 1.76531926e-03 4.41329833e-03 0.
      8.12046826e-02 0.</_>
    <_>
      4.55188304e-01 5.49327016e-01 1.43976837e-01 2.22610340e-01
      2.21502826e-01 1.99352540e-02 8.86011273e-02 4.20855358e-02
      1.14073955e-01 3.76554802e-02 2.21502818e-02 8.97086486e-02
      6.86658770e-02 1.10751409e-02 1.55051984e-02 1.24041587e-01
      1.74987227e-01 1.66127123e-02 1.55051984e-02 2.32577976e-02
      1.99352540e-02 2.21502818e-02 0. 4.87306230e-02 2.76878532e-02
      1.43976836e-02 6.53433353e-02 4.00920123e-01 9.96762700e-03
      5.53757064e-02 1.88277401e-02 3.65479663e-02 6.53433353e-02 0.
      3.28931689e-01 0. 4.84580129e-01 6.01973891e-01 1.55348092e-01
      1.58878729e-01 1.98598415e-01 1.76531926e-03 3.79543640e-02
      2.29491498e-02 1.10332452e-01 1.76531933e-02 5.29595790e-03
      4.58982997e-02 1.76531933e-02 5.29595790e-03 8.82659631e-04
      1.26220331e-01 1.68587983e-01 8.82659631e-04 4.41329833e-03
      8.82659631e-04 0. 5.29595790e-03 0. 2.38318108e-02 2.64797895e-03
      6.17861748e-03 4.14850041e-02 4.93406743e-01 1.76531926e-03
      1.58878732e-02 1.76531926e-03 1.76531926e-03 4.41329833e-03 0.
      8.12046826e-02 0.</_>
    <_>
      4.98869896e-01 4.66010213e-01 1.16502553e-01 2.30017856e-01
      1.91183671e-01 2.98724491e-02 7.76683688e-02 7.16938749e-02
      9.26045924e-02 4.77959178e-02 2.98724491e-02 8.96173492e-02
      6.57193884e-02 2.09107138e-02 1.79234687e-02 1.28451526e-01
      1.43387750e-01 2.68852040e-02 2.09107138e-02 2.98724491e-02
      2.68852040e-02 2.68852040e-02 0. 5.67576513e-02 2.68852040e-02
      2.09107138e-02 6.27321452e-02 3.97303581e-01 2.38979589e-02
      7.76683688e-02 2.98724491e-02 5.07831611e-02 9.85790789e-02 0.
      4.09252554e-01 0. 4.95352298e-01 6.01177573e-01 1.26089677e-01
      1.59863696e-01 1.55360490e-01 4.50320262e-03 4.05288227e-02
      1.80128105e-02 1.08076863e-01 2.02644113e-02 4.50320262e-03
      3.82772237e-02 1.12580061e-02 4.50320262e-03 2.25160131e-03
      1.30592883e-01 1.50857285e-01 0. 2.25160131e-03 0. 0.
      4.50320262e-03 0. 3.15224193e-02 6.75480394e-03 9.00640525e-03
      3.82772237e-02 5.11113524e-01 0. 2.25160122e-02 0. 2.25160131e-03
      4.50320262e-03 0. 8.78124535e-02 0.</_>
    <_>
      4.98869896e-01 4.66010213e-01 1.16502553e-01 2.30017856e-01
      1.91183671e-01 2.98724491e-02 7.76683688e-02 7.16938749e-02
      9.26045924e-02 4.77959178e-02 2.98724491e-02 8.96173492e-02
      6.57193884e-02 2.09107138e-02 1.79234687e-02 1.28451526e-01
      1.43387750e-01 2.68852040e-02 2.09107138e-02 2.98724491e-02
      2.68852040e-02 2.68852040e-02 0. 5.67576513e-02 2.68852040e-02
      2.09107138e-02 6.27321452e-02 3.97303581e-01 2.38979589e-02
      7.76683688e-02 2.98724491e-02 5.07831611e-02 9.85790789e-02 0.
      4.09252554e-01 0. 4.95352298e-01 6.01177573e-01 1.26089677e-01
      1.59863696e-01 1.55360490e-01 4.50320262e-03 4.05288227e-02
      1.80128105e-02 1.08076863e-01 2.02644113e-02 4.50320262e-03
      3.82772237e-02 1.12580061e-02 4.50320262e-03 2.25160131e-03
      1.30592883e-01 1.50857285e-01 0. 2.25160131e-03 0. 0.
      4.50320262e-03 0. 3.15224193e-02 6.75480394e-03 9.00640525e-03
      3.82772237e-02 5.11113524e-01 0. 2.25160122e-02 0. 2.25160131e-03
      4.50320262e-03 0. 8.78124535e-02 0.</_>
    <_>
      5.36292434e-01 4.95427221e-01 9.08115059e-02 2.53263205e-01
      1.30163163e-01 3.98561619e-02 9.38385576e-02 5.04508391e-02
      1.14523403e-01 6.20545298e-02 3.43065709e-02 1.02415204e-01
      7.92078152e-02 2.27028765e-02 1.71532854e-02 6.00364991e-02
      1.40253335e-01 4.64147702e-02 1.96758267e-02 3.63246053e-02
      3.53155881e-02 4.28832136e-02 5.04508382e-04 7.92078152e-02
      3.17840278e-02 2.01803353e-02 7.26492107e-02 3.06236595e-01
      1.86668094e-02 8.52619186e-02 4.23787050e-02 5.14598563e-02
      9.58565921e-02 5.04508382e-04 4.13192362e-01 2.01803353e-03
      4.69268382e-01 6.34233057e-01 1.74974650e-01 1.49749473e-01
      2.30229795e-01 6.00599451e-03 4.04403657e-02 2.52251774e-02
      1.11311100e-01 2.80279759e-02 8.00799299e-03 5.84583469e-02
      2.96295732e-02 4.80479561e-03 2.40239780e-03 1.09309100e-01
      1.93793431e-01 3.20319715e-03 8.00799299e-03 6.00599451e-03
      4.00399644e-04 4.80479561e-03 0. 2.52251774e-02 8.80879257e-03
      4.40439628e-03 4.20419611e-02 4.34433609e-01 4.80479561e-03
      2.16215812e-02 2.40239780e-03 5.20519540e-03 6.40639430e-03 0.
      1.00900710e-01 4.00399644e-04</_>
    <_>
      5.36292434e-01 4.95427221e-01 9.08115059e-02 2.53263205e-01
      1.30163163e-01 3.98561619e-02 9.38385576e-02 5.04508391e-02
      1.14523403e-01 6.20545298e-02 3.43065709e-02 1.02415204e-01
      7.92078152e-02 2.27028765e-02 1.71532854e-02 6.00364991e-02
      1.40253335e-01 4.64147702e-02 1.96758267e-02 3.63246053e-02
      3.53155881e-02 4.28832136e-02 5.04508382e-04 7.92078152e-02
      3.17840278e-02 2.01803353e-02 7.26492107e-02 3.06236595e-01
      1.86668094e-02 8.52619186e-02 4.23787050e-02 5.14598563e-02
      9.58565921e-02 5.04508382e-04 4.13192362e-01 2.01803353e-03
      4.69268382e-01 6.34233057e-01 1.74974650e-01 1.49749473e-01
      2.30229795e-01 6.00599451e-03 4.04403657e-02 2.52251774e-02
      1.11311100e-01 2.80279759e-02 8.00799299e-03 5.84583469e-02
      2.96295732e-02 4.80479561e-03 2.40239780e-03 1.09309100e-01
      1.93793431e-01 3.20319715e-03 8.00799299e-03 6.00599451e-03
      4.00399644e-04 4.80479561e-03 0. 2.52251774e-02 8.80879257e-03
      4.40439628e-03 4.20419611e-02 4.34433609e-01 4.80479561e-03
      2.16215812e-02 2.40239780e-03 5.20519540e-03 6.40639430e-03 0.
      1.00900710e-01 4.00399644e-04</_>
    <_>
      5.36292434e-01 4.95427221e-01 9.08115059e-02 2.53263205e-01
      1.30163163e-01 3.98561619e-02 9.38385576e-02 5.04508391e-02
      1.14523403e-01 6.20545298e-02 3.43065709e-02 1.02415204e-01
      7.92078152e-02 2.27028765e-02 1.71532854e-02 6.00364991e-02
      1.40253335e-01 4.64147702e-02 1.96758267e-02 3.63246053e-02
      3.53155881e-02 4.28832136e-02 5.04508382e-04 7.92078152e-02
      3.17840278e-02 2.01803353e-02 7.26492107e-02 3.06236595e-01
      1.86668094e-02 8.52619186e-02 4.23787050e-02 5.14598563e-02
      9.58565921e-02 5.04508382e-04 4.13192362e-01 2.01803353e-03
      4.69268382e-01 6.34233057e-01 1.74974650e-01 1.49749473e-01
      2.30229795e-01 6.00599451e-03 4.04403657e-02 2.52251774e-02
      1.11311100e-01 2.80279759e-02 8.00799299e-03 5.84583469e-02
      2.96295732e-02 4.80479561e-03 2.40239780e-03 1.09309100e-01
      1.93793431e-01 3.20319715e-03 8.00799299e-03 6.00599451e-03
      4.00399644e-04 4.80479561e-03 0. 2.52251774e-02 8.80879257e-03
      4.40439628e-03 4.20419611e-02 4.34433609e-01 4.80479561e-03
      2.16215812e-02 2.40239780e-03 5.20519540e-03 6.40639430e-03 0.
      1.00900710e-01 4.00399644e-04</_>
    <_>
      5.27376711e-01 5.13498366e-01 9.56613794e-02 2.56253541e-01
      1.06070131e-01 3.71741131e-02 9.66526866e-02 4.65915538e-02
      1.08052753e-01 6.09655418e-02 2.92436350e-02 9.71483439e-02
      7.68264979e-02 1.98261924e-02 1.68522634e-02 5.65046482e-02
      1.58609539e-01 4.06436957e-02 2.28001215e-02 3.81654203e-02
      2.67653596e-02 4.06436957e-02 0. 6.84003681e-02 2.97392886e-02
      1.88348833e-02 6.93916753e-02 3.34071338e-01 2.03218479e-02
      8.52526277e-02 3.46958376e-02 4.80785184e-02 8.77309069e-02 0.
      3.89089048e-01 0. 5.64934075e-01 6.10801578e-01 1.48686990e-01
      1.50598124e-01 1.83852032e-01 5.73343132e-03 3.74584198e-02
      2.25514956e-02 9.09704417e-02 2.17870399e-02 6.88011758e-03
      5.35120256e-02 1.94936655e-02 5.35120256e-03 1.52891502e-03
      9.82327908e-02 1.71620712e-01 3.05783004e-03 5.73343132e-03
      6.49788883e-03 3.82228754e-04 6.11566007e-03 0. 2.40804106e-02
      8.79126135e-03 4.96897381e-03 3.44005898e-02 4.07073617e-01
      4.96897381e-03 1.83469802e-02 2.29337253e-03 3.82228754e-03
      7.26234633e-03 0. 8.90593007e-02 0.</_>
    <_>
      5.27376711e-01 5.13498366e-01 9.56613794e-02 2.56253541e-01
      1.06070131e-01 3.71741131e-02 9.66526866e-02 4.65915538e-02
      1.08052753e-01 6.09655418e-02 2.92436350e-02 9.71483439e-02
      7.68264979e-02 1.98261924e-02 1.68522634e-02 5.65046482e-02
      1.58609539e-01 4.06436957e-02 2.28001215e-02 3.81654203e-02
      2.67653596e-02 4.06436957e-02 0. 6.84003681e-02 2.97392886e-02
      1.88348833e-02 6.93916753e-02 3.34071338e-01 2.03218479e-02
      8.52526277e-02 3.46958376e-02 4.80785184e-02 8.77309069e-02 0.
      3.89089048e-01 0. 5.64934075e-01 6.10801578e-01 1.48686990e-01
      1.50598124e-01 1.83852032e-01 5.73343132e-03 3.74584198e-02
      2.25514956e-02 9.09704417e-02 2.17870399e-02 6.88011758e-03
      5.35120256e-02 1.94936655e-02 5.35120256e-03 1.52891502e-03
      9.82327908e-02 1.71620712e-01 3.05783004e-03 5.73343132e-03
      6.49788883e-03 3.82228754e-04 6.11566007e-03 0. 2.40804106e-02
      8.79126135e-03 4.96897381e-03 3.44005898e-02 4.07073617e-01
      4.96897381e-03 1.83469802e-02 2.29337253e-03 3.82228754e-03
      7.26234633e-03 0. 8.90593007e-02 0.</_>
    <_>
      5.27376711e-01 5.13498366e-01 9.56613794e-02 2.56253541e-01
      1.06070131e-01 3.71741131e-02 9.66526866e-02 4.65915538e-02
      1.08052753e-01 6.09655418e-02 2.92436350e-02 9.71483439e-02
      7.68264979e-02 1.98261924e-02 1.68522634e-02 5.65046482e-02
      1.58609539e-01 4.06436957e-02 2.28001215e-02 3.81654203e-02
      2.67653596e-02 4.06436957e-02 0. 6.84003681e-02 2.97392886e-02
      1.88348833e-02 6.93916753e-02 3.34071338e-01 2.03218479e-02
      8.52526277e-02 3.46958376e-02 4.80785184e-02 8.77309069e-02 0.
      3.89089048e-01 0. 5.64934075e-01 6.10801578e-01 1.48686990e-01
      1.50598124e-01 1.83852032e-01 5.73343132e-03 3.74584198e-02
      2.25514956e-02 9.09704417e-02 2.17870399e-02 6.88011758e-03
      5.35120256e-02 1.94936655e-02 5.35120256e-03 1.52891502e-03
      9.82327908e-02 1.71620712e-01 3.05783004e-03 5.73343132e-03
      6.49788883e-03 3.82228754e-04 6.11566007e-03 0. 2.40804106e-02
      8.79126135e-03 4.96897381e-03 3.44005898e-02 4.07073617e-01
      4.96897381e-03 1.83469802e-02 2.29337253e-03 3.82228754e-03
      7.26234633e-03 0. 8.90593007e-02 0.</_>
    <_>
      5.35145938e-01 5.16506016e-01 8.95918533e-02 2.54945934e-01
      1.07630476e-01 3.90836932e-02 1.15447216e-01 4.50965688e-02
      1.04624040e-01 7.03506470e-02 2.34502163e-02 1.10035628e-01
      6.61416352e-02 1.74373407e-02 1.74373407e-02 6.01287596e-02
      1.68360516e-01 4.26914170e-02 2.04437785e-02 3.66785415e-02
      2.40515023e-02 3.48746814e-02 0. 6.55403435e-02 2.64566541e-02
      2.10450646e-02 7.15532228e-02 3.25897872e-01 2.34502163e-02
      7.57622346e-02 3.30708176e-02 4.69004326e-02 8.29776898e-02 0.
      3.75804752e-01 0. 6.23456120e-01 5.77357054e-01 1.24422684e-01
      1.37402028e-01 1.56199709e-01 3.58050899e-03 3.53575274e-02
      1.96927991e-02 7.34004378e-02 1.65598541e-02 5.37076360e-03
      5.63930161e-02 1.87976714e-02 4.92319977e-03 1.34269090e-03
      8.86176005e-02 1.65150970e-01 2.68538180e-03 5.37076360e-03
      5.81832696e-03 8.95127247e-04 5.81832696e-03 0. 2.46159993e-02
      9.84639954e-03 5.37076360e-03 3.31197083e-02 4.05045092e-01
      3.13294539e-03 1.43220359e-02 1.34269090e-03 1.79025449e-03
      5.37076360e-03 0. 8.32468346e-02 0.</_>
    <_>
      5.35145938e-01 5.16506016e-01 8.95918533e-02 2.54945934e-01
      1.07630476e-01 3.90836932e-02 1.15447216e-01 4.50965688e-02
      1.04624040e-01 7.03506470e-02 2.34502163e-02 1.10035628e-01
      6.61416352e-02 1.74373407e-02 1.74373407e-02 6.01287596e-02
      1.68360516e-01 4.26914170e-02 2.04437785e-02 3.66785415e-02
      2.40515023e-02 3.48746814e-02 0. 6.55403435e-02 2.64566541e-02
      2.10450646e-02 7.15532228e-02 3.25897872e-01 2.34502163e-02
      7.57622346e-02 3.30708176e-02 4.69004326e-02 8.29776898e-02 0.
      3.75804752e-01 0. 6.23456120e-01 5.77357054e-01 1.24422684e-01
      1.37402028e-01 1.56199709e-01 3.58050899e-03 3.53575274e-02
      1.96927991e-02 7.34004378e-02 1.65598541e-02 5.37076360e-03
      5.63930161e-02 1.87976714e-02 4.92319977e-03 1.34269090e-03
      8.86176005e-02 1.65150970e-01 2.68538180e-03 5.37076360e-03
      5.81832696e-03 8.95127247e-04 5.81832696e-03 0. 2.46159993e-02
      9.84639954e-03 5.37076360e-03 3.31197083e-02 4.05045092e-01
      3.13294539e-03 1.43220359e-02 1.34269090e-03 1.79025449e-03
      5.37076360e-03 0. 8.32468346e-02 0.</_>
    <_>
      5.35145938e-01 5.16506016e-01 8.95918533e-02 2.54945934e-01
      1.07630476e-01 3.90836932e-02 1.15447216e-01 4.50965688e-02
      1.04624040e-01 7.03506470e-02 2.34502163e-02 1.10035628e-01
      6.61416352e-02 1.74373407e-02 1.74373407e-02 6.01287596e-02
      1.68360516e-01 4.26914170e-02 2.04437785e-02 3.66785415e-02
      2.40515023e-02 3.48746814e-02 0. 6.55403435e-02 2.64566541e-02
      2.10450646e-02 7.15532228e-02 3.25897872e-01 2.34502163e-02
      7.57622346e-02 3.30708176e-02 4.69004326e-02 8.29776898e-02 0.
      3.75804752e-01 0. 6.23456120e-01 5.77357054e-01 1.24422684e-01
      1.37402028e-01 1.56199709e-01 3.58050899e-03 3.53575274e-02
      1.96927991e-02 7.34004378e-02 1.65598541e-02 5.37076360e-03
      5.63930161e-02 1.87976714e-02 4.92319977e-03 1.34269090e-03
      8.86176005e-02 1.65150970e-01 2.68538180e-03 5.37076360e-03
      5.81832696e-03 8.95127247e-04 5.81832696e-03 0. 2.46159993e-02
      9.84639954e-03 5.37076360e-03 3.31197083e-02 4.05045092e-01
      3.13294539e-03 1.43220359e-02 1.34269090e-03 1.79025449e-03
      5.37076360e-03 0. 8.32468346e-02 0.</_>
    <_>
      5.18825591e-01 5.49160182e-01 9.20497030e-02 2.35354364e-01
      1.04601935e-01 4.07947563e-02 1.08786017e-01 4.28867936e-02
      1.09832034e-01 6.58992231e-02 2.09203884e-02 1.10878050e-01
      7.00832978e-02 1.56902913e-02 1.46442708e-02 5.75310662e-02
      1.80961356e-01 3.97487357e-02 2.30124258e-02 4.07947563e-02
      2.19664071e-02 2.61504836e-02 0. 5.54390252e-02 2.61504836e-02
      2.40584463e-02 7.11293146e-02 3.36818248e-01 2.30124258e-02
      7.21753389e-02 3.13805826e-02 4.81168926e-02 6.69452399e-02 0.
      3.56692612e-01 0. 6.51327550e-01 5.51539838e-01 1.19126417e-01
      1.45427048e-01 1.54709637e-01 3.09419259e-03 3.55832130e-02
      1.46974148e-02 7.81283602e-02 1.00561259e-02 4.64128889e-03
      4.71864380e-02 1.31503185e-02 3.86774074e-03 1.54709630e-03
      7.96754584e-02 1.57803819e-01 3.86774074e-03 4.64128889e-03
      6.18838519e-03 7.73548149e-04 5.41483704e-03 0. 2.47535408e-02
      6.96193334e-03 4.64128889e-03 2.78477333e-02 4.03018594e-01
      3.09419259e-03 1.31503185e-02 7.73548149e-04 7.73548149e-04
      4.64128889e-03 0. 8.19961056e-02 0.</_>
    <_>
      5.18825591e-01 5.49160182e-01 9.20497030e-02 2.35354364e-01
      1.04601935e-01 4.07947563e-02 1.08786017e-01 4.28867936e-02
      1.09832034e-01 6.58992231e-02 2.09203884e-02 1.10878050e-01
      7.00832978e-02 1.56902913e-02 1.46442708e-02 5.75310662e-02
      1.80961356e-01 3.97487357e-02 2.30124258e-02 4.07947563e-02
      2.19664071e-02 2.61504836e-02 0. 5.54390252e-02 2.61504836e-02
      2.40584463e-02 7.11293146e-02 3.36818248e-01 2.30124258e-02
      7.21753389e-02 3.13805826e-02 4.81168926e-02 6.69452399e-02 0.
      3.56692612e-01 0. 6.51327550e-01 5.51539838e-01 1.19126417e-01
      1.45427048e-01 1.54709637e-01 3.09419259e-03 3.55832130e-02
      1.46974148e-02 7.81283602e-02 1.00561259e-02 4.64128889e-03
      4.71864380e-02 1.31503185e-02 3.86774074e-03 1.54709630e-03
      7.96754584e-02 1.57803819e-01 3.86774074e-03 4.64128889e-03
      6.18838519e-03 7.73548149e-04 5.41483704e-03 0. 2.47535408e-02
      6.96193334e-03 4.64128889e-03 2.78477333e-02 4.03018594e-01
      3.09419259e-03 1.31503185e-02 7.73548149e-04 7.73548149e-04
      4.64128889e-03 0. 8.19961056e-02 0.</_>
    <_>
      5.18825591e-01 5.49160182e-01 9.20497030e-02 2.35354364e-01
      1.04601935e-01 4.07947563e-02 1.08786017e-01 4.28867936e-02
      1.09832034e-01 6.58992231e-02 2.09203884e-02 1.10878050e-01
      7.00832978e-02 1.56902913e-02 1.46442708e-02 5.75310662e-02
      1.80961356e-01 3.97487357e-02 2.30124258e-02 4.07947563e-02
      2.19664071e-02 2.61504836e-02 0. 5.54390252e-02 2.61504836e-02
      2.40584463e-02 7.11293146e-02 3.36818248e-01 2.30124258e-02
      7.21753389e-02 3.13805826e-02 4.81168926e-02 6.69452399e-02 0.
      3.56692612e-01 0. 6.51327550e-01 5.51539838e-01 1.19126417e-01
      1.45427048e-01 1.54709637e-01 3.09419259e-03 3.55832130e-02
      1.46974148e-02 7.81283602e-02 1.00561259e-02 4.64128889e-03
      4.71864380e-02 1.31503185e-02 3.86774074e-03 1.54709630e-03
      7.96754584e-02 1.57803819e-01 3.86774074e-03 4.64128889e-03
      6.18838519e-03 7.73548149e-04 5.41483704e-03 0. 2.47535408e-02
      6.96193334e-03 4.64128889e-03 2.78477333e-02 4.03018594e-01
      3.09419259e-03 1.31503185e-02 7.73548149e-04 7.73548149e-04
      4.64128889e-03 0. 8.19961056e-02 0.</_>
    <_>
      5.31629264e-01 4.58301097e-01 8.24941993e-02 2.24567533e-01
      1.09992266e-01 5.49961329e-02 1.60405383e-01 3.20810750e-02
      1.42073333e-01 8.70772079e-02 9.16602183e-03 1.32907316e-01
      6.41621500e-02 4.58301092e-03 9.16602183e-03 5.95791414e-02
      2.10818499e-01 7.33281747e-02 1.83320437e-02 3.66640873e-02
      2.29150541e-02 4.58301082e-02 0. 6.87451661e-02 4.12470996e-02
      2.74980664e-02 8.24941993e-02 3.66640866e-01 3.20810750e-02
      5.95791414e-02 2.74980664e-02 4.12470996e-02 6.41621500e-02 0.
      3.75806898e-01 0. 6.35779023e-01 4.59173739e-01 7.70641267e-02
      8.99081454e-02 1.73394278e-01 3.21100513e-03 3.21100503e-02
      1.60550252e-02 8.66971388e-02 9.63301584e-03 0. 4.17430662e-02
      9.63301584e-03 3.21100513e-03 0. 8.66971388e-02 1.70183271e-01
      6.42201025e-03 1.28440205e-02 9.63301584e-03 0. 3.21100513e-03 0.
      1.92660317e-02 9.63301584e-03 3.21100513e-03 3.85320634e-02
      5.33026874e-01 0. 1.60550252e-02 0. 0. 3.21100513e-03 0.
      8.34861323e-02 0.</_>
    <_>
      5.31629264e-01 4.58301097e-01 8.24941993e-02 2.24567533e-01
      1.09992266e-01 5.49961329e-02 1.60405383e-01 3.20810750e-02
      1.42073333e-01 8.70772079e-02 9.16602183e-03 1.32907316e-01
      6.41621500e-02 4.58301092e-03 9.16602183e-03 5.95791414e-02
      2.10818499e-01 7.33281747e-02 1.83320437e-02 3.66640873e-02
      2.29150541e-02 4.58301082e-02 0. 6.87451661e-02 4.12470996e-02
      2.74980664e-02 8.24941993e-02 3.66640866e-01 3.20810750e-02
      5.95791414e-02 2.74980664e-02 4.12470996e-02 6.41621500e-02 0.
      3.75806898e-01 0. 6.35779023e-01 4.59173739e-01 7.70641267e-02
      8.99081454e-02 1.73394278e-01 3.21100513e-03 3.21100503e-02
      1.60550252e-02 8.66971388e-02 9.63301584e-03 0. 4.17430662e-02
      9.63301584e-03 3.21100513e-03 0. 8.66971388e-02 1.70183271e-01
      6.42201025e-03 1.28440205e-02 9.63301584e-03 0. 3.21100513e-03 0.
      1.92660317e-02 9.63301584e-03 3.21100513e-03 3.85320634e-02
      5.33026874e-01 0. 1.60550252e-02 0. 0. 3.21100513e-03 0.
      8.34861323e-02 0.</_>
    <_>
      5.31629264e-01 4.58301097e-01 8.24941993e-02 2.24567533e-01
      1.09992266e-01 5.49961329e-02 1.60405383e-01 3.20810750e-02
      1.42073333e-01 8.70772079e-02 9.16602183e-03 1.32907316e-01
      6.41621500e-02 4.58301092e-03 9.16602183e-03 5.95791414e-02
      2.10818499e-01 7.33281747e-02 1.83320437e-02 3.66640873e-02
      2.29150541e-02 4.58301082e-02 0. 6.87451661e-02 4.12470996e-02
      2.74980664e-02 8.24941993e-02 3.66640866e-01 3.20810750e-02
      5.95791414e-02 2.74980664e-02 4.12470996e-02 6.41621500e-02 0.
      3.75806898e-01 0. 6.35779023e-01 4.59173739e-01 7.70641267e-02
      8.99081454e-02 1.73394278e-01 3.21100513e-03 3.21100503e-02
      1.60550252e-02 8.66971388e-02 9.63301584e-03 0. 4.17430662e-02
      9.63301584e-03 3.21100513e-03 0. 8.66971388e-02 1.70183271e-01
      6.42201025e-03 1.28440205e-02 9.63301584e-03 0. 3.21100513e-03 0.
      1.92660317e-02 9.63301584e-03 3.21100513e-03 3.85320634e-02
      5.33026874e-01 0. 1.60550252e-02 0. 0. 3.21100513e-03 0.
      8.34861323e-02 0.</_>
    <_>
      4.65985686e-01 5.68782866e-01 1.63541004e-01 2.12815702e-01
      1.77558810e-01 1.61417108e-02 6.71155304e-02 3.86551470e-02
      9.17528793e-02 3.95047106e-02 1.44425826e-02 8.66554976e-02
      4.58764397e-02 1.91151835e-02 1.44425826e-02 1.27009764e-01
      1.59293190e-01 2.46373471e-02 1.74160562e-02 2.67612562e-02
      1.65664926e-02 2.80356016e-02 0. 5.13986014e-02 2.16638744e-02
      1.18938917e-02 6.41420558e-02 4.57065254e-01 1.61417108e-02
      3.86551470e-02 2.37877835e-02 3.44073288e-02 4.63012196e-02 0.
      2.51046062e-01 2.12390930e-03 6.52401984e-01 5.57151318e-01
      1.04384318e-01 1.49400055e-01 1.60490885e-01 2.93580908e-03
      3.26200984e-02 3.16414982e-02 7.47000277e-02 1.10908337e-02
      2.93580908e-03 5.31707630e-02 1.20694367e-02 4.24061297e-03
      1.63100497e-03 9.03576761e-02 1.74843729e-01 4.56681382e-03
      4.56681382e-03 2.93580908e-03 6.52401999e-04 5.87161817e-03 0.
      1.69624519e-02 4.89301514e-03 1.63100497e-03 2.15292666e-02
      3.89810205e-01 2.93580908e-03 1.10908337e-02 1.63100497e-03
      2.28340691e-03 4.56681382e-03 0. 4.99087535e-02 3.26201000e-04</_>
    <_>
      4.65985686e-01 5.68782866e-01 1.63541004e-01 2.12815702e-01
      1.77558810e-01 1.61417108e-02 6.71155304e-02 3.86551470e-02
      9.17528793e-02 3.95047106e-02 1.44425826e-02 8.66554976e-02
      4.58764397e-02 1.91151835e-02 1.44425826e-02 1.27009764e-01
      1.59293190e-01 2.46373471e-02 1.74160562e-02 2.67612562e-02
      1.65664926e-02 2.80356016e-02 0. 5.13986014e-02 2.16638744e-02
      1.18938917e-02 6.41420558e-02 4.57065254e-01 1.61417108e-02
      3.86551470e-02 2.37877835e-02 3.44073288e-02 4.63012196e-02 0.
      2.51046062e-01 2.12390930e-03 6.52401984e-01 5.57151318e-01
      1.04384318e-01 1.49400055e-01 1.60490885e-01 2.93580908e-03
      3.26200984e-02 3.16414982e-02 7.47000277e-02 1.10908337e-02
      2.93580908e-03 5.31707630e-02 1.20694367e-02 4.24061297e-03
      1.63100497e-03 9.03576761e-02 1.74843729e-01 4.56681382e-03
      4.56681382e-03 2.93580908e-03 6.52401999e-04 5.87161817e-03 0.
      1.69624519e-02 4.89301514e-03 1.63100497e-03 2.15292666e-02
      3.89810205e-01 2.93580908e-03 1.10908337e-02 1.63100497e-03
      2.28340691e-03 4.56681382e-03 0. 4.99087535e-02 3.26201000e-04</_>
    <_>
      4.65985686e-01 5.68782866e-01 1.63541004e-01 2.12815702e-01
      1.77558810e-01 1.61417108e-02 6.71155304e-02 3.86551470e-02
      9.17528793e-02 3.95047106e-02 1.44425826e-02 8.66554976e-02
      4.58764397e-02 1.91151835e-02 1.44425826e-02 1.27009764e-01
      1.59293190e-01 2.46373471e-02 1.74160562e-02 2.67612562e-02
      1.65664926e-02 2.80356016e-02 0. 5.13986014e-02 2.16638744e-02
      1.18938917e-02 6.41420558e-02 4.57065254e-01 1.61417108e-02
      3.86551470e-02 2.37877835e-02 3.44073288e-02 4.63012196e-02 0.
      2.51046062e-01 2.12390930e-03 6.52401984e-01 5.57151318e-01
      1.04384318e-01 1.49400055e-01 1.60490885e-01 2.93580908e-03
      3.26200984e-02 3.16414982e-02 7.47000277e-02 1.10908337e-02
      2.93580908e-03 5.31707630e-02 1.20694367e-02 4.24061297e-03
      1.63100497e-03 9.03576761e-02 1.74843729e-01 4.56681382e-03
      4.56681382e-03 2.93580908e-03 6.52401999e-04 5.87161817e-03 0.
      1.69624519e-02 4.89301514e-03 1.63100497e-03 2.15292666e-02
      3.89810205e-01 2.93580908e-03 1.10908337e-02 1.63100497e-03
      2.28340691e-03 4.56681382e-03 0. 4.99087535e-02 3.26201000e-04</_>
    <_>
      4.51991946e-01 5.33029795e-01 1.55142009e-01 2.15378717e-01
      1.86343759e-01 2.08011642e-02 7.15039968e-02 3.29351760e-02
      8.01711529e-02 4.37691137e-02 1.38674425e-02 9.23051611e-02
      4.37691137e-02 1.51675148e-02 1.82010178e-02 1.31740704e-01
      1.78976685e-01 2.34013088e-02 1.60342306e-02 2.77348850e-02
      2.12345216e-02 3.16351019e-02 0. 5.37363403e-02 2.34013088e-02
      1.30007276e-02 7.41041452e-02 4.84927118e-01 1.99344493e-02
      4.72359769e-02 2.25345939e-02 3.16351019e-02 5.89366294e-02 0.
      2.75615424e-01 0. 5.75468481e-01 5.80185413e-01 1.14891537e-01
      1.47573292e-01 1.80255055e-01 5.05387969e-03 3.70617844e-02
      2.76278760e-02 7.95143768e-02 1.38139380e-02 2.35847733e-03
      5.62665276e-02 1.41508635e-02 5.05387969e-03 1.68462656e-03
      1.03436075e-01 1.86993554e-01 3.70617863e-03 4.38002916e-03
      2.35847733e-03 1.68462656e-03 5.72773069e-03 0. 1.88678186e-02
      3.70617863e-03 2.35847733e-03 2.39216983e-02 4.49795306e-01
      4.71695466e-03 1.04446849e-02 1.34770130e-03 6.73850649e-04
      4.71695466e-03 0. 5.92988580e-02 0.</_>
    <_>
      4.51991946e-01 5.33029795e-01 1.55142009e-01 2.15378717e-01
      1.86343759e-01 2.08011642e-02 7.15039968e-02 3.29351760e-02
      8.01711529e-02 4.37691137e-02 1.38674425e-02 9.23051611e-02
      4.37691137e-02 1.51675148e-02 1.82010178e-02 1.31740704e-01
      1.78976685e-01 2.34013088e-02 1.60342306e-02 2.77348850e-02
      2.12345216e-02 3.16351019e-02 0. 5.37363403e-02 2.34013088e-02
      1.30007276e-02 7.41041452e-02 4.84927118e-01 1.99344493e-02
      4.72359769e-02 2.25345939e-02 3.16351019e-02 5.89366294e-02 0.
      2.75615424e-01 0. 5.75468481e-01 5.80185413e-01 1.14891537e-01
      1.47573292e-01 1.80255055e-01 5.05387969e-03 3.70617844e-02
      2.76278760e-02 7.95143768e-02 1.38139380e-02 2.35847733e-03
      5.62665276e-02 1.41508635e-02 5.05387969e-03 1.68462656e-03
      1.03436075e-01 1.86993554e-01 3.70617863e-03 4.38002916e-03
      2.35847733e-03 1.68462656e-03 5.72773069e-03 0. 1.88678186e-02
      3.70617863e-03 2.35847733e-03 2.39216983e-02 4.49795306e-01
      4.71695466e-03 1.04446849e-02 1.34770130e-03 6.73850649e-04
      4.71695466e-03 0. 5.92988580e-02 0.</_>
    <_>
      4.51991946e-01 5.33029795e-01 1.55142009e-01 2.15378717e-01
      1.86343759e-01 2.08011642e-02 7.15039968e-02 3.29351760e-02
      8.01711529e-02 4.37691137e-02 1.38674425e-02 9.23051611e-02
      4.37691137e-02 1.51675148e-02 1.82010178e-02 1.31740704e-01
      1.78976685e-01 2.34013088e-02 1.60342306e-02 2.77348850e-02
      2.12345216e-02 3.16351019e-02 0. 5.37363403e-02 2.34013088e-02
      1.30007276e-02 7.41041452e-02 4.84927118e-01 1.99344493e-02
      4.72359769e-02 2.25345939e-02 3.16351019e-02 5.89366294e-02 0.
      2.75615424e-01 0. 5.75468481e-01 5.80185413e-01 1.14891537e-01
      1.47573292e-01 1.80255055e-01 5.05387969e-03 3.70617844e-02
      2.76278760e-02 7.95143768e-02 1.38139380e-02 2.35847733e-03
      5.62665276e-02 1.41508635e-02 5.05387969e-03 1.68462656e-03
      1.03436075e-01 1.86993554e-01 3.70617863e-03 4.38002916e-03
      2.35847733e-03 1.68462656e-03 5.72773069e-03 0. 1.88678186e-02
      3.70617863e-03 2.35847733e-03 2.39216983e-02 4.49795306e-01
      4.71695466e-03 1.04446849e-02 1.34770130e-03 6.73850649e-04
      4.71695466e-03 0. 5.92988580e-02 0.</_>
    <_>
      4.47008699e-01 5.20155609e-01 1.57904372e-01 2.04927370e-01
      2.00283125e-01 2.26407014e-02 7.66300634e-02 3.07681318e-02
      7.89521858e-02 5.05061783e-02 1.39327385e-02 9.40459892e-02
      4.64424640e-02 1.45132700e-02 1.50938006e-02 1.28297299e-01
      1.84028253e-01 2.72849463e-02 1.39327385e-02 3.07681318e-02
      2.32212320e-02 3.71539705e-02 0. 6.03752024e-02 2.26407014e-02
      1.16106160e-02 7.48884752e-02 4.89967972e-01 1.74159240e-02
      5.39893620e-02 2.14796383e-02 2.78654769e-02 6.85026348e-02 0.
      2.85621136e-01 0. 5.43908715e-01 5.61204553e-01 1.11967817e-01
      1.61124423e-01 1.98902175e-01 4.55153733e-03 3.36813740e-02
      2.32128408e-02 8.28379765e-02 1.45649193e-02 1.82061491e-03
      5.87148294e-02 1.59303807e-02 5.00669098e-03 1.82061491e-03
      1.21981196e-01 2.02088252e-01 3.18607618e-03 4.55153733e-03
      2.73092231e-03 2.27576867e-03 4.55153733e-03 0. 2.23025326e-02
      2.73092231e-03 1.82061491e-03 3.09504531e-02 4.87469643e-01
      4.09638369e-03 8.19276739e-03 1.36546115e-03 4.55153728e-04
      5.00669098e-03 0. 6.05354458e-02 0.</_>
    <_>
      4.47008699e-01 5.20155609e-01 1.57904372e-01 2.04927370e-01
      2.00283125e-01 2.26407014e-02 7.66300634e-02 3.07681318e-02
      7.89521858e-02 5.05061783e-02 1.39327385e-02 9.40459892e-02
      4.64424640e-02 1.45132700e-02 1.50938006e-02 1.28297299e-01
      1.84028253e-01 2.72849463e-02 1.39327385e-02 3.07681318e-02
      2.32212320e-02 3.71539705e-02 0. 6.03752024e-02 2.26407014e-02
      1.16106160e-02 7.48884752e-02 4.89967972e-01 1.74159240e-02
      5.39893620e-02 2.14796383e-02 2.78654769e-02 6.85026348e-02 0.
      2.85621136e-01 0. 5.43908715e-01 5.61204553e-01 1.11967817e-01
      1.61124423e-01 1.98902175e-01 4.55153733e-03 3.36813740e-02
      2.32128408e-02 8.28379765e-02 1.45649193e-02 1.82061491e-03
      5.87148294e-02 1.59303807e-02 5.00669098e-03 1.82061491e-03
      1.21981196e-01 2.02088252e-01 3.18607618e-03 4.55153733e-03
      2.73092231e-03 2.27576867e-03 4.55153733e-03 0. 2.23025326e-02
      2.73092231e-03 1.82061491e-03 3.09504531e-02 4.87469643e-01
      4.09638369e-03 8.19276739e-03 1.36546115e-03 4.55153728e-04
      5.00669098e-03 0. 6.05354458e-02 0.</_>
    <_>
      4.47008699e-01 5.20155609e-01 1.57904372e-01 2.04927370e-01
      2.00283125e-01 2.26407014e-02 7.66300634e-02 3.07681318e-02
      7.89521858e-02 5.05061783e-02 1.39327385e-02 9.40459892e-02
      4.64424640e-02 1.45132700e-02 1.50938006e-02 1.28297299e-01
      1.84028253e-01 2.72849463e-02 1.39327385e-02 3.07681318e-02
      2.32212320e-02 3.71539705e-02 0. 6.03752024e-02 2.26407014e-02
      1.16106160e-02 7.48884752e-02 4.89967972e-01 1.74159240e-02
      5.39893620e-02 2.14796383e-02 2.78654769e-02 6.85026348e-02 0.
      2.85621136e-01 0. 5.43908715e-01 5.61204553e-01 1.11967817e-01
      1.61124423e-01 1.98902175e-01 4.55153733e-03 3.36813740e-02
      2.32128408e-02 8.28379765e-02 1.45649193e-02 1.82061491e-03
      5.87148294e-02 1.59303807e-02 5.00669098e-03 1.82061491e-03
      1.21981196e-01 2.02088252e-01 3.18607618e-03 4.55153733e-03
      2.73092231e-03 2.27576867e-03 4.55153733e-03 0. 2.23025326e-02
      2.73092231e-03 1.82061491e-03 3.09504531e-02 4.87469643e-01
      4.09638369e-03 8.19276739e-03 1.36546115e-03 4.55153728e-04
      5.00669098e-03 0. 6.05354458e-02 0.</_>
    <_>
      4.54414099e-01 5.19487977e-01 1.56618446e-01 2.02942207e-01
      2.01839268e-01 2.75736712e-02 7.38974363e-02 2.75736712e-02
      7.83092231e-02 4.85296585e-02 1.65442023e-02 8.16180632e-02
      5.62502891e-02 9.92652122e-03 1.76471490e-02 1.21324152e-01
      1.86398014e-01 2.53677759e-02 1.65442023e-02 3.30884047e-02
      2.53677759e-02 4.19119783e-02 0. 5.18384986e-02 2.09559891e-02
      1.43383089e-02 8.05151165e-02 4.70958292e-01 1.65442023e-02
      6.17650226e-02 2.20589358e-02 2.86766179e-02 7.50003830e-02 0.
      3.07722151e-01 0. 4.94537264e-01 5.33603013e-01 1.25188068e-01
      1.63365990e-01 2.77899742e-01 5.32715162e-03 2.84114759e-02
      2.39721835e-02 9.50008705e-02 1.33178793e-02 1.77571725e-03
      4.88322228e-02 1.86450314e-02 3.55143449e-03 2.66357581e-03
      1.37618080e-01 2.30843246e-01 8.87858623e-04 3.55143449e-03
      2.66357581e-03 2.66357581e-03 5.32715162e-03 0. 1.95328891e-02
      3.55143449e-03 8.87858623e-04 3.64022031e-02 5.08742988e-01
      2.66357581e-03 9.76644456e-03 1.77571725e-03 0. 4.43929294e-03 0.
      6.92529753e-02 0.</_>
    <_>
      4.54414099e-01 5.19487977e-01 1.56618446e-01 2.02942207e-01
      2.01839268e-01 2.75736712e-02 7.38974363e-02 2.75736712e-02
      7.83092231e-02 4.85296585e-02 1.65442023e-02 8.16180632e-02
      5.62502891e-02 9.92652122e-03 1.76471490e-02 1.21324152e-01
      1.86398014e-01 2.53677759e-02 1.65442023e-02 3.30884047e-02
      2.53677759e-02 4.19119783e-02 0. 5.18384986e-02 2.09559891e-02
      1.43383089e-02 8.05151165e-02 4.70958292e-01 1.65442023e-02
      6.17650226e-02 2.20589358e-02 2.86766179e-02 7.50003830e-02 0.
      3.07722151e-01 0. 4.94537264e-01 5.33603013e-01 1.25188068e-01
      1.63365990e-01 2.77899742e-01 5.32715162e-03 2.84114759e-02
      2.39721835e-02 9.50008705e-02 1.33178793e-02 1.77571725e-03
      4.88322228e-02 1.86450314e-02 3.55143449e-03 2.66357581e-03
      1.37618080e-01 2.30843246e-01 8.87858623e-04 3.55143449e-03
      2.66357581e-03 2.66357581e-03 5.32715162e-03 0. 1.95328891e-02
      3.55143449e-03 8.87858623e-04 3.64022031e-02 5.08742988e-01
      2.66357581e-03 9.76644456e-03 1.77571725e-03 0. 4.43929294e-03 0.
      6.92529753e-02 0.</_>
    <_>
      4.54414099e-01 5.19487977e-01 1.56618446e-01 2.02942207e-01
      2.01839268e-01 2.75736712e-02 7.38974363e-02 2.75736712e-02
      7.83092231e-02 4.85296585e-02 1.65442023e-02 8.16180632e-02
      5.62502891e-02 9.92652122e-03 1.76471490e-02 1.21324152e-01
      1.86398014e-01 2.53677759e-02 1.65442023e-02 3.30884047e-02
      2.53677759e-02 4.19119783e-02 0. 5.18384986e-02 2.09559891e-02
      1.43383089e-02 8.05151165e-02 4.70958292e-01 1.65442023e-02
      6.17650226e-02 2.20589358e-02 2.86766179e-02 7.50003830e-02 0.
      3.07722151e-01 0. 4.94537264e-01 5.33603013e-01 1.25188068e-01
      1.63365990e-01 2.77899742e-01 5.32715162e-03 2.84114759e-02
      2.39721835e-02 9.50008705e-02 1.33178793e-02 1.77571725e-03
      4.88322228e-02 1.86450314e-02 3.55143449e-03 2.66357581e-03
      1.37618080e-01 2.30843246e-01 8.87858623e-04 3.55143449e-03
      2.66357581e-03 2.66357581e-03 5.32715162e-03 0. 1.95328891e-02
      3.55143449e-03 8.87858623e-04 3.64022031e-02 5.08742988e-01
      2.66357581e-03 9.76644456e-03 1.77571725e-03 0. 4.43929294e-03 0.
      6.92529753e-02 0.</_>
    <_>
      4.54876572e-01 4.54876572e-01 2.22599179e-01 2.12920949e-01
      1.74208045e-01 1.93564501e-02 6.77475780e-02 2.90346742e-02
      3.87129001e-02 6.77475780e-02 1.93564501e-02 2.90346742e-02
      5.80693483e-02 1.93564501e-02 0. 1.25816926e-01 2.03242719e-01
      6.77475780e-02 9.67822503e-03 9.67822503e-03 9.67822503e-03
      2.90346742e-02 0. 5.80693483e-02 3.87129001e-02 0. 2.90346742e-02
      4.74233031e-01 9.67822503e-03 4.83911261e-02 2.90346742e-02
      3.87129001e-02 5.80693483e-02 0. 3.77450764e-01 0. 3.07546765e-01
      3.15235436e-01 9.22640264e-02 1.46084711e-01 3.22924107e-01 0.
      1.53773380e-02 7.68866902e-03 9.22640264e-02 1.53773380e-02 0.
      3.84433456e-02 2.30660066e-02 0. 0. 1.69150725e-01 3.30612779e-01
      0. 0. 7.68866902e-03 0. 0. 0. 7.68866902e-03 7.68866902e-03 0.
      2.30660066e-02 7.15046227e-01 0. 3.07546761e-02 0. 0. 0. 0.
      9.99526978e-02 0.</_>
    <_>
      4.54876572e-01 4.54876572e-01 2.22599179e-01 2.12920949e-01
      1.74208045e-01 1.93564501e-02 6.77475780e-02 2.90346742e-02
      3.87129001e-02 6.77475780e-02 1.93564501e-02 2.90346742e-02
      5.80693483e-02 1.93564501e-02 0. 1.25816926e-01 2.03242719e-01
      6.77475780e-02 9.67822503e-03 9.67822503e-03 9.67822503e-03
      2.90346742e-02 0. 5.80693483e-02 3.87129001e-02 0. 2.90346742e-02
      4.74233031e-01 9.67822503e-03 4.83911261e-02 2.90346742e-02
      3.87129001e-02 5.80693483e-02 0. 3.77450764e-01 0. 3.07546765e-01
      3.15235436e-01 9.22640264e-02 1.46084711e-01 3.22924107e-01 0.
      1.53773380e-02 7.68866902e-03 9.22640264e-02 1.53773380e-02 0.
      3.84433456e-02 2.30660066e-02 0. 0. 1.69150725e-01 3.30612779e-01
      0. 0. 7.68866902e-03 0. 0. 0. 7.68866902e-03 7.68866902e-03 0.
      2.30660066e-02 7.15046227e-01 0. 3.07546761e-02 0. 0. 0. 0.
      9.99526978e-02 0.</_>
    <_>
      3.04677188e-01 7.31769323e-01 9.19472277e-02 2.07833380e-01
      1.81718186e-01 9.79319587e-03 7.83455670e-02 1.57779269e-02
      2.10553706e-01 2.06745248e-02 1.36016607e-02 5.22303768e-02
      4.08049822e-02 5.44066448e-03 2.17626570e-03 6.69201687e-02
      1.87702909e-01 4.89659794e-03 6.52879709e-03 1.08813290e-02
      3.26439855e-03 1.30575942e-02 5.44066424e-04 2.33948566e-02
      8.70506279e-03 3.80846485e-03 3.20999175e-02 4.10770148e-01
      5.44066448e-03 2.61151884e-02 4.89659794e-03 7.61692971e-03
      1.36016607e-02 0. 1.40369132e-01 0. 4.98679787e-01 6.81259274e-01
      9.40714404e-02 1.52233884e-01 1.69429749e-01 5.05760405e-03
      3.84377912e-02 2.17476990e-02 1.31497711e-01 1.77016146e-02
      7.08064623e-03 4.95645218e-02 1.97246559e-02 3.54032312e-03
      1.51728129e-03 9.66002420e-02 1.85614079e-01 3.03456257e-03
      4.04608343e-03 3.54032312e-03 3.03456257e-03 1.01152081e-02 0.
      1.87131353e-02 4.55184374e-03 2.52880203e-03 2.47822609e-02
      3.92975867e-01 2.52880203e-03 1.16324900e-02 3.03456257e-03
      3.03456257e-03 3.03456257e-03 0. 6.67603761e-02 0.</_>
    <_>
      3.04677188e-01 7.31769323e-01 9.19472277e-02 2.07833380e-01
      1.81718186e-01 9.79319587e-03 7.83455670e-02 1.57779269e-02
      2.10553706e-01 2.06745248e-02 1.36016607e-02 5.22303768e-02
      4.08049822e-02 5.44066448e-03 2.17626570e-03 6.69201687e-02
      1.87702909e-01 4.89659794e-03 6.52879709e-03 1.08813290e-02
      3.26439855e-03 1.30575942e-02 5.44066424e-04 2.33948566e-02
      8.70506279e-03 3.80846485e-03 3.20999175e-02 4.10770148e-01
      5.44066448e-03 2.61151884e-02 4.89659794e-03 7.61692971e-03
      1.36016607e-02 0. 1.40369132e-01 0. 4.98679787e-01 6.81259274e-01
      9.40714404e-02 1.52233884e-01 1.69429749e-01 5.05760405e-03
      3.84377912e-02 2.17476990e-02 1.31497711e-01 1.77016146e-02
      7.08064623e-03 4.95645218e-02 1.97246559e-02 3.54032312e-03
      1.51728129e-03 9.66002420e-02 1.85614079e-01 3.03456257e-03
      4.04608343e-03 3.54032312e-03 3.03456257e-03 1.01152081e-02 0.
      1.87131353e-02 4.55184374e-03 2.52880203e-03 2.47822609e-02
      3.92975867e-01 2.52880203e-03 1.16324900e-02 3.03456257e-03
      3.03456257e-03 3.03456257e-03 0. 6.67603761e-02 0.</_>
    <_>
      3.11033070e-01 7.38148153e-01 1.08861580e-01 2.10502744e-01
      1.73845276e-01 1.05529083e-02 8.05353522e-02 1.38854058e-02
      2.02726915e-01 2.11058166e-02 9.44207609e-03 5.94295338e-02
      4.16562147e-02 3.33249732e-03 6.10957853e-03 7.44257718e-02
      1.80510268e-01 6.66499464e-03 5.55416197e-03 1.22191571e-02
      6.66499464e-03 1.77733190e-02 0. 2.77708117e-02 1.38854058e-02
      6.10957853e-03 3.61020528e-02 3.86569679e-01 4.99874586e-03
      2.83262264e-02 6.66499464e-03 7.22041074e-03 2.44383141e-02 0.
      1.62181541e-01 0. 4.89005536e-01 6.88042939e-01 1.00529030e-01
      1.39932379e-01 1.85902938e-01 6.56722300e-03 3.94033380e-02
      2.12171823e-02 1.15178995e-01 1.91964991e-02 6.06205221e-03
      4.49602194e-02 2.12171823e-02 2.52585509e-03 1.51551305e-03
      9.34566408e-02 1.70242637e-01 5.05171018e-03 4.04136814e-03
      3.53619712e-03 3.53619712e-03 1.01034204e-02 0. 1.97016690e-02
      5.05171018e-03 1.51551305e-03 3.18257734e-02 4.00095433e-01
      3.53619712e-03 1.21241044e-02 3.03102611e-03 1.01034204e-03
      5.05171018e-03 0. 7.37549663e-02 0.</_>
    <_>
      3.11033070e-01 7.38148153e-01 1.08861580e-01 2.10502744e-01
      1.73845276e-01 1.05529083e-02 8.05353522e-02 1.38854058e-02
      2.02726915e-01 2.11058166e-02 9.44207609e-03 5.94295338e-02
      4.16562147e-02 3.33249732e-03 6.10957853e-03 7.44257718e-02
      1.80510268e-01 6.66499464e-03 5.55416197e-03 1.22191571e-02
      6.66499464e-03 1.77733190e-02 0. 2.77708117e-02 1.38854058e-02
      6.10957853e-03 3.61020528e-02 3.86569679e-01 4.99874586e-03
      2.83262264e-02 6.66499464e-03 7.22041074e-03 2.44383141e-02 0.
      1.62181541e-01 0. 4.89005536e-01 6.88042939e-01 1.00529030e-01
      1.39932379e-01 1.85902938e-01 6.56722300e-03 3.94033380e-02
      2.12171823e-02 1.15178995e-01 1.91964991e-02 6.06205221e-03
      4.49602194e-02 2.12171823e-02 2.52585509e-03 1.51551305e-03
      9.34566408e-02 1.70242637e-01 5.05171018e-03 4.04136814e-03
      3.53619712e-03 3.53619712e-03 1.01034204e-02 0. 1.97016690e-02
      5.05171018e-03 1.51551305e-03 3.18257734e-02 4.00095433e-01
      3.53619712e-03 1.21241044e-02 3.03102611e-03 1.01034204e-03
      5.05171018e-03 0. 7.37549663e-02 0.</_>
    <_>
      3.47421587e-01 7.33034909e-01 1.21351160e-01 2.16214493e-01
      1.66318849e-01 1.35519058e-02 8.43914151e-02 1.41679021e-02
      1.92190662e-01 2.09438540e-02 7.39194872e-03 6.09835759e-02
      4.43516932e-02 4.31196997e-03 6.77595288e-03 7.14555010e-02
      1.87262699e-01 6.15995750e-03 6.15995750e-03 1.29359104e-02
      8.62393994e-03 2.09438540e-02 0. 3.01837903e-02 1.23199150e-02
      8.62393994e-03 3.94237265e-02 3.45573604e-01 6.15995750e-03
      3.63437496e-02 8.00794456e-03 9.85593162e-03 3.32637690e-02 0.
      1.90958679e-01 0. 4.68387038e-01 6.43463731e-01 1.22781068e-01
      1.42676145e-01 1.79055721e-01 7.38960132e-03 3.18321288e-02
      2.38740966e-02 1.12549312e-01 2.44425274e-02 6.25273958e-03
      5.11587784e-02 2.27372348e-02 2.27372348e-03 2.84215435e-03
      1.09138727e-01 1.90992773e-01 3.41058522e-03 5.11587784e-03
      4.54744697e-03 3.97901610e-03 1.02317557e-02 0. 2.33056657e-02
      7.95803219e-03 1.70529261e-03 4.09270227e-02 4.71229196e-01
      5.68430871e-03 1.08001865e-02 2.84215435e-03 1.13686174e-03
      7.38960132e-03 0. 8.86752158e-02 0.</_>
    <_>
      3.47421587e-01 7.33034909e-01 1.21351160e-01 2.16214493e-01
      1.66318849e-01 1.35519058e-02 8.43914151e-02 1.41679021e-02
      1.92190662e-01 2.09438540e-02 7.39194872e-03 6.09835759e-02
      4.43516932e-02 4.31196997e-03 6.77595288e-03 7.14555010e-02
      1.87262699e-01 6.15995750e-03 6.15995750e-03 1.29359104e-02
      8.62393994e-03 2.09438540e-02 0. 3.01837903e-02 1.23199150e-02
      8.62393994e-03 3.94237265e-02 3.45573604e-01 6.15995750e-03
      3.63437496e-02 8.00794456e-03 9.85593162e-03 3.32637690e-02 0.
      1.90958679e-01 0. 4.68387038e-01 6.43463731e-01 1.22781068e-01
      1.42676145e-01 1.79055721e-01 7.38960132e-03 3.18321288e-02
      2.38740966e-02 1.12549312e-01 2.44425274e-02 6.25273958e-03
      5.11587784e-02 2.27372348e-02 2.27372348e-03 2.84215435e-03
      1.09138727e-01 1.90992773e-01 3.41058522e-03 5.11587784e-03
      4.54744697e-03 3.97901610e-03 1.02317557e-02 0. 2.33056657e-02
      7.95803219e-03 1.70529261e-03 4.09270227e-02 4.71229196e-01
      5.68430871e-03 1.08001865e-02 2.84215435e-03 1.13686174e-03
      7.38960132e-03 0. 8.86752158e-02 0.</_>
    <_>
      3.69379818e-01 7.12082207e-01 1.21074498e-01 2.14445516e-01
      1.59038544e-01 1.23126609e-02 9.13189054e-02 1.74429361e-02
      2.01106802e-01 2.05211006e-02 7.18238577e-03 6.97717443e-02
      3.69379818e-02 4.10422031e-03 9.23449546e-03 7.59280771e-02
      1.79559633e-01 5.13027515e-03 6.15633046e-03 1.43647715e-02
      1.33387158e-02 2.46253219e-02 0. 3.18077058e-02 1.33387158e-02
      1.12866061e-02 4.92506437e-02 3.52962941e-01 5.13027515e-03
      4.10422012e-02 1.02605503e-02 1.43647715e-02 3.59119289e-02 0.
      2.09315240e-01 0. 4.51848090e-01 6.23074710e-01 1.43640131e-01
      1.37932569e-01 2.11179525e-01 9.51259118e-03 3.51965874e-02
      2.56839953e-02 1.06541023e-01 2.66352557e-02 6.65881392e-03
      5.13679907e-02 2.28302181e-02 0. 2.85377726e-03 1.25566199e-01
      1.85495526e-01 2.85377726e-03 4.75629559e-03 3.80503642e-03
      4.75629559e-03 8.56133178e-03 0. 2.66352557e-02 8.56133178e-03
      2.85377726e-03 4.85142134e-02 4.90849704e-01 6.65881392e-03
      1.33176278e-02 3.80503642e-03 1.90251821e-03 1.04638506e-02 0.
      1.06541023e-01 0.</_>
    <_>
      3.69379818e-01 7.12082207e-01 1.21074498e-01 2.14445516e-01
      1.59038544e-01 1.23126609e-02 9.13189054e-02 1.74429361e-02
      2.01106802e-01 2.05211006e-02 7.18238577e-03 6.97717443e-02
      3.69379818e-02 4.10422031e-03 9.23449546e-03 7.59280771e-02
      1.79559633e-01 5.13027515e-03 6.15633046e-03 1.43647715e-02
      1.33387158e-02 2.46253219e-02 0. 3.18077058e-02 1.33387158e-02
      1.12866061e-02 4.92506437e-02 3.52962941e-01 5.13027515e-03
      4.10422012e-02 1.02605503e-02 1.43647715e-02 3.59119289e-02 0.
      2.09315240e-01 0. 4.51848090e-01 6.23074710e-01 1.43640131e-01
