%YAML:1.0
hbins: 17
sbins: 17
wnd_size: 45
wnd_step: 15
SVM_MODEL: !!opencv-ml-svm
   svm_type: C_SVC
   kernel: { type:RBF, gamma:1.0000000000000001e-05 }
   C: 2.5000000000000000e+00
   term_criteria: { epsilon:2.2204460492503131e-16, iterations:100 }
   var_all: 289
   var_count: 289
   class_count: 2
   class_labels: !!opencv-matrix
      rows: 1
      cols: 2
      dt: i
      data: [ -1, 1 ]
   sv_total: 173
   support_vectors:
      - [ 7., 9., 11., 20., 3., 5., 1., 1., 0., 2., 0., 0., 0., 0., 0.,
          0., 0., 4., 13., 40., 73., 79., 48., 41., 22., 13., 9., 3., 3.,
          4., 0., 0., 0., 0., 3., 19., 36., 76., 119., 130., 126., 135.,
          92., 72., 39., 31., 20., 15., 5., 3., 7., 1., 10., 15., 19.,
          38., 49., 68., 70., 78., 76., 54., 47., 44., 27., 20., 17.,
          29., 1., 1., 2., 0., 1., 0., 0., 1., 1., 0., 0., 0., 0., 0.,
          0., 0., 0., 1., 0., 0., 0., 0., 0., 0., 0., 0., 0., 0., 0., 0.,
          0., 0., 0., 0., 1., 0., 0., 0., 0., 0., 0., 0., 0., 0., 0., 0.,
          0., 0., 0., 0., 0., 0., 0., 0., 0., 0., 0., 0., 0., 0., 0., 0.,
          0., 0., 0., 0., 0., 0., 0., 0., 0., 0., 0., 0., 0., 0., 0., 0.,
          0., 0., 0., 0., 0., 0., 0., 0., 0., 0., 0., 0., 0., 0., 0., 0.,
          0., 0., 0., 0., 0., 0., 0., 0., 1., 0., 0., 0., 0., 0., 0., 0.,
          0., 0., 0., 0., 0., 0., 0., 0., 0., 0., 0., 0., 0., 0., 0., 0.,
          0., 0., 0., 0., 0., 0., 0., 0., 0., 0., 1., 0., 0., 0., 0., 0.,
          0., 0., 0., 0., 0., 0., 0., 0., 0., 0., 0., 0., 0., 0., 0., 0.,
          0., 0., 0., 0., 0., 0., 0., 0., 0., 1., 0., 0., 3., 0., 0., 0.,
          0., 0., 0., 0., 0., 0., 0., 0., 0., 0., 0., 0., 0., 3., 0., 0.,
          0., 0., 0., 0., 0., 0., 0., 0., 0., 0., 0., 0., 0., 0., 1., 3.,
          1., 1., 0., 0., 0., 0., 0., 0., 0., 0., 0., 0., 0., 0., 0. ]
      - [ 0., 0., 20., 196., 352., 111., 20., 9., 0., 2., 1., 2., 1., 0.,
          0., 0., 3., 1., 1., 7., 26., 203., 184., 56., 24., 11., 8.,
          13., 6., 4., 2., 2., 4., 4., 2., 1., 3., 12., 16., 22., 31.,
          33., 29., 41., 18., 8., 7., 9., 6., 2., 4., 0., 2., 9., 7.,
          21., 40., 44., 44., 45., 34., 29., 19., 19., 9., 9., 4., 11.,
          0., 0., 1., 6., 4., 9., 13., 9., 9., 14., 8., 7., 4., 0., 0.,
          0., 2., 1., 1., 1., 1., 3., 2., 2., 1., 0., 0., 0., 0., 0., 0.,
          0., 0., 1., 0., 0., 0., 1., 1., 1., 1., 1., 0., 0., 0., 0., 0.,
          0., 0., 0., 0., 0., 0., 0., 0., 0., 0., 1., 0., 0., 0., 0., 0.,
          0., 0., 0., 0., 0., 1., 0., 0., 0., 0., 0., 0., 0., 0., 0., 0.,
          0., 0., 0., 0., 0., 0., 0., 0., 0., 0., 0., 0., 0., 0., 0., 0.,
          0., 0., 0., 0., 0., 0., 0., 1., 0., 0., 0., 1., 0., 0., 0., 0.,
          1., 0., 0., 0., 0., 0., 0., 0., 0., 0., 0., 0., 0., 0., 0., 0.,
          0., 0., 0., 0., 0., 0., 0., 0., 1., 0., 0., 0., 0., 0., 0., 0.,
          0., 0., 0., 0., 1., 0., 0., 0., 1., 0., 2., 0., 0., 0., 0., 0.,
          0., 0., 0., 0., 0., 1., 0., 0., 0., 0., 0., 1., 0., 0., 0., 0.,
          1., 0., 0., 0., 0., 0., 0., 0., 0., 0., 0., 0., 0., 0., 2., 2.,
          1., 0., 0., 1., 0., 0., 0., 0., 0., 0., 0., 0., 0., 0., 2., 9.,
          17., 2., 3., 2., 0., 1., 0., 1., 0., 0., 0., 0., 1., 1. ]
      - [ 0., 2., 39., 215., 178., 86., 75., 66., 30., 12., 7., 2., 2.,
          0., 0., 0., 2., 0., 0., 16., 124., 174., 160., 171., 170.,
          175., 121., 56., 24., 11., 7., 1., 0., 0., 0., 0., 0., 2., 2.,
          4., 0., 1., 2., 0., 1., 0., 1., 0., 0., 0., 0., 0., 0., 0., 0.,
          0., 0., 0., 0., 0., 0., 0., 0., 0., 0., 0., 0., 0., 0., 0., 0.,
          0., 0., 0., 0., 0., 0., 0., 0., 0., 0., 0., 0., 0., 0., 0., 0.,
          0., 0., 0., 0., 0., 0., 0., 0., 0., 0., 0., 0., 0., 0., 0., 0.,
          0., 0., 0., 0., 0., 0., 0., 0., 0., 0., 0., 0., 0., 0., 0., 0.,
          0., 0., 0., 0., 0., 0., 0., 0., 0., 0., 0., 0., 0., 0., 0., 0.,
          0., 0., 0., 0., 0., 0., 0., 0., 0., 0., 0., 0., 0., 0., 0., 0.,
          0., 0., 0., 0., 0., 0., 0., 0., 0., 0., 0., 0., 0., 0., 0., 0.,
          0., 0., 0., 0., 0., 0., 0., 0., 0., 0., 0., 0., 0., 0., 0., 0.,
          0., 0., 0., 0., 0., 0., 0., 0., 0., 0., 0., 0., 0., 0., 0., 0.,
          0., 0., 0., 0., 0., 0., 0., 0., 0., 0., 0., 0., 0., 0., 0., 0.,
          0., 0., 0., 0., 0., 0., 0., 0., 0., 0., 0., 0., 0., 0., 0., 0.,
          0., 0., 0., 0., 0., 0., 0., 0., 0., 2., 2., 1., 1., 0., 0., 0.,
          0., 0., 0., 0., 0., 0., 0., 0., 0., 0., 6., 6., 4., 1., 0., 1.,
          0., 0., 0., 0., 0., 0., 0., 0., 0., 0., 1., 11., 26., 13., 9.,
          0., 2., 0., 0., 0., 0., 0., 0., 0., 0., 0. ]
      - [ 86., 485., 312., 65., 18., 17., 13., 2., 6., 0., 2., 1., 0.,
          0., 0., 0., 0., 75., 218., 215., 118., 60., 36., 19., 13., 13.,
          6., 9., 2., 1., 0., 0., 0., 2., 5., 8., 8., 10., 7., 7., 2.,
          2., 3., 0., 0., 0., 0., 0., 0., 0., 0., 3., 3., 1., 0., 1., 0.,
          0., 0., 0., 1., 0., 0., 0., 0., 0., 0., 0., 2., 1., 1., 0., 0.,
          0., 0., 0., 0., 0., 0., 0., 0., 0., 0., 0., 1., 0., 0., 0., 0.,
          0., 0., 0., 0., 0., 0., 0., 0., 0., 0., 0., 0., 0., 0., 0., 0.,
          0., 0., 0., 0., 0., 0., 0., 0., 0., 0., 0., 0., 0., 0., 2., 0.,
          0., 0., 0., 0., 0., 0., 0., 0., 0., 0., 0., 0., 0., 0., 0., 0.,
          0., 0., 0., 0., 0., 0., 0., 0., 0., 0., 0., 0., 0., 0., 0., 0.,
          0., 0., 0., 0., 0., 0., 0., 0., 0., 0., 0., 0., 0., 0., 0., 0.,
          0., 2., 2., 0., 0., 0., 0., 0., 0., 0., 0., 0., 0., 0., 0., 0.,
          0., 0., 3., 0., 0., 0., 0., 0., 0., 0., 0., 0., 0., 0., 0., 0.,
          0., 0., 0., 1., 0., 0., 0., 0., 0., 0., 2., 0., 0., 0., 0., 0.,
          0., 0., 0., 1., 4., 2., 2., 0., 0., 0., 0., 0., 1., 0., 0., 0.,
          0., 0., 0., 0., 0., 5., 9., 1., 2., 1., 0., 0., 0., 0., 0., 0.,
          0., 0., 0., 0., 0., 0., 15., 16., 6., 1., 1., 0., 0., 0., 0.,
          0., 0., 0., 0., 0., 0., 0., 0., 15., 43., 15., 9., 1., 2., 1.,
          0., 0., 0., 0., 0., 0., 0., 0., 0., 0. ]
      - [ 19., 165., 440., 295., 67., 9., 1., 0., 0., 0., 0., 0., 0., 0.,
          0., 0., 0., 21., 169., 166., 69., 20., 5., 0., 0., 0., 0., 0.,
          0., 0., 0., 0., 0., 0., 25., 43., 36., 9., 6., 0., 0., 0., 0.,
          0., 0., 0., 0., 0., 0., 0., 0., 0., 14., 9., 3., 0., 0., 0.,
          0., 0., 0., 0., 0., 0., 0., 0., 0., 0., 3., 0., 0., 0., 0., 0.,
          0., 0., 0., 0., 0., 0., 0., 0., 0., 0., 0., 0., 2., 4., 0., 0.,
          0., 0., 0., 0., 0., 0., 0., 0., 0., 0., 0., 0., 0., 0., 3., 0.,
          0., 0., 0., 0., 0., 0., 0., 0., 0., 0., 0., 0., 0., 3., 6., 3.,
          0., 0., 0., 0., 0., 0., 0., 0., 0., 0., 0., 0., 0., 0., 0., 0.,
          0., 0., 0., 0., 0., 0., 0., 0., 0., 0., 0., 0., 0., 0., 0., 1.,
          1., 1., 0., 0., 0., 0., 0., 0., 0., 0., 0., 0., 0., 0., 0., 0.,
          3., 2., 1., 0., 0., 0., 0., 0., 0., 0., 0., 0., 0., 0., 0., 0.,
          0., 10., 7., 3., 1., 1., 0., 0., 1., 0., 0., 0., 0., 0., 0.,
          0., 0., 0., 0., 0., 1., 0., 1., 0., 0., 0., 0., 0., 0., 0., 0.,
          0., 0., 0., 0., 7., 3., 1., 0., 0., 0., 0., 0., 0., 0., 0., 0.,
          0., 0., 0., 0., 0., 0., 11., 4., 0., 0., 0., 0., 0., 0., 0.,
          0., 0., 0., 0., 0., 0., 0., 20., 5., 19., 12., 2., 3., 1., 0.,
          0., 0., 0., 0., 0., 0., 0., 0., 0., 5., 97., 130., 47., 5., 2.,
          0., 1., 1., 0., 0., 0., 0., 0., 0., 0., 0. ]
      - [ 0., 0., 0., 0., 0., 0., 0., 0., 0., 0., 0., 0., 0., 0., 0., 0.,
          0., 0., 0., 0., 0., 0., 1., 0., 0., 0., 0., 0., 0., 0., 0., 0.,
          0., 0., 0., 0., 0., 0., 0., 0., 0., 0., 0., 0., 0., 0., 0., 0.,
          0., 0., 0., 0., 0., 0., 1., 15., 21., 28., 0., 1., 0., 0., 0.,
          0., 0., 0., 0., 0., 0., 0., 0., 0., 19., 274., 646., 430.,
          166., 42., 3., 0., 0., 0., 0., 0., 0., 0., 0., 0., 0., 0., 11.,
          103., 204., 50., 9., 1., 0., 0., 0., 0., 0., 0., 0., 0., 0.,
          0., 0., 0., 0., 0., 0., 0., 0., 0., 0., 0., 0., 0., 0., 0., 0.,
          0., 0., 0., 0., 0., 0., 0., 0., 0., 0., 0., 0., 0., 0., 0., 0.,
          0., 0., 0., 0., 0., 0., 0., 0., 0., 0., 0., 0., 0., 0., 0., 0.,
          0., 0., 0., 0., 0., 0., 0., 0., 0., 0., 0., 0., 0., 0., 0., 0.,
          0., 0., 0., 0., 0., 0., 0., 0., 0., 0., 0., 0., 0., 0., 0., 0.,
          0., 0., 0., 0., 0., 0., 0., 0., 0., 0., 0., 0., 0., 0., 0., 0.,
          0., 0., 0., 0., 0., 0., 0., 0., 0., 0., 0., 0., 0., 0., 0., 0.,
          0., 0., 0., 0., 0., 0., 0., 0., 0., 0., 0., 0., 0., 0., 0., 0.,
          0., 0., 0., 0., 0., 0., 0., 0., 0., 0., 0., 0., 0., 0., 0., 0.,
          0., 0., 0., 0., 0., 0., 0., 0., 0., 0., 0., 0., 0., 0., 0., 0.,
          0., 0., 0., 0., 0., 0., 0., 0., 0., 0., 0., 0., 0., 0., 0., 0.,
          0., 0., 0., 0., 0., 0., 0., 0. ]
      - [ 15., 36., 162., 237., 235., 177., 88., 32., 11., 0., 0., 0.,
          0., 0., 1., 1., 1., 1., 21., 34., 67., 77., 99., 95., 53., 10.,
          5., 1., 0., 0., 0., 0., 1., 2., 0., 1., 3., 4., 2., 10., 13.,
          18., 2., 0., 1., 0., 0., 0., 0., 0., 1., 0., 1., 0., 2., 1.,
          0., 1., 2., 0., 0., 0., 0., 0., 0., 0., 0., 1., 0., 0., 6., 1.,
          2., 1., 1., 0., 1., 0., 0., 0., 0., 0., 0., 0., 0., 0., 1., 0.,
          0., 12., 11., 1., 0., 0., 0., 0., 0., 0., 0., 0., 0., 0., 0.,
          0., 0., 6., 15., 4., 2., 1., 0., 0., 1., 0., 1., 0., 1., 0.,
          0., 1., 10., 1., 13., 5., 0., 3., 1., 2., 2., 0., 1., 0., 0.,
          0., 0., 1., 0., 0., 0., 0., 0., 0., 1., 3., 1., 1., 2., 1., 0.,
          1., 0., 0., 0., 0., 0., 2., 3., 10., 9., 24., 18., 12., 13.,
          7., 3., 3., 4., 4., 2., 4., 0., 3., 7., 12., 3., 9., 5., 2.,
          1., 3., 2., 1., 0., 1., 2., 3., 1., 0., 8., 4., 4., 1., 0., 1.,
          0., 0., 1., 0., 2., 0., 0., 0., 0., 2., 0., 0., 1., 0., 0., 0.,
          0., 0., 0., 0., 0., 0., 0., 0., 0., 0., 1., 0., 2., 4., 3., 0.,
          0., 1., 1., 0., 0., 0., 0., 1., 0., 0., 0., 0., 0., 5., 5., 3.,
          0., 0., 0., 0., 0., 0., 0., 0., 0., 0., 0., 0., 1., 4., 16.,
          15., 10., 1., 1., 0., 0., 0., 0., 0., 0., 0., 0., 0., 0., 0.,
          0., 19., 47., 28., 10., 6., 1., 0., 0., 0., 0., 0., 0., 0., 0.,
          0., 0. ]
      - [ 0., 0., 3., 24., 57., 102., 109., 81., 45., 16., 12., 3., 1.,
          2., 1., 0., 1., 0., 0., 1., 9., 55., 203., 321., 341., 226.,
          136., 79., 25., 9., 4., 2., 2., 1., 0., 0., 0., 2., 11., 10.,
          21., 22., 11., 11., 9., 3., 2., 0., 0., 1., 0., 0., 0., 0., 0.,
          3., 2., 1., 4., 1., 2., 0., 0., 2., 0., 0., 0., 0., 0., 0., 0.,
          0., 1., 1., 0., 1., 1., 0., 1., 0., 0., 0., 0., 0., 0., 0., 0.,
          0., 0., 0., 1., 0., 0., 0., 0., 0., 0., 0., 0., 0., 0., 0., 0.,
          0., 0., 0., 0., 0., 0., 0., 0., 0., 0., 0., 0., 0., 0., 0., 0.,
          0., 0., 0., 0., 0., 0., 0., 0., 0., 0., 0., 0., 0., 0., 0., 0.,
          0., 0., 0., 0., 0., 0., 0., 0., 0., 0., 0., 0., 0., 0., 0., 0.,
          0., 0., 0., 0., 0., 0., 0., 0., 0., 0., 0., 0., 0., 0., 0., 0.,
          0., 0., 0., 0., 0., 0., 0., 0., 0., 0., 0., 0., 0., 0., 0., 0.,
          0., 0., 0., 0., 0., 0., 0., 0., 0., 0., 0., 0., 0., 0., 0., 0.,
          0., 0., 0., 0., 0., 0., 0., 0., 0., 0., 0., 0., 0., 0., 0., 0.,
          0., 0., 0., 0., 0., 0., 0., 0., 0., 0., 0., 0., 0., 0., 0., 0.,
          0., 0., 0., 0., 0., 0., 0., 0., 0., 0., 0., 0., 0., 0., 0., 0.,
          0., 0., 0., 0., 0., 0., 0., 0., 0., 0., 1., 0., 1., 0., 0., 0.,
          0., 0., 0., 0., 0., 0., 0., 0., 0., 0., 0., 2., 6., 11., 6.,
          2., 1., 0., 0., 0., 0., 0., 0., 0., 0., 0. ]
      - [ 0., 265., 702., 266., 48., 10., 6., 4., 1., 1., 0., 4., 0., 0.,
          0., 0., 0., 0., 6., 257., 180., 101., 26., 11., 8., 11., 6.,
          2., 1., 1., 2., 0., 1., 2., 0., 0., 1., 1., 1., 0., 0., 4., 0.,
          0., 0., 0., 0., 1., 0., 0., 0., 0., 0., 4., 3., 3., 0., 0., 0.,
          0., 0., 0., 0., 0., 0., 0., 0., 0., 0., 0., 1., 0., 0., 0., 0.,
          0., 0., 0., 0., 0., 0., 0., 0., 0., 0., 0., 0., 0., 0., 0., 0.,
          0., 0., 0., 0., 0., 0., 0., 0., 0., 0., 0., 0., 1., 0., 0., 0.,
          0., 0., 0., 0., 0., 0., 0., 0., 0., 0., 0., 0., 0., 0., 0., 0.,
          0., 0., 0., 0., 0., 0., 0., 0., 0., 0., 0., 0., 0., 0., 0., 0.,
          0., 0., 0., 0., 0., 0., 0., 0., 0., 0., 0., 0., 0., 0., 0., 0.,
          0., 0., 0., 0., 0., 0., 0., 0., 0., 0., 0., 0., 0., 0., 0., 0.,
          0., 0., 0., 0., 0., 0., 0., 0., 0., 0., 0., 0., 0., 0., 0., 0.,
          0., 0., 0., 0., 0., 0., 0., 0., 0., 0., 0., 0., 0., 0., 0., 0.,
          0., 0., 0., 0., 0., 0., 0., 0., 0., 0., 0., 0., 0., 0., 0., 0.,
          0., 0., 1., 0., 0., 0., 0., 0., 0., 0., 0., 0., 0., 0., 0., 0.,
          0., 0., 0., 0., 1., 0., 0., 0., 1., 0., 1., 0., 0., 0., 0., 0.,
          0., 0., 0., 0., 0., 0., 8., 1., 2., 0., 0., 1., 1., 0., 0., 0.,
          0., 0., 0., 0., 0., 0., 12., 41., 6., 5., 0., 0., 0., 1., 0.,
          0., 1., 0., 0., 0., 0., 0. ]
      - [ 54., 16., 108., 181., 220., 152., 86., 31., 9., 0., 0., 0., 0.,
          0., 1., 1., 1., 15., 20., 22., 46., 93., 90., 85., 48., 8., 4.,
          1., 0., 0., 0., 0., 1., 1., 44., 28., 4., 4., 2., 7., 9., 12.,
          0., 0., 1., 0., 0., 0., 0., 0., 1., 0., 6., 13., 10., 3., 1.,
          0., 2., 0., 0., 0., 0., 0., 0., 0., 0., 1., 5., 39., 20., 3.,
          0., 0., 1., 0., 1., 0., 0., 0., 0., 0., 0., 0., 0., 0., 0., 0.,
          0., 12., 11., 1., 0., 0., 0., 0., 0., 0., 0., 0., 0., 0., 0.,
          1., 5., 8., 16., 7., 3., 2., 0., 0., 1., 0., 1., 0., 0., 0.,
          0., 15., 26., 12., 17., 10., 0., 7., 5., 3., 4., 0., 1., 2.,
          0., 1., 0., 1., 0., 0., 0., 1., 3., 3., 3., 5., 2., 1., 2., 1.,
          0., 1., 0., 0., 0., 0., 1., 2., 4., 10., 9., 24., 19., 12.,
          13., 7., 3., 3., 4., 4., 2., 3., 1., 4., 7., 13., 3., 9., 5.,
          2., 1., 3., 2., 1., 0., 1., 2., 3., 1., 12., 9., 4., 2., 1.,
          0., 1., 0., 0., 1., 0., 0., 0., 0., 0., 0., 0., 0., 0., 0., 0.,
          0., 0., 0., 0., 0., 0., 0., 0., 0., 0., 0., 0., 0., 0., 1., 2.,
          3., 0., 0., 0., 1., 0., 0., 0., 0., 1., 0., 0., 0., 0., 0., 3.,
          2., 1., 0., 0., 1., 0., 0., 0., 0., 0., 0., 0., 0., 0., 1., 3.,
          13., 7., 6., 1., 1., 0., 0., 0., 0., 0., 0., 0., 0., 0., 0.,
          0., 0., 7., 23., 21., 8., 5., 1., 0., 0., 0., 0., 0., 0., 0.,
          0., 0., 0. ]
      - [ 26., 118., 98., 56., 27., 11., 1., 2., 0., 0., 0., 0., 0., 0.,
          0., 0., 0., 7., 35., 39., 11., 9., 2., 0., 0., 0., 0., 0., 0.,
          0., 0., 0., 0., 0., 7., 8., 3., 7., 1., 0., 0., 0., 0., 0., 0.,
          0., 0., 0., 0., 0., 0., 0., 6., 3., 8., 2., 1., 0., 0., 1., 0.,
          0., 0., 0., 0., 0., 0., 0., 3., 10., 7., 13., 4., 2., 0., 0.,
          0., 0., 0., 0., 0., 0., 0., 0., 0., 0., 2., 26., 10., 3., 1.,
          0., 0., 0., 0., 0., 0., 0., 0., 0., 0., 0., 0., 11., 28., 5.,
          5., 0., 0., 0., 0., 0., 0., 0., 0., 0., 0., 0., 0., 17., 26.,
          19., 5., 1., 0., 0., 0., 0., 0., 0., 0., 0., 0., 0., 0., 0.,
          1., 6., 10., 1., 0., 0., 0., 0., 0., 0., 0., 0., 0., 0., 0.,
          0., 0., 0., 14., 57., 24., 5., 1., 0., 0., 0., 0., 0., 0., 0.,
          0., 0., 0., 0., 9., 74., 77., 76., 27., 11., 0., 0., 0., 0.,
          0., 0., 0., 0., 0., 0., 0., 58., 87., 102., 18., 9., 0., 1.,
          0., 0., 0., 0., 0., 0., 0., 0., 0., 0., 0., 40., 30., 12., 2.,
          0., 0., 0., 0., 0., 0., 0., 0., 0., 0., 0., 0., 53., 45., 15.,
          2., 1., 0., 0., 0., 0., 0., 0., 0., 0., 0., 0., 0., 0., 1.,
          55., 20., 5., 0., 0., 0., 0., 0., 0., 0., 0., 0., 0., 0., 0.,
          0., 50., 21., 22., 14., 3., 1., 0., 0., 0., 0., 0., 0., 0., 0.,
          0., 0., 0., 8., 120., 120., 24., 4., 2., 0., 0., 0., 0., 0.,
          0., 0., 0., 0., 0., 0. ]
      - [ 0., 0., 3., 5., 17., 16., 5., 3., 2., 2., 4., 0., 1., 0., 1.,
          0., 2., 0., 12., 172., 149., 117., 173., 103., 52., 43., 21.,
          14., 16., 7., 12., 8., 8., 12., 0., 8., 178., 231., 121., 75.,
          58., 12., 16., 9., 4., 5., 5., 6., 4., 2., 9., 0., 1., 11.,
          29., 30., 38., 47., 62., 28., 12., 2., 0., 0., 1., 0., 0., 0.,
          0., 0., 0., 0., 1., 3., 13., 7., 5., 4., 0., 0., 0., 0., 0.,
          0., 0., 0., 0., 1., 0., 0., 2., 4., 0., 0., 0., 0., 0., 0., 0.,
          0., 0., 0., 0., 0., 0., 1., 0., 0., 0., 0., 0., 0., 0., 0., 0.,
          0., 0., 0., 0., 0., 0., 0., 0., 0., 0., 0., 0., 0., 0., 0., 0.,
          0., 0., 0., 0., 0., 0., 0., 0., 0., 0., 0., 0., 0., 0., 0., 0.,
          0., 0., 0., 0., 0., 0., 0., 0., 0., 0., 0., 0., 0., 0., 0., 0.,
          0., 0., 0., 0., 0., 0., 0., 0., 0., 0., 0., 0., 0., 0., 0., 0.,
          0., 0., 0., 0., 0., 0., 0., 0., 0., 0., 0., 0., 0., 0., 0., 0.,
          0., 0., 0., 0., 0., 0., 0., 0., 0., 0., 0., 0., 0., 0., 0., 0.,
          0., 0., 0., 0., 0., 0., 0., 0., 0., 0., 0., 0., 0., 0., 0., 0.,
          0., 0., 0., 0., 0., 0., 0., 0., 0., 0., 0., 0., 0., 0., 0., 0.,
          0., 0., 0., 0., 0., 0., 0., 0., 0., 0., 0., 0., 0., 0., 0., 0.,
          0., 0., 0., 0., 0., 0., 0., 0., 0., 0., 0., 0., 0., 0., 0., 0.,
          0., 0., 0., 0., 0., 0., 0., 0., 0., 0., 0., 0., 0., 0. ]
      - [ 15., 262., 564., 163., 24., 3., 1., 1., 0., 0., 0., 0., 0., 0.,
          0., 0., 0., 29., 285., 254., 30., 12., 3., 0., 0., 0., 0., 0.,
          0., 0., 0., 0., 0., 0., 11., 47., 9., 0., 0., 0., 0., 0., 0.,
          0., 0., 0., 0., 0., 0., 0., 0., 0., 5., 4., 1., 0., 0., 0., 0.,
          0., 0., 0., 0., 0., 0., 0., 0., 0., 2., 1., 0., 0., 0., 0., 0.,
          0., 0., 0., 0., 0., 0., 0., 0., 0., 0., 0., 0., 0., 0., 0., 0.,
          0., 0., 0., 0., 0., 0., 0., 0., 0., 0., 0., 0., 0., 0., 0., 0.,
          0., 0., 0., 0., 0., 0., 0., 0., 0., 0., 0., 0., 2., 3., 2., 0.,
          0., 0., 0., 0., 0., 0., 0., 0., 0., 0., 0., 0., 0., 0., 0., 0.,
          0., 1., 0., 0., 0., 0., 0., 0., 0., 0., 0., 0., 0., 0., 0., 0.,
          0., 0., 0., 0., 0., 0., 0., 0., 0., 0., 0., 0., 0., 0., 0., 1.,
          4., 0., 0., 0., 0., 0., 0., 0., 0., 0., 0., 0., 0., 0., 0., 0.,
          5., 3., 0., 0., 0., 0., 0., 0., 0., 0., 0., 0., 0., 0., 0., 0.,
          0., 0., 0., 0., 0., 0., 0., 0., 0., 0., 0., 0., 0., 0., 0., 0.,
          0., 0., 6., 1., 0., 0., 0., 0., 0., 0., 0., 0., 0., 0., 0., 0.,
          0., 0., 0., 0., 10., 0., 0., 0., 0., 0., 0., 0., 0., 0., 0.,
          0., 0., 0., 0., 0., 23., 6., 7., 5., 0., 0., 0., 0., 0., 0.,
          0., 0., 0., 0., 0., 0., 0., 7., 97., 96., 17., 3., 0., 0., 0.,
          0., 0., 0., 0., 0., 0., 0., 0., 0. ]
      - [ 473., 620., 225., 22., 2., 1., 0., 0., 0., 0., 0., 0., 0., 0.,
          0., 0., 2., 249., 159., 129., 36., 5., 4., 2., 0., 1., 1., 0.,
          0., 0., 0., 0., 0., 2., 1., 5., 1., 1., 1., 0., 0., 0., 0., 0.,
          0., 0., 0., 0., 0., 1., 3., 0., 0., 0., 0., 0., 0., 0., 0., 0.,
          0., 0., 0., 0., 0., 0., 0., 0., 0., 0., 1., 0., 0., 0., 0., 0.,
          0., 0., 0., 0., 0., 0., 0., 0., 0., 0., 0., 0., 0., 0., 0., 0.,
          0., 0., 0., 0., 0., 0., 0., 0., 0., 1., 0., 0., 0., 0., 0., 0.,
          0., 0., 0., 0., 0., 0., 0., 0., 0., 0., 0., 0., 0., 1., 0., 0.,
          0., 0., 0., 0., 0., 0., 0., 0., 0., 0., 0., 0., 0., 0., 0., 0.,
          0., 0., 0., 0., 0., 0., 0., 0., 0., 0., 0., 0., 0., 0., 0., 0.,
          0., 0., 0., 0., 0., 0., 0., 0., 0., 0., 0., 0., 0., 0., 0., 0.,
          1., 0., 1., 0., 0., 0., 0., 0., 0., 0., 0., 0., 0., 0., 0., 0.,
          0., 0., 0., 0., 0., 0., 0., 0., 0., 0., 0., 0., 0., 0., 0., 0.,
          0., 0., 0., 0., 1., 0., 0., 0., 0., 0., 0., 0., 0., 0., 0., 0.,
          0., 0., 0., 1., 0., 0., 0., 0., 0., 0., 0., 0., 0., 0., 0., 0.,
          0., 0., 1., 0., 0., 0., 0., 0., 0., 0., 0., 0., 0., 0., 0., 0.,
          0., 0., 0., 4., 2., 0., 2., 1., 0., 0., 0., 0., 0., 0., 0., 0.,
          0., 0., 0., 0., 31., 21., 8., 2., 0., 0., 0., 0., 0., 0., 0.,
          0., 0., 0., 0., 0., 0. ]
      - [ 0., 192., 496., 315., 96., 50., 53., 25., 14., 6., 1., 3., 1.,
          0., 0., 0., 1., 0., 6., 153., 107., 71., 49., 49., 63., 40.,
          36., 16., 14., 5., 4., 1., 1., 0., 0., 0., 1., 1., 3., 10., 6.,
          8., 6., 5., 3., 1., 1., 2., 0., 0., 0., 0., 0., 0., 0., 1., 4.,
          4., 5., 7., 5., 1., 1., 0., 0., 0., 0., 0., 0., 0., 0., 0., 0.,
          1., 0., 0., 1., 0., 0., 0., 0., 0., 0., 0., 0., 0., 0., 0., 0.,
          0., 0., 0., 0., 0., 0., 0., 0., 0., 0., 0., 0., 0., 0., 0., 0.,
          0., 0., 0., 0., 0., 0., 0., 0., 0., 0., 0., 0., 0., 0., 0., 0.,
          0., 0., 0., 0., 0., 0., 0., 0., 0., 0., 0., 0., 0., 0., 0., 0.,
          0., 0., 0., 0., 0., 0., 0., 0., 0., 0., 0., 0., 0., 0., 0., 0.,
          0., 0., 0., 0., 0., 0., 0., 0., 0., 0., 0., 0., 0., 0., 0., 0.,
          0., 0., 0., 0., 0., 0., 0., 0., 0., 0., 0., 0., 0., 0., 0., 0.,
          0., 0., 0., 0., 0., 0., 0., 0., 0., 0., 0., 0., 0., 0., 0., 0.,
          0., 0., 0., 0., 0., 0., 0., 0., 0., 0., 0., 0., 0., 0., 0., 0.,
          0., 0., 0., 0., 1., 0., 0., 0., 0., 0., 0., 0., 0., 0., 0., 0.,
          0., 0., 0., 0., 0., 0., 1., 0., 0., 0., 0., 0., 0., 0., 0., 0.,
          0., 0., 0., 0., 0., 0., 0., 0., 5., 1., 0., 0., 0., 0., 0., 0.,
          0., 0., 1., 0., 0., 0., 0., 0., 12., 29., 14., 5., 2., 3., 2.,
          2., 0., 0., 2., 0., 0., 0., 0., 0. ]
      - [ 65., 413., 326., 60., 35., 41., 10., 6., 6., 5., 0., 0., 1.,
          0., 0., 1., 1., 21., 151., 172., 80., 43., 28., 9., 10., 9.,
          5., 4., 1., 2., 0., 1., 0., 0., 5., 8., 13., 15., 14., 5., 3.,
          4., 5., 1., 1., 0., 0., 0., 0., 0., 0., 7., 6., 3., 7., 5., 2.,
          1., 0., 0., 1., 0., 0., 0., 0., 0., 0., 0., 2., 1., 2., 0., 0.,
          1., 0., 0., 0., 0., 0., 0., 0., 0., 0., 0., 0., 0., 0., 0., 1.,
          1., 0., 0., 0., 0., 0., 0., 0., 0., 0., 0., 0., 0., 0., 0., 0.,
          0., 0., 0., 0., 0., 0., 0., 0., 0., 0., 0., 0., 0., 0., 5., 0.,
          0., 0., 0., 0., 0., 0., 0., 0., 0., 0., 0., 0., 0., 0., 0., 0.,
          0., 0., 0., 0., 0., 0., 0., 0., 0., 0., 0., 0., 0., 0., 0., 0.,
          0., 2., 1., 0., 0., 0., 0., 0., 0., 0., 0., 0., 0., 0., 0., 0.,
          0., 1., 8., 2., 0., 0., 0., 0., 0., 0., 0., 0., 0., 0., 0., 0.,
          0., 0., 12., 28., 18., 0., 0., 0., 0., 0., 0., 0., 0., 0., 0.,
          0., 0., 0., 0., 1., 15., 10., 0., 0., 0., 0., 0., 0., 0., 0.,
          0., 0., 0., 0., 0., 0., 9., 20., 9., 0., 0., 0., 0., 0., 0.,
          0., 0., 0., 0., 0., 0., 0., 0., 5., 10., 8., 1., 0., 0., 0.,
          0., 0., 0., 0., 0., 0., 0., 0., 0., 0., 26., 19., 16., 2., 1.,
          0., 1., 0., 0., 0., 0., 0., 0., 0., 0., 0., 0., 21., 52., 38.,
          25., 16., 13., 8., 2., 0., 0., 0., 0., 0., 0., 0., 0., 0. ]
      - [ 34., 0., 0., 0., 1., 0., 0., 0., 0., 0., 0., 0., 0., 0., 0.,
          0., 0., 4., 0., 0., 0., 2., 1., 0., 1., 4., 3., 3., 0., 0., 1.,
          0., 0., 1., 7., 0., 1., 0., 1., 5., 2., 4., 9., 2., 0., 1., 0.,
          1., 0., 0., 0., 0., 0., 3., 1., 10., 6., 8., 12., 3., 7., 5.,
          5., 4., 2., 2., 1., 1., 5., 0., 1., 3., 11., 16., 9., 9., 2.,
          3., 4., 3., 1., 0., 0., 0., 0., 1., 0., 2., 0., 3., 12., 7.,
          5., 1., 1., 0., 0., 0., 0., 0., 0., 0., 12., 4., 0., 0., 3.,
          0., 2., 2., 1., 1., 4., 1., 0., 0., 0., 0., 0., 68., 43., 38.,
          22., 39., 35., 41., 36., 130., 512., 193., 149., 73., 30., 11.,
          9., 14., 44., 10., 6., 3., 0., 2., 4., 2., 0., 3., 12., 39.,
          12., 3., 3., 1., 2., 8., 0., 1., 0., 0., 0., 0., 0., 1., 0.,
          0., 0., 0., 0., 0., 0., 0., 8., 0., 0., 0., 0., 0., 0., 0., 0.,
          0., 0., 0., 0., 0., 0., 0., 0., 8., 0., 0., 0., 0., 0., 0., 0.,
          0., 0., 0., 0., 0., 0., 0., 0., 0., 2., 0., 0., 0., 0., 0., 0.,
          0., 0., 0., 0., 0., 0., 0., 0., 0., 0., 12., 0., 0., 0., 0.,
          0., 0., 0., 0., 0., 0., 0., 0., 0., 0., 0., 0., 54., 0., 0.,
          0., 0., 0., 0., 0., 0., 0., 0., 0., 0., 0., 0., 0., 0., 31.,
          1., 0., 0., 0., 0., 0., 0., 0., 0., 0., 0., 0., 0., 0., 0., 0.,
          23., 0., 0., 0., 0., 0., 0., 0., 0., 0., 0., 0., 0., 0., 0.,
          0., 0. ]
      - [ 36., 188., 128., 63., 34., 12., 0., 0., 0., 0., 0., 0., 0., 0.,
          0., 0., 0., 18., 70., 48., 49., 31., 5., 3., 1., 0., 0., 0.,
          0., 0., 0., 0., 0., 0., 15., 21., 6., 6., 1., 0., 1., 0., 0.,
          0., 0., 0., 0., 0., 0., 0., 0., 1., 3., 1., 5., 2., 0., 1., 0.,
          0., 0., 0., 0., 0., 0., 0., 0., 0., 1., 2., 2., 1., 2., 1., 2.,
          1., 0., 0., 0., 0., 0., 0., 0., 0., 0., 0., 2., 5., 4., 0., 1.,
          0., 0., 0., 0., 0., 0., 0., 0., 0., 0., 0., 2., 1., 0., 0., 0.,
          0., 0., 0., 0., 0., 0., 0., 0., 0., 0., 0., 0., 5., 2., 0., 0.,
          0., 0., 0., 0., 0., 0., 0., 0., 0., 0., 0., 0., 0., 2., 1., 0.,
          0., 0., 0., 0., 0., 0., 0., 0., 0., 0., 0., 0., 0., 0., 1., 5.,
          0., 0., 0., 0., 0., 0., 0., 0., 0., 0., 0., 0., 0., 0., 0., 0.,
          6., 1., 0., 0., 0., 0., 0., 0., 0., 0., 0., 0., 0., 0., 0., 0.,
          14., 22., 1., 0., 0., 0., 0., 0., 0., 0., 0., 0., 0., 0., 0.,
          0., 0., 6., 27., 4., 1., 0., 0., 0., 0., 0., 0., 0., 0., 0.,
          0., 0., 0., 0., 38., 80., 6., 3., 0., 0., 0., 0., 0., 0., 0.,
          0., 0., 0., 0., 0., 0., 28., 158., 13., 1., 0., 0., 0., 0., 0.,
          0., 0., 0., 0., 0., 0., 0., 0., 54., 148., 43., 10., 0., 4.,
          0., 0., 0., 0., 0., 0., 0., 0., 0., 0., 0., 133., 322., 84.,
          21., 4., 1., 0., 0., 0., 0., 0., 0., 0., 0., 0., 0., 0. ]
      - [ 119., 603., 378., 42., 6., 3., 4., 6., 6., 5., 0., 0., 1., 0.,
          0., 1., 1., 30., 208., 206., 66., 32., 22., 9., 10., 9., 5.,
          4., 1., 2., 0., 1., 0., 0., 3., 4., 7., 7., 9., 5., 3., 4., 5.,
          1., 1., 0., 0., 0., 0., 0., 0., 3., 0., 1., 4., 3., 2., 1., 0.,
          0., 1., 0., 0., 0., 0., 0., 0., 0., 0., 0., 0., 0., 0., 1., 0.,
          0., 0., 0., 0., 0., 0., 0., 0., 0., 0., 0., 0., 0., 1., 1., 0.,
          0., 0., 0., 0., 0., 0., 0., 0., 0., 0., 0., 0., 0., 0., 0., 0.,
          0., 0., 0., 0., 0., 0., 0., 0., 0., 0., 0., 0., 1., 0., 0., 0.,
          0., 0., 0., 0., 0., 0., 0., 0., 0., 0., 0., 0., 0., 0., 0., 0.,
          0., 0., 0., 0., 0., 0., 0., 0., 0., 0., 0., 0., 0., 0., 0., 2.,
          1., 0., 0., 0., 0., 0., 0., 0., 0., 0., 0., 0., 0., 0., 0., 0.,
          0., 2., 0., 0., 0., 0., 0., 0., 0., 0., 0., 0., 0., 0., 0., 0.,
          2., 3., 0., 0., 0., 0., 0., 0., 0., 0., 0., 0., 0., 0., 0., 0.,
          0., 0., 1., 0., 0., 0., 0., 0., 0., 0., 0., 0., 0., 0., 0., 0.,
          0., 0., 4., 3., 0., 0., 0., 0., 0., 0., 0., 0., 0., 0., 0., 0.,
          0., 0., 0., 1., 6., 3., 0., 0., 0., 0., 0., 0., 0., 0., 0., 0.,
          0., 0., 0., 0., 23., 5., 2., 0., 1., 0., 0., 0., 0., 0., 0.,
          0., 0., 0., 0., 0., 0., 45., 52., 17., 4., 0., 0., 0., 0., 0.,
          0., 0., 0., 0., 0., 0., 0., 0. ]
      - [ 28., 135., 251., 195., 99., 41., 5., 3., 2., 0., 0., 0., 0.,
          0., 0., 0., 0., 14., 57., 101., 114., 83., 57., 25., 3., 3.,
          3., 0., 0., 0., 0., 0., 0., 0., 10., 11., 14., 19., 18., 15.,
          7., 3., 0., 0., 0., 0., 0., 0., 0., 0., 0., 8., 10., 6., 5.,
          3., 2., 3., 1., 1., 0., 0., 0., 0., 0., 0., 0., 0., 2., 1., 2.,
          5., 3., 0., 0., 0., 0., 0., 0., 0., 0., 0., 0., 0., 0., 1., 9.,
          4., 1., 0., 0., 0., 0., 0., 0., 0., 0., 0., 0., 0., 0., 0., 1.,
          3., 1., 0., 1., 1., 0., 0., 0., 0., 0., 0., 0., 0., 0., 0., 0.,
          6., 0., 2., 0., 1., 0., 0., 0., 0., 0., 0., 0., 0., 0., 0., 0.,
          0., 0., 2., 0., 0., 0., 0., 0., 0., 0., 0., 0., 0., 0., 0., 0.,
          0., 0., 4., 2., 1., 0., 0., 0., 0., 0., 0., 0., 0., 0., 0., 0.,
          0., 0., 0., 12., 4., 0., 0., 0., 0., 0., 0., 0., 0., 0., 0.,
          0., 0., 0., 0., 0., 11., 11., 0., 0., 0., 0., 0., 0., 0., 0.,
          0., 0., 0., 0., 0., 0., 0., 9., 16., 3., 3., 0., 0., 0., 0.,
          0., 0., 0., 0., 0., 0., 0., 0., 0., 7., 37., 10., 2., 1., 0.,
          0., 0., 0., 0., 0., 0., 0., 0., 0., 0., 0., 11., 34., 12., 0.,
          0., 1., 0., 0., 0., 0., 0., 0., 0., 0., 0., 0., 0., 15., 55.,
          49., 7., 0., 0., 0., 0., 0., 0., 0., 0., 0., 0., 0., 0., 0.,
          26., 142., 98., 32., 9., 0., 0., 0., 0., 0., 0., 0., 0., 0.,
          0., 0., 0. ]
      - [ 10., 57., 256., 345., 253., 151., 67., 22., 5., 0., 2., 1., 0.,
          0., 0., 0., 1., 2., 26., 59., 82., 69., 95., 82., 40., 8., 2.,
          0., 0., 0., 0., 0., 1., 2., 0., 5., 3., 5., 3., 10., 28., 21.,
          6., 2., 1., 0., 0., 0., 0., 0., 0., 0., 1., 1., 0., 2., 1., 3.,
          4., 0., 2., 0., 0., 0., 0., 0., 0., 1., 0., 0., 0., 0., 2., 1.,
          0., 0., 0., 0., 0., 0., 0., 0., 0., 0., 0., 0., 1., 0., 0., 0.,
          0., 0., 0., 0., 0., 0., 0., 0., 0., 0., 0., 0., 0., 0., 0., 0.,
          0., 0., 0., 0., 0., 0., 0., 0., 0., 0., 1., 0., 1., 1., 1., 1.,
          0., 0., 0., 1., 1., 0., 0., 0., 0., 0., 0., 0., 0., 1., 0., 0.,
          0., 0., 0., 0., 0., 1., 0., 1., 0., 1., 0., 0., 0., 0., 0., 0.,
          0., 0., 1., 1., 1., 4., 2., 2., 4., 0., 1., 2., 0., 1., 1., 2.,
          0., 1., 0., 4., 0., 3., 0., 0., 0., 1., 0., 1., 0., 0., 1., 0.,
          0., 0., 2., 0., 2., 1., 0., 0., 1., 0., 2., 0., 2., 0., 0., 0.,
          0., 2., 0., 0., 1., 0., 0., 0., 0., 0., 0., 0., 0., 0., 0., 0.,
          0., 0., 1., 0., 2., 5., 3., 0., 0., 1., 0., 0., 0., 0., 0., 1.,
          0., 0., 0., 2., 0., 5., 5., 3., 0., 0., 0., 0., 0., 0., 0., 0.,
          0., 1., 0., 0., 0., 4., 9., 17., 9., 3., 1., 0., 0., 0., 0.,
          0., 0., 0., 0., 0., 0., 0., 1., 28., 70., 35., 16., 4., 1., 0.,
          0., 0., 0., 0., 0., 0., 0., 0., 0. ]
      - [ 0., 9., 198., 400., 215., 84., 36., 19., 7., 1., 1., 0., 0.,
          0., 0., 0., 0., 0., 2., 50., 235., 255., 159., 102., 49., 29.,
          15., 5., 0., 1., 0., 0., 0., 0., 0., 3., 2., 11., 11., 7., 1.,
          0., 0., 0., 0., 0., 0., 0., 0., 0., 0., 0., 0., 2., 1., 2., 0.,
          1., 0., 0., 0., 0., 0., 0., 0., 0., 0., 0., 0., 0., 0., 0., 0.,
          0., 0., 0., 0., 0., 0., 0., 0., 0., 0., 0., 0., 0., 0., 0., 0.,
          0., 0., 0., 0., 0., 0., 0., 0., 0., 0., 0., 0., 0., 0., 0., 0.,
          0., 0., 0., 0., 0., 0., 0., 0., 0., 0., 0., 0., 0., 0., 0., 0.,
          0., 0., 0., 0., 0., 0., 0., 0., 0., 0., 0., 0., 0., 0., 0., 0.,
          0., 0., 0., 0., 0., 0., 0., 0., 0., 0., 0., 0., 0., 0., 0., 0.,
          0., 0., 0., 0., 0., 0., 0., 0., 0., 0., 0., 0., 0., 0., 0., 0.,
          0., 0., 0., 0., 0., 0., 0., 0., 0., 0., 0., 0., 0., 0., 0., 0.,
          0., 0., 0., 0., 0., 0., 0., 0., 0., 0., 0., 0., 0., 0., 0., 0.,
          0., 0., 0., 0., 0., 0., 0., 0., 0., 0., 0., 0., 0., 0., 0., 0.,
          0., 0., 0., 0., 0., 1., 0., 0., 0., 0., 0., 0., 0., 0., 0., 0.,
          0., 0., 0., 0., 0., 0., 0., 0., 1., 0., 0., 0., 0., 0., 0., 0.,
          0., 0., 0., 0., 0., 0., 0., 3., 13., 4., 3., 0., 0., 0., 0.,
          0., 0., 0., 0., 0., 0., 0., 0., 0., 7., 27., 31., 17., 5., 0.,
          0., 0., 0., 0., 0., 0., 0., 0., 0., 0. ]
      - [ 122., 486., 240., 45., 9., 3., 3., 7., 5., 4., 0., 0., 0., 0.,
          0., 0., 3., 20., 167., 139., 28., 10., 5., 2., 1., 0., 1., 0.,
          0., 1., 0., 0., 0., 1., 15., 47., 9., 9., 2., 0., 2., 1., 0.,
          0., 1., 0., 0., 0., 0., 0., 0., 3., 2., 2., 6., 3., 0., 1., 0.,
          0., 1., 0., 0., 0., 0., 0., 0., 0., 0., 2., 3., 0., 0., 1., 0.,
          0., 1., 0., 0., 0., 0., 0., 0., 0., 0., 0., 0., 0., 3., 1., 0.,
          0., 0., 0., 0., 1., 0., 0., 0., 0., 0., 0., 0., 0., 0., 0., 0.,
          0., 0., 0., 0., 0., 0., 0., 0., 0., 0., 0., 0., 6., 3., 3., 0.,
          0., 0., 0., 0., 0., 0., 0., 0., 0., 0., 0., 0., 0., 0., 0., 2.,
          1., 0., 0., 0., 0., 0., 0., 0., 0., 0., 0., 0., 0., 0., 0., 2.,
          3., 1., 1., 2., 1., 0., 0., 0., 0., 0., 0., 0., 0., 0., 0., 0.,
          45., 19., 27., 13., 3., 0., 0., 0., 0., 0., 0., 0., 0., 0., 0.,
          0., 37., 66., 29., 7., 2., 1., 0., 0., 0., 0., 0., 0., 0., 0.,
          0., 0., 0., 0., 26., 39., 1., 1., 0., 0., 0., 0., 0., 0., 0.,
          0., 0., 0., 0., 0., 3., 38., 13., 1., 0., 0., 0., 0., 0., 0.,
          0., 0., 0., 0., 0., 0., 0., 0., 2., 7., 1., 0., 0., 0., 1., 0.,
          0., 0., 0., 0., 0., 0., 0., 0., 78., 26., 5., 1., 0., 2., 2.,
          0., 0., 0., 0., 0., 0., 0., 0., 0., 0., 5., 36., 19., 4., 2.,
          9., 9., 2., 0., 0., 0., 0., 0., 0., 0., 0., 0. ]
      - [ 74., 274., 222., 154., 92., 57., 11., 4., 0., 1., 0., 0., 1.,
          1., 0., 0., 5., 19., 101., 159., 190., 235., 150., 14., 3., 2.,
          2., 0., 0., 1., 2., 0., 0., 2., 2., 2., 2., 5., 0., 2., 2., 0.,
          1., 0., 0., 0., 0., 0., 0., 0., 0., 0., 0., 0., 0., 0., 0., 0.,
          0., 1., 0., 0., 0., 0., 0., 0., 0., 0., 0., 0., 0., 0., 1., 0.,
          0., 0., 0., 0., 0., 0., 0., 0., 0., 0., 0., 0., 0., 0., 0., 0.,
          0., 0., 0., 0., 0., 0., 0., 0., 0., 0., 0., 0., 0., 0., 0., 0.,
          0., 0., 0., 0., 0., 0., 0., 0., 0., 0., 0., 0., 0., 3., 1., 0.,
          0., 0., 0., 0., 0., 0., 0., 0., 0., 0., 0., 0., 0., 0., 0., 1.,
          0., 0., 0., 0., 0., 0., 0., 0., 0., 0., 0., 0., 0., 0., 0., 0.,
          1., 4., 0., 0., 0., 0., 0., 0., 0., 0., 0., 0., 0., 0., 0., 0.,
          2., 2., 1., 0., 0., 0., 0., 0., 0., 0., 0., 0., 0., 0., 0., 0.,
          0., 1., 1., 1., 0., 0., 0., 0., 0., 0., 0., 0., 0., 0., 0., 0.,
          0., 0., 0., 0., 0., 1., 0., 0., 0., 0., 0., 0., 0., 0., 0., 0.,
          0., 0., 0., 1., 2., 2., 0., 0., 0., 0., 1., 0., 0., 0., 0., 0.,
          0., 0., 0., 1., 3., 2., 2., 0., 0., 0., 0., 0., 0., 0., 0., 0.,
          0., 0., 0., 0., 0., 5., 11., 28., 7., 0., 1., 0., 0., 0., 0.,
          0., 0., 0., 0., 0., 0., 0., 14., 19., 16., 8., 77., 11., 0.,
          1., 0., 0., 0., 0., 0., 0., 0., 0., 0. ]
      - [ 3., 78., 191., 129., 82., 45., 22., 11., 4., 1., 1., 0., 1.,
          0., 0., 0., 0., 15., 59., 170., 229., 159., 102., 53., 26.,
          11., 1., 2., 0., 0., 0., 0., 0., 0., 6., 26., 34., 43., 37.,
          19., 12., 8., 3., 2., 2., 0., 0., 0., 0., 0., 0., 1., 14., 15.,
          13., 20., 6., 9., 5., 4., 3., 2., 1., 0., 0., 0., 0., 0., 3.,
          3., 3., 2., 3., 3., 1., 0., 0., 0., 0., 0., 0., 0., 0., 0., 0.,
          1., 2., 0., 0., 0., 0., 0., 0., 0., 0., 0., 0., 0., 0., 0., 0.,
          0., 1., 1., 0., 0., 0., 0., 0., 0., 0., 0., 0., 0., 0., 0., 0.,
          0., 0., 1., 0., 0., 0., 0., 0., 0., 0., 0., 0., 0., 0., 0., 0.,
          0., 0., 0., 0., 0., 0., 0., 0., 0., 0., 0., 0., 0., 0., 0., 0.,
          0., 0., 0., 0., 0., 1., 0., 0., 1., 0., 0., 0., 0., 0., 0., 0.,
          0., 0., 0., 0., 0., 0., 4., 1., 1., 0., 0., 0., 0., 0., 0., 0.,
          0., 0., 0., 0., 0., 0., 0., 3., 1., 2., 0., 0., 0., 0., 0., 0.,
          0., 0., 0., 0., 0., 0., 0., 1., 9., 2., 2., 0., 0., 0., 0., 0.,
          0., 0., 0., 0., 0., 0., 0., 0., 4., 10., 9., 3., 1., 0., 0.,
          0., 0., 0., 0., 0., 0., 0., 0., 0., 0., 0., 11., 5., 3., 0.,
          0., 0., 0., 0., 0., 0., 0., 0., 0., 0., 0., 0., 18., 15., 29.,
          10., 5., 1., 1., 0., 0., 0., 0., 0., 0., 0., 0., 0., 0., 11.,
          47., 65., 27., 12., 5., 1., 0., 0., 0., 0., 0., 0., 0., 0., 0.,
          0. ]
      - [ 816., 0., 0., 1., 2., 1., 0., 2., 0., 0., 0., 0., 0., 0., 0.,
          0., 0., 0., 0., 13., 9., 4., 10., 3., 1., 0., 1., 1., 0., 0.,
          0., 0., 0., 0., 0., 52., 69., 46., 28., 17., 15., 1., 6., 0.,
          0., 5., 0., 0., 0., 0., 6., 0., 0., 0., 1., 6., 4., 9., 8., 2.,
          0., 1., 0., 1., 1., 0., 0., 0., 0., 1., 4., 12., 18., 10., 5.,
          6., 5., 0., 6., 0., 2., 0., 0., 0., 1., 0., 0., 0., 0., 0., 0.,
          1., 2., 0., 3., 2., 0., 0., 0., 1., 0., 37., 0., 0., 0., 0.,
          1., 0., 2., 2., 0., 3., 4., 0., 2., 0., 1., 0., 1., 0., 45.,
          81., 70., 72., 60., 53., 1., 53., 3., 0., 44., 0., 10., 0., 0.,
          41., 0., 0., 0., 0., 0., 0., 0., 0., 0., 0., 0., 0., 0., 0.,
          0., 0., 0., 0., 0., 0., 0., 0., 0., 2., 4., 1., 0., 3., 0., 3.,
          0., 1., 0., 3., 0., 0., 3., 11., 7., 11., 10., 7., 8., 0., 7.,
          0., 6., 0., 0., 0., 3., 0., 10., 17., 15., 10., 4., 3., 0., 4.,
          0., 0., 1., 0., 0., 1., 0., 9., 0., 0., 0., 0., 0., 0., 1., 1.,
          0., 0., 2., 0., 1., 0., 0., 0., 1., 0., 0., 0., 0., 0., 2., 0.,
          1., 2., 0., 2., 0., 0., 0., 0., 0., 0., 0., 0., 0., 0., 0., 0.,
          0., 0., 0., 0., 0., 0., 0., 0., 0., 0., 0., 0., 5., 14., 6.,
          11., 0., 1., 0., 0., 0., 0., 1., 0., 0., 0., 0., 1., 0., 0.,
          0., 0., 0., 0., 0., 1., 0., 0., 0., 0., 0., 0., 0., 0., 1. ]
      - [ 8., 13., 6., 3., 3., 0., 1., 0., 0., 0., 1., 0., 0., 0., 0.,
          0., 0., 12., 29., 29., 15., 4., 2., 1., 3., 2., 3., 1., 0., 0.,
          0., 0., 0., 6., 15., 6., 3., 8., 5., 2., 4., 3., 3., 3., 3.,
          2., 4., 2., 2., 2., 1., 10., 3., 3., 4., 8., 5., 8., 10., 14.,
          8., 16., 19., 10., 9., 11., 7., 10., 0., 1., 3., 5., 6., 11.,
          14., 10., 12., 10., 12., 3., 5., 6., 5., 4., 8., 2., 1., 1.,
          7., 9., 13., 9., 10., 8., 6., 1., 0., 0., 0., 1., 1., 9., 1.,
          3., 5., 11., 15., 21., 14., 25., 19., 8., 8., 2., 4., 2., 0.,
          1., 5., 11., 3., 4., 8., 4., 6., 17., 18., 12., 12., 5., 4.,
          4., 4., 2., 0., 1., 2., 14., 7., 10., 12., 7., 5., 11., 10.,
          2., 4., 3., 0., 2., 1., 0., 3., 11., 37., 78., 76., 9., 5., 3.,
          7., 5., 2., 2., 4., 1., 0., 1., 1., 1., 39., 197., 343., 70.,
          7., 2., 3., 3., 0., 0., 0., 1., 0., 0., 0., 2., 2., 24., 19.,
          7., 6., 2., 0., 0., 0., 1., 1., 1., 2., 1., 1., 0., 1., 3., 7.,
          4., 2., 5., 1., 3., 2., 1., 3., 0., 2., 0., 0., 3., 0., 0., 1.,
          9., 4., 4., 6., 9., 5., 1., 3., 2., 0., 3., 1., 2., 0., 0., 1.,
          2., 6., 5., 2., 2., 0., 1., 0., 1., 1., 0., 0., 0., 0., 0., 0.,
          0., 0., 3., 4., 1., 1., 0., 0., 0., 0., 0., 1., 0., 0., 0., 0.,
          0., 0., 0., 5., 8., 1., 2., 1., 0., 0., 0., 1., 0., 1., 1., 0.,
          0., 0., 0., 0. ]
      - [ 186., 269., 118., 46., 17., 8., 6., 7., 6., 1., 1., 1., 0., 2.,
          0., 0., 0., 361., 310., 103., 43., 13., 21., 8., 11., 5., 6.,
          3., 3., 4., 2., 2., 1., 10., 27., 2., 1., 0., 1., 0., 1., 1.,
          0., 0., 1., 1., 2., 0., 0., 0., 1., 8., 3., 0., 0., 0., 0., 2.,
          3., 4., 6., 8., 8., 1., 0., 0., 0., 0., 1., 3., 0., 0., 1., 2.,
          12., 22., 54., 66., 54., 38., 9., 1., 0., 0., 0., 1., 1., 1.,
          0., 1., 1., 1., 4., 2., 1., 1., 0., 0., 0., 0., 0., 0., 2., 2.,
          0., 0., 0., 0., 0., 0., 0., 0., 0., 0., 0., 0., 0., 0., 1., 0.,
          1., 0., 0., 0., 0., 0., 0., 0., 0., 0., 0., 0., 0., 0., 0., 2.,
          0., 0., 0., 0., 0., 0., 0., 0., 0., 0., 0., 0., 0., 0., 0., 0.,
          0., 1., 0., 0., 0., 0., 0., 0., 0., 0., 0., 1., 0., 0., 0., 1.,
          0., 0., 2., 0., 0., 0., 1., 0., 0., 0., 0., 0., 0., 1., 0., 0.,
          0., 1., 0., 1., 0., 0., 0., 0., 0., 0., 0., 0., 0., 0., 1., 0.,
          1., 0., 0., 0., 0., 0., 0., 0., 0., 0., 0., 0., 0., 0., 1., 0.,
          0., 0., 0., 0., 0., 1., 0., 0., 0., 0., 0., 0., 0., 0., 0., 0.,
          0., 0., 0., 0., 0., 0., 3., 0., 0., 0., 0., 0., 0., 0., 0., 0.,
          0., 0., 0., 0., 0., 0., 0., 11., 1., 0., 0., 0., 0., 0., 0.,
          0., 0., 0., 0., 0., 0., 0., 0., 0., 47., 5., 2., 2., 0., 1.,
          0., 0., 0., 0., 0., 0., 0., 0., 0., 0., 0. ]
      - [ 5., 78., 318., 401., 236., 104., 25., 9., 2., 1., 3., 1., 0.,
          0., 0., 0., 0., 2., 27., 66., 87., 58., 57., 42., 25., 10., 3.,
          1., 0., 1., 0., 0., 0., 2., 0., 4., 2., 4., 5., 8., 27., 19.,
          7., 2., 1., 1., 1., 0., 0., 0., 0., 0., 2., 1., 0., 3., 1., 5.,
          5., 0., 2., 0., 0., 0., 1., 0., 0., 2., 0., 0., 0., 1., 2., 2.,
          0., 0., 0., 0., 0., 0., 0., 0., 0., 0., 0., 0., 1., 0., 0., 0.,
          0., 0., 0., 0., 0., 0., 0., 0., 0., 0., 0., 0., 0., 0., 0., 0.,
          0., 0., 0., 0., 0., 0., 0., 0., 0., 0., 1., 0., 1., 0., 1., 0.,
          0., 0., 0., 1., 0., 0., 0., 0., 0., 0., 0., 0., 0., 0., 0., 0.,
          0., 0., 0., 0., 0., 0., 0., 0., 0., 0., 0., 0., 0., 0., 0., 0.,
          0., 0., 2., 1., 1., 0., 0., 0., 0., 0., 0., 1., 0., 1., 0., 1.,
          0., 1., 2., 0., 1., 1., 1., 1., 0., 1., 1., 0., 0., 0., 2., 0.,
          1., 1., 2., 1., 2., 0., 0., 2., 1., 0., 1., 1., 3., 0., 0., 0.,
          0., 5., 0., 1., 1., 1., 0., 0., 0., 0., 0., 0., 1., 0., 0., 0.,
          0., 0., 1., 1., 7., 5., 0., 1., 0., 1., 1., 0., 0., 0., 0., 0.,
          0., 0., 0., 3., 2., 8., 6., 2., 1., 0., 0., 0., 0., 0., 0., 0.,
          0., 1., 0., 0., 0., 7., 11., 20., 11., 2., 0., 1., 0., 0., 0.,
          0., 0., 1., 0., 0., 0., 0., 3., 39., 115., 34., 13., 4., 3.,
          1., 0., 0., 0., 0., 0., 1., 0., 0., 0. ]
      - [ 0., 88., 487., 470., 222., 72., 26., 5., 2., 1., 0., 0., 0.,
          0., 0., 0., 0., 3., 18., 89., 82., 61., 33., 24., 11., 4., 1.,
          0., 0., 0., 0., 0., 0., 0., 0., 2., 1., 1., 0., 0., 0., 0., 0.,
          0., 0., 0., 0., 0., 0., 0., 0., 0., 1., 0., 0., 0., 0., 0., 0.,
          0., 0., 0., 0., 0., 0., 0., 0., 0., 0., 0., 0., 0., 0., 0., 0.,
          0., 0., 0., 0., 0., 0., 0., 0., 0., 0., 0., 0., 0., 0., 0., 0.,
          0., 0., 0., 0., 0., 0., 0., 0., 0., 0., 0., 0., 0., 0., 0., 0.,
          0., 0., 0., 0., 0., 0., 0., 0., 0., 0., 0., 0., 0., 0., 0., 0.,
          0., 0., 0., 0., 0., 0., 0., 0., 0., 0., 0., 0., 0., 0., 0., 0.,
          0., 0., 0., 0., 0., 0., 0., 0., 0., 0., 0., 0., 0., 0., 0., 0.,
          0., 0., 0., 0., 0., 0., 0., 0., 0., 0., 0., 0., 0., 0., 0., 0.,
          1., 0., 0., 1., 0., 0., 0., 0., 0., 0., 0., 0., 0., 0., 0., 0.,
          1., 0., 0., 0., 0., 0., 0., 0., 0., 0., 0., 0., 0., 0., 0., 0.,
          0., 0., 1., 1., 0., 0., 0., 0., 0., 0., 0., 0., 0., 0., 0., 0.,
          0., 0., 3., 5., 1., 0., 0., 0., 0., 0., 0., 0., 0., 0., 0., 0.,
          0., 0., 0., 2., 4., 4., 0., 0., 0., 0., 0., 0., 0., 0., 0., 0.,
          0., 0., 0., 0., 5., 13., 20., 12., 1., 0., 0., 0., 0., 0., 0.,
          0., 0., 0., 0., 0., 0., 5., 57., 120., 51., 11., 2., 0., 0.,
          0., 0., 0., 0., 0., 0., 0., 0., 0. ]
      - [ 28., 152., 266., 198., 89., 30., 4., 2., 1., 0., 0., 0., 0.,
          0., 0., 0., 0., 12., 62., 76., 99., 79., 55., 27., 5., 2., 2.,
          0., 0., 0., 0., 0., 0., 0., 7., 6., 11., 16., 12., 7., 6., 2.,
          1., 0., 0., 0., 0., 0., 0., 0., 0., 5., 5., 4., 2., 4., 1., 2.,
          1., 1., 1., 0., 0., 0., 0., 0., 0., 0., 4., 0., 2., 1., 2., 0.,
          0., 0., 0., 0., 0., 0., 0., 0., 0., 0., 0., 0., 4., 3., 0., 0.,
          0., 0., 0., 0., 0., 0., 0., 0., 0., 0., 0., 0., 0., 2., 1., 0.,
          1., 1., 0., 0., 0., 0., 0., 0., 0., 0., 0., 0., 0., 5., 0., 2.,
          0., 1., 0., 0., 0., 0., 0., 0., 0., 0., 0., 0., 0., 0., 0., 2.,
          0., 0., 0., 0., 0., 0., 0., 0., 0., 0., 0., 0., 0., 0., 0., 3.,
          1., 1., 0., 0., 0., 0., 0., 0., 0., 0., 0., 0., 0., 0., 0., 0.,
          7., 2., 0., 0., 0., 0., 0., 0., 0., 0., 0., 0., 0., 0., 0., 0.,
          0., 10., 10., 0., 0., 0., 0., 0., 0., 0., 0., 0., 0., 0., 0.,
          0., 0., 0., 8., 14., 4., 3., 0., 0., 0., 0., 0., 0., 0., 0.,
          0., 0., 0., 0., 0., 11., 30., 9., 2., 1., 0., 0., 0., 0., 0.,
          0., 0., 0., 0., 0., 0., 0., 18., 31., 14., 0., 0., 0., 0., 0.,
          0., 0., 0., 0., 0., 0., 0., 0., 0., 23., 80., 55., 10., 0., 0.,
          0., 0., 0., 0., 0., 0., 0., 0., 0., 0., 0., 33., 190., 105.,
          29., 6., 1., 0., 0., 0., 0., 0., 0., 0., 0., 0., 0., 0. ]
      - [ 0., 0., 0., 0., 0., 0., 0., 1., 0., 0., 0., 0., 0., 0., 0., 0.,
          0., 0., 1., 1., 2., 0., 1., 0., 1., 1., 0., 0., 2., 3., 3., 2.,
          4., 2., 0., 0., 0., 2., 3., 2., 4., 4., 3., 9., 8., 11., 12.,
          23., 25., 37., 85., 0., 0., 0., 1., 0., 1., 4., 1., 4., 12.,
          14., 13., 29., 40., 117., 275., 1239., 0., 0., 0., 0., 0., 0.,
          0., 0., 0., 0., 0., 2., 0., 0., 0., 1., 13., 0., 0., 0., 0.,
          0., 0., 0., 0., 0., 1., 0., 0., 0., 0., 0., 0., 2., 0., 0., 0.,
          0., 0., 0., 0., 0., 0., 0., 0., 0., 0., 0., 0., 0., 0., 0., 0.,
          0., 0., 0., 0., 0., 0., 0., 0., 0., 0., 0., 0., 0., 0., 0., 0.,
          0., 0., 0., 0., 0., 0., 0., 0., 0., 0., 0., 0., 0., 0., 0., 0.,
          0., 0., 0., 0., 0., 0., 0., 0., 0., 0., 0., 0., 0., 0., 0., 0.,
          0., 0., 0., 0., 0., 0., 0., 0., 0., 0., 0., 1., 0., 0., 0., 0.,
          0., 0., 0., 0., 0., 0., 0., 0., 0., 0., 0., 0., 0., 0., 0., 0.,
          0., 0., 0., 0., 0., 1., 0., 0., 0., 0., 0., 0., 0., 0., 0., 0.,
          0., 0., 0., 0., 1., 0., 0., 0., 0., 0., 0., 0., 0., 0., 0., 0.,
          0., 0., 0., 0., 0., 1., 0., 0., 0., 0., 0., 0., 0., 0., 0., 0.,
          0., 0., 0., 0., 0., 0., 0., 0., 0., 0., 0., 0., 0., 0., 0., 0.,
          0., 0., 0., 0., 0., 0., 0., 0., 0., 0., 0., 0., 0., 0., 0., 0.,
          0., 0., 0., 0., 0., 0., 0., 0. ]
      - [ 0., 0., 0., 1., 1., 4., 3., 4., 5., 6., 2., 3., 1., 1., 1., 2.,
          1., 0., 0., 0., 0., 4., 58., 223., 448., 419., 256., 132., 53.,
          19., 15., 7., 4., 3., 0., 0., 0., 0., 7., 34., 64., 55., 45.,
          27., 20., 11., 9., 3., 3., 0., 5., 0., 0., 0., 1., 1., 2., 4.,
          6., 6., 7., 3., 7., 1., 0., 1., 0., 3., 0., 0., 0., 0., 1., 0.,
          2., 1., 2., 2., 0., 0., 0., 0., 0., 0., 0., 0., 0., 0., 0., 0.,
          0., 1., 1., 0., 0., 0., 0., 0., 0., 0., 0., 0., 0., 0., 0., 0.,
          0., 0., 0., 0., 1., 0., 0., 0., 0., 0., 0., 0., 0., 0., 0., 0.,
          0., 1., 0., 0., 0., 0., 0., 0., 0., 0., 0., 0., 0., 0., 0., 0.,
          0., 0., 0., 0., 0., 0., 0., 0., 0., 0., 0., 0., 0., 0., 0., 0.,
          0., 0., 0., 0., 0., 0., 0., 0., 0., 0., 0., 0., 0., 0., 0., 1.,
          0., 0., 0., 0., 1., 0., 0., 0., 0., 0., 0., 0., 0., 0., 0., 0.,
          0., 0., 0., 1., 0., 1., 0., 0., 0., 0., 0., 0., 0., 0., 0., 1.,
          0., 0., 0., 0., 0., 0., 0., 0., 0., 0., 0., 0., 0., 0., 0., 0.,
          0., 0., 0., 0., 0., 0., 0., 0., 0., 0., 0., 0., 0., 0., 0., 0.,
          0., 0., 0., 0., 0., 0., 0., 0., 0., 0., 0., 0., 0., 0., 0., 0.,
          0., 0., 0., 0., 0., 0., 0., 0., 2., 1., 0., 0., 0., 0., 1., 0.,
          0., 0., 1., 0., 0., 0., 0., 0., 0., 0., 0., 0., 2., 0., 0., 0.,
          0., 0., 0., 0., 0., 0., 0. ]
      - [ 5., 4., 1., 1., 0., 0., 0., 0., 0., 0., 0., 0., 0., 0., 0., 0.,
          0., 10., 14., 20., 14., 16., 6., 1., 0., 0., 0., 0., 0., 0.,
          0., 0., 0., 0., 14., 41., 67., 76., 49., 20., 11., 3., 1., 1.,
          0., 0., 0., 0., 0., 0., 0., 14., 86., 198., 226., 193., 132.,
          53., 27., 9., 3., 4., 1., 2., 1., 1., 1., 3., 14., 71., 107.,
          125., 59., 28., 10., 6., 1., 2., 0., 1., 0., 0., 0., 0., 0.,
          12., 33., 31., 12., 3., 0., 0., 0., 0., 0., 0., 0., 0., 0., 0.,
          0., 0., 7., 17., 8., 3., 0., 0., 0., 0., 0., 0., 0., 0., 0.,
          0., 0., 0., 0., 11., 9., 3., 1., 0., 0., 0., 0., 0., 0., 0.,
          0., 0., 0., 0., 0., 0., 4., 11., 4., 0., 1., 0., 0., 0., 0.,
          0., 0., 0., 0., 0., 0., 0., 0., 3., 14., 5., 5., 0., 0., 0.,
          0., 0., 0., 0., 0., 0., 0., 0., 0., 0., 4., 13., 14., 4., 2.,
          0., 1., 0., 0., 0., 0., 0., 0., 0., 0., 0., 0., 6., 7., 3., 3.,
          2., 2., 1., 0., 0., 0., 0., 0., 0., 0., 0., 0., 0., 2., 4., 1.,
          0., 0., 0., 0., 0., 0., 0., 0., 0., 0., 0., 0., 0., 0., 1., 1.,
          0., 0., 0., 0., 0., 0., 0., 0., 0., 0., 0., 0., 0., 0., 0., 2.,
          1., 0., 0., 0., 0., 0., 0., 0., 0., 0., 0., 0., 0., 0., 0., 0.,
          1., 0., 0., 0., 0., 0., 0., 0., 0., 0., 0., 0., 0., 0., 0., 0.,
          0., 0., 0., 0., 0., 0., 0., 0., 0., 0., 0., 0., 0., 0., 0., 0.,
          0., 0. ]
      - [ 9., 1., 0., 0., 0., 0., 0., 0., 0., 0., 0., 0., 0., 0., 0., 0.,
          1., 2., 2., 0., 0., 0., 0., 0., 1., 0., 0., 0., 1., 0., 0., 0.,
          0., 0., 0., 0., 0., 1., 3., 0., 0., 0., 1., 0., 1., 1., 0., 0.,
          0., 0., 0., 1., 1., 2., 0., 0., 3., 0., 4., 7., 0., 1., 1., 1.,
          0., 0., 0., 1., 2., 2., 3., 4., 2., 6., 1., 2., 0., 0., 2., 1.,
          0., 3., 0., 0., 2., 0., 4., 3., 8., 15., 2., 11., 5., 6., 2.,
          4., 2., 1., 5., 0., 0., 6., 3., 3., 7., 5., 11., 9., 5., 7.,
          6., 5., 2., 2., 8., 3., 2., 5., 6., 3., 4., 6., 4., 3., 5., 2.,
          5., 8., 5., 6., 6., 2., 4., 0., 0., 3., 3., 14., 12., 13., 11.,
          5., 3., 4., 0., 6., 3., 0., 1., 1., 0., 0., 1., 2., 14., 69.,
          106., 48., 20., 22., 6., 5., 1., 0., 4., 1., 0., 0., 0., 0.,
          11., 110., 446., 413., 124., 40., 18., 7., 3., 5., 3., 1., 1.,
          1., 0., 0., 2., 5., 12., 22., 4., 20., 13., 3., 1., 1., 2., 1.,
          3., 3., 1., 0., 0., 2., 2., 2., 0., 2., 0., 4., 7., 5., 1., 0.,
          1., 0., 1., 2., 1., 3., 1., 3., 0., 0., 1., 8., 9., 0., 0., 0.,
          0., 0., 1., 0., 0., 0., 0., 0., 1., 2., 1., 0., 0., 0., 0., 0.,
          0., 0., 0., 0., 0., 0., 0., 0., 0., 2., 1., 0., 0., 0., 0., 0.,
          0., 0., 0., 0., 0., 0., 0., 0., 0., 0., 2., 2., 1., 1., 0., 0.,
          0., 0., 0., 0., 0., 0., 0., 0., 0., 0., 0. ]
      - [ 11., 11., 1., 1., 0., 1., 0., 0., 0., 0., 0., 0., 0., 0., 0.,
          0., 2., 3., 6., 2., 4., 2., 0., 0., 0., 0., 0., 1., 0., 1., 0.,
          0., 0., 1., 3., 1., 0., 2., 6., 2., 1., 2., 1., 4., 1., 2., 3.,
          0., 0., 0., 1., 0., 0., 1., 1., 6., 8., 6., 15., 11., 3., 5.,
          0., 3., 1., 2., 0., 4., 1., 0., 1., 2., 3., 2., 10., 5., 3.,
          7., 6., 3., 0., 0., 3., 0., 6., 0., 0., 0., 4., 6., 0., 3., 8.,
          6., 10., 6., 1., 4., 4., 3., 4., 18., 0., 1., 1., 5., 4., 14.,
          14., 13., 11., 8., 6., 3., 3., 7., 2., 4., 11., 0., 2., 2., 1.,
          6., 13., 6., 5., 8., 3., 3., 9., 4., 2., 3., 2., 7., 1., 7.,
          13., 14., 12., 3., 10., 8., 6., 5., 3., 2., 4., 3., 1., 1., 7.,
          0., 7., 39., 95., 107., 73., 50., 21., 21., 4., 6., 4., 3., 1.,
          0., 0., 6., 3., 29., 253., 332., 154., 55., 27., 11., 4., 2.,
          1., 1., 2., 0., 0., 1., 1., 7., 6., 16., 5., 7., 7., 2., 2.,
          3., 2., 2., 3., 2., 1., 0., 0., 1., 3., 2., 1., 4., 1., 3., 7.,
          5., 1., 1., 0., 3., 1., 0., 1., 2., 0., 5., 2., 0., 0., 0., 5.,
          0., 0., 1., 0., 1., 0., 0., 0., 0., 0., 1., 1., 5., 3., 1., 0.,
          0., 0., 0., 0., 1., 0., 0., 0., 0., 0., 0., 0., 2., 4., 0., 2.,
          0., 0., 0., 0., 0., 0., 0., 0., 0., 0., 0., 0., 0., 5., 10.,
          3., 2., 1., 0., 1., 0., 0., 0., 0., 0., 1., 0., 0., 0., 0. ]
      - [ 118., 53., 13., 0., 0., 0., 0., 0., 0., 0., 0., 0., 0., 0., 0.,
          0., 0., 29., 78., 3., 1., 0., 0., 0., 0., 0., 0., 0., 0., 0.,
          0., 0., 0., 0., 102., 107., 24., 3., 0., 0., 0., 0., 0., 0.,
          0., 0., 0., 0., 0., 0., 0., 0., 29., 42., 24., 12., 5., 6., 6.,
          11., 11., 9., 15., 7., 4., 3., 2., 1., 0., 14., 18., 8., 7.,
          14., 12., 16., 15., 13., 13., 2., 2., 0., 0., 0., 0., 0., 0.,
          0., 1., 4., 11., 3., 3., 0., 0., 0., 2., 0., 0., 0., 0., 0.,
          0., 3., 2., 3., 3., 2., 3., 0., 1., 1., 1., 0., 2., 1., 0., 0.,
          0., 7., 59., 21., 12., 15., 18., 19., 8., 4., 7., 2., 3., 2.,
          0., 0., 0., 0., 0., 1., 1., 7., 0., 2., 3., 3., 2., 3., 1., 2.,
          0., 0., 0., 0., 0., 0., 19., 9., 24., 11., 3., 16., 30., 15.,
          21., 12., 8., 1., 2., 6., 0., 2., 2., 23., 118., 57., 106.,
          37., 32., 10., 9., 23., 13., 9., 0., 0., 0., 1., 0., 36., 37.,
          14., 2., 0., 0., 0., 0., 0., 1., 0., 0., 0., 0., 0., 0., 0.,
          1., 7., 0., 0., 0., 0., 0., 0., 0., 0., 0., 0., 0., 0., 0., 0.,
          0., 10., 43., 1., 0., 0., 0., 0., 0., 0., 0., 0., 0., 0., 0.,
          0., 0., 0., 1., 2., 1., 0., 0., 0., 0., 0., 0., 0., 0., 0., 0.,
          0., 0., 0., 0., 57., 19., 4., 0., 0., 0., 0., 0., 0., 0., 0.,
          0., 0., 0., 0., 0., 0., 4., 55., 11., 0., 0., 0., 0., 0., 0.,
          0., 0., 0., 0., 0., 0., 0., 0. ]
      - [ 0., 0., 0., 0., 0., 0., 0., 0., 0., 0., 0., 0., 0., 0., 0., 0.,
          0., 0., 0., 2., 0., 1., 1., 0., 1., 0., 0., 0., 0., 0., 0., 0.,
          0., 0., 0., 0., 1., 2., 0., 3., 2., 2., 0., 0., 0., 0., 0., 0.,
          0., 0., 0., 0., 0., 1., 3., 10., 10., 12., 6., 0., 0., 0., 0.,
          0., 0., 0., 0., 0., 0., 0., 0., 8., 31., 62., 65., 84., 70.,
          23., 15., 3., 1., 0., 0., 0., 0., 0., 1., 2., 3., 57., 219.,
          375., 475., 247., 67., 8., 4., 0., 0., 0., 0., 0., 0., 0., 0.,
          3., 3., 16., 46., 54., 23., 2., 1., 0., 0., 0., 0., 0., 0., 0.,
          0., 0., 0., 0., 0., 0., 0., 0., 0., 0., 0., 0., 0., 0., 0., 0.,
          0., 0., 0., 0., 0., 0., 0., 0., 0., 0., 0., 0., 0., 0., 0., 0.,
          0., 0., 0., 0., 0., 0., 0., 0., 0., 0., 0., 0., 0., 0., 0., 0.,
          0., 0., 0., 0., 0., 0., 0., 0., 0., 0., 0., 0., 0., 0., 0., 0.,
          0., 0., 0., 0., 0., 0., 0., 0., 0., 0., 0., 0., 0., 0., 0., 0.,
          0., 0., 0., 0., 0., 0., 0., 0., 0., 0., 0., 0., 0., 0., 0., 0.,
          0., 0., 0., 0., 0., 0., 0., 0., 0., 0., 0., 0., 0., 0., 0., 0.,
          0., 0., 0., 0., 0., 0., 0., 0., 0., 0., 0., 0., 0., 0., 0., 0.,
          0., 0., 0., 0., 0., 0., 0., 0., 0., 0., 0., 0., 0., 0., 0., 0.,
          0., 0., 0., 0., 0., 0., 0., 0., 0., 0., 0., 0., 0., 0., 0., 0.,
          0., 0., 0., 0., 0., 0., 0., 0., 0. ]
      - [ 198., 779., 180., 18., 19., 7., 2., 2., 0., 1., 0., 0., 0., 0.,
          0., 0., 0., 120., 358., 154., 60., 13., 20., 7., 2., 3., 3.,
          1., 1., 0., 0., 0., 0., 0., 7., 3., 5., 3., 1., 0., 0., 0., 0.,
          0., 0., 0., 0., 0., 0., 0., 0., 0., 0., 0., 0., 0., 0., 0., 0.,
          0., 0., 0., 0., 0., 0., 0., 0., 0., 0., 0., 0., 0., 0., 0., 0.,
          0., 0., 0., 0., 0., 0., 0., 0., 0., 0., 0., 0., 0., 0., 0., 0.,
          0., 0., 0., 0., 0., 0., 0., 0., 0., 0., 0., 0., 0., 0., 0., 0.,
          0., 0., 0., 0., 0., 0., 0., 0., 0., 0., 0., 0., 0., 0., 0., 0.,
          0., 0., 0., 0., 0., 0., 0., 0., 0., 0., 0., 0., 0., 0., 0., 0.,
          0., 0., 0., 0., 0., 0., 0., 0., 0., 0., 0., 0., 0., 0., 0., 0.,
          0., 0., 0., 0., 0., 0., 0., 0., 0., 0., 0., 0., 0., 0., 0., 0.,
          0., 0., 0., 0., 0., 0., 0., 0., 0., 0., 0., 0., 0., 0., 0., 0.,
          0., 0., 0., 0., 0., 0., 0., 0., 0., 0., 0., 0., 0., 0., 0., 0.,
          0., 0., 0., 0., 0., 0., 0., 0., 0., 0., 0., 0., 0., 0., 0., 0.,
          0., 0., 0., 0., 0., 0., 0., 0., 0., 0., 0., 0., 0., 0., 0., 0.,
          0., 0., 0., 0., 0., 0., 0., 0., 0., 0., 0., 0., 0., 0., 0., 0.,
          0., 0., 0., 0., 2., 4., 0., 0., 0., 0., 0., 0., 0., 0., 0., 0.,
          0., 0., 0., 0., 0., 23., 21., 5., 3., 0., 0., 0., 0., 0., 0.,
          0., 0., 0., 0., 0., 0., 0. ]
      - [ 1., 10., 174., 407., 257., 93., 46., 12., 5., 0., 0., 0., 0.,
          0., 0., 0., 0., 0., 4., 57., 192., 254., 176., 103., 65., 19.,
          4., 2., 0., 0., 0., 0., 0., 0., 2., 4., 3., 12., 10., 5., 1.,
          0., 0., 0., 0., 0., 0., 0., 0., 0., 0., 0., 2., 2., 1., 2., 0.,
          1., 0., 0., 0., 0., 0., 0., 0., 0., 0., 0., 0., 0., 0., 0., 0.,
          0., 0., 0., 0., 0., 0., 0., 0., 0., 0., 0., 0., 0., 0., 0., 0.,
          0., 0., 0., 0., 0., 0., 0., 0., 0., 0., 0., 0., 0., 0., 0., 0.,
          0., 0., 0., 0., 0., 0., 0., 0., 0., 0., 0., 0., 0., 0., 0., 0.,
          0., 0., 0., 0., 0., 0., 0., 0., 0., 0., 0., 0., 0., 0., 0., 0.,
          0., 0., 0., 0., 0., 0., 0., 0., 0., 0., 0., 0., 0., 0., 0., 0.,
          1., 0., 0., 0., 0., 0., 0., 0., 0., 0., 0., 0., 0., 0., 0., 0.,
          0., 0., 0., 0., 0., 0., 0., 0., 0., 0., 0., 0., 0., 0., 0., 0.,
          0., 0., 0., 0., 0., 0., 0., 0., 0., 0., 0., 0., 0., 0., 0., 0.,
          0., 0., 0., 0., 0., 0., 0., 0., 0., 0., 0., 0., 0., 0., 0., 0.,
          0., 0., 0., 0., 0., 1., 0., 0., 0., 0., 0., 0., 0., 0., 0., 0.,
          0., 0., 0., 0., 0., 0., 0., 0., 1., 0., 0., 0., 0., 0., 0., 0.,
          0., 0., 0., 0., 0., 0., 0., 3., 10., 3., 0., 0., 0., 0., 0.,
          0., 0., 0., 0., 0., 0., 0., 0., 0., 12., 23., 28., 15., 2., 0.,
          0., 0., 0., 0., 0., 0., 0., 0., 0., 0. ]
      - [ 0., 0., 0., 19., 2., 0., 0., 0., 0., 0., 0., 0., 0., 0., 0.,
          0., 0., 0., 0., 0., 10., 31., 11., 2., 0., 0., 0., 0., 0., 0.,
          0., 0., 0., 0., 0., 0., 0., 0., 9., 17., 14., 12., 5., 2., 0.,
          0., 0., 0., 0., 0., 0., 0., 1., 1., 0., 4., 10., 57., 298.,
          665., 330., 78., 15., 1., 0., 0., 0., 0., 0., 0., 0., 0., 0.,
          0., 10., 76., 190., 123., 29., 2., 1., 0., 0., 0., 0., 0., 0.,
          0., 0., 0., 0., 0., 0., 0., 0., 0., 0., 0., 0., 0., 0., 0., 0.,
          0., 0., 0., 0., 0., 0., 0., 0., 0., 0., 0., 0., 0., 0., 0., 0.,
          0., 0., 0., 0., 0., 0., 0., 0., 0., 0., 0., 0., 0., 0., 0., 0.,
          0., 0., 0., 0., 0., 0., 0., 0., 0., 0., 0., 0., 0., 0., 0., 0.,
          0., 0., 0., 0., 0., 0., 0., 0., 0., 0., 0., 0., 0., 0., 0., 0.,
          0., 0., 0., 0., 0., 0., 0., 0., 0., 0., 0., 0., 0., 0., 0., 0.,
          0., 0., 0., 0., 0., 0., 0., 0., 0., 0., 0., 0., 0., 0., 0., 0.,
          0., 0., 0., 0., 0., 0., 0., 0., 0., 0., 0., 0., 0., 0., 0., 0.,
          0., 0., 0., 0., 0., 0., 0., 0., 0., 0., 0., 0., 0., 0., 0., 0.,
          0., 0., 0., 0., 0., 0., 0., 0., 0., 0., 0., 0., 0., 0., 0., 0.,
          0., 0., 0., 0., 0., 0., 0., 0., 0., 0., 0., 0., 0., 0., 0., 0.,
          0., 0., 0., 0., 0., 0., 0., 0., 0., 0., 0., 0., 0., 0., 0., 0.,
          0., 0., 0., 0., 0., 0., 0., 0., 0., 0. ]
      - [ 9., 153., 319., 194., 74., 28., 12., 1., 1., 0., 0., 0., 0.,
          0., 0., 0., 0., 13., 158., 336., 180., 60., 23., 11., 3., 0.,
          0., 0., 0., 0., 0., 0., 0., 0., 13., 35., 25., 12., 3., 2., 2.,
          3., 0., 0., 1., 0., 0., 0., 0., 0., 0., 0., 10., 13., 7., 4.,
          2., 1., 0., 0., 1., 0., 0., 1., 1., 0., 0., 0., 1., 2., 1., 3.,
          2., 0., 0., 0., 0., 0., 0., 0., 0., 0., 0., 0., 0., 0., 0., 1.,
          1., 0., 0., 0., 0., 0., 0., 0., 0., 0., 0., 0., 0., 0., 0., 0.,
          0., 0., 0., 0., 0., 0., 0., 0., 0., 0., 0., 0., 0., 0., 0., 2.,
          2., 2., 0., 0., 0., 0., 0., 0., 0., 0., 0., 0., 0., 0., 0., 0.,
          0., 0., 0., 0., 1., 0., 0., 0., 0., 0., 0., 0., 0., 0., 0., 0.,
          0., 0., 0., 0., 0., 0., 0., 0., 0., 0., 0., 0., 0., 0., 0., 0.,
          0., 0., 0., 1., 1., 1., 0., 0., 0., 0., 0., 0., 0., 0., 0., 0.,
          0., 0., 0., 2., 2., 3., 0., 0., 0., 0., 0., 0., 0., 0., 0., 0.,
          0., 0., 0., 0., 0., 0., 2., 0., 1., 0., 0., 0., 0., 0., 0., 0.,
          0., 0., 0., 0., 0., 3., 2., 0., 0., 0., 0., 0., 0., 0., 0., 0.,
          0., 0., 0., 0., 0., 0., 0., 2., 5., 0., 0., 0., 0., 0., 0., 0.,
          0., 0., 0., 0., 0., 0., 0., 25., 5., 6., 5., 1., 0., 0., 0.,
          0., 0., 0., 0., 0., 0., 0., 0., 0., 5., 84., 63., 57., 11., 8.,
          1., 0., 0., 0., 0., 0., 0., 0., 0., 0., 0. ]
      - [ 209., 593., 144., 15., 15., 8., 1., 2., 0., 1., 0., 0., 0., 0.,
          0., 0., 0., 190., 502., 127., 50., 15., 10., 8., 2., 2., 2.,
          1., 1., 0., 0., 0., 0., 0., 14., 7., 4., 5., 2., 0., 0., 0.,
          0., 0., 0., 0., 0., 0., 0., 0., 0., 0., 1., 0., 0., 0., 0., 0.,
          0., 0., 0., 0., 0., 0., 0., 0., 0., 0., 0., 0., 0., 0., 0., 0.,
          0., 0., 0., 0., 0., 0., 0., 0., 0., 0., 0., 0., 0., 0., 0., 0.,
          0., 0., 0., 0., 0., 0., 0., 0., 0., 0., 0., 0., 1., 0., 0., 0.,
          0., 0., 0., 0., 0., 0., 0., 0., 0., 0., 0., 0., 0., 1., 0., 0.,
          0., 0., 0., 0., 0., 0., 0., 0., 0., 0., 0., 0., 0., 0., 2., 0.,
          0., 0., 0., 0., 0., 0., 0., 0., 0., 0., 0., 0., 0., 0., 0., 0.,
          0., 0., 0., 0., 0., 0., 0., 0., 0., 0., 0., 0., 0., 0., 0., 0.,
          0., 0., 0., 0., 0., 0., 0., 0., 0., 0., 0., 0., 0., 0., 0., 0.,
          0., 0., 0., 0., 0., 0., 0., 0., 0., 0., 0., 0., 0., 0., 0., 0.,
          0., 0., 0., 0., 0., 0., 0., 0., 0., 0., 0., 0., 0., 0., 0., 0.,
          0., 0., 0., 0., 0., 0., 0., 0., 0., 0., 0., 0., 0., 0., 0., 0.,
          0., 0., 0., 0., 0., 0., 0., 0., 0., 0., 0., 0., 0., 0., 0., 0.,
          0., 0., 0., 0., 0., 3., 4., 0., 0., 0., 0., 0., 0., 0., 0., 0.,
          0., 0., 0., 0., 0., 0., 31., 36., 12., 2., 1., 0., 0., 0., 1.,
          0., 0., 0., 0., 0., 0., 0., 0. ]
      - [ 11., 10., 3., 1., 1., 0., 1., 0., 0., 0., 0., 0., 0., 0., 0.,
          0., 1., 7., 14., 6., 4., 1., 1., 0., 1., 1., 1., 1., 1., 0.,
          0., 0., 0., 0., 3., 3., 0., 2., 3., 1., 2., 2., 3., 0., 3., 2.,
          2., 1., 1., 0., 1., 1., 3., 2., 0., 0., 3., 1., 7., 9., 3., 5.,
          3., 2., 1., 1., 0., 2., 0., 2., 3., 4., 1., 9., 1., 4., 1., 2.,
          3., 2., 1., 4., 1., 2., 2., 2., 4., 4., 7., 11., 3., 17., 5.,
          8., 4., 3., 3., 0., 4., 1., 0., 3., 3., 4., 14., 11., 11., 7.,
          8., 11., 8., 6., 6., 4., 8., 3., 2., 3., 6., 6., 6., 7., 4.,
          4., 5., 5., 6., 3., 6., 6., 6., 2., 4., 2., 0., 3., 3., 17.,
          8., 10., 9., 7., 2., 4., 2., 5., 5., 0., 4., 0., 0., 0., 1.,
          8., 23., 82., 84., 15., 2., 2., 2., 2., 1., 0., 4., 1., 0., 0.,
          0., 1., 27., 194., 489., 310., 22., 2., 3., 2., 1., 3., 1., 1.,
          2., 1., 0., 0., 2., 20., 19., 15., 2., 14., 17., 3., 0., 0.,
          2., 1., 3., 2., 1., 0., 0., 3., 7., 2., 1., 4., 1., 3., 6., 4.,
          1., 0., 2., 0., 0., 3., 0., 1., 1., 9., 4., 2., 5., 8., 8., 1.,
          2., 1., 0., 1., 2., 0., 0., 0., 1., 0., 5., 3., 1., 2., 0., 0.,
          0., 0., 0., 0., 0., 0., 0., 0., 0., 0., 0., 2., 4., 0., 1., 0.,
          0., 0., 0., 0., 0., 0., 0., 0., 0., 0., 0., 0., 5., 7., 0., 0.,
          0., 0., 0., 0., 0., 0., 0., 0., 0., 0., 0., 0., 0. ]
      - [ 9., 3., 2., 8., 12., 20., 15., 14., 10., 3., 4., 2., 2., 1.,
          3., 1., 6., 13., 8., 19., 19., 85., 192., 286., 311., 253.,
          173., 113., 60., 59., 22., 6., 11., 9., 10., 4., 2., 3., 8.,
          12., 9., 8., 10., 8., 5., 20., 13., 18., 17., 11., 19., 1., 1.,
          1., 2., 4., 3., 5., 14., 6., 5., 5., 4., 1., 2., 0., 1., 5.,
          0., 0., 0., 1., 0., 1., 2., 1., 0., 0., 0., 1., 0., 0., 0., 1.,
          0., 0., 0., 0., 0., 0., 0., 0., 0., 0., 0., 0., 1., 0., 0., 0.,
          0., 1., 0., 0., 0., 0., 0., 0., 0., 0., 0., 0., 0., 0., 0., 0.,
          0., 0., 0., 1., 0., 0., 0., 0., 0., 0., 0., 0., 0., 0., 0., 0.,
          0., 0., 0., 0., 2., 0., 0., 0., 0., 0., 0., 0., 0., 0., 0., 0.,
          0., 0., 0., 0., 0., 1., 0., 0., 0., 0., 0., 0., 0., 0., 0., 0.,
          0., 0., 0., 0., 0., 0., 1., 0., 0., 0., 0., 0., 0., 0., 0., 0.,
          0., 0., 0., 0., 0., 0., 0., 0., 0., 0., 0., 1., 0., 0., 0., 0.,
          0., 0., 0., 0., 0., 0., 0., 0., 2., 0., 0., 0., 0., 0., 0., 0.,
          0., 0., 0., 0., 0., 0., 0., 0., 0., 2., 0., 1., 0., 0., 0., 0.,
          0., 0., 0., 0., 0., 0., 0., 0., 0., 1., 1., 1., 0., 0., 0., 0.,
          0., 0., 0., 0., 0., 0., 0., 0., 0., 0., 0., 0., 0., 0., 1., 0.,
          0., 0., 0., 0., 0., 0., 0., 0., 1., 0., 0., 0., 3., 0., 0., 0.,
          0., 1., 1., 1., 0., 1., 0., 2., 0., 0., 0., 0., 0. ]
      - [ 0., 0., 0., 0., 0., 0., 0., 0., 0., 0., 0., 0., 0., 0., 0., 0.,
          0., 0., 0., 0., 0., 0., 1., 0., 0., 0., 0., 0., 0., 0., 0., 0.,
          0., 0., 0., 0., 0., 0., 7., 27., 31., 19., 4., 1., 0., 0., 0.,
          0., 0., 0., 0., 0., 0., 0., 0., 32., 359., 703., 398., 175.,
          63., 16., 0., 0., 0., 0., 0., 0., 0., 0., 0., 1., 4., 32., 84.,
          45., 17., 4., 2., 0., 0., 0., 0., 0., 0., 0., 0., 0., 0., 0.,
          0., 0., 0., 0., 0., 0., 0., 0., 0., 0., 0., 0., 0., 0., 0., 0.,
          0., 0., 0., 0., 0., 0., 0., 0., 0., 0., 0., 0., 0., 0., 0., 0.,
          0., 0., 0., 0., 0., 0., 0., 0., 0., 0., 0., 0., 0., 0., 0., 0.,
          0., 0., 0., 0., 0., 0., 0., 0., 0., 0., 0., 0., 0., 0., 0., 0.,
          0., 0., 0., 0., 0., 0., 0., 0., 0., 0., 0., 0., 0., 0., 0., 0.,
          0., 0., 0., 0., 0., 0., 0., 0., 0., 0., 0., 0., 0., 0., 0., 0.,
          0., 0., 0., 0., 0., 0., 0., 0., 0., 0., 0., 0., 0., 0., 0., 0.,
          0., 0., 0., 0., 0., 0., 0., 0., 0., 0., 0., 0., 0., 0., 0., 0.,
          0., 0., 0., 0., 0., 0., 0., 0., 0., 0., 0., 0., 0., 0., 0., 0.,
          0., 0., 0., 0., 0., 0., 0., 0., 0., 0., 0., 0., 0., 0., 0., 0.,
          0., 0., 0., 0., 0., 0., 0., 0., 0., 0., 0., 0., 0., 0., 0., 0.,
          0., 0., 0., 0., 0., 0., 0., 0., 0., 0., 0., 0., 0., 0., 0., 0.,
          0., 0., 0., 0., 0., 0., 0. ]
      - [ 0., 0., 0., 0., 0., 0., 0., 0., 0., 0., 0., 0., 0., 0., 0., 0.,
          0., 0., 0., 0., 0., 0., 0., 0., 0., 0., 0., 0., 0., 0., 0., 0.,
          0., 0., 0., 0., 0., 0., 0., 0., 0., 0., 0., 0., 0., 0., 0., 0.,
          0., 0., 0., 0., 0., 0., 0., 0., 4., 1., 18., 39., 37., 35.,
          28., 10., 4., 1., 2., 1., 0., 0., 0., 0., 0., 6., 36., 139.,
          350., 494., 356., 236., 97., 42., 16., 2., 1., 0., 0., 0., 0.,
          5., 12., 18., 27., 6., 2., 0., 0., 0., 0., 0., 0., 0., 0., 0.,
          0., 0., 0., 0., 0., 0., 0., 0., 0., 0., 0., 0., 0., 0., 0., 0.,
          0., 0., 0., 0., 0., 0., 0., 0., 0., 0., 0., 0., 0., 0., 0., 0.,
          0., 0., 0., 0., 0., 0., 0., 0., 0., 0., 0., 0., 0., 0., 0., 0.,
          0., 0., 0., 0., 0., 0., 0., 0., 0., 0., 0., 0., 0., 0., 0., 0.,
          0., 0., 0., 0., 0., 0., 0., 0., 0., 0., 0., 0., 0., 0., 0., 0.,
          0., 0., 0., 0., 0., 0., 0., 0., 0., 0., 0., 0., 0., 0., 0., 0.,
          0., 0., 0., 0., 0., 0., 0., 0., 0., 0., 0., 0., 0., 0., 0., 0.,
          0., 0., 0., 0., 0., 0., 0., 0., 0., 0., 0., 0., 0., 0., 0., 0.,
          0., 0., 0., 0., 0., 0., 0., 0., 0., 0., 0., 0., 0., 0., 0., 0.,
          0., 0., 0., 0., 0., 0., 0., 0., 0., 0., 0., 0., 0., 0., 0., 0.,
          0., 0., 0., 0., 0., 0., 0., 0., 0., 0., 0., 0., 0., 0., 0., 0.,
          0., 0., 0., 0., 0., 0., 0., 0., 0. ]
      - [ 0., 0., 3., 14., 39., 62., 96., 81., 45., 22., 11., 3., 2., 2.,
          1., 0., 1., 0., 0., 1., 6., 24., 111., 222., 321., 289., 197.,
          116., 48., 18., 8., 5., 2., 3., 0., 0., 1., 3., 7., 8., 20.,
          21., 24., 23., 22., 11., 8., 3., 2., 1., 0., 0., 0., 0., 0.,
          3., 6., 6., 17., 10., 7., 4., 5., 4., 1., 1., 0., 3., 0., 0.,
          0., 1., 1., 1., 1., 3., 1., 4., 5., 0., 0., 2., 2., 0., 0., 0.,
          0., 0., 0., 0., 1., 0., 1., 0., 1., 0., 1., 0., 1., 0., 0., 0.,
          0., 0., 0., 0., 0., 0., 0., 0., 0., 0., 0., 1., 0., 0., 0., 0.,
          0., 0., 0., 0., 0., 0., 0., 0., 0., 0., 0., 0., 0., 0., 0., 0.,
          0., 0., 0., 0., 0., 0., 0., 0., 0., 0., 0., 0., 0., 0., 0., 0.,
          0., 0., 0., 0., 0., 0., 0., 0., 0., 0., 0., 0., 0., 0., 0., 0.,
          0., 0., 0., 0., 0., 0., 0., 0., 0., 0., 0., 0., 0., 0., 0., 0.,
          0., 0., 0., 0., 0., 0., 0., 0., 0., 0., 0., 0., 0., 0., 0., 0.,
          0., 0., 0., 0., 0., 0., 0., 0., 0., 0., 0., 0., 0., 0., 0., 0.,
          0., 0., 0., 0., 0., 0., 0., 0., 0., 0., 0., 0., 0., 0., 0., 0.,
          0., 0., 0., 0., 0., 0., 0., 0., 0., 0., 0., 0., 0., 0., 0., 0.,
          0., 0., 0., 0., 0., 0., 0., 0., 0., 0., 0., 0., 0., 0., 0., 0.,
          0., 0., 0., 0., 0., 0., 0., 0., 0., 0., 0., 0., 2., 6., 9., 4.,
          2., 1., 0., 0., 0., 0., 0., 0., 0., 0., 0. ]
      - [ 125., 585., 124., 14., 3., 1., 5., 1., 1., 2., 2., 1., 1., 3.,
          6., 0., 4., 69., 300., 106., 47., 19., 22., 8., 12., 5., 3.,
          2., 2., 2., 0., 0., 2., 2., 4., 8., 7., 3., 2., 2., 2., 0., 0.,
          0., 0., 0., 0., 0., 0., 0., 0., 0., 1., 1., 1., 7., 3., 12.,
          12., 16., 18., 10., 4., 0., 0., 0., 0., 0., 0., 0., 3., 1., 2.,
          3., 7., 14., 45., 83., 54., 28., 3., 0., 0., 0., 1., 0., 0.,
          0., 0., 0., 1., 1., 0., 2., 0., 0., 0., 0., 0., 0., 0., 0., 0.,
          0., 0., 0., 1., 0., 0., 0., 0., 0., 0., 0., 0., 0., 0., 0., 0.,
          0., 2., 0., 0., 1., 0., 0., 2., 0., 1., 1., 1., 0., 0., 0., 1.,
          0., 0., 0., 0., 0., 0., 0., 0., 0., 0., 0., 0., 0., 0., 0., 0.,
          0., 0., 0., 0., 0., 0., 0., 0., 0., 0., 0., 0., 0., 0., 0., 0.,
          0., 0., 0., 1., 1., 1., 2., 4., 0., 1., 0., 3., 1., 0., 0., 0.,
          0., 0., 0., 0., 0., 1., 1., 0., 0., 0., 0., 0., 0., 0., 0., 0.,
          0., 0., 0., 0., 0., 3., 0., 0., 0., 0., 0., 0., 2., 0., 0., 0.,
          0., 0., 0., 0., 0., 1., 11., 2., 1., 1., 0., 0., 1., 0., 1.,
          0., 0., 0., 0., 0., 0., 0., 0., 11., 3., 0., 0., 1., 0., 0.,
          0., 0., 0., 0., 0., 0., 0., 0., 0., 0., 25., 5., 1., 1., 0.,
          0., 0., 0., 0., 0., 0., 0., 0., 0., 0., 0., 0., 68., 14., 2.,
          0., 1., 1., 0., 0., 1., 1., 1., 0., 0., 0., 0., 0., 0. ]
      - [ 0., 57., 121., 123., 51., 24., 40., 36., 32., 14., 10., 8., 3.,
          2., 2., 0., 2., 1., 6., 49., 82., 52., 35., 69., 98., 121.,
          141., 83., 59., 34., 16., 12., 4., 10., 1., 1., 2., 9., 10.,
          19., 34., 33., 24., 20., 15., 7., 11., 8., 1., 1., 6., 0., 1.,
          6., 14., 22., 21., 25., 29., 27., 23., 13., 9., 13., 6., 4.,
          0., 3., 0., 0., 2., 2., 6., 3., 2., 7., 11., 7., 10., 4., 3.,
          2., 4., 1., 2., 0., 0., 1., 2., 0., 0., 0., 1., 0., 1., 0., 1.,
          0., 0., 0., 0., 0., 0., 1., 2., 0., 0., 0., 0., 0., 0., 0., 0.,
          0., 0., 0., 0., 0., 0., 0., 1., 1., 1., 0., 1., 0., 0., 0., 0.,
          0., 0., 0., 0., 0., 0., 0., 0., 0., 0., 0., 0., 0., 0., 0., 0.,
          0., 0., 0., 0., 0., 0., 0., 0., 0., 0., 0., 0., 0., 0., 0., 0.,
          0., 0., 0., 0., 0., 0., 0., 0., 0., 0., 0., 0., 0., 1., 0., 1.,
          0., 0., 0., 0., 0., 0., 0., 0., 0., 0., 0., 0., 0., 1., 0., 0.,
          0., 0., 0., 0., 0., 0., 0., 0., 0., 0., 0., 0., 0., 0., 0., 0.,
          0., 1., 0., 0., 0., 0., 0., 0., 0., 0., 0., 0., 1., 0., 1., 0.,
          0., 0., 0., 1., 0., 0., 0., 0., 0., 0., 0., 0., 0., 0., 2., 0.,
          1., 0., 1., 0., 1., 0., 0., 0., 0., 0., 0., 0., 0., 0., 0., 0.,
          9., 1., 4., 2., 2., 1., 2., 0., 1., 0., 1., 0., 0., 0., 0., 1.,
          11., 44., 7., 9., 5., 6., 1., 3., 3., 0., 5., 1., 0., 0., 0.,
          0. ]
      - [ 148., 60., 22., 17., 25., 13., 2., 1., 0., 0., 0., 0., 0., 0.,
          0., 0., 0., 529., 113., 37., 24., 59., 114., 39., 9., 6., 2.,
          1., 0., 0., 0., 0., 0., 0., 93., 19., 26., 34., 40., 29., 35.,
          12., 12., 14., 4., 4., 2., 0., 0., 1., 4., 11., 2., 16., 24.,
          42., 58., 51., 42., 16., 13., 9., 4., 5., 1., 2., 3., 2., 7.,
          0., 0., 1., 1., 0., 1., 0., 3., 0., 1., 0., 0., 0., 0., 0., 1.,
          0., 0., 0., 1., 0., 0., 0., 0., 0., 0., 0., 0., 0., 0., 0., 0.,
          1., 4., 0., 0., 0., 0., 0., 0., 0., 0., 0., 0., 0., 0., 0., 0.,
          0., 0., 9., 0., 0., 0., 0., 0., 0., 0., 0., 0., 0., 0., 0., 0.,
          0., 0., 0., 6., 0., 0., 0., 0., 0., 0., 0., 0., 0., 0., 0., 0.,
          0., 0., 0., 0., 5., 0., 0., 0., 0., 0., 0., 0., 0., 0., 0., 0.,
          0., 0., 0., 0., 0., 4., 0., 0., 0., 0., 0., 0., 0., 0., 0., 0.,
          0., 0., 0., 0., 0., 0., 10., 0., 0., 0., 0., 0., 0., 0., 0.,
          0., 0., 0., 0., 0., 0., 0., 0., 5., 0., 0., 0., 0., 0., 0., 0.,
          0., 0., 0., 0., 0., 0., 0., 0., 0., 15., 1., 0., 0., 0., 0.,
          0., 1., 0., 0., 0., 0., 0., 0., 0., 0., 0., 30., 0., 0., 0.,
          0., 0., 0., 0., 0., 0., 0., 0., 0., 0., 0., 0., 0., 36., 0.,
          0., 0., 0., 0., 0., 0., 0., 0., 0., 0., 0., 0., 0., 0., 0.,
          29., 2., 0., 0., 0., 0., 0., 0., 0., 0., 0., 0., 0., 0., 0.,
          0., 0. ]
      - [ 0., 146., 644., 373., 76., 19., 9., 1., 0., 1., 0., 0., 0., 0.,
          0., 0., 0., 0., 0., 160., 223., 110., 55., 48., 41., 36., 19.,
          9., 7., 4., 2., 0., 0., 0., 0., 0., 2., 4., 1., 1., 1., 4., 0.,
          1., 0., 0., 0., 0., 1., 0., 0., 0., 0., 0., 2., 1., 0., 0., 0.,
          0., 0., 0., 0., 0., 0., 0., 0., 0., 0., 0., 0., 0., 0., 0., 0.,
          0., 0., 0., 0., 0., 0., 0., 0., 0., 0., 0., 0., 0., 0., 0., 0.,
          0., 0., 0., 0., 0., 0., 0., 0., 0., 0., 0., 0., 0., 0., 0., 0.,
          0., 0., 0., 0., 0., 0., 0., 0., 0., 0., 0., 0., 0., 0., 0., 0.,
          0., 0., 0., 0., 0., 0., 0., 0., 0., 0., 0., 0., 0., 0., 0., 0.,
          0., 0., 0., 0., 0., 0., 0., 0., 0., 0., 0., 0., 0., 0., 0., 0.,
          0., 0., 0., 0., 0., 0., 0., 0., 0., 0., 0., 0., 0., 0., 0., 0.,
          0., 0., 0., 0., 0., 0., 0., 0., 0., 0., 0., 0., 0., 0., 0., 0.,
          0., 0., 0., 0., 0., 0., 0., 0., 0., 0., 0., 0., 0., 0., 0., 0.,
          0., 0., 0., 0., 0., 0., 0., 0., 0., 0., 0., 0., 0., 0., 0., 0.,
          0., 0., 0., 0., 0., 0., 0., 0., 0., 0., 0., 0., 0., 0., 0., 0.,
          0., 0., 0., 0., 0., 0., 0., 0., 1., 0., 0., 0., 0., 0., 0., 0.,
          0., 0., 0., 0., 1., 0., 1., 2., 1., 0., 0., 0., 0., 0., 0., 0.,
          0., 0., 0., 0., 0., 0., 6., 4., 2., 3., 2., 1., 0., 0., 0., 0.,
          0., 0., 0., 0., 0., 0. ]
      - [ 0., 0., 1., 0., 0., 2., 2., 2., 0., 0., 0., 0., 1., 0., 0., 0.,
          0., 0., 0., 0., 2., 2., 2., 3., 4., 2., 0., 3., 0., 1., 3., 1.,
          2., 0., 0., 0., 0., 2., 3., 6., 7., 9., 12., 13., 12., 19.,
          13., 9., 7., 1., 16., 0., 0., 0., 2., 0., 4., 10., 9., 21.,
          25., 48., 46., 61., 73., 101., 156., 572., 0., 0., 0., 0., 2.,
          3., 3., 6., 13., 12., 28., 45., 47., 71., 66., 79., 284., 0.,
          1., 0., 0., 3., 0., 1., 1., 3., 1., 3., 6., 5., 9., 2., 6.,
          20., 0., 0., 0., 1., 0., 0., 0., 0., 0., 0., 0., 0., 0., 1.,
          1., 1., 1., 0., 0., 0., 0., 0., 0., 1., 0., 0., 0., 0., 0., 0.,
          1., 0., 0., 0., 0., 1., 0., 0., 1., 0., 0., 0., 0., 0., 0., 0.,
          0., 0., 0., 0., 0., 0., 0., 0., 0., 0., 0., 0., 0., 0., 0., 0.,
          0., 0., 0., 0., 0., 0., 0., 0., 0., 0., 0., 0., 0., 0., 0., 0.,
          1., 0., 0., 0., 0., 1., 1., 0., 0., 0., 0., 0., 0., 0., 0., 0.,
          0., 0., 0., 0., 0., 0., 0., 0., 0., 0., 0., 0., 0., 0., 0., 0.,
          0., 0., 0., 0., 0., 0., 0., 0., 0., 0., 1., 0., 0., 0., 0., 0.,
          0., 0., 0., 0., 0., 0., 0., 0., 0., 0., 0., 0., 0., 0., 0., 0.,
          0., 0., 0., 0., 0., 0., 0., 0., 0., 0., 0., 0., 0., 0., 0., 1.,
          0., 0., 0., 0., 0., 0., 0., 0., 0., 0., 0., 0., 0., 0., 0., 1.,
          0., 0., 0., 0., 0., 0., 0., 0., 0., 0., 0., 0., 0. ]
      - [ 157., 622., 367., 39., 8., 1., 2., 7., 6., 5., 0., 0., 1., 0.,
          0., 1., 1., 43., 212., 198., 46., 27., 9., 4., 7., 4., 4., 2.,
          1., 3., 0., 1., 0., 0., 3., 7., 6., 2., 5., 2., 2., 2., 2., 1.,
          1., 0., 0., 0., 0., 0., 0., 3., 0., 1., 6., 4., 2., 1., 0., 0.,
          1., 0., 0., 0., 0., 0., 0., 0., 0., 2., 2., 0., 0., 1., 0., 0.,
          1., 0., 0., 0., 0., 0., 0., 0., 0., 0., 0., 0., 3., 1., 0., 0.,
          0., 0., 0., 0., 0., 0., 0., 0., 0., 0., 0., 0., 0., 0., 0., 0.,
          0., 0., 0., 0., 0., 0., 0., 0., 0., 0., 0., 1., 0., 1., 0., 0.,
          0., 0., 0., 0., 0., 0., 0., 0., 0., 0., 0., 0., 0., 0., 0., 0.,
          0., 0., 0., 0., 0., 0., 0., 0., 0., 0., 0., 0., 0., 0., 2., 3.,
          0., 0., 0., 0., 0., 0., 0., 0., 0., 0., 0., 0., 0., 0., 0., 3.,
          5., 2., 1., 0., 0., 0., 0., 0., 0., 0., 0., 0., 0., 0., 0., 3.,
          5., 3., 6., 2., 1., 0., 0., 0., 0., 0., 0., 0., 0., 0., 0., 0.,
          0., 1., 0., 1., 1., 0., 0., 0., 0., 0., 0., 0., 0., 0., 0., 0.,
          0., 4., 7., 2., 1., 0., 0., 0., 0., 0., 0., 0., 0., 0., 0., 0.,
          0., 0., 1., 5., 3., 0., 0., 0., 0., 0., 0., 0., 0., 0., 0., 0.,
          0., 0., 0., 12., 7., 3., 0., 0., 1., 0., 0., 0., 0., 0., 0.,
          0., 0., 0., 0., 0., 35., 46., 14., 3., 0., 1., 0., 0., 0., 0.,
          0., 0., 0., 0., 0., 0., 0. ]
      - [ 64., 130., 20., 21., 19., 42., 34., 66., 74., 110., 65., 0.,
          0., 0., 0., 0., 0., 42., 128., 42., 7., 1., 2., 2., 2., 0., 1.,
          1., 0., 0., 0., 0., 0., 0., 12., 21., 4., 3., 1., 0., 0., 0.,
          0., 1., 0., 0., 0., 0., 0., 0., 0., 9., 10., 5., 2., 0., 0.,
          0., 0., 0., 0., 0., 0., 0., 0., 0., 0., 0., 7., 3., 1., 0., 0.,
          0., 0., 0., 0., 0., 0., 0., 0., 0., 0., 0., 0., 6., 4., 1., 0.,
          0., 0., 0., 0., 0., 0., 0., 0., 0., 0., 0., 0., 0., 3., 5., 6.,
          0., 0., 0., 0., 0., 0., 0., 0., 0., 0., 0., 0., 0., 0., 14.,
          3., 6., 7., 5., 1., 1., 3., 0., 0., 1., 0., 0., 0., 0., 0., 0.,
          15., 3., 0., 0., 1., 1., 1., 2., 6., 4., 2., 1., 0., 0., 0.,
          0., 0., 82., 12., 0., 0., 0., 0., 0., 0., 0., 0., 0., 0., 0.,
          0., 0., 0., 0., 404., 16., 3., 0., 0., 0., 0., 0., 0., 0., 0.,
          0., 0., 0., 0., 0., 0., 164., 26., 9., 2., 2., 0., 1., 0., 0.,
          0., 0., 0., 0., 0., 0., 0., 0., 34., 29., 5., 2., 3., 2., 3.,
          0., 0., 1., 0., 0., 0., 1., 0., 0., 0., 32., 9., 3., 2., 1.,
          0., 0., 1., 0., 0., 0., 0., 0., 0., 0., 0., 0., 14., 5., 2.,
          0., 0., 0., 0., 0., 0., 0., 0., 0., 0., 0., 0., 0., 0., 20.,
          8., 4., 2., 0., 0., 0., 0., 0., 0., 0., 0., 0., 0., 0., 1., 0.,
          23., 17., 13., 7., 5., 1., 0., 0., 0., 0., 0., 0., 0., 0., 0.,
          0., 0. ]
      - [ 23., 8., 1., 0., 0., 0., 0., 0., 0., 0., 0., 0., 0., 0., 0.,
          0., 0., 13., 18., 6., 8., 8., 2., 0., 0., 0., 0., 0., 0., 0.,
          0., 0., 0., 0., 21., 17., 14., 4., 1., 2., 1., 2., 2., 1., 0.,
          1., 0., 0., 0., 0., 0., 8., 34., 34., 21., 12., 22., 12., 7.,
          4., 2., 0., 0., 1., 0., 1., 0., 0., 8., 36., 39., 55., 40.,
          26., 9., 5., 2., 1., 0., 0., 0., 0., 0., 0., 0., 0., 10., 81.,
          51., 9., 4., 1., 0., 0., 0., 0., 0., 0., 0., 0., 0., 0., 2.,
          34., 100., 31., 25., 10., 4., 0., 0., 0., 0., 0., 0., 0., 0.,
          0., 0., 50., 78., 59., 46., 18., 7., 2., 0., 0., 0., 0., 0.,
          0., 0., 0., 0., 0., 1., 2., 37., 33., 15., 10., 3., 1., 0., 0.,
          0., 0., 0., 0., 0., 0., 0., 0., 18., 153., 92., 56., 28., 12.,
          7., 3., 1., 0., 0., 1., 0., 0., 0., 0., 4., 87., 83., 45., 34.,
          20., 14., 6., 2., 2., 3., 0., 0., 0., 0., 0., 0., 15., 8., 15.,
          8., 6., 2., 4., 0., 0., 0., 0., 0., 0., 1., 0., 0., 0., 1., 1.,
          3., 4., 0., 0., 0., 0., 0., 0., 0., 0., 0., 0., 0., 0., 0., 6.,
          1., 0., 0., 0., 0., 0., 0., 0., 0., 0., 0., 0., 0., 0., 0., 0.,
          0., 2., 1., 0., 0., 0., 0., 0., 0., 0., 0., 0., 0., 0., 0., 0.,
          0., 7., 2., 0., 0., 0., 0., 0., 0., 0., 0., 0., 0., 0., 0., 0.,
          0., 0., 3., 2., 1., 1., 0., 1., 2., 0., 1., 0., 0., 0., 0., 0.,
          0., 0., 0. ]
      - [ 0., 0., 0., 0., 0., 0., 0., 0., 0., 0., 0., 0., 0., 0., 0., 0.,
          0., 0., 0., 0., 0., 4., 10., 7., 10., 2., 3., 0., 0., 0., 0.,
          0., 0., 0., 0., 0., 0., 0., 8., 57., 197., 482., 529., 346.,
          153., 60., 20., 3., 2., 0., 0., 0., 0., 0., 0., 0., 0., 1., 7.,
          22., 22., 30., 30., 10., 5., 3., 2., 0., 0., 0., 0., 0., 0.,
          0., 0., 0., 0., 0., 0., 0., 0., 0., 0., 0., 0., 0., 0., 0., 0.,
          0., 0., 0., 0., 0., 0., 0., 0., 0., 0., 0., 0., 0., 0., 0., 0.,
          0., 0., 0., 0., 0., 0., 0., 0., 0., 0., 0., 0., 0., 0., 0., 0.,
          0., 0., 0., 0., 0., 0., 0., 0., 0., 0., 0., 0., 0., 0., 0., 0.,
          0., 0., 0., 0., 0., 0., 0., 0., 0., 0., 0., 0., 0., 0., 0., 0.,
          0., 0., 0., 0., 0., 0., 0., 0., 0., 0., 0., 0., 0., 0., 0., 0.,
          0., 0., 0., 0., 0., 0., 0., 0., 0., 0., 0., 0., 0., 0., 0., 0.,
          0., 0., 0., 0., 0., 0., 0., 0., 0., 0., 0., 0., 0., 0., 0., 0.,
          0., 0., 0., 0., 0., 0., 0., 0., 0., 0., 0., 0., 0., 0., 0., 0.,
          0., 0., 0., 0., 0., 0., 0., 0., 0., 0., 0., 0., 0., 0., 0., 0.,
          0., 0., 0., 0., 0., 0., 0., 0., 0., 0., 0., 0., 0., 0., 0., 0.,
          0., 0., 0., 0., 0., 0., 0., 0., 0., 0., 0., 0., 0., 0., 0., 0.,
          0., 0., 0., 0., 0., 0., 0., 0., 0., 0., 0., 0., 0., 0., 0., 0.,
          0., 0., 0., 0., 0., 0., 0., 0. ]
      - [ 249., 552., 100., 30., 5., 4., 0., 0., 0., 0., 0., 0., 0., 0.,
          0., 0., 1., 249., 471., 84., 46., 10., 9., 6., 0., 0., 0., 0.,
          0., 0., 0., 0., 0., 0., 24., 4., 1., 4., 2., 0., 0., 0., 0.,
          0., 0., 0., 0., 0., 0., 0., 0., 12., 1., 0., 0., 0., 0., 0.,
          0., 0., 0., 0., 0., 0., 0., 0., 0., 0., 4., 1., 0., 0., 0., 0.,
          0., 0., 0., 0., 0., 0., 0., 0., 0., 0., 0., 3., 4., 1., 0., 0.,
          0., 0., 0., 0., 0., 0., 0., 0., 0., 0., 0., 0., 3., 1., 0., 0.,
          0., 1., 0., 0., 0., 0., 0., 0., 0., 0., 0., 0., 0., 3., 0., 0.,
          0., 0., 0., 0., 0., 0., 0., 0., 0., 0., 0., 0., 0., 0., 1., 0.,
          0., 0., 0., 0., 0., 0., 0., 0., 0., 0., 0., 0., 0., 0., 0., 1.,
          2., 1., 0., 0., 0., 0., 0., 0., 0., 0., 0., 0., 0., 0., 0., 0.,
          1., 2., 0., 0., 0., 0., 0., 0., 0., 0., 0., 0., 0., 0., 0., 0.,
          0., 4., 1., 0., 0., 0., 0., 0., 0., 0., 0., 0., 0., 0., 0., 0.,
          0., 0., 0., 0., 0., 0., 0., 0., 0., 0., 0., 0., 0., 0., 0., 0.,
          0., 0., 0., 8., 5., 1., 0., 1., 0., 0., 0., 0., 0., 0., 0., 0.,
          0., 0., 0., 0., 4., 2., 1., 0., 0., 0., 0., 0., 0., 0., 0., 0.,
          0., 0., 0., 0., 0., 17., 6., 4., 0., 2., 0., 0., 0., 0., 0.,
          0., 0., 0., 0., 0., 0., 0., 53., 23., 0., 0., 0., 0., 0., 0.,
          0., 0., 0., 0., 0., 0., 0., 0., 0. ]
      - [ 258., 183., 65., 25., 3., 1., 1., 1., 1., 1., 0., 0., 0., 0.,
          0., 0., 0., 108., 228., 67., 46., 21., 10., 5., 0., 0., 1., 0.,
          1., 0., 0., 0., 0., 0., 52., 25., 13., 30., 14., 13., 3., 1.,
          1., 0., 0., 0., 0., 0., 0., 0., 0., 9., 15., 14., 14., 14.,
          20., 13., 4., 5., 1., 0., 0., 0., 0., 0., 0., 0., 6., 4., 2.,
          5., 7., 6., 0., 2., 1., 1., 0., 0., 0., 0., 0., 0., 0., 0., 2.,
          0., 0., 0., 0., 0., 0., 0., 0., 0., 0., 0., 0., 0., 0., 0., 0.,
          1., 0., 0., 0., 1., 0., 0., 0., 0., 0., 0., 0., 0., 0., 0., 0.,
          12., 0., 1., 0., 0., 0., 0., 0., 0., 0., 0., 0., 0., 0., 0.,
          0., 0., 0., 0., 0., 0., 0., 0., 0., 0., 0., 0., 0., 0., 0., 0.,
          0., 0., 0., 10., 4., 1., 0., 0., 0., 0., 0., 0., 0., 0., 0.,
          0., 0., 0., 0., 0., 27., 14., 3., 2., 0., 0., 0., 0., 0., 0.,
          0., 0., 0., 0., 0., 0., 0., 56., 26., 4., 2., 0., 0., 0., 0.,
          0., 0., 0., 0., 0., 0., 0., 0., 0., 26., 11., 5., 0., 0., 0.,
          0., 0., 0., 0., 0., 0., 0., 0., 0., 0., 0., 58., 10., 1., 0.,
          0., 0., 0., 0., 0., 0., 0., 0., 0., 0., 0., 0., 0., 30., 9.,
          1., 0., 0., 0., 0., 0., 0., 0., 0., 0., 0., 0., 0., 0., 0.,
          103., 20., 1., 0., 0., 0., 0., 0., 0., 0., 0., 0., 0., 0., 0.,
          0., 0., 148., 106., 7., 2., 0., 0., 0., 0., 0., 0., 0., 0., 0.,
          0., 0., 0., 0. ]
      - [ 0., 43., 423., 376., 104., 27., 19., 11., 7., 3., 2., 0., 0.,
          0., 0., 0., 1., 0., 2., 100., 240., 154., 97., 103., 77., 66.,
          41., 23., 10., 6., 4., 0., 0., 0., 0., 1., 5., 8., 2., 4., 1.,
          5., 2., 1., 0., 0., 1., 0., 1., 0., 0., 0., 1., 0., 3., 1., 0.,
          0., 0., 0., 0., 0., 0., 0., 0., 0., 0., 0., 0., 0., 0., 0., 0.,
          0., 0., 0., 0., 0., 0., 0., 0., 0., 0., 0., 0., 0., 0., 0., 0.,
          0., 0., 0., 0., 0., 0., 0., 0., 0., 0., 0., 0., 0., 0., 0., 0.,
          0., 0., 0., 0., 0., 0., 0., 0., 0., 0., 0., 0., 0., 0., 0., 0.,
          0., 0., 0., 0., 0., 0., 0., 0., 0., 0., 0., 0., 0., 0., 0., 0.,
          0., 0., 0., 0., 0., 0., 0., 0., 0., 0., 0., 0., 0., 0., 0., 0.,
          0., 0., 0., 0., 0., 0., 0., 0., 0., 0., 0., 0., 0., 0., 0., 0.,
          0., 0., 0., 0., 0., 0., 0., 0., 0., 0., 0., 0., 0., 0., 0., 0.,
          0., 0., 0., 0., 0., 0., 0., 0., 0., 0., 0., 0., 0., 0., 0., 0.,
          0., 0., 0., 0., 0., 0., 0., 0., 0., 0., 0., 0., 0., 0., 0., 0.,
          0., 0., 0., 0., 0., 0., 0., 0., 0., 0., 0., 0., 0., 0., 0., 0.,
          0., 0., 0., 0., 0., 0., 0., 2., 1., 1., 2., 0., 0., 0., 0., 0.,
          0., 0., 0., 0., 0., 0., 1., 0., 4., 6., 2., 1., 0., 0., 0., 0.,
          0., 0., 0., 0., 0., 0., 0., 0., 4., 7., 10., 6., 2., 1., 0.,
          0., 0., 0., 0., 0., 0., 0., 0., 0. ]
      - [ 0., 200., 381., 360., 140., 22., 7., 4., 3., 1., 0., 4., 0.,
          0., 0., 0., 0., 1., 5., 166., 202., 205., 102., 43., 23., 17.,
          9., 6., 0., 1., 2., 1., 1., 2., 0., 0., 1., 1., 1., 1., 0., 3.,
          0., 0., 0., 0., 0., 1., 0., 0., 0., 0., 0., 4., 3., 3., 0., 0.,
          0., 0., 0., 0., 0., 0., 0., 0., 0., 0., 0., 0., 1., 0., 0., 0.,
          0., 0., 0., 0., 0., 0., 0., 0., 0., 0., 0., 0., 0., 0., 0., 0.,
          0., 0., 0., 0., 0., 0., 0., 0., 0., 0., 0., 0., 0., 1., 0., 0.,
          0., 0., 0., 0., 0., 0., 0., 0., 0., 0., 0., 0., 0., 0., 0., 0.,
          0., 0., 0., 0., 0., 0., 0., 0., 0., 0., 0., 0., 0., 0., 0., 0.,
          0., 0., 0., 0., 0., 0., 0., 0., 0., 0., 0., 0., 0., 0., 0., 0.,
          0., 0., 0., 0., 0., 0., 0., 0., 0., 0., 0., 0., 0., 0., 0., 0.,
          0., 0., 0., 0., 0., 0., 0., 0., 0., 0., 0., 0., 0., 0., 0., 0.,
          0., 0., 0., 0., 0., 0., 0., 0., 0., 0., 0., 0., 0., 0., 0., 0.,
          0., 0., 0., 0., 0., 0., 0., 0., 0., 0., 0., 0., 0., 0., 0., 0.,
          0., 0., 0., 1., 0., 0., 0., 0., 0., 0., 0., 0., 0., 0., 0., 0.,
          0., 0., 0., 0., 0., 1., 0., 0., 0., 1., 0., 1., 0., 0., 0., 0.,
          0., 0., 0., 0., 0., 0., 0., 8., 1., 2., 0., 0., 1., 1., 0., 0.,
          0., 0., 0., 0., 0., 0., 1., 13., 52., 7., 4., 1., 0., 0., 1.,
          0., 0., 1., 0., 0., 0., 0., 0. ]
      - [ 7., 144., 193., 114., 52., 33., 11., 8., 1., 0., 0., 0., 0.,
          0., 0., 0., 0., 12., 44., 61., 48., 15., 4., 5., 3., 0., 1.,
          2., 0., 0., 0., 0., 0., 0., 2., 11., 10., 6., 2., 0., 0., 0.,
          0., 0., 0., 0., 0., 0., 0., 0., 0., 0., 9., 3., 2., 2., 1., 0.,
          0., 0., 0., 0., 0., 0., 0., 0., 0., 0., 1., 2., 3., 0., 0., 0.,
          0., 0., 0., 0., 0., 0., 0., 0., 0., 0., 0., 0., 2., 2., 0., 0.,
          0., 0., 0., 0., 0., 0., 0., 0., 0., 0., 0., 0., 0., 3., 2., 1.,
          0., 0., 0., 0., 0., 0., 0., 0., 0., 0., 0., 0., 0., 7., 2., 2.,
          1., 0., 0., 0., 0., 0., 0., 0., 0., 0., 0., 0., 0., 0., 0., 2.,
          3., 0., 0., 0., 0., 0., 0., 0., 0., 0., 0., 0., 0., 0., 0., 0.,
          6., 10., 1., 0., 0., 0., 0., 0., 0., 0., 0., 0., 0., 0., 0.,
          0., 8., 31., 11., 4., 1., 0., 0., 0., 0., 0., 0., 0., 0., 0.,
          0., 0., 0., 32., 67., 45., 14., 2., 0., 0., 0., 0., 0., 0., 0.,
          0., 0., 0., 0., 0., 1., 77., 30., 8., 0., 0., 0., 0., 0., 0.,
          0., 0., 0., 0., 0., 0., 0., 53., 39., 15., 4., 2., 0., 0., 0.,
          0., 0., 0., 0., 0., 0., 0., 0., 0., 2., 99., 33., 6., 0., 1.,
          0., 0., 0., 0., 0., 0., 0., 0., 0., 0., 0., 37., 43., 34., 17.,
          4., 1., 0., 0., 0., 0., 0., 0., 0., 0., 0., 0., 0., 38., 195.,
          146., 43., 16., 7., 3., 0., 0., 0., 0., 0., 0., 0., 0., 0., 0. ]
      - [ 50., 181., 221., 111., 52., 11., 0., 1., 0., 0., 0., 0., 0.,
          0., 0., 0., 0., 16., 75., 70., 50., 33., 14., 9., 1., 1., 0.,
          0., 0., 0., 0., 0., 0., 0., 13., 10., 7., 3., 0., 2., 0., 0.,
          0., 0., 0., 0., 0., 0., 0., 0., 0., 5., 5., 4., 2., 0., 0., 1.,
          0., 0., 0., 0., 0., 0., 0., 0., 0., 0., 4., 0., 2., 1., 2., 0.,
          0., 0., 0., 0., 0., 0., 0., 0., 0., 0., 0., 0., 5., 3., 0., 0.,
          0., 0., 0., 0., 0., 0., 0., 0., 0., 0., 0., 0., 2., 2., 1., 0.,
          1., 1., 0., 0., 0., 0., 0., 0., 0., 0., 0., 0., 0., 6., 0., 2.,
          0., 1., 0., 0., 0., 0., 0., 0., 0., 0., 0., 0., 0., 0., 1., 3.,
          0., 0., 0., 0., 0., 0., 0., 0., 0., 0., 0., 0., 0., 0., 0., 4.,
          6., 1., 0., 0., 0., 0., 0., 0., 0., 0., 0., 0., 0., 0., 0., 0.,
          7., 5., 1., 0., 0., 0., 0., 0., 0., 0., 0., 0., 0., 0., 0., 0.,
          0., 12., 19., 0., 0., 0., 0., 0., 0., 0., 0., 0., 0., 0., 0.,
          0., 0., 0., 9., 19., 5., 3., 0., 0., 0., 0., 0., 0., 0., 0.,
          0., 0., 0., 0., 0., 24., 53., 12., 4., 1., 0., 0., 0., 0., 0.,
          0., 0., 0., 0., 0., 0., 0., 24., 76., 16., 1., 0., 0., 0., 0.,
          0., 0., 0., 0., 0., 0., 0., 0., 0., 42., 151., 60., 13., 0.,
          1., 0., 0., 0., 0., 0., 0., 0., 0., 0., 0., 0., 68., 278., 99.,
          24., 1., 1., 0., 0., 0., 0., 0., 0., 0., 0., 0., 0., 0. ]
      - [ 1., 1., 7., 4., 0., 2., 0., 1., 0., 0., 0., 0., 1., 0., 0., 0.,
          2., 0., 0., 18., 41., 26., 35., 16., 11., 6., 2., 2., 2., 1.,
          0., 1., 0., 3., 0., 1., 3., 198., 204., 31., 20., 8., 2., 2.,
          1., 0., 0., 0., 0., 0., 0., 0., 0., 1., 126., 608., 335., 84.,
          69., 30., 9., 3., 1., 0., 1., 0., 0., 0., 0., 0., 1., 0., 0.,
          3., 21., 54., 18., 5., 0., 0., 0., 0., 0., 0., 0., 0., 0., 0.,
          0., 0., 1., 0., 0., 0., 0., 0., 0., 0., 0., 0., 0., 0., 0., 0.,
          0., 0., 0., 0., 0., 0., 0., 0., 0., 0., 0., 0., 0., 0., 0., 0.,
          0., 0., 0., 0., 0., 0., 0., 0., 0., 0., 0., 0., 0., 0., 0., 0.,
          0., 0., 0., 0., 0., 0., 0., 0., 0., 0., 0., 0., 0., 0., 0., 0.,
          0., 0., 0., 0., 0., 0., 0., 0., 0., 0., 0., 0., 0., 0., 0., 0.,
          0., 0., 0., 0., 0., 0., 0., 0., 0., 0., 0., 0., 0., 0., 0., 0.,
          0., 0., 0., 0., 0., 0., 0., 0., 0., 0., 0., 0., 0., 0., 0., 0.,
          0., 0., 0., 0., 0., 0., 0., 0., 0., 0., 0., 0., 0., 0., 0., 0.,
          0., 0., 0., 0., 0., 0., 0., 0., 0., 0., 0., 0., 0., 0., 0., 0.,
          0., 0., 0., 0., 0., 0., 0., 0., 0., 0., 0., 0., 0., 0., 0., 0.,
          0., 0., 0., 0., 0., 0., 0., 0., 0., 1., 0., 0., 0., 0., 0., 0.,
          0., 0., 0., 0., 0., 0., 0., 0., 0., 0., 1., 0., 0., 0., 0., 0.,
          0., 0., 0., 0., 0., 0., 0., 0., 0. ]
      - [ 14., 102., 338., 171., 56., 8., 1., 0., 0., 0., 0., 0., 0., 0.,
          0., 0., 0., 6., 40., 62., 30., 13., 3., 3., 0., 0., 0., 0., 0.,
          0., 0., 0., 0., 0., 5., 10., 2., 7., 3., 4., 0., 0., 0., 0.,
          0., 0., 0., 0., 0., 0., 0., 1., 4., 8., 4., 0., 0., 0., 0., 0.,
          0., 0., 0., 0., 0., 0., 0., 0., 2., 1., 4., 2., 1., 1., 0., 0.,
          0., 0., 0., 0., 0., 0., 0., 0., 0., 0., 1., 0., 0., 0., 0., 0.,
          0., 0., 0., 0., 0., 0., 0., 0., 0., 0., 0., 1., 1., 3., 0., 0.,
          0., 0., 0., 0., 0., 0., 0., 0., 0., 0., 0., 11., 7., 1., 0.,
          0., 0., 0., 0., 0., 0., 0., 0., 0., 0., 0., 0., 0., 0., 2., 6.,
          4., 0., 0., 0., 0., 0., 0., 0., 0., 0., 0., 0., 0., 0., 0., 9.,
          32., 19., 1., 0., 0., 0., 0., 0., 0., 0., 0., 0., 0., 0., 0.,
          3., 51., 66., 51., 7., 1., 0., 0., 0., 0., 0., 0., 0., 0., 0.,
          0., 0., 38., 46., 41., 19., 7., 0., 1., 0., 0., 0., 0., 0., 0.,
          0., 0., 0., 0., 0., 14., 13., 11., 2., 0., 0., 0., 0., 0., 0.,
          0., 0., 0., 0., 0., 0., 19., 38., 12., 1., 0., 0., 2., 0., 0.,
          0., 0., 0., 0., 0., 0., 0., 0., 0., 33., 12., 3., 1., 0., 0.,
          0., 0., 0., 0., 0., 0., 0., 0., 0., 0., 28., 20., 32., 14., 5.,
          2., 0., 0., 0., 0., 0., 0., 0., 0., 0., 0., 0., 7., 127., 234.,
          44., 12., 4., 0., 0., 0., 0., 0., 0., 0., 0., 0., 0., 0. ]
      - [ 11., 1., 1., 0., 0., 0., 0., 0., 0., 0., 0., 0., 0., 0., 0.,
          0., 0., 0., 2., 3., 2., 0., 0., 0., 0., 0., 0., 0., 0., 0., 0.,
          0., 0., 0., 8., 5., 10., 3., 2., 2., 0., 0., 0., 1., 0., 1.,
          0., 0., 0., 0., 0., 1., 17., 25., 16., 11., 11., 17., 15., 13.,
          4., 7., 2., 0., 0., 0., 0., 0., 3., 27., 52., 56., 39., 25.,
          7., 5., 1., 1., 0., 0., 0., 0., 0., 0., 0., 0., 13., 92., 48.,
          11., 8., 2., 0., 0., 0., 0., 0., 0., 0., 0., 0., 0., 1., 43.,
          119., 47., 19., 3., 0., 0., 0., 0., 0., 0., 0., 0., 0., 0., 0.,
          46., 96., 89., 55., 15., 1., 1., 0., 0., 0., 0., 0., 0., 0.,
          0., 0., 0., 0., 1., 76., 39., 13., 3., 0., 0., 0., 0., 0., 0.,
          0., 0., 0., 0., 0., 0., 17., 151., 156., 69., 31., 9., 6., 1.,
          0., 0., 0., 0., 0., 0., 0., 0., 2., 92., 55., 53., 57., 31.,
          15., 3., 1., 1., 0., 0., 0., 0., 0., 0., 0., 5., 3., 6., 3.,
          0., 0., 0., 0., 0., 0., 0., 0., 0., 0., 0., 0., 0., 1., 0., 0.,
          1., 0., 0., 0., 0., 0., 0., 0., 0., 0., 0., 0., 0., 0., 4., 0.,
          0., 0., 0., 0., 0., 0., 0., 0., 0., 0., 0., 0., 0., 0., 0., 0.,
          0., 0., 0., 0., 0., 0., 0., 0., 0., 0., 0., 0., 0., 0., 0., 0.,
          3., 0., 0., 0., 0., 0., 0., 0., 0., 0., 0., 0., 0., 0., 0., 0.,
          0., 1., 0., 0., 0., 0., 0., 0., 0., 0., 0., 0., 0., 0., 0., 0.,
          0., 0. ]
      - [ 0., 224., 778., 358., 55., 16., 8., 3., 1., 1., 0., 3., 0., 0.,
          0., 0., 0., 0., 6., 214., 154., 67., 30., 10., 7., 10., 5., 2.,
          1., 0., 1., 0., 0., 0., 0., 0., 0., 0., 2., 1., 0., 3., 1., 0.,
          0., 0., 0., 1., 0., 0., 0., 0., 0., 0., 0., 0., 0., 0., 0., 0.,
          1., 0., 0., 0., 0., 0., 0., 0., 0., 0., 0., 0., 0., 0., 0., 0.,
          0., 0., 0., 0., 0., 0., 0., 0., 0., 0., 0., 0., 0., 0., 0., 0.,
          0., 0., 0., 0., 0., 0., 0., 0., 0., 0., 0., 0., 0., 0., 0., 0.,
          0., 0., 0., 0., 0., 0., 0., 0., 0., 0., 0., 0., 0., 0., 0., 0.,
          0., 0., 0., 0., 0., 0., 0., 0., 0., 0., 0., 0., 0., 0., 0., 0.,
          0., 0., 0., 0., 0., 0., 0., 0., 0., 0., 0., 0., 0., 0., 0., 0.,
          0., 0., 0., 0., 0., 0., 0., 0., 0., 0., 0., 0., 0., 0., 0., 0.,
          0., 0., 0., 0., 0., 0., 0., 0., 0., 0., 0., 0., 0., 0., 0., 0.,
          0., 0., 0., 0., 0., 0., 0., 0., 0., 0., 0., 0., 0., 0., 0., 0.,
          0., 0., 0., 0., 0., 0., 0., 0., 0., 0., 0., 0., 0., 0., 0., 0.,
          0., 1., 0., 0., 0., 0., 0., 0., 0., 0., 0., 0., 0., 0., 0., 0.,
          0., 0., 0., 1., 0., 0., 0., 0., 0., 0., 0., 0., 0., 0., 0., 0.,
          0., 0., 0., 1., 0., 5., 0., 0., 0., 0., 0., 0., 0., 0., 0., 0.,
          0., 0., 0., 0., 0., 15., 26., 7., 3., 1., 0., 0., 1., 0., 0.,
          1., 0., 0., 0., 0., 0. ]
      - [ 0., 1., 16., 36., 32., 54., 53., 59., 37., 19., 7., 4., 5., 0.,
          1., 1., 1., 0., 0., 4., 36., 55., 102., 177., 240., 305., 228.,
          149., 80., 39., 10., 5., 5., 6., 0., 0., 0., 2., 5., 7., 9.,
          20., 22., 22., 17., 15., 7., 1., 2., 1., 0., 0., 0., 0., 0.,
          2., 5., 8., 13., 15., 3., 6., 4., 1., 0., 1., 1., 1., 0., 0.,
          0., 1., 0., 0., 2., 1., 0., 0., 1., 3., 0., 0., 0., 0., 1., 0.,
          0., 0., 0., 0., 1., 0., 0., 0., 0., 1., 0., 0., 1., 0., 0., 0.,
          0., 0., 0., 0., 0., 0., 0., 0., 0., 0., 1., 0., 0., 0., 0., 0.,
          0., 0., 0., 0., 0., 0., 0., 0., 0., 0., 0., 0., 0., 0., 0., 0.,
          0., 0., 0., 0., 0., 0., 0., 0., 0., 0., 0., 0., 0., 0., 0., 0.,
          0., 0., 0., 0., 0., 0., 0., 0., 0., 0., 0., 0., 0., 0., 0., 0.,
          0., 0., 0., 0., 0., 0., 0., 0., 0., 0., 0., 0., 0., 0., 0., 0.,
          0., 0., 0., 0., 0., 0., 0., 0., 0., 0., 0., 0., 0., 0., 0., 0.,
          0., 0., 0., 0., 0., 0., 0., 0., 0., 0., 0., 0., 0., 0., 0., 0.,
          0., 0., 0., 0., 0., 0., 0., 0., 0., 0., 0., 0., 0., 0., 0., 0.,
          0., 0., 0., 0., 0., 0., 0., 0., 0., 0., 0., 0., 0., 1., 0., 0.,
          0., 0., 0., 0., 0., 0., 0., 0., 0., 0., 0., 1., 5., 4., 2., 0.,
          1., 0., 0., 0., 0., 0., 0., 0., 0., 0., 0., 0., 5., 13., 8.,
          8., 2., 2., 2., 0., 0., 0., 1., 0., 0., 0., 0. ]
      - [ 120., 600., 210., 51., 23., 13., 13., 3., 6., 0., 2., 1., 0.,
          0., 0., 0., 0., 116., 268., 186., 103., 47., 34., 18., 11., 9.,
          6., 7., 2., 1., 0., 0., 0., 2., 10., 7., 7., 5., 2., 4., 0.,
          0., 0., 0., 0., 0., 0., 0., 0., 0., 0., 0., 2., 1., 0., 1., 0.,
          0., 0., 0., 1., 0., 0., 0., 0., 0., 0., 0., 0., 0., 0., 0., 0.,
          0., 0., 0., 0., 0., 0., 0., 0., 0., 0., 0., 1., 0., 0., 0., 0.,
          0., 0., 0., 0., 0., 0., 0., 0., 0., 0., 0., 0., 0., 0., 0., 0.,
          0., 0., 0., 0., 0., 0., 0., 0., 0., 0., 0., 0., 0., 0., 0., 0.,
          0., 0., 0., 0., 0., 0., 0., 0., 0., 0., 0., 0., 0., 0., 0., 0.,
          0., 0., 0., 0., 0., 0., 0., 0., 0., 0., 0., 0., 0., 0., 0., 0.,
          0., 0., 0., 0., 0., 0., 0., 0., 0., 0., 0., 0., 0., 0., 0., 0.,
          0., 1., 1., 0., 0., 0., 0., 0., 0., 0., 0., 0., 0., 0., 0., 0.,
          0., 0., 0., 0., 0., 0., 0., 0., 0., 0., 0., 0., 0., 0., 0., 0.,
          0., 0., 0., 3., 0., 0., 0., 0., 0., 0., 2., 0., 0., 0., 0., 0.,
          0., 0., 0., 1., 6., 2., 1., 0., 0., 0., 0., 0., 1., 0., 0., 0.,
          0., 0., 0., 0., 0., 9., 6., 0., 1., 1., 0., 0., 0., 0., 0., 0.,
          0., 0., 0., 0., 0., 0., 12., 7., 2., 1., 0., 0., 0., 0., 0.,
          0., 0., 0., 0., 0., 0., 0., 0., 27., 33., 9., 3., 1., 1., 1.,
          0., 0., 0., 0., 0., 0., 0., 0., 0., 0. ]
      - [ 3., 156., 474., 326., 139., 77., 26., 11., 2., 0., 0., 0., 0.,
          0., 0., 0., 0., 1., 42., 128., 84., 54., 39., 21., 5., 2., 1.,
          0., 0., 0., 0., 0., 0., 0., 5., 3., 8., 1., 3., 5., 4., 1., 1.,
          1., 0., 0., 0., 0., 0., 0., 0., 0., 0., 3., 1., 1., 2., 0., 0.,
          2., 0., 0., 0., 0., 0., 0., 0., 0., 0., 0., 0., 0., 0., 0., 0.,
          0., 0., 0., 0., 0., 0., 0., 0., 0., 0., 0., 0., 0., 0., 0., 0.,
          0., 0., 0., 0., 1., 0., 0., 0., 0., 0., 0., 0., 0., 1., 0., 0.,
          0., 0., 0., 0., 1., 0., 0., 0., 0., 0., 0., 0., 1., 2., 2., 1.,
          0., 0., 0., 0., 0., 0., 0., 0., 0., 0., 0., 0., 0., 0., 0., 0.,
          0., 0., 0., 0., 0., 0., 0., 0., 0., 0., 0., 0., 0., 0., 0., 0.,
          1., 1., 0., 0., 0., 0., 0., 0., 0., 0., 0., 0., 0., 0., 0., 0.,
          2., 0., 0., 0., 0., 0., 0., 0., 0., 0., 0., 0., 0., 0., 0., 0.,
          7., 0., 1., 0., 0., 0., 0., 0., 0., 0., 0., 0., 0., 0., 0., 0.,
          0., 0., 1., 0., 0., 0., 2., 0., 0., 0., 0., 0., 0., 0., 0., 0.,
          0., 0., 0., 7., 2., 3., 0., 1., 1., 0., 0., 0., 0., 0., 0., 0.,
          0., 0., 0., 0., 7., 4., 1., 3., 0., 0., 0., 0., 0., 0., 0., 0.,
          0., 0., 0., 0., 19., 14., 9., 5., 3., 1., 0., 0., 0., 0., 0.,
          0., 0., 0., 0., 0., 0., 1., 50., 151., 62., 19., 4., 1., 1.,
          0., 0., 0., 0., 0., 0., 0., 0., 0. ]
      - [ 4., 0., 2., 15., 23., 41., 26., 16., 12., 4., 5., 4., 1., 2.,
          1., 2., 5., 10., 5., 18., 31., 178., 294., 352., 291., 202.,
          127., 53., 36., 30., 11., 2., 4., 7., 11., 4., 10., 3., 6.,
          12., 20., 9., 8., 13., 8., 9., 7., 4., 3., 1., 4., 2., 1., 2.,
          1., 5., 0., 0., 3., 3., 2., 2., 1., 0., 2., 1., 0., 1., 0., 0.,
          0., 0., 0., 1., 2., 1., 1., 0., 0., 1., 0., 0., 0., 1., 0., 0.,
          0., 0., 0., 0., 1., 0., 0., 1., 0., 0., 1., 0., 0., 0., 0., 2.,
          0., 0., 0., 0., 0., 0., 0., 0., 0., 0., 0., 0., 0., 0., 0., 0.,
          0., 1., 0., 0., 0., 0., 0., 0., 0., 0., 0., 0., 0., 1., 0., 0.,
          0., 1., 2., 0., 0., 0., 0., 0., 0., 0., 0., 0., 0., 0., 0., 0.,
          0., 0., 0., 1., 0., 0., 0., 0., 0., 0., 0., 0., 0., 0., 0., 0.,
          0., 0., 0., 0., 1., 0., 0., 0., 0., 0., 0., 0., 0., 0., 0., 0.,
          0., 0., 0., 0., 0., 0., 1., 0., 1., 1., 0., 0., 0., 0., 0., 0.,
          0., 0., 0., 0., 0., 0., 2., 0., 0., 0., 0., 0., 0., 0., 0., 0.,
          0., 0., 0., 0., 0., 0., 0., 1., 0., 1., 1., 0., 0., 1., 1., 0.,
          0., 0., 0., 0., 0., 0., 0., 0., 1., 0., 0., 0., 0., 0., 1., 0.,
          0., 0., 0., 0., 0., 0., 1., 0., 0., 0., 2., 0., 2., 1., 1., 0.,
          0., 0., 0., 0., 0., 0., 0., 0., 0., 1., 1., 0., 1., 1., 1., 2.,
          0., 1., 1., 1., 0., 2., 1., 1., 0., 0., 1. ]
      - [ 17., 137., 114., 88., 48., 34., 10., 5., 1., 0., 0., 0., 0.,
          0., 0., 0., 0., 15., 64., 50., 67., 66., 38., 30., 12., 9., 4.,
          3., 0., 1., 0., 0., 0., 0., 9., 22., 15., 16., 21., 11., 7.,
          10., 6., 5., 1., 0., 0., 0., 0., 0., 0., 2., 7., 8., 18., 14.,
          11., 10., 1., 6., 2., 1., 3., 1., 3., 0., 1., 1., 1., 4., 9.,
          9., 4., 4., 5., 2., 0., 1., 0., 0., 0., 0., 0., 0., 0., 1., 6.,
          8., 8., 0., 1., 1., 0., 0., 0., 0., 0., 0., 0., 0., 0., 0., 1.,
          1., 0., 1., 0., 0., 0., 0., 0., 0., 0., 0., 0., 0., 0., 0., 0.,
          4., 3., 0., 0., 0., 0., 0., 0., 0., 0., 0., 0., 0., 0., 0., 0.,
          0., 1., 0., 1., 0., 0., 0., 0., 0., 0., 0., 0., 0., 0., 0., 0.,
          0., 0., 3., 0., 0., 0., 0., 0., 0., 0., 0., 0., 0., 0., 0., 0.,
          0., 0., 0., 1., 3., 0., 0., 0., 0., 0., 0., 0., 0., 0., 0., 0.,
          0., 0., 0., 0., 12., 13., 2., 0., 0., 0., 0., 0., 0., 0., 0.,
          0., 0., 0., 0., 0., 0., 5., 26., 4., 2., 0., 0., 0., 0., 0.,
          0., 0., 0., 0., 0., 0., 0., 0., 26., 63., 7., 4., 0., 0., 0.,
          0., 0., 0., 0., 0., 0., 0., 0., 0., 0., 20., 114., 17., 2., 0.,
          1., 0., 0., 0., 0., 0., 0., 0., 0., 0., 0., 0., 35., 75., 39.,
          6., 6., 4., 0., 1., 0., 0., 0., 0., 0., 0., 0., 0., 0., 98.,
          220., 67., 28., 13., 5., 2., 0., 0., 0., 0., 0., 0., 0., 0.,
          0., 0. ]
      - [ 132., 854., 234., 32., 18., 9., 5., 1., 1., 0., 0., 0., 0., 0.,
          0., 0., 0., 100., 266., 150., 72., 16., 25., 10., 8., 4., 4.,
