%YAML:1.0
hbins: 18
sbins: 15
wnd_size: 55
wnd_step: 15
SVM_MODEL: !!opencv-ml-svm
   svm_type: C_SVC
   kernel: { type:RBF, gamma:1.0000000000000001e-05 }
   C: 2.5000000000000000e+00
   term_criteria: { epsilon:2.2204460492503131e-16, iterations:100 }
   var_all: 270
   var_count: 270
   class_count: 2
   class_labels: !!opencv-matrix
      rows: 1
      cols: 2
      dt: i
      data: [ -1, 1 ]
   sv_total: 163
   support_vectors:
      - [ 0., 0., 2., 8., 46., 45., 3., 0., 0., 0., 0., 0., 0., 0., 0.,
          0., 0., 0., 28., 254., 347., 102., 9., 0., 0., 0., 0., 0., 0.,
          0., 0., 0., 0., 6., 288., 1005., 386., 50., 1., 0., 0., 0., 0.,
          0., 0., 0., 0., 0., 0., 43., 329., 73., 0., 0., 0., 0., 0., 0.,
          0., 0., 0., 0., 0., 0., 0., 0., 0., 0., 0., 0., 0., 0., 0., 0.,
          0., 0., 0., 0., 0., 0., 0., 0., 0., 0., 0., 0., 0., 0., 0., 0.,
          0., 0., 0., 0., 0., 0., 0., 0., 0., 0., 0., 0., 0., 0., 0., 0.,
          0., 0., 0., 0., 0., 0., 0., 0., 0., 0., 0., 0., 0., 0., 0., 0.,
          0., 0., 0., 0., 0., 0., 0., 0., 0., 0., 0., 0., 0., 0., 0., 0.,
          0., 0., 0., 0., 0., 0., 0., 0., 0., 0., 0., 0., 0., 0., 0., 0.,
          0., 0., 0., 0., 0., 0., 0., 0., 0., 0., 0., 0., 0., 0., 0., 0.,
          0., 0., 0., 0., 0., 0., 0., 0., 0., 0., 0., 0., 0., 0., 0., 0.,
          0., 0., 0., 0., 0., 0., 0., 0., 0., 0., 0., 0., 0., 0., 0., 0.,
          0., 0., 0., 0., 0., 0., 0., 0., 0., 0., 0., 0., 0., 0., 0., 0.,
          0., 0., 0., 0., 0., 0., 0., 0., 0., 0., 0., 0., 0., 0., 0., 0.,
          0., 0., 0., 0., 0., 0., 0., 0., 0., 0., 0., 0., 0., 0., 0., 0.,
          0., 0., 0., 0., 0., 0., 0., 0., 0., 0., 0., 0., 0., 0., 0., 0.,
          0., 0., 0., 0. ]
      - [ 2., 9., 37., 84., 143., 112., 55., 24., 16., 17., 7., 2., 2.,
          1., 0., 2., 5., 18., 22., 36., 25., 28., 17., 6., 3., 0., 0.,
          0., 0., 0., 0., 5., 9., 6., 5., 1., 0., 0., 0., 0., 0., 0., 0.,
          0., 0., 2., 2., 0., 0., 0., 0., 0., 0., 0., 0., 0., 0., 0., 0.,
          0., 0., 0., 0., 0., 0., 0., 0., 0., 0., 0., 0., 0., 0., 0., 0.,
          0., 0., 0., 0., 0., 0., 0., 0., 0., 0., 0., 0., 0., 0., 0., 0.,
          0., 0., 0., 0., 0., 0., 0., 0., 0., 0., 0., 0., 0., 0., 0., 0.,
          0., 0., 0., 0., 0., 0., 0., 0., 0., 0., 0., 0., 0., 0., 0., 0.,
          0., 0., 0., 0., 0., 0., 0., 0., 0., 0., 0., 0., 0., 0., 0., 0.,
          0., 0., 0., 0., 0., 0., 0., 0., 0., 0., 0., 0., 0., 0., 0., 0.,
          0., 0., 0., 0., 0., 0., 0., 0., 0., 0., 0., 0., 0., 0., 0., 0.,
          0., 0., 0., 0., 0., 0., 0., 0., 0., 0., 0., 0., 0., 0., 0., 0.,
          0., 0., 0., 0., 0., 0., 0., 0., 0., 0., 0., 0., 1., 1., 1., 0.,
          0., 0., 0., 0., 0., 0., 0., 0., 3., 12., 19., 11., 2., 0., 2.,
          1., 0., 0., 1., 0., 0., 1., 1., 4., 37., 210., 92., 46., 10.,
          5., 6., 2., 1., 1., 1., 0., 0., 0., 3., 88., 371., 322., 106.,
          25., 7., 10., 6., 4., 4., 0., 0., 1., 1., 9., 55., 282., 318.,
          153., 57., 19., 4., 5., 1., 0., 0., 0., 0. ]
      - [ 0., 0., 77., 279., 351., 375., 295., 91., 48., 1., 0., 0., 0.,
          0., 0., 0., 0., 19., 47., 162., 219., 178., 89., 33., 2., 1.,
          0., 0., 0., 0., 0., 0., 1., 1., 0., 16., 44., 25., 6., 0., 0.,
          0., 0., 0., 0., 0., 0., 0., 0., 0., 0., 0., 0., 0., 0., 0., 0.,
          0., 0., 0., 0., 0., 0., 0., 0., 0., 0., 0., 0., 0., 0., 0., 0.,
          0., 0., 0., 0., 0., 0., 0., 0., 0., 0., 0., 0., 0., 0., 0., 0.,
          0., 0., 0., 0., 0., 0., 0., 0., 0., 0., 0., 0., 0., 0., 0., 0.,
          0., 0., 0., 0., 0., 0., 0., 0., 0., 0., 0., 0., 0., 0., 0., 0.,
          0., 0., 0., 0., 0., 0., 0., 0., 0., 0., 0., 0., 0., 0., 0., 0.,
          0., 0., 0., 0., 0., 0., 0., 0., 0., 0., 0., 0., 0., 0., 0., 0.,
          0., 0., 0., 0., 0., 0., 0., 0., 0., 0., 0., 0., 0., 0., 0., 0.,
          0., 0., 0., 0., 0., 0., 0., 0., 0., 0., 0., 0., 0., 0., 0., 0.,
          0., 0., 0., 0., 0., 0., 0., 0., 0., 0., 0., 0., 0., 0., 0., 0.,
          0., 0., 0., 0., 0., 0., 0., 0., 0., 0., 0., 0., 0., 0., 0., 0.,
          0., 0., 0., 0., 0., 0., 0., 0., 0., 0., 0., 0., 0., 0., 0., 0.,
          0., 0., 0., 0., 0., 0., 0., 0., 0., 0., 7., 1., 2., 0., 0., 0.,
          0., 0., 0., 0., 0., 0., 0., 0., 34., 311., 199., 61., 26., 8.,
          8., 5., 3., 0., 0., 0., 0. ]
      - [ 0., 3., 51., 188., 194., 220., 107., 21., 4., 1., 0., 0., 0.,
          0., 0., 0., 2., 24., 45., 66., 52., 73., 25., 3., 0., 0., 0.,
          0., 0., 0., 0., 3., 1., 13., 17., 7., 0., 0., 0., 0., 0., 0.,
          0., 0., 0., 0., 0., 0., 0., 0., 0., 0., 0., 0., 0., 0., 0., 0.,
          0., 0., 0., 0., 0., 0., 0., 0., 0., 0., 0., 0., 0., 0., 0., 0.,
          0., 0., 0., 0., 0., 0., 0., 0., 0., 0., 0., 0., 0., 0., 0., 0.,
          0., 0., 0., 0., 0., 0., 0., 0., 0., 0., 0., 0., 0., 0., 0., 0.,
          0., 0., 0., 0., 0., 0., 0., 0., 0., 0., 0., 0., 0., 0., 0., 0.,
          0., 0., 0., 0., 0., 0., 0., 0., 0., 0., 0., 0., 0., 0., 0., 0.,
          0., 0., 0., 0., 0., 0., 0., 0., 0., 0., 0., 0., 0., 0., 0., 0.,
          0., 0., 0., 0., 0., 0., 0., 0., 0., 0., 0., 0., 0., 0., 0., 0.,
          0., 0., 0., 0., 0., 0., 0., 0., 0., 0., 0., 0., 0., 0., 0., 0.,
          0., 0., 0., 0., 0., 0., 0., 0., 0., 0., 3., 1., 0., 0., 0., 0.,
          0., 0., 0., 0., 0., 0., 0., 0., 0., 2., 5., 19., 6., 3., 1.,
          0., 0., 0., 0., 0., 0., 0., 0., 1., 1., 16., 63., 88., 39.,
          22., 19., 4., 2., 3., 0., 1., 0., 0., 0., 2., 49., 196., 260.,
          148., 64., 18., 11., 1., 5., 3., 0., 0., 0., 0., 4., 64., 240.,
          289., 159., 71., 18., 1., 2., 0., 1., 0., 0., 0. ]
      - [ 3., 18., 61., 117., 164., 144., 74., 43., 21., 15., 8., 0., 1.,
          0., 0., 1., 7., 24., 44., 42., 35., 31., 15., 10., 5., 5., 1.,
          2., 0., 0., 1., 3., 4., 6., 12., 11., 7., 1., 0., 0., 0., 0.,
          0., 0., 0., 1., 3., 5., 1., 2., 4., 1., 4., 1., 0., 0., 0., 0.,
          0., 0., 0., 0., 0., 0., 0., 0., 0., 0., 0., 0., 0., 0., 0., 0.,
          0., 0., 1., 0., 0., 0., 0., 0., 0., 0., 0., 0., 0., 0., 0., 0.,
          0., 0., 0., 0., 0., 0., 0., 0., 0., 0., 0., 0., 0., 0., 0., 1.,
          0., 0., 0., 0., 0., 0., 0., 0., 0., 0., 0., 0., 0., 0., 0., 0.,
          0., 0., 0., 0., 0., 0., 0., 0., 0., 0., 0., 0., 0., 0., 2., 0.,
          0., 0., 0., 0., 0., 0., 0., 0., 0., 0., 0., 0., 1., 1., 2., 0.,
          0., 0., 0., 0., 0., 0., 0., 0., 0., 0., 0., 0., 1., 1., 0., 0.,
          0., 0., 0., 0., 0., 0., 0., 0., 0., 0., 2., 0., 2., 3., 3., 2.,
          2., 0., 0., 0., 0., 0., 0., 0., 0., 0., 3., 9., 7., 3., 4., 3.,
          2., 0., 0., 0., 0., 0., 0., 0., 1., 4., 33., 46., 26., 10., 6.,
          4., 2., 1., 1., 0., 0., 0., 0., 1., 5., 61., 137., 87., 29.,
          12., 12., 3., 1., 3., 0., 1., 0., 2., 1., 13., 58., 236., 218.,
          90., 35., 12., 6., 2., 1., 2., 0., 1., 1., 4., 16., 66., 254.,
          270., 126., 46., 30., 17., 6., 5., 2., 3., 3., 0. ]
      - [ 0., 1., 9., 45., 224., 410., 383., 185., 68., 7., 2., 1., 0.,
          0., 0., 0., 2., 7., 14., 80., 259., 391., 346., 203., 59., 9.,
          2., 0., 0., 0., 0., 0., 0., 3., 10., 14., 24., 33., 12., 8.,
          0., 0., 0., 0., 0., 0., 0., 0., 0., 0., 0., 0., 0., 0., 0., 0.,
          0., 0., 0., 0., 0., 0., 0., 0., 0., 0., 0., 0., 0., 0., 0., 0.,
          0., 0., 0., 0., 0., 0., 0., 0., 0., 0., 0., 0., 0., 0., 0., 0.,
          0., 0., 0., 0., 0., 0., 0., 0., 0., 0., 0., 0., 0., 0., 0., 0.,
          0., 0., 0., 0., 0., 0., 0., 0., 0., 0., 0., 0., 0., 0., 0., 0.,
          0., 0., 0., 0., 0., 0., 0., 0., 0., 0., 0., 0., 0., 0., 0., 0.,
          0., 0., 0., 0., 0., 0., 0., 0., 0., 0., 0., 0., 0., 0., 0., 0.,
          0., 0., 0., 0., 0., 0., 0., 0., 0., 0., 0., 0., 0., 0., 0., 0.,
          0., 0., 0., 0., 0., 0., 0., 0., 0., 0., 0., 0., 0., 0., 0., 0.,
          0., 0., 0., 0., 0., 0., 0., 0., 0., 0., 0., 0., 0., 0., 0., 0.,
          0., 0., 0., 0., 0., 0., 0., 0., 0., 0., 0., 0., 0., 0., 0., 0.,
          0., 0., 0., 0., 0., 0., 0., 0., 0., 0., 0., 0., 0., 0., 0., 0.,
          0., 0., 0., 0., 0., 0., 0., 0., 0., 0., 0., 0., 2., 2., 0., 3.,
          0., 0., 0., 0., 0., 0., 0., 0., 0., 6., 14., 52., 64., 40.,
          24., 6., 1., 0., 0., 0., 0., 0. ]
      - [ 5., 41., 136., 205., 225., 114., 64., 31., 10., 3., 6., 1., 1.,
          1., 0., 2., 5., 22., 64., 63., 35., 44., 25., 7., 2., 0., 1.,
          0., 0., 0., 0., 6., 6., 7., 4., 6., 2., 1., 0., 0., 0., 0., 0.,
          0., 0., 1., 3., 4., 0., 1., 0., 0., 0., 0., 0., 0., 0., 0., 0.,
          0., 0., 0., 0., 0., 0., 0., 0., 0., 0., 0., 0., 0., 0., 0., 0.,
          0., 0., 0., 0., 0., 0., 0., 0., 0., 0., 0., 0., 0., 0., 0., 0.,
          0., 0., 0., 0., 0., 0., 0., 0., 0., 0., 0., 0., 0., 0., 1., 0.,
          0., 0., 0., 0., 0., 0., 0., 0., 0., 0., 0., 0., 0., 0., 0., 0.,
          0., 0., 0., 0., 0., 0., 0., 0., 0., 0., 0., 0., 0., 0., 0., 0.,
          0., 0., 0., 0., 0., 0., 0., 0., 0., 0., 0., 0., 0., 0., 0., 0.,
          0., 0., 0., 0., 0., 0., 0., 0., 0., 0., 1., 0., 0., 0., 0., 0.,
          0., 0., 0., 0., 0., 0., 0., 0., 0., 0., 0., 0., 3., 0., 0., 0.,
          0., 0., 0., 0., 0., 0., 0., 0., 1., 5., 16., 27., 15., 8., 4.,
          2., 0., 1., 0., 0., 0., 0., 0., 1., 14., 30., 40., 27., 7., 0.,
          2., 1., 2., 0., 0., 0., 0., 0., 0., 38., 84., 75., 32., 7., 4.,
          2., 1., 2., 0., 0., 0., 0., 0., 2., 40., 113., 171., 90., 47.,
          17., 1., 2., 1., 2., 0., 0., 0., 0., 1., 50., 207., 361., 223.,
          66., 16., 4., 3., 1., 0., 0., 0., 0., 0. ]
      - [ 0., 0., 0., 1., 14., 66., 296., 686., 701., 266., 71., 19., 3.,
          0., 0., 0., 0., 0., 0., 3., 37., 109., 191., 173., 92., 31.,
          8., 2., 0., 0., 0., 0., 0., 0., 3., 9., 19., 21., 14., 5., 0.,
          0., 0., 0., 0., 0., 0., 0., 0., 0., 1., 10., 1., 1., 0., 0.,
          0., 0., 0., 0., 0., 0., 0., 0., 0., 0., 0., 0., 0., 0., 0., 0.,
          0., 0., 0., 0., 0., 0., 0., 0., 0., 0., 0., 0., 0., 0., 0., 0.,
          0., 0., 0., 0., 0., 0., 0., 0., 0., 0., 0., 0., 0., 0., 0., 0.,
          0., 0., 0., 0., 0., 0., 0., 0., 0., 0., 0., 0., 0., 0., 0., 0.,
          0., 0., 0., 0., 0., 0., 0., 0., 0., 0., 0., 0., 0., 0., 0., 0.,
          0., 0., 0., 0., 0., 0., 0., 0., 0., 0., 0., 0., 0., 0., 0., 0.,
          0., 0., 0., 0., 0., 0., 0., 0., 0., 0., 0., 0., 0., 0., 0., 0.,
          0., 0., 0., 0., 0., 0., 0., 0., 0., 0., 0., 0., 0., 0., 0., 0.,
          0., 0., 0., 0., 0., 0., 0., 0., 0., 0., 0., 0., 0., 0., 0., 0.,
          0., 0., 0., 0., 0., 0., 0., 0., 0., 0., 0., 0., 0., 0., 0., 0.,
          0., 0., 0., 0., 0., 0., 0., 0., 0., 0., 0., 0., 0., 0., 0., 0.,
          0., 0., 0., 0., 0., 0., 0., 0., 0., 0., 0., 0., 0., 0., 0., 0.,
          0., 0., 0., 0., 0., 0., 0., 0., 0., 0., 0., 9., 23., 66., 51.,
          16., 5., 2., 0., 0., 0., 0. ]
      - [ 0., 5., 17., 58., 87., 54., 20., 2., 0., 0., 0., 0., 0., 0.,
          0., 0., 0., 19., 52., 250., 278., 163., 84., 31., 9., 0., 0.,
          0., 0., 0., 0., 0., 6., 77., 453., 458., 217., 75., 22., 3.,
          0., 0., 0., 0., 0., 0., 0., 0., 49., 283., 179., 30., 11., 1.,
          0., 0., 0., 0., 0., 0., 0., 0., 0., 0., 0., 0., 0., 0., 0., 0.,
          0., 0., 0., 0., 0., 0., 0., 0., 0., 0., 0., 0., 0., 0., 0., 0.,
          0., 0., 0., 0., 0., 0., 0., 0., 0., 0., 0., 0., 0., 0., 0., 0.,
          0., 0., 0., 0., 0., 0., 0., 0., 0., 0., 0., 0., 0., 0., 0., 0.,
          0., 0., 0., 0., 0., 0., 0., 0., 0., 0., 0., 0., 0., 0., 0., 0.,
          0., 0., 0., 0., 0., 0., 0., 0., 0., 0., 0., 0., 0., 0., 0., 0.,
          0., 0., 0., 0., 0., 0., 0., 0., 0., 0., 0., 0., 0., 0., 0., 0.,
          0., 0., 0., 0., 0., 0., 0., 0., 0., 0., 0., 0., 0., 0., 0., 0.,
          0., 0., 0., 0., 0., 0., 0., 0., 0., 0., 0., 0., 0., 0., 0., 0.,
          0., 0., 0., 0., 0., 0., 0., 0., 0., 0., 0., 0., 0., 0., 0., 0.,
          0., 0., 0., 0., 0., 0., 0., 0., 0., 0., 0., 0., 0., 0., 0., 0.,
          0., 0., 0., 0., 0., 0., 0., 0., 0., 0., 0., 0., 0., 0., 0., 0.,
          0., 0., 0., 0., 0., 0., 0., 0., 0., 0., 0., 1., 14., 10., 7.,
          0., 0., 0., 0., 0., 0., 0., 0., 0. ]
      - [ 3., 2., 49., 79., 106., 62., 45., 11., 7., 4., 3., 0., 0., 0.,
          0., 0., 0., 1., 7., 10., 9., 10., 6., 1., 1., 0., 0., 0., 0.,
          0., 0., 0., 1., 1., 0., 0., 0., 0., 0., 0., 0., 0., 0., 0., 0.,
          0., 1., 1., 0., 0., 0., 0., 0., 0., 0., 0., 0., 0., 0., 0., 0.,
          0., 0., 0., 1., 0., 0., 0., 0., 0., 0., 0., 0., 0., 0., 0., 0.,
          1., 0., 0., 0., 0., 0., 0., 0., 0., 0., 0., 0., 0., 0., 0., 0.,
          0., 0., 0., 0., 0., 0., 0., 0., 0., 0., 0., 0., 0., 0., 0., 0.,
          0., 0., 0., 0., 0., 0., 0., 0., 0., 0., 0., 0., 0., 0., 0., 0.,
          0., 0., 0., 0., 0., 0., 0., 0., 0., 0., 0., 0., 0., 0., 0., 0.,
          0., 0., 0., 1., 1., 0., 0., 0., 0., 0., 0., 0., 0., 1., 1., 2.,
          0., 5., 3., 0., 0., 0., 0., 0., 0., 1., 1., 1., 1., 0., 3., 3.,
          1., 3., 2., 0., 0., 0., 0., 0., 0., 6., 9., 7., 9., 2., 10.,
          7., 2., 0., 1., 0., 0., 0., 0., 0., 6., 14., 25., 9., 18., 19.,
          8., 5., 2., 6., 1., 0., 1., 0., 6., 33., 64., 51., 41., 32.,
          13., 10., 11., 2., 4., 2., 0., 0., 0., 9., 58., 126., 136.,
          92., 49., 30., 34., 12., 4., 8., 2., 0., 0., 1., 12., 64.,
          156., 186., 125., 81., 36., 26., 26., 11., 2., 2., 0., 1., 0.,
          7., 70., 234., 280., 116., 70., 38., 22., 6., 2., 2., 1., 0.,
          0. ]
      - [ 0., 0., 0., 2., 4., 0., 0., 0., 0., 0., 0., 0., 0., 0., 0., 0.,
          0., 1., 32., 65., 57., 13., 1., 0., 0., 0., 0., 0., 0., 0., 0.,
          0., 27., 208., 302., 315., 134., 27., 9., 4., 2., 0., 0., 0.,
          0., 0., 0., 27., 185., 672., 588., 211., 64., 11., 0., 0., 0.,
          0., 0., 0., 0., 0., 9., 16., 20., 19., 0., 0., 0., 0., 0., 0.,
          0., 0., 0., 0., 0., 0., 0., 0., 0., 0., 0., 0., 0., 0., 0., 0.,
          0., 0., 0., 0., 0., 0., 0., 0., 0., 0., 0., 0., 0., 0., 0., 0.,
          0., 0., 0., 0., 0., 0., 0., 0., 0., 0., 0., 0., 0., 0., 0., 0.,
          0., 0., 0., 0., 0., 0., 0., 0., 0., 0., 0., 0., 0., 0., 0., 0.,
          0., 0., 0., 0., 0., 0., 0., 0., 0., 0., 0., 0., 0., 0., 0., 0.,
          0., 0., 0., 0., 0., 0., 0., 0., 0., 0., 0., 0., 0., 0., 0., 0.,
          0., 0., 0., 0., 0., 0., 0., 0., 0., 0., 0., 0., 0., 0., 0., 0.,
          0., 0., 0., 0., 0., 0., 0., 0., 0., 0., 0., 0., 0., 0., 0., 0.,
          0., 0., 0., 0., 0., 0., 0., 0., 0., 0., 0., 0., 0., 0., 0., 0.,
          0., 0., 0., 0., 0., 0., 0., 0., 0., 0., 0., 0., 0., 0., 0., 0.,
          0., 0., 0., 0., 0., 0., 0., 0., 0., 0., 0., 0., 0., 0., 0., 0.,
          0., 0., 0., 0., 0., 0., 0., 0., 0., 0., 0., 0., 0., 0., 0., 0.,
          0., 0., 0., 0., 0., 0. ]
      - [ 0., 10., 57., 154., 217., 129., 51., 23., 7., 2., 2., 1., 1.,
          0., 0., 0., 1., 15., 22., 28., 36., 24., 5., 4., 1., 0., 0.,
          0., 0., 0., 0., 0., 0., 9., 3., 3., 0., 0., 0., 0., 0., 0., 0.,
          0., 0., 0., 0., 0., 0., 0., 0., 0., 0., 0., 0., 0., 0., 0., 0.,
          0., 0., 0., 0., 0., 0., 0., 0., 0., 0., 0., 0., 0., 0., 0., 0.,
          0., 0., 0., 0., 0., 0., 0., 0., 0., 0., 0., 0., 0., 0., 0., 1.,
          0., 0., 0., 0., 0., 0., 0., 0., 0., 0., 0., 0., 0., 0., 1., 1.,
          0., 0., 0., 0., 0., 0., 0., 0., 0., 0., 0., 0., 0., 0., 1., 0.,
          0., 0., 0., 0., 0., 0., 0., 0., 0., 0., 0., 0., 0., 1., 1., 0.,
          0., 0., 0., 0., 0., 0., 0., 0., 0., 0., 0., 0., 1., 4., 0., 0.,
          0., 0., 0., 0., 0., 0., 0., 0., 0., 0., 0., 1., 6., 1., 1., 0.,
          0., 0., 0., 0., 0., 0., 0., 0., 0., 0., 0., 1., 1., 0., 1., 0.,
          0., 0., 0., 0., 0., 0., 0., 0., 0., 0., 0., 1., 0., 0., 0., 0.,
          0., 0., 0., 0., 0., 0., 0., 0., 3., 10., 8., 3., 6., 1., 4.,
          0., 0., 1., 0., 0., 0., 1., 0., 2., 27., 40., 48., 31., 20.,
          5., 4., 3., 1., 1., 1., 0., 0., 0., 2., 37., 162., 201., 166.,
          68., 29., 9., 8., 4., 1., 1., 1., 0., 0., 4., 61., 351., 456.,
          262., 96., 30., 12., 9., 4., 1., 1., 0., 0. ]
      - [ 0., 0., 0., 12., 5., 0., 0., 0., 0., 0., 0., 0., 0., 0., 0.,
          0., 1., 4., 26., 92., 85., 21., 3., 0., 0., 0., 0., 0., 0., 0.,
          0., 2., 9., 38., 273., 621., 425., 189., 75., 14., 7., 2., 0.,
          0., 0., 3., 2., 12., 27., 81., 188., 346., 266., 129., 42.,
          10., 4., 0., 0., 0., 1., 1., 3., 1., 0., 2., 0., 0., 0., 0.,
          0., 0., 0., 0., 0., 0., 0., 0., 0., 0., 0., 0., 0., 0., 0., 0.,
          0., 0., 0., 0., 0., 0., 0., 0., 0., 0., 0., 0., 0., 0., 0., 0.,
          0., 0., 0., 0., 0., 0., 0., 0., 0., 0., 0., 0., 0., 0., 0., 0.,
          0., 0., 0., 0., 0., 0., 0., 0., 0., 0., 0., 0., 0., 0., 0., 0.,
          0., 0., 0., 0., 0., 0., 0., 0., 0., 0., 0., 0., 0., 0., 0., 0.,
          0., 0., 0., 0., 0., 0., 0., 0., 0., 0., 0., 0., 0., 0., 0., 0.,
          0., 0., 0., 0., 0., 0., 0., 0., 0., 0., 0., 0., 0., 0., 0., 0.,
          0., 0., 0., 0., 0., 0., 0., 0., 0., 0., 0., 0., 0., 0., 0., 0.,
          0., 0., 0., 0., 0., 0., 0., 0., 0., 0., 0., 0., 0., 0., 0., 0.,
          0., 0., 0., 0., 0., 0., 0., 0., 0., 0., 0., 0., 0., 0., 0., 0.,
          0., 0., 0., 0., 0., 0., 0., 0., 0., 0., 0., 0., 0., 0., 0., 0.,
          0., 0., 0., 0., 0., 0., 0., 0., 0., 0., 0., 0., 3., 0., 0., 0.,
          0., 0., 0., 0., 0., 0., 0., 0. ]
      - [ 0., 0., 0., 0., 0., 0., 3., 5., 13., 8., 14., 23., 12., 11.,
          32., 0., 0., 0., 11., 25., 33., 22., 2., 2., 8., 14., 36., 35.,
          44., 63., 0., 0., 4., 31., 104., 175., 262., 235., 136., 68.,
          40., 47., 71., 31., 30., 0., 3., 12., 23., 32., 87., 245.,
          395., 338., 129., 49., 14., 3., 3., 4., 0., 0., 3., 3., 0., 0.,
          0., 0., 0., 0., 0., 0., 1., 0., 1., 0., 0., 0., 0., 0., 0., 1.,
          0., 0., 0., 0., 0., 0., 0., 1., 0., 0., 0., 0., 0., 0., 0., 0.,
          0., 0., 0., 0., 0., 0., 0., 0., 0., 0., 0., 0., 1., 0., 0., 0.,
          1., 0., 0., 0., 0., 0., 0., 0., 0., 0., 0., 0., 0., 0., 1., 0.,
          0., 0., 0., 0., 0., 0., 0., 0., 0., 0., 1., 0., 1., 0., 0., 0.,
          1., 0., 1., 1., 0., 0., 0., 0., 0., 0., 0., 1., 0., 1., 0., 1.,
          1., 0., 0., 0., 0., 0., 0., 0., 0., 0., 0., 0., 1., 0., 0., 0.,
          0., 0., 0., 0., 0., 0., 0., 0., 0., 1., 0., 0., 0., 0., 0., 0.,
          0., 0., 0., 0., 0., 0., 0., 1., 1., 0., 0., 0., 0., 0., 0., 0.,
          0., 0., 0., 0., 0., 0., 0., 0., 0., 0., 0., 0., 0., 0., 0., 0.,
          0., 0., 0., 0., 0., 0., 0., 0., 0., 0., 0., 0., 0., 0., 0., 0.,
          0., 0., 0., 0., 0., 0., 1., 0., 0., 0., 0., 0., 0., 0., 0., 0.,
          0., 1., 1., 0., 0., 0., 1., 0., 4., 3., 0., 1. ]
      - [ 0., 1., 7., 74., 166., 214., 117., 25., 7., 3., 0., 0., 0., 0.,
          0., 0., 0., 3., 19., 45., 59., 53., 36., 15., 10., 2., 0., 0.,
          0., 0., 0., 0., 0., 0., 1., 0., 0., 0., 0., 0., 0., 0., 0., 0.,
          0., 0., 0., 0., 0., 0., 0., 0., 0., 0., 0., 0., 0., 0., 0., 0.,
          0., 0., 0., 0., 0., 0., 0., 0., 0., 0., 0., 0., 0., 0., 0., 0.,
          0., 0., 0., 0., 0., 0., 0., 0., 0., 0., 0., 0., 0., 0., 0., 0.,
          0., 0., 0., 0., 0., 0., 0., 0., 0., 0., 0., 0., 0., 0., 0., 0.,
          0., 0., 0., 0., 0., 0., 0., 0., 0., 0., 0., 0., 0., 0., 0., 0.,
          0., 0., 0., 0., 0., 0., 0., 0., 0., 0., 0., 0., 0., 0., 0., 0.,
          0., 0., 0., 0., 0., 0., 0., 0., 0., 0., 0., 0., 0., 0., 0., 0.,
          0., 0., 0., 0., 0., 0., 0., 0., 0., 0., 0., 0., 0., 0., 0., 0.,
          0., 0., 0., 0., 0., 0., 0., 0., 0., 0., 0., 0., 0., 0., 0., 0.,
          0., 0., 0., 0., 0., 0., 0., 0., 0., 0., 1., 0., 0., 0., 0., 2.,
          0., 0., 0., 0., 0., 0., 0., 3., 13., 34., 24., 17., 16., 10.,
          7., 3., 3., 4., 1., 1., 0., 0., 5., 24., 50., 80., 77., 52.,
          37., 21., 11., 4., 2., 1., 0., 1., 0., 7., 21., 73., 162.,
          167., 98., 48., 31., 29., 6., 1., 0., 0., 0., 0., 4., 27.,
          185., 280., 247., 161., 49., 27., 16., 14., 7., 2., 1., 1. ]
      - [ 0., 0., 0., 1., 2., 0., 0., 0., 5., 2., 4., 6., 6., 3., 2., 0.,
          0., 0., 14., 22., 73., 41., 26., 28., 56., 43., 32., 61., 31.,
          21., 0., 0., 5., 13., 58., 346., 528., 335., 152., 97., 43.,
          18., 11., 8., 9., 0., 0., 0., 0., 26., 141., 283., 292., 150.,
          21., 3., 2., 0., 0., 0., 0., 0., 0., 0., 0., 4., 1., 0., 0.,
          0., 0., 0., 0., 0., 0., 0., 0., 0., 0., 0., 0., 0., 0., 0., 0.,
          0., 0., 0., 0., 0., 0., 0., 0., 0., 0., 0., 0., 0., 0., 0., 0.,
          0., 0., 0., 0., 0., 0., 0., 0., 0., 0., 0., 0., 0., 0., 0., 0.,
          0., 0., 0., 0., 0., 0., 0., 0., 0., 0., 0., 0., 0., 0., 0., 0.,
          0., 0., 0., 0., 0., 0., 0., 0., 0., 0., 0., 0., 0., 0., 0., 0.,
          0., 0., 0., 0., 0., 0., 0., 0., 0., 0., 0., 0., 0., 0., 0., 0.,
          0., 0., 0., 0., 0., 0., 0., 0., 0., 0., 0., 0., 0., 0., 0., 0.,
          0., 0., 0., 0., 0., 0., 0., 0., 0., 0., 0., 0., 0., 0., 0., 0.,
          0., 0., 0., 0., 0., 0., 0., 0., 0., 0., 0., 0., 0., 0., 0., 0.,
          0., 0., 0., 0., 0., 0., 0., 0., 0., 0., 0., 0., 0., 0., 0., 0.,
          0., 0., 0., 0., 0., 0., 0., 0., 0., 0., 0., 0., 0., 0., 0., 0.,
          0., 0., 0., 0., 0., 0., 0., 0., 0., 0., 0., 0., 0., 0., 0., 0.,
          0., 0., 0., 0., 0., 0., 0., 0., 0. ]
      - [ 2., 13., 40., 94., 138., 114., 64., 25., 16., 5., 7., 0., 1.,
          0., 0., 0., 4., 16., 26., 24., 21., 13., 7., 2., 2., 2., 1.,
          1., 0., 0., 1., 2., 0., 6., 5., 0., 0., 0., 0., 0., 0., 0., 0.,
          0., 0., 0., 0., 2., 0., 0., 0., 0., 0., 0., 0., 0., 0., 0., 0.,
          0., 0., 0., 0., 0., 0., 0., 0., 0., 0., 0., 0., 0., 0., 0., 0.,
          0., 1., 0., 0., 0., 0., 0., 0., 0., 0., 0., 0., 0., 0., 0., 0.,
          0., 0., 0., 0., 0., 0., 0., 0., 0., 0., 0., 0., 0., 0., 1., 0.,
          0., 0., 0., 0., 0., 0., 0., 0., 0., 0., 0., 0., 0., 0., 0., 0.,
          0., 0., 0., 0., 0., 0., 0., 0., 0., 0., 0., 0., 0., 2., 0., 0.,
          0., 0., 0., 0., 0., 0., 0., 0., 0., 0., 0., 0., 1., 1., 0., 0.,
          0., 0., 0., 0., 0., 0., 0., 0., 0., 0., 0., 1., 0., 0., 0., 0.,
          0., 0., 0., 0., 0., 0., 0., 0., 0., 1., 0., 1., 2., 0., 0., 0.,
          0., 0., 0., 0., 0., 0., 0., 0., 0., 3., 10., 10., 5., 3., 1.,
          2., 0., 0., 0., 0., 0., 0., 0., 1., 6., 38., 63., 34., 10., 5.,
          3., 2., 1., 1., 0., 0., 0., 0., 1., 8., 92., 174., 110., 47.,
          25., 11., 9., 1., 2., 1., 0., 0., 1., 1., 12., 81., 352., 292.,
          119., 43., 9., 3., 2., 0., 2., 0., 1., 1., 2., 13., 70., 221.,
          251., 117., 38., 24., 10., 4., 4., 2., 3., 3., 0. ]
      - [ 4., 20., 42., 89., 109., 79., 21., 23., 16., 6., 10., 1., 2.,
          4., 2., 1., 12., 36., 85., 49., 30., 12., 12., 6., 4., 6., 3.,
          2., 2., 4., 3., 5., 19., 24., 12., 12., 12., 8., 5., 2., 0.,
          2., 0., 0., 0., 0., 4., 0., 0., 0., 0., 0., 0., 0., 0., 0., 0.,
          0., 0., 0., 0., 2., 0., 0., 0., 0., 0., 0., 0., 0., 0., 0., 0.,
          0., 0., 0., 0., 0., 0., 0., 0., 0., 0., 0., 0., 0., 0., 0., 0.,
          0., 0., 0., 0., 0., 0., 0., 0., 0., 0., 0., 0., 0., 0., 0., 0.,
          0., 0., 0., 0., 0., 0., 0., 0., 0., 0., 0., 0., 0., 0., 0., 0.,
          0., 0., 0., 0., 0., 0., 0., 0., 0., 0., 0., 0., 0., 0., 0., 0.,
          0., 0., 0., 0., 0., 0., 0., 0., 0., 0., 0., 0., 0., 0., 0., 1.,
          0., 0., 0., 0., 0., 0., 0., 0., 0., 0., 0., 0., 1., 5., 5., 9.,
          7., 0., 0., 0., 0., 0., 0., 0., 0., 0., 0., 5., 12., 23., 24.,
          12., 11., 4., 5., 4., 2., 0., 3., 0., 0., 0., 3., 8., 33., 28.,
          35., 31., 17., 15., 13., 10., 5., 3., 3., 4., 2., 4., 19., 40.,
          37., 47., 40., 29., 15., 19., 23., 12., 6., 3., 4., 4., 0.,
          26., 64., 79., 63., 46., 27., 10., 20., 16., 11., 7., 8., 4.,
          0., 4., 13., 88., 132., 101., 68., 39., 34., 25., 23., 13.,
          10., 6., 6., 9., 3., 12., 68., 153., 151., 68., 53., 36., 25.,
          15., 13., 14., 11., 2., 2. ]
      - [ 0., 0., 3., 32., 98., 179., 149., 64., 9., 1., 3., 0., 0., 0.,
          0., 0., 0., 1., 13., 94., 287., 575., 424., 195., 62., 11., 1.,
          0., 0., 0., 0., 0., 0., 1., 31., 111., 257., 158., 62., 29.,
          7., 0., 0., 0., 0., 0., 0., 0., 0., 6., 30., 48., 8., 0., 0.,
          0., 0., 0., 0., 0., 0., 0., 0., 0., 0., 0., 0., 0., 0., 0., 0.,
          0., 0., 0., 0., 0., 0., 0., 0., 0., 0., 0., 0., 0., 0., 0., 0.,
          0., 0., 0., 0., 0., 0., 0., 0., 0., 0., 0., 0., 0., 0., 0., 0.,
          0., 0., 0., 0., 0., 0., 0., 0., 0., 0., 0., 0., 0., 0., 0., 0.,
          0., 0., 0., 0., 0., 0., 0., 0., 0., 0., 0., 0., 0., 0., 0., 0.,
          0., 0., 0., 0., 0., 0., 0., 0., 0., 0., 0., 0., 0., 0., 0., 0.,
          0., 0., 0., 0., 0., 0., 0., 0., 0., 0., 0., 0., 0., 0., 0., 0.,
          0., 0., 0., 0., 0., 0., 0., 0., 0., 0., 0., 0., 0., 0., 0., 0.,
          0., 0., 0., 0., 0., 0., 0., 0., 0., 0., 0., 0., 0., 0., 0., 0.,
          0., 0., 0., 0., 0., 0., 0., 0., 0., 0., 0., 0., 0., 0., 0., 0.,
          0., 0., 0., 0., 0., 0., 0., 0., 0., 0., 0., 0., 0., 0., 0., 0.,
          0., 0., 0., 0., 0., 0., 0., 0., 0., 0., 0., 0., 0., 0., 0., 0.,
          0., 0., 0., 0., 0., 0., 0., 0., 0., 0., 3., 10., 22., 21., 15.,
          5., 0., 0., 0., 0., 0., 0., 0. ]
      - [ 0., 0., 0., 15., 88., 313., 807., 431., 95., 24., 4., 3., 0.,
          0., 0., 0., 0., 0., 0., 10., 129., 334., 320., 95., 9., 2., 0.,
          0., 0., 0., 0., 0., 0., 0., 1., 5., 22., 18., 2., 0., 0., 0.,
          0., 0., 0., 0., 0., 0., 0., 0., 1., 2., 1., 0., 0., 0., 0., 0.,
          0., 0., 0., 0., 0., 0., 0., 0., 0., 0., 0., 0., 0., 0., 0., 0.,
          0., 0., 0., 0., 0., 0., 0., 0., 0., 0., 0., 0., 0., 0., 0., 0.,
          0., 0., 0., 0., 0., 0., 0., 0., 0., 0., 0., 0., 0., 0., 0., 0.,
          0., 0., 0., 0., 0., 0., 0., 0., 0., 0., 0., 0., 0., 0., 0., 0.,
          0., 0., 0., 0., 0., 0., 0., 0., 0., 0., 0., 0., 0., 0., 0., 0.,
          0., 0., 0., 0., 0., 0., 0., 0., 0., 0., 0., 0., 0., 0., 0., 0.,
          0., 0., 0., 0., 0., 0., 0., 0., 0., 0., 0., 0., 0., 0., 0., 0.,
          0., 0., 0., 0., 0., 0., 0., 0., 0., 0., 0., 0., 0., 0., 0., 0.,
          0., 0., 0., 0., 0., 0., 0., 0., 0., 0., 0., 0., 0., 0., 0., 0.,
          0., 0., 0., 0., 0., 0., 0., 0., 0., 0., 0., 11., 1., 8., 0.,
          0., 0., 0., 0., 0., 0., 0., 0., 0., 0., 4., 25., 1., 9., 1.,
          0., 0., 0., 0., 0., 0., 0., 0., 0., 0., 0., 4., 17., 19., 5.,
          3., 0., 0., 0., 0., 0., 0., 0., 0., 0., 0., 16., 59., 54., 31.,
          16., 6., 4., 0., 0., 0., 0., 0. ]
      - [ 3., 27., 38., 109., 121., 65., 32., 13., 15., 5., 2., 0., 1.,
          0., 0., 1., 6., 12., 26., 42., 22., 19., 5., 4., 1., 0., 0.,
          0., 0., 0., 0., 3., 0., 0., 0., 0., 0., 0., 0., 0., 0., 0., 0.,
          0., 0., 0., 0., 0., 0., 0., 0., 0., 0., 0., 0., 0., 0., 0., 0.,
          0., 1., 0., 0., 0., 0., 0., 0., 0., 0., 0., 0., 0., 0., 0., 0.,
          0., 0., 0., 0., 0., 0., 0., 0., 0., 0., 0., 0., 0., 0., 0., 0.,
          0., 0., 0., 0., 0., 0., 0., 0., 0., 0., 0., 0., 0., 0., 0., 0.,
          0., 0., 0., 0., 0., 0., 0., 0., 0., 0., 0., 0., 0., 0., 0., 0.,
          0., 0., 0., 0., 0., 0., 0., 0., 0., 0., 0., 0., 0., 0., 0., 0.,
          0., 0., 0., 0., 0., 0., 0., 0., 0., 0., 0., 0., 1., 0., 0., 0.,
          0., 0., 0., 0., 0., 0., 0., 0., 0., 0., 2., 2., 0., 0., 0., 0.,
          0., 0., 0., 0., 0., 0., 0., 0., 0., 2., 6., 12., 6., 2., 0.,
          0., 0., 0., 0., 0., 0., 0., 0., 0., 1., 14., 20., 28., 28.,
          25., 19., 3., 3., 1., 1., 1., 1., 0., 1., 0., 13., 54., 83.,
          89., 71., 37., 6., 4., 7., 1., 1., 2., 1., 0., 3., 22., 93.,
          125., 146., 97., 44., 17., 12., 7., 2., 2., 2., 0., 1., 1.,
          27., 86., 157., 149., 108., 52., 35., 18., 6., 10., 1., 1., 1.,
          0., 4., 27., 115., 162., 170., 108., 46., 28., 13., 5., 1., 0.,
          0., 0., 0. ]
      - [ 0., 0., 0., 2., 20., 154., 519., 351., 118., 22., 4., 2., 1.,
          0., 0., 0., 0., 0., 0., 2., 69., 228., 236., 75., 11., 2., 0.,
          0., 0., 0., 0., 0., 0., 0., 1., 6., 22., 8., 0., 0., 0., 0.,
          0., 0., 0., 0., 0., 0., 0., 0., 1., 2., 1., 0., 0., 0., 0., 0.,
          0., 0., 0., 0., 0., 0., 0., 0., 0., 0., 0., 0., 0., 0., 0., 0.,
          0., 0., 0., 0., 0., 0., 0., 0., 0., 0., 0., 0., 0., 0., 0., 0.,
          0., 0., 0., 0., 0., 0., 0., 0., 0., 0., 0., 0., 0., 0., 0., 0.,
          0., 0., 0., 0., 0., 0., 0., 0., 0., 0., 0., 0., 0., 0., 0., 0.,
          0., 0., 0., 0., 0., 0., 0., 0., 0., 0., 0., 0., 0., 0., 0., 0.,
          0., 0., 0., 0., 0., 0., 0., 0., 0., 0., 0., 0., 0., 0., 0., 0.,
          0., 0., 0., 0., 0., 0., 0., 0., 0., 0., 0., 0., 0., 0., 0., 0.,
          0., 0., 0., 0., 0., 0., 0., 0., 0., 0., 0., 0., 0., 0., 7., 0.,
          0., 0., 0., 0., 0., 0., 0., 0., 0., 0., 0., 0., 50., 352.,
          114., 12., 0., 0., 0., 0., 0., 0., 0., 0., 0., 0., 7., 76.,
          129., 73., 16., 1., 0., 0., 0., 0., 0., 0., 0., 0., 0., 7.,
          55., 16., 26., 20., 7., 0., 0., 0., 0., 0., 0., 0., 0., 0., 0.,
          5., 31., 26., 12., 6., 0., 0., 0., 0., 0., 0., 0., 0., 0., 0.,
          4., 26., 44., 28., 11., 5., 2., 0., 0., 0., 0., 0. ]
      - [ 0., 1., 25., 224., 303., 182., 35., 16., 3., 0., 2., 1., 0.,
          0., 0., 0., 1., 3., 8., 12., 19., 3., 3., 1., 1., 0., 0., 0.,
          0., 0., 0., 0., 0., 0., 0., 0., 0., 0., 0., 0., 0., 0., 0., 0.,
          0., 0., 0., 0., 0., 0., 0., 0., 0., 0., 0., 0., 0., 0., 0., 0.,
          0., 0., 0., 0., 0., 0., 0., 0., 0., 0., 0., 0., 0., 0., 0., 0.,
          0., 0., 0., 0., 0., 0., 0., 0., 0., 0., 0., 0., 0., 0., 0., 0.,
          0., 0., 0., 0., 0., 0., 0., 0., 0., 0., 0., 0., 0., 0., 0., 0.,
          0., 0., 0., 0., 0., 0., 0., 0., 0., 0., 0., 0., 0., 0., 0., 0.,
          0., 0., 0., 0., 0., 0., 0., 0., 0., 0., 0., 0., 0., 0., 0., 0.,
          0., 0., 0., 0., 0., 0., 0., 0., 0., 0., 0., 0., 0., 0., 0., 0.,
          0., 0., 0., 0., 0., 0., 0., 0., 0., 0., 0., 0., 0., 0., 0., 0.,
          0., 0., 0., 0., 0., 0., 0., 0., 0., 0., 0., 0., 0., 0., 0., 0.,
          0., 0., 0., 0., 0., 0., 0., 0., 0., 0., 0., 0., 0., 0., 0., 0.,
          0., 0., 0., 0., 0., 0., 0., 0., 2., 3., 2., 3., 1., 0., 0., 0.,
          0., 0., 0., 0., 0., 0., 0., 5., 21., 3., 0., 0., 0., 0., 0.,
          0., 0., 0., 0., 0., 0., 0., 24., 185., 135., 41., 10., 3., 3.,
          0., 1., 0., 0., 0., 0., 0., 0., 60., 606., 768., 234., 48.,
          19., 5., 0., 0., 0., 0., 0., 0. ]
      - [ 2., 20., 36., 101., 152., 121., 63., 26., 18., 19., 7., 2., 1.,
          1., 0., 6., 11., 26., 26., 44., 28., 32., 21., 12., 10., 4.,
          1., 0., 0., 0., 1., 7., 13., 10., 11., 4., 4., 4., 5., 2., 2.,
          2., 0., 0., 0., 5., 9., 2., 0., 0., 0., 0., 0., 0., 0., 0., 0.,
          0., 0., 0., 4., 0., 0., 1., 0., 0., 0., 0., 0., 0., 0., 0., 0.,
          0., 0., 1., 0., 0., 0., 0., 0., 0., 0., 0., 0., 0., 0., 0., 0.,
          0., 1., 1., 0., 0., 0., 0., 0., 0., 0., 0., 0., 0., 0., 0., 0.,
          1., 1., 0., 0., 0., 0., 0., 0., 0., 0., 0., 0., 0., 0., 0., 1.,
          0., 0., 0., 0., 0., 0., 0., 0., 0., 0., 0., 0., 0., 0., 0., 0.,
          0., 0., 0., 0., 0., 0., 0., 0., 0., 0., 0., 0., 0., 0., 0., 0.,
          0., 0., 0., 0., 0., 0., 0., 0., 0., 0., 0., 0., 0., 0., 0., 0.,
          0., 0., 0., 0., 0., 0., 0., 0., 0., 0., 0., 0., 0., 0., 0., 0.,
          0., 0., 0., 0., 0., 0., 0., 0., 0., 0., 0., 0., 0., 0., 0., 1.,
          0., 0., 0., 0., 0., 0., 0., 0., 0., 0., 3., 7., 8., 5., 2., 0.,
          2., 1., 0., 0., 0., 0., 0., 0., 1., 5., 24., 112., 82., 46.,
          13., 5., 4., 1., 1., 1., 0., 0., 0., 0., 6., 78., 264., 291.,
          119., 26., 7., 8., 9., 3., 5., 0., 0., 0., 1., 8., 59., 319.,
          349., 174., 65., 17., 6., 3., 2., 0., 0., 0., 0. ]
      - [ 0., 3., 35., 315., 540., 227., 7., 1., 0., 0., 0., 0., 0., 0.,
          0., 0., 1., 22., 275., 641., 476., 90., 11., 0., 0., 0., 0.,
          0., 0., 0., 0., 0., 7., 69., 111., 75., 20., 0., 0., 0., 0.,
          0., 0., 0., 0., 0., 0., 3., 2., 0., 0., 0., 0., 0., 0., 0., 0.,
          0., 0., 0., 0., 0., 0., 0., 0., 0., 0., 0., 0., 0., 0., 0., 0.,
          0., 0., 0., 0., 0., 0., 0., 0., 0., 0., 0., 0., 0., 0., 0., 0.,
          0., 0., 0., 0., 0., 0., 0., 0., 0., 0., 0., 0., 0., 0., 0., 0.,
          0., 0., 0., 0., 0., 0., 0., 0., 0., 0., 0., 0., 0., 0., 0., 0.,
          0., 0., 0., 0., 0., 0., 0., 0., 0., 0., 0., 0., 0., 0., 0., 0.,
          0., 0., 0., 0., 0., 0., 0., 0., 0., 0., 0., 0., 0., 0., 0., 0.,
          0., 0., 0., 0., 0., 0., 0., 0., 0., 0., 0., 0., 0., 0., 0., 0.,
          0., 0., 0., 0., 0., 0., 0., 0., 0., 0., 0., 0., 0., 0., 0., 0.,
          0., 0., 0., 0., 0., 0., 0., 0., 0., 0., 0., 0., 0., 0., 0., 0.,
          0., 0., 0., 0., 0., 0., 0., 0., 0., 0., 0., 0., 0., 0., 0., 0.,
          0., 0., 0., 0., 0., 0., 0., 0., 0., 0., 0., 0., 0., 0., 0., 0.,
          0., 0., 0., 0., 0., 0., 0., 0., 0., 0., 0., 0., 0., 0., 0., 0.,
          0., 0., 0., 0., 0., 0., 1., 1., 12., 49., 31., 0., 0., 0., 0.,
          0., 0., 0., 0., 0., 0. ]
      - [ 0., 0., 25., 235., 491., 238., 63., 30., 11., 2., 1., 1., 0.,
          0., 0., 0., 0., 0., 16., 12., 16., 10., 6., 4., 1., 0., 0., 0.,
          0., 0., 0., 0., 0., 0., 0., 0., 0., 0., 0., 0., 0., 0., 0., 0.,
          0., 0., 0., 0., 0., 0., 0., 0., 0., 0., 0., 0., 0., 0., 0., 0.,
          0., 0., 0., 0., 0., 0., 0., 0., 0., 0., 0., 0., 0., 0., 0., 0.,
          0., 0., 0., 0., 0., 0., 0., 0., 0., 0., 0., 0., 0., 0., 0., 0.,
          0., 0., 0., 0., 0., 0., 0., 0., 0., 0., 0., 0., 0., 0., 0., 0.,
          0., 0., 0., 0., 0., 0., 0., 0., 0., 0., 0., 0., 0., 0., 0., 0.,
          0., 0., 0., 0., 0., 0., 0., 0., 0., 0., 0., 0., 0., 0., 0., 0.,
          0., 0., 0., 0., 0., 0., 0., 0., 0., 0., 0., 0., 0., 0., 0., 0.,
          0., 0., 0., 0., 0., 0., 0., 0., 0., 0., 0., 0., 0., 0., 0., 0.,
          0., 0., 0., 0., 0., 0., 0., 0., 0., 0., 0., 0., 0., 0., 0., 0.,
          0., 0., 0., 0., 0., 0., 0., 0., 0., 0., 0., 0., 0., 0., 0., 0.,
          0., 0., 0., 0., 0., 0., 0., 0., 0., 0., 2., 3., 1., 0., 0., 0.,
          0., 0., 0., 0., 0., 0., 0., 1., 9., 8., 4., 3., 0., 1., 0., 1.,
          0., 0., 0., 0., 0., 0., 14., 80., 72., 60., 13., 16., 7., 7.,
          1., 2., 1., 1., 1., 0., 0., 54., 378., 725., 269., 84., 23.,
          13., 5., 2., 1., 1., 0., 0. ]
      - [ 0., 7., 152., 404., 425., 129., 35., 5., 0., 0., 0., 0., 0.,
          0., 0., 1., 6., 18., 100., 122., 85., 32., 11., 6., 0., 0., 0.,
          0., 0., 0., 0., 5., 1., 4., 2., 1., 0., 0., 0., 0., 0., 0., 0.,
          0., 0., 0., 0., 0., 0., 0., 0., 0., 0., 0., 0., 0., 0., 0., 0.,
          0., 0., 0., 0., 0., 0., 0., 0., 0., 0., 0., 0., 0., 0., 0., 0.,
          0., 0., 0., 0., 0., 0., 0., 0., 0., 0., 0., 0., 0., 0., 0., 0.,
          0., 0., 0., 0., 0., 0., 0., 0., 0., 0., 0., 0., 0., 0., 0., 0.,
          0., 0., 0., 0., 0., 0., 0., 0., 0., 0., 0., 0., 0., 0., 0., 0.,
          0., 0., 0., 0., 0., 0., 0., 0., 0., 0., 0., 0., 0., 0., 0., 0.,
          0., 0., 0., 0., 0., 0., 0., 0., 0., 0., 0., 0., 0., 0., 0., 0.,
          0., 0., 0., 0., 0., 0., 0., 0., 0., 0., 0., 0., 0., 0., 0., 0.,
          0., 0., 0., 0., 0., 0., 0., 0., 0., 1., 2., 0., 0., 0., 0., 0.,
          0., 0., 0., 0., 0., 0., 0., 0., 0., 0., 7., 2., 3., 0., 0., 0.,
          0., 0., 0., 0., 0., 0., 0., 1., 2., 10., 10., 5., 0., 0., 0.,
          0., 0., 0., 0., 0., 0., 0., 0., 5., 19., 28., 12., 5., 3., 0.,
          0., 0., 0., 0., 0., 0., 0., 0., 8., 58., 124., 78., 19., 2.,
          1., 0., 0., 0., 0., 0., 0., 0., 2., 13., 158., 481., 321., 77.,
          12., 2., 3., 0., 0., 0., 0., 0., 0. ]
      - [ 5., 114., 250., 319., 129., 39., 9., 4., 0., 0., 0., 0., 0.,
          0., 0., 2., 40., 129., 134., 54., 13., 2., 0., 0., 0., 0., 0.,
          0., 0., 0., 1., 16., 21., 44., 14., 13., 3., 0., 0., 0., 0.,
          0., 0., 0., 0., 0., 8., 3., 6., 1., 0., 0., 0., 0., 0., 0., 0.,
          0., 0., 0., 0., 1., 0., 0., 0., 0., 0., 0., 0., 0., 0., 0., 0.,
          0., 0., 0., 0., 0., 0., 0., 0., 0., 0., 0., 0., 0., 0., 0., 0.,
          0., 0., 0., 0., 0., 0., 0., 0., 0., 0., 0., 0., 0., 0., 0., 0.,
          0., 0., 0., 0., 0., 0., 0., 0., 0., 0., 0., 0., 0., 0., 0., 0.,
          0., 0., 0., 0., 0., 0., 0., 0., 0., 0., 0., 0., 0., 0., 0., 0.,
          0., 0., 0., 0., 0., 0., 0., 0., 0., 0., 0., 0., 0., 0., 0., 0.,
          0., 0., 0., 0., 0., 0., 0., 0., 0., 0., 0., 0., 0., 0., 0., 0.,
          0., 0., 0., 0., 0., 0., 0., 0., 0., 0., 0., 0., 0., 0., 0., 0.,
          0., 0., 0., 0., 0., 0., 0., 0., 0., 0., 1., 0., 3., 0., 0., 0.,
          0., 0., 0., 0., 0., 0., 0., 0., 0., 2., 8., 14., 0., 0., 0.,
          0., 0., 0., 0., 0., 0., 0., 0., 0., 1., 24., 50., 25., 13., 3.,
          1., 0., 0., 0., 0., 0., 0., 0., 0., 3., 60., 203., 156., 59.,
          12., 1., 0., 0., 0., 0., 0., 0., 0., 0., 2., 91., 375., 395.,
          132., 15., 2., 0., 0., 0., 0., 0., 0., 0., 0. ]
      - [ 2., 8., 34., 84., 157., 137., 60., 25., 14., 2., 5., 1., 1.,
          1., 0., 2., 6., 15., 18., 20., 17., 9., 10., 1., 2., 0., 0.,
          0., 0., 0., 0., 5., 4., 3., 3., 1., 0., 0., 0., 0., 0., 0., 0.,
          0., 0., 2., 0., 0., 0., 0., 0., 0., 0., 0., 0., 0., 0., 0., 0.,
          0., 0., 0., 0., 0., 0., 0., 0., 0., 0., 0., 0., 0., 0., 0., 0.,
          0., 0., 0., 0., 0., 0., 0., 0., 0., 0., 0., 0., 0., 0., 0., 0.,
          0., 0., 0., 0., 0., 0., 0., 0., 0., 0., 0., 0., 0., 0., 0., 0.,
          0., 0., 0., 0., 0., 0., 0., 0., 0., 0., 0., 0., 0., 0., 0., 0.,
          0., 0., 0., 0., 0., 0., 0., 0., 0., 0., 0., 0., 0., 0., 0., 0.,
          0., 0., 0., 0., 0., 0., 0., 0., 0., 0., 0., 0., 0., 0., 0., 0.,
          0., 0., 0., 0., 0., 0., 0., 0., 0., 0., 0., 0., 0., 0., 0., 0.,
          0., 0., 0., 0., 0., 0., 0., 0., 0., 0., 0., 0., 0., 0., 0., 0.,
          0., 0., 0., 0., 0., 0., 0., 0., 0., 0., 1., 3., 1., 1., 0., 0.,
          0., 0., 0., 0., 0., 0., 0., 0., 5., 17., 18., 9., 1., 0., 2.,
          2., 0., 0., 1., 0., 1., 0., 1., 4., 37., 204., 74., 25., 6.,
          2., 3., 2., 1., 1., 1., 0., 0., 0., 1., 88., 372., 304., 112.,
          23., 12., 9., 7., 4., 3., 1., 0., 2., 1., 8., 65., 278., 375.,
          170., 73., 27., 5., 5., 3., 3., 0., 0., 2. ]
      - [ 2., 8., 46., 103., 128., 43., 29., 11., 7., 4., 3., 0., 0., 0.,
          0., 0., 0., 8., 11., 17., 14., 8., 5., 1., 1., 0., 0., 0., 0.,
          0., 0., 0., 0., 1., 2., 0., 0., 0., 0., 0., 0., 0., 0., 0., 0.,
          0., 1., 0., 0., 0., 0., 0., 0., 0., 0., 0., 0., 0., 0., 0., 0.,
          0., 0., 0., 0., 0., 0., 0., 0., 0., 0., 0., 0., 0., 0., 0., 1.,
          0., 0., 0., 0., 0., 0., 0., 0., 0., 0., 0., 0., 0., 0., 0., 1.,
          0., 0., 0., 0., 0., 0., 0., 0., 0., 0., 0., 0., 3., 0., 1., 2.,
          0., 0., 0., 0., 0., 0., 0., 0., 0., 0., 0., 0., 0., 0., 0., 1.,
          0., 0., 0., 0., 0., 0., 0., 0., 0., 0., 0., 1., 0., 1., 0., 0.,
          0., 0., 0., 0., 0., 0., 0., 0., 0., 0., 0., 0., 1., 0., 0., 0.,
          0., 0., 0., 0., 0., 0., 0., 0., 0., 0., 0., 1., 1., 0., 0., 0.,
          0., 0., 0., 0., 0., 0., 0., 1., 0., 1., 5., 5., 2., 1., 5., 3.,
          0., 0., 0., 0., 0., 0., 1., 1., 7., 16., 16., 14., 8., 6., 0.,
          2., 0., 1., 0., 0., 0., 0., 6., 29., 48., 47., 52., 32., 14.,
          7., 2., 1., 1., 0., 0., 0., 0., 12., 50., 113., 93., 100., 63.,
          28., 21., 11., 4., 5., 0., 1., 0., 1., 7., 80., 173., 190.,
          125., 71., 30., 22., 22., 8., 5., 3., 3., 1., 0., 10., 91.,
          309., 321., 118., 60., 42., 19., 5., 2., 3., 1., 0., 1. ]
      - [ 0., 14., 61., 97., 80., 40., 14., 3., 0., 1., 0., 0., 0., 0.,
          0., 0., 2., 40., 143., 155., 67., 17., 11., 1., 1., 0., 0., 0.,
          0., 0., 0., 1., 22., 117., 109., 145., 76., 22., 14., 0., 0.,
          0., 0., 0., 0., 0., 2., 4., 1., 8., 57., 71., 59., 17., 0., 0.,
          0., 0., 0., 0., 0., 0., 0., 0., 0., 2., 5., 3., 0., 0., 0., 0.,
          0., 0., 0., 0., 0., 0., 0., 0., 0., 0., 0., 0., 0., 0., 0., 0.,
          0., 0., 0., 0., 0., 0., 0., 0., 0., 0., 0., 0., 0., 0., 0., 0.,
          0., 0., 0., 0., 0., 0., 0., 0., 0., 0., 0., 0., 0., 0., 0., 0.,
          0., 0., 0., 0., 0., 0., 0., 0., 0., 0., 0., 0., 0., 0., 0., 0.,
          0., 0., 0., 0., 0., 0., 0., 0., 0., 0., 0., 0., 0., 0., 0., 0.,
          0., 0., 0., 0., 0., 0., 0., 0., 0., 0., 0., 0., 0., 0., 0., 0.,
          0., 0., 0., 0., 0., 0., 0., 0., 0., 0., 0., 0., 0., 0., 0., 0.,
          0., 0., 0., 0., 0., 0., 0., 0., 0., 0., 0., 0., 0., 7., 63.,
          2., 0., 0., 0., 0., 0., 0., 0., 0., 0., 0., 0., 1., 167., 186.,
          35., 3., 1., 1., 0., 0., 0., 0., 0., 0., 0., 0., 0., 190.,
          175., 17., 2., 1., 0., 0., 0., 0., 0., 0., 0., 0., 0., 0.,
          131., 152., 29., 2., 0., 0., 0., 0., 0., 0., 0., 0., 0., 0.,
          9., 146., 148., 58., 12., 5., 0., 0., 0., 0., 0., 0., 0., 0. ]
      - [ 0., 0., 17., 191., 500., 257., 83., 35., 10., 2., 0., 0., 0.,
          0., 0., 0., 0., 0., 15., 16., 20., 10., 3., 3., 0., 0., 0., 0.,
          0., 0., 0., 0., 0., 0., 0., 0., 0., 0., 0., 0., 0., 0., 0., 0.,
          0., 0., 0., 0., 0., 0., 0., 0., 0., 0., 0., 0., 0., 0., 0., 0.,
          0., 0., 0., 0., 0., 0., 0., 0., 0., 0., 0., 0., 0., 0., 0., 0.,
          0., 0., 0., 0., 0., 0., 0., 0., 0., 0., 0., 0., 0., 0., 0., 0.,
          0., 0., 0., 0., 0., 0., 0., 0., 0., 0., 0., 0., 0., 0., 0., 0.,
          0., 0., 0., 0., 0., 0., 0., 0., 0., 0., 0., 0., 0., 0., 0., 0.,
          0., 0., 0., 0., 0., 0., 0., 0., 0., 0., 0., 0., 0., 0., 0., 0.,
          0., 0., 0., 0., 0., 0., 0., 0., 0., 0., 0., 0., 0., 0., 0., 0.,
          0., 0., 0., 0., 0., 0., 0., 0., 0., 0., 0., 0., 0., 0., 0., 0.,
          0., 0., 0., 0., 0., 0., 0., 0., 0., 0., 0., 0., 0., 0., 0., 0.,
          0., 0., 0., 0., 0., 0., 0., 0., 0., 0., 0., 0., 0., 0., 0., 0.,
          0., 0., 0., 0., 0., 0., 0., 0., 0., 1., 1., 1., 0., 0., 0., 0.,
          0., 0., 0., 0., 0., 0., 0., 1., 8., 13., 5., 4., 0., 1., 0.,
          1., 0., 0., 0., 0., 0., 0., 15., 72., 73., 73., 22., 16., 5.,
          8., 0., 2., 1., 1., 1., 0., 0., 48., 358., 676., 291., 109.,
          24., 20., 7., 3., 1., 1., 0., 0. ]
      - [ 0., 2., 9., 51., 170., 217., 187., 164., 97., 44., 13., 13.,
          10., 8., 8., 0., 0., 1., 20., 32., 57., 33., 19., 15., 12., 7.,
          3., 1., 0., 0., 0., 0., 3., 2., 9., 6., 0., 0., 0., 0., 0., 0.,
          0., 0., 0., 0., 0., 1., 0., 0., 1., 0., 0., 0., 0., 0., 0., 0.,
          0., 0., 0., 0., 0., 0., 0., 0., 0., 0., 0., 0., 0., 0., 0., 0.,
          0., 0., 0., 0., 0., 0., 0., 0., 0., 0., 0., 0., 0., 0., 0., 0.,
          0., 0., 0., 0., 0., 0., 0., 0., 0., 0., 0., 0., 0., 0., 0., 0.,
          0., 0., 0., 0., 0., 0., 0., 0., 0., 0., 0., 0., 0., 0., 0., 0.,
          0., 0., 0., 0., 0., 0., 0., 0., 0., 0., 0., 0., 0., 0., 0., 0.,
          0., 0., 0., 0., 0., 0., 0., 0., 0., 0., 0., 0., 0., 0., 0., 0.,
          0., 0., 0., 0., 0., 0., 0., 0., 0., 0., 0., 0., 0., 0., 0., 0.,
          0., 0., 0., 0., 0., 0., 0., 0., 0., 0., 0., 0., 0., 0., 0., 0.,
          0., 0., 0., 0., 0., 0., 0., 0., 0., 0., 0., 0., 0., 0., 0., 0.,
          0., 0., 0., 0., 0., 0., 0., 0., 0., 0., 0., 1., 0., 0., 0., 0.,
          0., 0., 0., 0., 0., 0., 0., 0., 0., 2., 2., 3., 8., 9., 11.,
          2., 1., 0., 0., 1., 0., 1., 0., 0., 1., 8., 49., 79., 159.,
          102., 34., 10., 3., 4., 2., 1., 1., 0., 0., 14., 56., 227.,
          338., 367., 172., 66., 41., 20., 13., 1., 1., 0. ]
      - [ 0., 0., 15., 175., 461., 227., 76., 34., 11., 2., 0., 0., 0.,
          0., 0., 0., 0., 0., 19., 15., 19., 7., 1., 1., 0., 0., 0., 0.,
          0., 0., 0., 0., 0., 0., 0., 0., 0., 0., 0., 0., 0., 0., 0., 0.,
          0., 0., 0., 0., 0., 0., 0., 0., 0., 0., 0., 0., 0., 0., 0., 0.,
          0., 0., 0., 0., 0., 0., 0., 0., 0., 0., 0., 0., 0., 0., 0., 0.,
          0., 0., 0., 0., 0., 0., 0., 0., 0., 0., 0., 0., 0., 0., 0., 0.,
          0., 0., 0., 0., 0., 0., 0., 0., 0., 0., 0., 0., 0., 0., 0., 0.,
          0., 0., 0., 0., 0., 0., 0., 0., 0., 0., 0., 0., 0., 0., 0., 0.,
          0., 0., 0., 0., 0., 0., 0., 0., 0., 0., 0., 0., 0., 0., 0., 0.,
          0., 0., 0., 0., 0., 0., 0., 0., 0., 0., 0., 0., 0., 0., 0., 0.,
          0., 0., 0., 0., 0., 0., 0., 0., 0., 0., 0., 0., 0., 0., 0., 0.,
          0., 0., 0., 0., 0., 0., 0., 0., 0., 0., 0., 0., 0., 0., 0., 0.,
          0., 0., 0., 0., 0., 0., 0., 0., 0., 0., 0., 0., 0., 0., 0., 0.,
          0., 0., 0., 0., 0., 0., 0., 0., 0., 1., 1., 1., 0., 0., 0., 0.,
          0., 0., 0., 0., 0., 0., 0., 1., 5., 10., 4., 3., 0., 0., 1.,
          1., 1., 0., 0., 0., 0., 0., 21., 86., 116., 91., 24., 20., 8.,
          8., 1., 3., 2., 1., 1., 0., 0., 39., 412., 652., 266., 115.,
          29., 25., 7., 3., 2., 1., 0., 0. ]
      - [ 0., 0., 30., 290., 604., 465., 99., 7., 0., 0., 0., 0., 0., 0.,
          0., 0., 0., 1., 44., 173., 93., 95., 7., 0., 0., 0., 0., 0.,
          0., 0., 0., 0., 0., 0., 9., 12., 0., 0., 0., 0., 0., 0., 0.,
          0., 0., 0., 0., 0., 0., 0., 0., 0., 0., 0., 0., 0., 0., 0., 0.,
          0., 0., 0., 0., 0., 0., 0., 0., 0., 0., 0., 0., 0., 0., 0., 0.,
          0., 0., 0., 0., 0., 0., 0., 0., 0., 0., 0., 0., 0., 0., 0., 0.,
          0., 0., 0., 0., 0., 0., 0., 0., 0., 0., 0., 0., 0., 0., 0., 0.,
          0., 0., 0., 0., 0., 0., 0., 0., 0., 0., 0., 0., 0., 0., 0., 0.,
          0., 0., 0., 0., 0., 0., 0., 0., 0., 0., 0., 0., 0., 0., 0., 0.,
          0., 0., 0., 0., 0., 0., 0., 0., 0., 0., 0., 0., 0., 0., 0., 0.,
          0., 0., 0., 0., 0., 0., 0., 0., 0., 0., 0., 0., 0., 0., 0., 0.,
          0., 0., 0., 0., 0., 0., 0., 0., 0., 0., 0., 0., 0., 0., 0., 0.,
          0., 0., 0., 0., 0., 0., 0., 0., 0., 0., 0., 0., 0., 0., 0., 0.,
          0., 0., 0., 0., 0., 0., 0., 0., 0., 0., 0., 0., 0., 0., 0., 0.,
          0., 0., 0., 0., 0., 0., 0., 0., 0., 0., 3., 0., 0., 0., 0., 0.,
          0., 0., 0., 0., 0., 0., 0., 1., 15., 28., 12., 1., 1., 4., 4.,
          1., 0., 0., 0., 0., 0., 0., 20., 288., 442., 191., 50., 19.,
          7., 5., 2., 2., 0., 0., 0. ]
      - [ 10., 0., 1., 16., 63., 64., 56., 50., 73., 54., 69., 91., 68.,
          50., 61., 0., 0., 2., 21., 77., 94., 89., 125., 116., 136.,
          120., 116., 68., 75., 110., 0., 0., 2., 8., 29., 28., 41., 82.,
          87., 77., 47., 47., 37., 15., 44., 0., 0., 2., 6., 10., 22.,
          23., 27., 25., 28., 17., 19., 13., 9., 12., 0., 0., 0., 0., 4.,
          4., 8., 3., 8., 8., 9., 6., 4., 7., 1., 0., 0., 0., 0., 1., 2.,
          2., 7., 2., 0., 1., 9., 0., 0., 4., 0., 0., 0., 0., 0., 0., 1.,
          0., 0., 0., 1., 0., 1., 0., 0., 0., 0., 0., 0., 1., 3., 0., 1.,
          0., 0., 0., 0., 0., 0., 0., 0., 0., 0., 0., 0., 0., 0., 0., 0.,
          0., 0., 1., 0., 0., 0., 0., 0., 0., 0., 0., 0., 0., 0., 0., 0.,
          0., 0., 1., 0., 0., 0., 0., 0., 0., 0., 0., 0., 0., 0., 0., 0.,
          0., 0., 0., 0., 0., 0., 1., 1., 0., 0., 0., 3., 1., 0., 1., 0.,
          0., 0., 0., 0., 1., 3., 1., 4., 1., 0., 1., 0., 0., 0., 0., 0.,
          0., 0., 0., 0., 0., 0., 2., 1., 3., 0., 0., 1., 2., 0., 0., 0.,
          0., 0., 0., 0., 0., 0., 0., 2., 3., 2., 1., 1., 1., 0., 0., 0.,
          0., 0., 0., 0., 0., 1., 0., 1., 1., 2., 0., 1., 2., 0., 2., 0.,
          0., 2., 0., 4., 8., 2., 5., 3., 6., 2., 4., 5., 1., 0., 0., 0.,
          0., 4., 16., 20., 21., 10., 25., 21., 24., 35., 15., 5., 8. ]
      - [ 2., 13., 77., 157., 127., 102., 51., 13., 1., 3., 0., 0., 0.,
          0., 0., 0., 9., 13., 14., 10., 22., 14., 10., 1., 3., 0., 0.,
          0., 0., 0., 0., 0., 1., 2., 0., 1., 0., 2., 0., 0., 0., 0., 0.,
          0., 0., 0., 1., 3., 3., 0., 0., 0., 0., 0., 0., 0., 0., 0., 0.,
          0., 0., 0., 0., 0., 0., 0., 0., 0., 0., 0., 0., 0., 0., 0., 0.,
          0., 0., 0., 0., 0., 0., 0., 0., 0., 0., 0., 0., 0., 0., 0., 0.,
          0., 0., 0., 0., 0., 0., 0., 0., 0., 0., 0., 0., 0., 0., 0., 0.,
          0., 0., 0., 0., 0., 0., 0., 0., 0., 0., 0., 0., 0., 0., 0., 0.,
          0., 0., 0., 0., 0., 0., 0., 0., 0., 0., 0., 0., 0., 0., 0., 0.,
          0., 0., 0., 0., 0., 0., 0., 0., 0., 0., 0., 0., 0., 0., 0., 0.,
          0., 0., 0., 0., 0., 0., 0., 0., 0., 0., 0., 0., 0., 0., 0., 0.,
          0., 0., 0., 0., 0., 0., 0., 0., 0., 0., 0., 1., 0., 0., 0., 0.,
          0., 0., 0., 0., 0., 0., 0., 0., 0., 2., 4., 2., 6., 2., 0., 2.,
          0., 0., 0., 1., 0., 0., 0., 1., 5., 24., 28., 19., 8., 9., 6.,
          6., 6., 2., 1., 0., 1., 0., 0., 32., 75., 90., 61., 67., 61.,
          20., 23., 8., 8., 4., 1., 0., 0., 1., 28., 147., 198., 201.,
          119., 83., 33., 14., 6., 4., 2., 0., 0., 0., 1., 21., 152.,
          330., 259., 122., 37., 16., 5., 4., 1., 0., 0., 0., 0. ]
      - [ 0., 0., 2., 13., 31., 11., 4., 3., 0., 0., 0., 0., 0., 0., 0.,
          0., 0., 3., 26., 24., 14., 6., 0., 0., 0., 0., 0., 0., 0., 0.,
          0., 15., 41., 33., 13., 1., 0., 0., 0., 0., 0., 0., 0., 0., 0.,
          0., 26., 322., 531., 101., 1., 0., 0., 0., 0., 0., 0., 0., 0.,
          0., 0., 56., 457., 1061., 152., 0., 0., 0., 0., 0., 0., 0., 0.,
          0., 0., 0., 3., 8., 0., 0., 0., 0., 0., 0., 0., 0., 0., 0., 0.,
          0., 0., 0., 0., 0., 0., 0., 0., 0., 0., 0., 0., 0., 0., 0., 0.,
          0., 0., 0., 0., 0., 0., 0., 0., 0., 0., 0., 0., 0., 0., 0., 0.,
          0., 0., 0., 0., 0., 0., 0., 0., 0., 0., 0., 0., 0., 0., 0., 0.,
          0., 0., 0., 0., 0., 0., 0., 0., 0., 0., 0., 0., 0., 0., 0., 0.,
          0., 0., 0., 0., 0., 0., 0., 0., 0., 0., 0., 0., 0., 0., 0., 0.,
          0., 0., 0., 0., 0., 0., 0., 0., 0., 0., 0., 0., 0., 0., 0., 0.,
          0., 0., 0., 0., 0., 0., 0., 0., 0., 0., 0., 0., 0., 0., 0., 0.,
          0., 0., 0., 0., 0., 0., 0., 0., 0., 0., 0., 0., 0., 0., 0., 0.,
          0., 0., 0., 0., 0., 0., 0., 0., 0., 0., 0., 10., 0., 0., 0.,
          0., 0., 0., 0., 0., 0., 0., 0., 0., 0., 0., 3., 7., 0., 0., 0.,
          0., 0., 0., 0., 0., 0., 0., 0., 0., 1., 8., 18., 16., 4., 0.,
          0., 0., 0., 0., 0., 0., 0. ]
      - [ 10., 33., 88., 137., 115., 60., 23., 6., 7., 4., 4., 1., 2.,
          1., 1., 4., 23., 42., 61., 67., 56., 36., 14., 3., 0., 1., 3.,
          0., 0., 0., 1., 9., 12., 5., 13., 13., 11., 11., 5., 1., 0.,
          0., 0., 0., 0., 3., 1., 6., 3., 1., 7., 1., 1., 2., 9., 3., 5.,
          3., 0., 0., 1., 0., 2., 0., 0., 0., 0., 0., 0., 0., 0., 0., 0.,
          0., 0., 0., 0., 0., 0., 0., 0., 0., 0., 0., 0., 0., 0., 0., 0.,
          0., 0., 0., 0., 0., 0., 0., 0., 0., 0., 0., 0., 0., 0., 0., 0.,
          0., 0., 0., 0., 0., 0., 0., 0., 0., 0., 0., 0., 0., 0., 0., 0.,
          0., 0., 0., 0., 0., 0., 0., 0., 0., 0., 0., 0., 0., 0., 0., 0.,
          0., 0., 0., 0., 0., 0., 0., 0., 0., 0., 0., 0., 0., 0., 0., 0.,
          0., 0., 0., 0., 0., 0., 0., 0., 0., 0., 0., 0., 2., 0., 0., 0.,
          0., 0., 0., 0., 0., 0., 0., 0., 0., 0., 0., 8., 2., 0., 0., 0.,
          0., 0., 0., 0., 0., 0., 0., 0., 0., 0., 5., 5., 6., 2., 0., 0.,
          0., 0., 0., 0., 0., 0., 0., 0., 0., 4., 7., 11., 18., 8., 5.,
          3., 4., 0., 0., 0., 0., 0., 0., 0., 7., 12., 30., 105., 55.,
          10., 6., 4., 5., 1., 2., 0., 0., 0., 0., 7., 14., 79., 290.,
          309., 71., 25., 8., 2., 1., 1., 0., 0., 0., 0., 2., 35., 90.,
          391., 328., 68., 29., 6., 2., 4., 0., 0., 3., 2., 0. ]
      - [ 14., 9., 49., 79., 214., 247., 128., 49., 28., 16., 10., 6.,
          5., 0., 1., 0., 8., 20., 77., 256., 265., 193., 107., 44., 33.,
          23., 8., 6., 3., 6., 0., 1., 12., 42., 64., 94., 39., 16., 13.,
          4., 6., 2., 3., 1., 2., 1., 4., 12., 10., 13., 16., 9., 1., 6.,
          2., 0., 3., 2., 2., 7., 0., 1., 0., 1., 3., 7., 4., 1., 3., 3.,
          1., 1., 0., 0., 0., 0., 0., 5., 3., 7., 0., 5., 1., 3., 0., 1.,
          0., 0., 0., 0., 0., 0., 0., 2., 1., 0., 4., 1., 1., 0., 1., 0.,
          0., 0., 0., 0., 3., 6., 1., 1., 0., 0., 0., 1., 2., 0., 0., 0.,
          0., 0., 0., 0., 1., 1., 0., 2., 0., 2., 1., 0., 0., 2., 0., 0.,
          0., 0., 0., 0., 1., 2., 1., 1., 1., 0., 1., 0., 0., 1., 0., 0.,
          0., 0., 0., 0., 1., 1., 2., 0., 0., 2., 1., 0., 0., 0., 0., 0.,
          0., 2., 5., 3., 3., 3., 4., 3., 0., 0., 0., 0., 0., 0., 0., 3.,
          8., 8., 12., 5., 3., 4., 4., 5., 2., 1., 1., 0., 0., 0., 0.,
          0., 4., 4., 2., 12., 9., 6., 3., 1., 0., 1., 0., 0., 1., 0.,
          12., 5., 7., 9., 12., 6., 10., 3., 0., 1., 1., 0., 0., 0., 0.,
          2., 2., 7., 11., 6., 12., 7., 1., 3., 5., 3., 2., 0., 0., 9.,
          13., 14., 10., 17., 10., 6., 5., 4., 9., 4., 4., 2., 0., 0.,
          2., 30., 61., 44., 62., 25., 18., 14., 9., 6., 4., 4., 1., 0. ]
      - [ 0., 0., 15., 69., 186., 131., 15., 2., 0., 0., 0., 0., 0., 0.,
          0., 0., 2., 15., 97., 434., 660., 260., 45., 0., 0., 0., 0.,
          0., 0., 0., 0., 0., 0., 19., 147., 572., 251., 38., 1., 0., 0.,
          0., 0., 0., 0., 0., 0., 0., 1., 3., 6., 1., 0., 0., 0., 0., 0.,
          0., 0., 0., 0., 0., 0., 0., 0., 0., 0., 0., 0., 0., 0., 0., 0.,
          0., 0., 0., 0., 0., 0., 0., 0., 0., 0., 0., 0., 0., 0., 0., 0.,
          0., 0., 0., 0., 0., 0., 0., 0., 0., 0., 0., 0., 0., 0., 0., 0.,
          0., 0., 0., 0., 0., 0., 0., 0., 0., 0., 0., 0., 0., 0., 0., 0.,
          0., 0., 0., 0., 0., 0., 0., 0., 0., 0., 0., 0., 0., 0., 0., 0.,
          0., 0., 0., 0., 0., 0., 0., 0., 0., 0., 0., 0., 0., 0., 0., 0.,
          0., 0., 0., 0., 0., 0., 0., 0., 0., 0., 0., 0., 0., 0., 0., 0.,
          0., 0., 0., 0., 0., 0., 0., 0., 0., 0., 0., 0., 0., 0., 0., 0.,
          0., 0., 0., 0., 0., 0., 0., 0., 0., 0., 0., 0., 0., 0., 0., 0.,
          0., 0., 0., 0., 0., 0., 0., 0., 0., 0., 0., 0., 0., 0., 0., 0.,
          0., 0., 0., 0., 0., 0., 0., 0., 0., 0., 0., 0., 0., 0., 0., 0.,
          0., 0., 0., 0., 0., 0., 0., 0., 0., 0., 1., 4., 2., 0., 0., 0.,
          0., 0., 0., 0., 0., 0., 0., 0., 3., 19., 18., 6., 2., 0., 0.,
          0., 0., 0., 0., 0., 0. ]
      - [ 1., 13., 65., 146., 143., 88., 44., 7., 0., 0., 0., 0., 0., 0.,
          0., 0., 6., 26., 39., 49., 30., 16., 11., 0., 0., 0., 0., 0.,
          0., 0., 1., 1., 13., 19., 15., 0., 0., 0., 0., 0., 0., 0., 0.,
          0., 0., 0., 1., 6., 10., 1., 0., 0., 0., 0., 0., 0., 0., 0.,
          0., 0., 0., 0., 0., 0., 0., 0., 0., 0., 0., 0., 0., 0., 0., 0.,
          0., 0., 0., 0., 0., 0., 0., 0., 0., 0., 0., 0., 0., 0., 0., 0.,
          0., 0., 0., 0., 0., 0., 0., 0., 0., 0., 0., 0., 0., 0., 0., 0.,
          0., 0., 0., 0., 0., 0., 0., 0., 0., 0., 0., 0., 0., 0., 0., 0.,
          0., 0., 0., 0., 0., 0., 0., 0., 0., 0., 0., 0., 0., 0., 0., 0.,
          0., 0., 0., 0., 0., 0., 0., 0., 0., 0., 0., 0., 0., 0., 0., 0.,
          0., 0., 0., 0., 0., 0., 0., 0., 0., 0., 0., 0., 1., 0., 1., 0.,
          0., 0., 0., 0., 0., 0., 0., 0., 0., 0., 1., 6., 5., 2., 2., 0.,
          0., 0., 0., 0., 0., 0., 0., 0., 0., 0., 7., 11., 5., 10., 12.,
          5., 1., 0., 0., 0., 0., 0., 0., 0., 1., 8., 25., 47., 45., 35.,
          15., 11., 0., 0., 0., 0., 0., 0., 0., 1., 19., 62., 109., 103.,
          58., 39., 14., 6., 0., 0., 0., 0., 0., 0., 4., 22., 100., 220.,
          212., 93., 45., 16., 2., 1., 0., 2., 0., 0., 0., 0., 21., 119.,
          368., 243., 109., 23., 6., 0., 1., 0., 0., 0., 0., 0. ]
      - [ 0., 0., 23., 262., 431., 220., 54., 22., 6., 2., 2., 1., 0.,
          0., 0., 0., 0., 0., 7., 15., 17., 9., 5., 4., 1., 0., 0., 0.,
          0., 0., 0., 0., 0., 0., 0., 0., 0., 0., 0., 0., 0., 0., 0., 0.,
          0., 0., 0., 0., 0., 0., 0., 0., 0., 0., 0., 0., 0., 0., 0., 0.,
          0., 0., 0., 0., 0., 0., 0., 0., 0., 0., 0., 0., 0., 0., 0., 0.,
          0., 0., 0., 0., 0., 0., 0., 0., 0., 0., 0., 0., 0., 0., 0., 0.,
          0., 0., 0., 0., 0., 0., 0., 0., 0., 0., 0., 0., 0., 0., 0., 0.,
          0., 0., 0., 0., 0., 0., 0., 0., 0., 0., 0., 0., 0., 0., 0., 0.,
          0., 0., 0., 0., 0., 0., 0., 0., 0., 0., 0., 0., 0., 0., 0., 0.,
          0., 0., 0., 0., 0., 0., 0., 0., 0., 0., 0., 0., 0., 0., 0., 0.,
          0., 0., 0., 0., 0., 0., 0., 0., 0., 0., 0., 0., 0., 0., 0., 0.,
          0., 0., 0., 0., 0., 0., 0., 0., 0., 0., 0., 0., 0., 0., 0., 0.,
          0., 0., 0., 0., 0., 0., 0., 0., 0., 0., 0., 0., 0., 0., 0., 0.,
          0., 0., 0., 0., 0., 0., 0., 0., 1., 3., 2., 3., 1., 0., 0., 0.,
          0., 0., 0., 0., 0., 0., 0., 3., 19., 8., 2., 3., 0., 1., 0.,
          0., 0., 0., 0., 0., 0., 0., 22., 134., 98., 43., 10., 11., 6.,
          1., 1., 0., 0., 0., 0., 0., 0., 68., 448., 708., 230., 77.,
          25., 9., 5., 2., 0., 0., 0., 0. ]
      - [ 4., 21., 115., 181., 142., 104., 54., 15., 3., 3., 0., 0., 0.,
          0., 0., 0., 8., 20., 28., 20., 28., 15., 11., 1., 3., 0., 0.,
          0., 0., 0., 0., 0., 3., 4., 4., 4., 0., 2., 0., 0., 0., 0., 0.,
          0., 0., 1., 1., 3., 3., 0., 0., 0., 0., 0., 0., 0., 0., 0., 0.,
          0., 0., 0., 0., 0., 0., 0., 0., 0., 0., 0., 0., 0., 0., 0., 0.,
          0., 0., 0., 0., 0., 0., 0., 0., 0., 0., 0., 0., 0., 0., 0., 0.,
          0., 0., 0., 0., 0., 0., 0., 0., 0., 0., 0., 0., 0., 0., 0., 0.,
          0., 0., 0., 0., 0., 0., 0., 0., 0., 0., 0., 0., 0., 0., 0., 0.,
          0., 0., 0., 0., 0., 0., 0., 0., 0., 0., 0., 0., 0., 0., 0., 0.,
          0., 0., 0., 0., 0., 0., 0., 0., 0., 0., 0., 0., 0., 0., 0., 0.,
          0., 0., 0., 0., 0., 0., 0., 0., 0., 0., 0., 0., 0., 0., 0., 0.,
          0., 0., 0., 0., 0., 0., 0., 0., 0., 0., 0., 1., 0., 0., 0., 0.,
          0., 0., 0., 0., 0., 0., 0., 0., 0., 5., 5., 6., 9., 5., 0., 4.,
          1., 0., 0., 0., 0., 0., 0., 2., 9., 30., 26., 14., 5., 5., 6.,
          4., 6., 1., 0., 0., 0., 0., 0., 34., 78., 81., 42., 40., 39.,
          14., 17., 8., 5., 6., 0., 0., 0., 1., 30., 140., 196., 204.,
          89., 59., 24., 12., 7., 3., 2., 0., 0., 0., 1., 26., 177.,
          333., 248., 112., 34., 15., 0., 2., 1., 0., 0., 0., 0. ]
      - [ 0., 1., 4., 15., 29., 51., 201., 315., 294., 127., 28., 14.,
          2., 0., 0., 0., 1., 5., 1., 9., 49., 163., 145., 125., 60.,
          10., 2., 0., 0., 0., 0., 0., 0., 1., 8., 17., 23., 29., 20.,
          12., 1., 0., 0., 0., 0., 0., 0., 0., 1., 11., 13., 10., 6., 6.,
          3., 0., 0., 0., 0., 0., 0., 0., 0., 1., 1., 0., 0., 0., 0., 0.,
          0., 0., 0., 0., 0., 0., 0., 0., 0., 0., 0., 0., 0., 0., 0., 0.,
          0., 0., 0., 0., 0., 0., 0., 0., 0., 0., 0., 0., 0., 0., 0., 0.,
          0., 0., 0., 0., 0., 0., 0., 0., 0., 0., 0., 0., 0., 0., 0., 0.,
          0., 0., 0., 0., 0., 0., 0., 0., 0., 0., 0., 0., 0., 0., 0., 0.,
          0., 0., 0., 0., 0., 0., 0., 0., 0., 0., 0., 0., 0., 0., 0., 0.,
          0., 0., 0., 0., 0., 0., 0., 0., 0., 0., 0., 0., 0., 0., 0., 0.,
          0., 0., 0., 0., 0., 0., 0., 0., 0., 0., 0., 0., 0., 0., 1., 2.,
          3., 1., 0., 0., 0., 0., 0., 0., 0., 0., 0., 0., 0., 0., 3., 7.,
          28., 66., 44., 6., 9., 0., 0., 0., 0., 0., 0., 0., 1., 2., 4.,
          74., 262., 108., 23., 3., 0., 1., 0., 0., 0., 0., 0., 0., 0.,
          8., 76., 101., 32., 17., 9., 7., 0., 0., 0., 0., 0., 0., 0.,
          0., 5., 14., 22., 18., 23., 22., 3., 0., 0., 0., 0., 0., 0.,
          0., 3., 3., 14., 17., 18., 57., 56., 31., 7., 0., 0., 0., 0.,
          0. ]
      - [ 0., 0., 9., 50., 54., 64., 127., 183., 149., 53., 10., 0., 0.,
          0., 0., 0., 0., 0., 2., 3., 23., 136., 407., 445., 133., 43.,
          14., 1., 1., 0., 0., 0., 0., 0., 0., 3., 28., 46., 28., 12.,
          1., 0., 0., 0., 0., 0., 0., 0., 0., 0., 0., 0., 0., 0., 0., 1.,
          0., 0., 0., 0., 0., 0., 0., 0., 0., 0., 0., 0., 0., 0., 0., 0.,
          0., 0., 0., 0., 0., 0., 0., 0., 0., 0., 0., 0., 0., 0., 0., 0.,
          0., 0., 0., 0., 0., 0., 0., 0., 0., 0., 0., 0., 0., 0., 0., 0.,
          0., 0., 0., 0., 0., 0., 0., 0., 0., 0., 0., 0., 0., 0., 0., 0.,
          0., 0., 0., 0., 0., 0., 0., 0., 0., 0., 0., 0., 0., 0., 0., 0.,
          0., 0., 0., 0., 0., 0., 0., 0., 0., 0., 0., 0., 0., 0., 0., 0.,
          0., 0., 0., 0., 0., 0., 0., 0., 0., 0., 0., 0., 0., 0., 0., 0.,
          0., 0., 0., 0., 0., 0., 0., 0., 0., 0., 0., 0., 0., 0., 0., 0.,
          0., 0., 0., 0., 0., 0., 0., 0., 0., 0., 0., 0., 0., 0., 0., 0.,
          0., 0., 0., 0., 0., 0., 0., 0., 0., 0., 0., 0., 0., 0., 0., 0.,
          0., 0., 0., 0., 0., 0., 0., 0., 0., 0., 9., 45., 27., 6., 0.,
          0., 0., 0., 0., 0., 0., 0., 0., 0., 0., 0., 37., 169., 128.,
          30., 10., 3., 4., 1., 0., 0., 0., 0., 0., 0., 2., 17., 171.,
          221., 84., 14., 17., 4., 0., 0., 0., 0., 0., 0. ]
      - [ 7., 60., 126., 165., 114., 38., 12., 2., 1., 0., 0., 0., 0.,
          0., 0., 1., 21., 70., 99., 74., 20., 5., 3., 0., 0., 0., 0.,
          0., 0., 0., 4., 4., 7., 13., 6., 6., 2., 0., 0., 0., 0., 0.,
          0., 0., 0., 0., 3., 1., 0., 0., 0., 0., 0., 0., 0., 0., 0., 0.,
          0., 0., 0., 1., 0., 0., 0., 0., 0., 0., 0., 0., 0., 0., 0., 0.,
          0., 2., 0., 0., 0., 0., 0., 0., 0., 0., 0., 0., 0., 0., 0., 0.,
          0., 0., 0., 0., 0., 0., 0., 0., 0., 0., 0., 0., 0., 0., 0., 2.,
          0., 0., 0., 0., 0., 0., 0., 0., 0., 0., 0., 0., 0., 0., 1., 0.,
          0., 0., 0., 0., 0., 0., 0., 0., 0., 0., 0., 0., 0., 0., 1., 0.,
          0., 0., 0., 0., 0., 0., 0., 0., 0., 0., 0., 0., 0., 2., 1., 4.,
          2., 0., 0., 0., 0., 0., 0., 0., 0., 0., 0., 0., 2., 5., 7., 4.,
          0., 0., 0., 0., 0., 0., 0., 0., 0., 0., 3., 4., 25., 20., 16.,
          6., 0., 0., 0., 0., 0., 0., 0., 0., 0., 4., 15., 49., 53., 44.,
          33., 5., 0., 0., 0., 0., 0., 0., 0., 0., 7., 35., 101., 101.,
          81., 40., 6., 1., 0., 0., 0., 0., 0., 0., 0., 3., 68., 131.,
          103., 70., 16., 3., 0., 0., 0., 0., 0., 0., 0., 0., 5., 52.,
          148., 148., 79., 25., 2., 0., 0., 0., 0., 0., 0., 0., 0., 6.,
          62., 162., 233., 108., 42., 11., 1., 0., 0., 0., 0., 0., 0.,
          0. ]
      - [ 0., 8., 55., 134., 176., 143., 84., 52., 30., 10., 3., 1., 0.,
          0., 3., 1., 5., 12., 10., 44., 38., 26., 15., 9., 1., 0., 0.,
          0., 0., 0., 0., 2., 1., 1., 0., 0., 0., 0., 0., 0., 0., 0., 0.,
          0., 0., 0., 0., 0., 0., 0., 0., 0., 0., 0., 0., 0., 0., 0., 0.,
          0., 0., 0., 0., 0., 0., 0., 0., 0., 0., 0., 0., 0., 0., 0., 0.,
          0., 0., 0., 0., 0., 0., 0., 0., 0., 0., 0., 0., 0., 0., 0., 0.,
          0., 0., 0., 0., 0., 0., 0., 0., 0., 0., 0., 0., 0., 0., 0., 0.,
          0., 0., 0., 0., 0., 0., 0., 0., 0., 0., 0., 0., 0., 0., 0., 0.,
          0., 0., 0., 0., 0., 0., 0., 0., 0., 0., 0., 0., 0., 0., 0., 0.,
          0., 0., 0., 0., 0., 0., 0., 0., 0., 0., 0., 0., 0., 0., 0., 0.,
          0., 0., 0., 0., 0., 0., 0., 0., 0., 0., 0., 0., 0., 0., 0., 0.,
          0., 0., 0., 0., 0., 0., 0., 0., 0., 0., 2., 5., 3., 0., 0., 0.,
          0., 0., 0., 0., 0., 0., 0., 0., 0., 2., 5., 6., 9., 7., 3., 0.,
          3., 1., 0., 1., 1., 0., 1., 0., 5., 23., 40., 54., 29., 14.,
          1., 2., 5., 4., 1., 0., 2., 0., 1., 14., 47., 96., 86., 53.,
          28., 10., 9., 5., 4., 1., 2., 0., 0., 0., 14., 53., 145., 163.,
          113., 69., 42., 21., 14., 14., 5., 4., 3., 3., 0., 13., 101.,
          217., 246., 170., 69., 42., 21., 13., 6., 6., 3., 2., 4. ]
      - [ 0., 0., 0., 0., 13., 127., 403., 537., 395., 92., 29., 13., 3.,
          2., 2., 0., 0., 0., 0., 4., 53., 222., 472., 372., 139., 43.,
          12., 3., 1., 0., 0., 0., 0., 2., 4., 4., 11., 7., 9., 4., 0.,
          0., 0., 0., 0., 0., 0., 0., 1., 0., 0., 0., 0., 0., 0., 0., 0.,
          0., 0., 0., 0., 0., 0., 0., 0., 0., 0., 0., 0., 0., 0., 0., 0.,
          0., 0., 0., 0., 0., 0., 0., 0., 0., 0., 0., 0., 0., 0., 0., 0.,
          0., 0., 0., 0., 0., 0., 0., 0., 0., 0., 0., 0., 0., 0., 0., 0.,
          0., 0., 0., 0., 0., 0., 0., 0., 0., 0., 0., 0., 0., 0., 0., 0.,
          0., 0., 0., 0., 0., 0., 0., 0., 0., 0., 0., 0., 0., 0., 0., 0.,
          0., 0., 0., 0., 0., 0., 0., 0., 0., 0., 0., 0., 0., 0., 0., 0.,
          0., 0., 0., 0., 0., 0., 0., 0., 0., 0., 0., 0., 0., 0., 0., 0.,
          0., 0., 0., 0., 0., 0., 0., 0., 0., 0., 0., 0., 0., 0., 0., 0.,
          0., 0., 0., 0., 0., 0., 0., 0., 0., 0., 0., 0., 0., 0., 0., 0.,
          0., 0., 0., 0., 0., 0., 0., 0., 0., 0., 0., 0., 0., 0., 0., 0.,
          0., 0., 0., 0., 0., 0., 0., 0., 0., 0., 0., 0., 0., 0., 0., 0.,
          0., 0., 0., 0., 0., 0., 0., 0., 0., 0., 0., 0., 0., 0., 0., 0.,
          0., 0., 0., 0., 0., 0., 0., 0., 0., 0., 1., 11., 26., 7., 1.,
          0., 0., 0., 0., 0., 0. ]
      - [ 0., 25., 91., 230., 270., 124., 25., 5., 0., 0., 0., 0., 0.,
          0., 0., 0., 10., 33., 66., 69., 49., 18., 3., 2., 0., 0., 0.,
          0., 0., 0., 1., 2., 4., 3., 12., 9., 0., 0., 0., 0., 0., 0.,
          0., 0., 0., 1., 0., 0., 0., 1., 2., 0., 0., 0., 0., 0., 0., 0.,
          0., 0., 0., 0., 0., 0., 0., 0., 0., 0., 0., 0., 0., 0., 0., 0.,
          0., 0., 0., 0., 0., 0., 0., 0., 0., 0., 0., 0., 0., 0., 0., 0.,
          0., 0., 0., 0., 0., 0., 0., 0., 0., 0., 0., 0., 0., 0., 0., 0.,
          0., 0., 0., 0., 0., 0., 0., 0., 0., 0., 0., 0., 0., 0., 0., 0.,
          0., 0., 0., 0., 0., 0., 0., 0., 0., 0., 0., 0., 0., 0., 0., 0.,
          0., 0., 0., 0., 0., 0., 0., 0., 0., 0., 0., 0., 0., 0., 0., 0.,
          0., 0., 0., 0., 0., 0., 0., 0., 0., 0., 0., 0., 0., 1., 1., 0.,
          0., 0., 0., 0., 0., 0., 0., 0., 0., 0., 2., 3., 6., 10., 2.,
          0., 0., 0., 0., 0., 0., 0., 0., 0., 0., 0., 3., 14., 42., 18.,
          6., 0., 0., 0., 0., 0., 0., 0., 0., 0., 0., 19., 59., 89., 23.,
          2., 2., 3., 0., 0., 0., 0., 0., 0., 0., 0., 37., 141., 118.,
          59., 16., 7., 1., 1., 0., 0., 0., 0., 0., 0., 1., 39., 98.,
          164., 108., 27., 8., 7., 5., 0., 1., 0., 0., 0., 0., 1., 57.,
          118., 285., 276., 73., 10., 4., 3., 0., 0., 0., 0., 0., 0. ]
      - [ 0., 0., 25., 84., 181., 197., 97., 15., 8., 6., 3., 1., 0., 1.,
          1., 0., 0., 1., 18., 48., 63., 77., 66., 52., 60., 18., 8., 0.,
          0., 0., 0., 0., 0., 0., 1., 0., 2., 0., 0., 1., 1., 0., 0., 0.,
          0., 0., 0., 0., 0., 0., 0., 0., 0., 0., 0., 0., 0., 0., 0., 0.,
          0., 0., 0., 0., 0., 0., 0., 0., 0., 0., 0., 0., 0., 0., 0., 0.,
          0., 0., 0., 0., 0., 0., 0., 0., 0., 0., 0., 0., 0., 0., 0., 0.,
          0., 0., 0., 0., 0., 0., 0., 0., 0., 0., 0., 0., 0., 0., 0., 0.,
          0., 0., 0., 0., 0., 0., 0., 0., 0., 0., 0., 0., 0., 0., 0., 0.,
          0., 0., 0., 0., 0., 0., 0., 0., 0., 0., 0., 0., 0., 0., 0., 0.,
          0., 0., 0., 0., 0., 0., 0., 0., 0., 0., 0., 0., 0., 0., 0., 0.,
          0., 0., 0., 0., 0., 0., 0., 0., 0., 0., 0., 0., 0., 0., 0., 0.,
          0., 0., 0., 0., 0., 0., 0., 0., 0., 0., 1., 2., 2., 0., 0., 0.,
          0., 0., 0., 0., 0., 0., 0., 0., 0., 5., 4., 10., 12., 5., 1.,
          2., 0., 0., 0., 0., 0., 0., 0., 3., 16., 33., 48., 44., 19.,
          14., 1., 0., 0., 3., 1., 1., 0., 1., 12., 49., 84., 97., 60.,
          46., 19., 12., 3., 2., 0., 1., 0., 1., 2., 8., 65., 149., 136.,
          99., 52., 32., 9., 9., 2., 2., 0., 0., 0., 0., 7., 59., 202.,
          229., 161., 65., 37., 15., 15., 13., 4., 2., 1., 1. ]
      - [ 1., 22., 208., 292., 224., 125., 16., 6., 4., 4., 2., 0., 0.,
          0., 0., 0., 10., 81., 279., 248., 199., 87., 86., 50., 18., 5.,
          2., 0., 0., 0., 0., 2., 45., 162., 91., 70., 48., 36., 10., 2.,
          0., 0., 0., 0., 0., 0., 1., 8., 20., 16., 15., 21., 15., 1.,
          0., 0., 0., 0., 0., 0., 0., 0., 0., 0., 0., 0., 0., 0., 0., 0.,
          0., 0., 0., 0., 0., 0., 0., 0., 0., 0., 0., 0., 0., 0., 0., 0.,
          0., 0., 0., 0., 0., 0., 0., 0., 0., 0., 0., 0., 0., 0., 0., 0.,
          0., 0., 0., 0., 0., 0., 0., 0., 0., 0., 0., 0., 0., 0., 0., 0.,
          0., 0., 0., 0., 0., 0., 0., 0., 0., 0., 0., 0., 0., 0., 0., 0.,
          0., 0., 0., 0., 0., 0., 0., 0., 0., 0., 0., 0., 0., 0., 0., 0.,
          0., 0., 0., 0., 0., 0., 0., 0., 0., 0., 0., 0., 0., 0., 0., 0.,
          0., 0., 0., 0., 0., 0., 0., 0., 0., 0., 0., 0., 0., 0., 0., 0.,
          0., 0., 0., 0., 0., 0., 0., 0., 0., 0., 0., 0., 0., 0., 0., 0.,
          0., 1., 0., 0., 0., 0., 0., 0., 0., 0., 0., 0., 0., 1., 8., 5.,
          5., 3., 3., 1., 0., 0., 0., 0., 0., 0., 0., 0., 4., 13., 1.,
          9., 2., 1., 0., 0., 0., 0., 0., 0., 0., 0., 0., 6., 26., 32.,
          7., 7., 2., 0., 0., 0., 0., 0., 0., 0., 0., 1., 19., 71., 143.,
          71., 35., 14., 2., 0., 0., 0., 0., 0., 0., 0. ]
      - [ 2., 3., 26., 107., 211., 240., 128., 66., 38., 25., 25., 12.,
          9., 11., 8., 0., 2., 7., 54., 61., 60., 64., 40., 32., 29., 7.,
          3., 1., 2., 4., 0., 1., 4., 12., 10., 11., 12., 8., 4., 1., 0.,
          2., 0., 0., 0., 0., 0., 1., 0., 0., 0., 0., 0., 0., 0., 0., 0.,
          0., 0., 0., 0., 0., 0., 0., 0., 0., 0., 0., 0., 0., 0., 0., 0.,
          0., 0., 0., 0., 0., 0., 0., 0., 0., 0., 0., 0., 0., 0., 0., 0.,
          0., 0., 0., 0., 0., 0., 0., 0., 0., 0., 0., 0., 0., 0., 0., 0.,
          0., 0., 0., 0., 0., 0., 0., 0., 0., 0., 0., 0., 0., 0., 0., 0.,
          0., 0., 0., 0., 0., 0., 0., 0., 0., 0., 0., 0., 0., 0., 0., 0.,
          0., 0., 0., 0., 0., 0., 0., 0., 0., 0., 0., 0., 0., 0., 1., 0.,
          0., 0., 0., 0., 0., 0., 0., 0., 0., 0., 0., 0., 0., 0., 0., 1.,
          0., 0., 0., 0., 0., 0., 0., 0., 0., 0., 0., 0., 2., 1., 1., 1.,
          0., 1., 0., 1., 1., 0., 1., 0., 0., 0., 0., 2., 1., 3., 3., 8.,
          1., 3., 1., 1., 0., 1., 1., 0., 1., 1., 2., 5., 9., 6., 6., 7.,
          8., 5., 3., 2., 1., 0., 1., 3., 1., 7., 21., 26., 36., 32.,
          34., 8., 15., 9., 12., 9., 3., 3., 5., 1., 2., 30., 92., 96.,
          91., 49., 53., 29., 24., 15., 10., 10., 8., 11., 0., 6., 39.,
          171., 190., 130., 111., 60., 45., 22., 22., 22., 11., 10., 5. ]
      - [ 2., 10., 44., 130., 151., 121., 57., 33., 24., 12., 12., 6.,
          4., 5., 2., 0., 4., 7., 57., 60., 50., 29., 25., 11., 4., 7.,
          3., 1., 2., 4., 0., 1., 4., 12., 10., 11., 13., 11., 5., 1.,
          0., 2., 0., 0., 0., 0., 0., 0., 0., 0., 0., 0., 0., 0., 0., 0.,
          0., 0., 0., 0., 0., 0., 0., 0., 0., 0., 0., 0., 0., 0., 0., 0.,
          0., 0., 0., 0., 0., 0., 0., 0., 0., 0., 0., 0., 0., 0., 0., 0.,
          0., 0., 0., 0., 0., 0., 0., 0., 0., 0., 0., 0., 0., 0., 0., 0.,
          0., 0., 0., 0., 0., 0., 0., 0., 0., 0., 0., 0., 0., 0., 0., 0.,
          0., 0., 0., 0., 0., 0., 0., 0., 0., 0., 0., 0., 0., 0., 0., 0.,
          0., 0., 0., 0., 0., 0., 0., 0., 0., 0., 0., 0., 0., 0., 0., 0.,
          0., 0., 0., 0., 0., 0., 0., 0., 0., 0., 0., 0., 0., 1., 2., 1.,
          1., 0., 0., 0., 0., 0., 0., 0., 0., 0., 0., 0., 2., 5., 5.,
          11., 5., 3., 1., 2., 1., 1., 0., 1., 0., 0., 0., 1., 2., 11.,
          8., 20., 22., 6., 5., 6., 3., 1., 1., 1., 2., 2., 0., 3., 19.,
          25., 28., 17., 12., 12., 9., 10., 3., 5., 1., 1., 2., 0., 10.,
          34., 47., 79., 39., 44., 16., 16., 15., 15., 7., 5., 4., 4.,
          1., 3., 53., 111., 111., 95., 55., 59., 35., 25., 19., 11., 8.,
          5., 6., 2., 8., 68., 184., 206., 132., 97., 55., 46., 16., 19.,
          15., 10., 4., 4. ]
      - [ 2., 17., 57., 61., 65., 37., 28., 10., 8., 2., 0., 0., 0., 0.,
          0., 1., 8., 17., 29., 18., 15., 3., 1., 0., 0., 0., 0., 0., 0.,
          0., 1., 5., 5., 6., 3., 0., 0., 0., 0., 0., 0., 0., 0., 0., 0.,
          3., 7., 2., 0., 0., 0., 0., 0., 0., 0., 0., 0., 0., 0., 0., 1.,
          1., 0., 0., 0., 0., 0., 0., 0., 0., 0., 0., 0., 0., 0., 2., 0.,
          0., 0., 0., 0., 0., 0., 0., 0., 0., 0., 0., 0., 0., 1., 0., 0.,
          0., 0., 0., 0., 0., 0., 0., 0., 0., 0., 0., 0., 0., 0., 0., 0.,
          0., 0., 0., 0., 0., 0., 0., 0., 0., 0., 0., 0., 0., 0., 0., 0.,
          0., 0., 0., 0., 0., 0., 0., 0., 0., 0., 0., 0., 0., 0., 0., 0.,
          0., 0., 0., 0., 0., 0., 0., 0., 0., 0., 1., 0., 0., 0., 0., 0.,
          0., 0., 0., 0., 0., 0., 0., 0., 3., 0., 0., 0., 0., 0., 0., 0.,
          0., 0., 0., 0., 0., 0., 0., 0., 0., 2., 0., 0., 0., 2., 0., 0.,
          0., 0., 0., 0., 0., 0., 3., 3., 13., 23., 12., 9., 5., 3., 0.,
          0., 0., 0., 0., 0., 0., 0., 12., 68., 126., 44., 24., 6., 1.,
          2., 1., 0., 0., 0., 0., 0., 3., 22., 154., 273., 118., 32.,
          18., 8., 6., 2., 1., 1., 0., 0., 0., 4., 11., 120., 459., 243.,
          87., 34., 17., 7., 4., 1., 0., 1., 0., 0., 3., 11., 107., 223.,
          145., 52., 43., 24., 7., 2., 2., 1., 0., 0., 0. ]
      - [ 0., 0., 10., 156., 377., 215., 76., 37., 9., 2., 0., 0., 0.,
          0., 0., 0., 0., 0., 16., 8., 12., 3., 1., 0., 0., 0., 0., 0.,
          0., 0., 0., 0., 0., 0., 0., 0., 0., 0., 0., 0., 0., 0., 0., 0.,
          0., 0., 0., 0., 0., 0., 0., 0., 0., 0., 0., 0., 0., 0., 0., 0.,
          0., 0., 0., 0., 0., 0., 0., 0., 0., 0., 0., 0., 0., 0., 0., 0.,
          0., 0., 0., 0., 0., 0., 0., 0., 0., 0., 0., 0., 0., 0., 0., 0.,
          0., 0., 0., 0., 0., 0., 0., 0., 0., 0., 0., 0., 0., 0., 0., 0.,
          0., 0., 0., 0., 0., 0., 0., 0., 0., 0., 0., 0., 0., 0., 0., 0.,
          0., 0., 0., 0., 0., 0., 0., 0., 0., 0., 0., 0., 0., 0., 0., 0.,
          0., 0., 0., 0., 0., 0., 0., 0., 0., 0., 0., 0., 0., 0., 0., 0.,
          0., 0., 0., 0., 0., 0., 0., 0., 0., 0., 0., 0., 0., 0., 0., 0.,
          0., 0., 0., 0., 0., 0., 0., 0., 0., 0., 0., 0., 0., 0., 0., 0.,
          0., 0., 0., 0., 0., 0., 0., 0., 0., 0., 0., 0., 0., 0., 0., 0.,
          0., 0., 0., 0., 0., 0., 0., 0., 0., 1., 1., 1., 0., 0., 0., 0.,
          0., 0., 0., 0., 0., 0., 3., 8., 10., 12., 3., 1., 0., 0., 1.,
          1., 1., 0., 0., 0., 0., 0., 29., 105., 132., 79., 28., 14., 7.,
          8., 1., 3., 2., 1., 1., 0., 1., 35., 434., 693., 312., 116.,
          32., 20., 3., 1., 2., 1., 0., 0. ]
      - [ 1., 12., 24., 26., 20., 12., 15., 9., 2., 1., 0., 0., 0., 0.,
          0., 2., 9., 48., 116., 90., 57., 43., 15., 5., 2., 0., 0., 0.,
          0., 0., 3., 11., 64., 263., 400., 263., 102., 38., 11., 2., 2.,
          0., 0., 0., 0., 3., 11., 57., 240., 351., 326., 186., 39., 9.,
          6., 1., 0., 0., 0., 0., 0., 2., 4., 9., 32., 11., 10., 5., 0.,
          0., 0., 0., 0., 0., 0., 0., 1., 0., 0., 0., 0., 0., 0., 0., 0.,
          0., 0., 0., 0., 0., 0., 0., 0., 0., 0., 0., 0., 0., 0., 0., 0.,
          0., 0., 0., 0., 0., 0., 0., 0., 0., 0., 0., 0., 0., 0., 0., 0.,
          0., 0., 0., 0., 0., 0., 0., 0., 0., 0., 0., 0., 0., 0., 0., 0.,
          0., 0., 0., 0., 0., 0., 0., 0., 0., 0., 0., 0., 0., 0., 0., 0.,
          0., 0., 0., 0., 0., 0., 0., 0., 0., 0., 0., 0., 0., 0., 0., 0.,
          0., 0., 0., 0., 0., 0., 0., 0., 0., 0., 0., 0., 0., 0., 0., 0.,
          0., 0., 0., 0., 0., 0., 0., 0., 0., 0., 0., 0., 0., 0., 0., 0.,
          0., 0., 0., 0., 0., 0., 0., 0., 0., 0., 0., 0., 0., 0., 0., 0.,
          0., 0., 0., 0., 0., 0., 0., 0., 0., 0., 0., 0., 0., 0., 0., 0.,
          0., 0., 0., 0., 0., 0., 0., 0., 0., 0., 0., 0., 0., 4., 3., 0.,
          0., 0., 0., 0., 0., 0., 0., 0., 0., 0., 1., 3., 22., 9., 5.,
          0., 0., 3., 0., 2., 1., 1., 0., 0., 0. ]
      - [ 3., 22., 30., 108., 139., 88., 51., 28., 16., 9., 4., 0., 1.,
          0., 3., 0., 5., 10., 18., 34., 31., 21., 6., 4., 1., 0., 0.,
          0., 0., 0., 0., 2., 1., 1., 0., 0., 0., 0., 0., 0., 0., 0., 0.,
          0., 0., 0., 0., 0., 0., 0., 0., 0., 0., 0., 0., 0., 0., 0., 0.,
          0., 1., 0., 0., 0., 0., 0., 0., 0., 0., 0., 0., 0., 0., 0., 0.,
          0., 0., 0., 0., 0., 0., 0., 0., 0., 0., 0., 0., 0., 0., 0., 0.,
          0., 0., 0., 0., 0., 0., 0., 0., 0., 0., 0., 0., 0., 0., 0., 0.,
          0., 0., 0., 0., 0., 0., 0., 0., 0., 0., 0., 0., 0., 0., 0., 0.,
          0., 0., 0., 0., 0., 0., 0., 0., 0., 0., 0., 0., 0., 0., 0., 0.,
          0., 0., 0., 0., 0., 0., 0., 0., 0., 0., 0., 0., 0., 0., 0., 0.,
          0., 0., 0., 0., 0., 0., 0., 0., 0., 0., 2., 0., 0., 0., 0., 0.,
          0., 0., 0., 0., 0., 0., 0., 0., 0., 1., 2., 8., 3., 1., 0., 0.,
          0., 0., 0., 0., 0., 0., 0., 0., 1., 8., 14., 16., 17., 13., 6.,
          1., 3., 1., 1., 1., 1., 0., 1., 0., 11., 42., 63., 67., 42.,
          19., 1., 3., 7., 3., 1., 2., 2., 0., 2., 22., 63., 121., 121.,
          77., 38., 17., 12., 7., 2., 2., 2., 0., 1., 1., 21., 64., 173.,
          183., 126., 64., 48., 16., 10., 15., 2., 1., 1., 1., 3., 24.,
          97., 186., 223., 152., 59., 34., 18., 10., 2., 3., 0., 0., 0. ]
      - [ 1., 12., 52., 82., 100., 76., 47., 16., 7., 2., 0., 0., 0., 0.,
          0., 1., 3., 11., 16., 22., 19., 6., 2., 0., 0., 0., 0., 0., 0.,
          0., 1., 1., 0., 1., 1., 0., 0., 0., 0., 0., 0., 0., 0., 0., 0.,
          1., 3., 0., 0., 0., 0., 0., 0., 0., 0., 0., 0., 0., 0., 0., 0.,
          0., 0., 0., 0., 0., 0., 0., 0., 0., 0., 0., 0., 0., 0., 2., 0.,
          0., 0., 0., 0., 0., 0., 0., 0., 0., 0., 0., 0., 0., 0., 0., 0.,
          0., 0., 0., 0., 0., 0., 0., 0., 0., 0., 0., 0., 0., 0., 0., 0.,
          0., 0., 0., 0., 0., 0., 0., 0., 0., 0., 0., 0., 0., 0., 0., 0.,
          0., 0., 0., 0., 0., 0., 0., 0., 0., 0., 0., 0., 0., 0., 0., 0.,
          0., 0., 0., 0., 0., 0., 0., 0., 0., 0., 1., 0., 0., 0., 0., 0.,
          0., 0., 0., 0., 0., 0., 0., 0., 2., 0., 0., 0., 0., 0., 0., 0.,
          0., 0., 0., 0., 0., 0., 0., 0., 0., 3., 2., 0., 0., 0., 0., 0.,
          0., 0., 0., 0., 0., 0., 1., 2., 12., 11., 6., 1., 1., 2., 0.,
          0., 0., 0., 0., 0., 0., 0., 6., 39., 88., 34., 22., 6., 2., 2.,
          1., 1., 0., 0., 0., 0., 1., 13., 89., 220., 136., 67., 28.,
          10., 9., 1., 2., 1., 0., 0., 1., 1., 9., 71., 412., 280., 149.,
          55., 13., 3., 2., 0., 2., 0., 1., 1., 1., 10., 74., 239., 191.,
          110., 45., 25., 8., 4., 3., 2., 3., 3., 0. ]
      - [ 7., 56., 154., 218., 183., 69., 21., 11., 6., 2., 1., 0., 0.,
          0., 0., 2., 9., 21., 67., 61., 24., 21., 11., 3., 1., 0., 1.,
          0., 0., 0., 0., 7., 7., 7., 4., 6., 2., 1., 0., 0., 0., 0., 0.,
          0., 0., 1., 3., 4., 0., 1., 0., 0., 0., 0., 0., 0., 0., 0., 0.,
          0., 0., 0., 0., 0., 0., 0., 0., 0., 0., 0., 0., 0., 0., 0., 0.,
          0., 0., 0., 0., 0., 0., 0., 0., 0., 0., 0., 0., 0., 0., 0., 0.,
          0., 0., 0., 0., 0., 0., 0., 0., 0., 0., 0., 0., 0., 0., 1., 0.,
          0., 0., 0., 0., 0., 0., 0., 0., 0., 0., 0., 0., 0., 0., 0., 0.,
          0., 0., 0., 0., 0., 0., 0., 0., 0., 0., 0., 0., 0., 0., 0., 0.,
          0., 0., 0., 0., 0., 0., 0., 0., 0., 0., 0., 0., 0., 0., 0., 0.,
          0., 0., 0., 0., 0., 0., 0., 0., 0., 0., 1., 0., 0., 0., 0., 0.,
          0., 0., 0., 0., 0., 0., 0., 0., 0., 0., 0., 0., 3., 0., 0., 0.,
          0., 0., 0., 0., 0., 0., 0., 0., 1., 5., 16., 27., 14., 7., 2.,
          1., 0., 0., 0., 0., 0., 0., 0., 0., 17., 52., 47., 26., 5., 0.,
          1., 0., 0., 0., 0., 0., 0., 0., 0., 41., 114., 106., 24., 4.,
          1., 0., 0., 0., 0., 0., 0., 0., 0., 2., 46., 170., 195., 67.,
          34., 12., 0., 1., 0., 0., 0., 0., 0., 0., 1., 61., 267., 422.,
          182., 44., 12., 1., 0., 0., 0., 0., 0., 0., 0. ]
      - [ 0., 0., 1., 23., 66., 141., 201., 126., 78., 15., 5., 0., 0.,
          0., 0., 0., 1., 0., 2., 12., 28., 71., 55., 16., 6., 2., 0.,
          0., 0., 0., 1., 0., 1., 6., 1., 6., 9., 3., 0., 0., 0., 0., 0.,
          0., 0., 0., 2., 2., 2., 0., 1., 2., 0., 0., 0., 0., 0., 0., 0.,
          0., 0., 0., 0., 1., 0., 0., 0., 0., 0., 0., 0., 0., 0., 0., 0.,
          0., 0., 0., 0., 0., 0., 0., 0., 0., 0., 0., 0., 0., 0., 0., 0.,
          0., 0., 0., 0., 0., 0., 0., 0., 0., 0., 0., 0., 0., 0., 0., 0.,
          0., 0., 0., 0., 0., 0., 0., 0., 0., 0., 0., 0., 0., 0., 0., 0.,
          0., 0., 0., 0., 0., 0., 0., 0., 0., 0., 0., 0., 0., 0., 0., 0.,
          0., 0., 0., 0., 0., 0., 0., 0., 0., 0., 0., 0., 0., 0., 0., 0.,
          0., 0., 0., 0., 0., 0., 0., 0., 0., 0., 0., 0., 0., 0., 0., 0.,
          0., 0., 0., 0., 0., 0., 0., 0., 0., 0., 0., 0., 5., 62., 33.,
          5., 0., 0., 0., 0., 0., 0., 0., 0., 0., 0., 1., 48., 662.,
          363., 42., 0., 0., 0., 0., 0., 0., 0., 0., 0., 3., 10., 123.,
          233., 85., 5., 0., 0., 0., 0., 0., 0., 0., 0., 0., 0., 10.,
          73., 26., 27., 3., 0., 0., 0., 0., 0., 0., 0., 0., 0., 1., 1.,
          19., 41., 38., 9., 1., 0., 0., 0., 0., 0., 0., 0., 0., 0., 0.,
          21., 45., 68., 54., 18., 4., 0., 0., 0., 0., 0., 0. ]
      - [ 0., 4., 30., 196., 197., 115., 18., 9., 0., 0., 2., 1., 0., 0.,
          0., 0., 1., 3., 15., 12., 19., 1., 1., 0., 1., 0., 0., 0., 0.,
          0., 0., 0., 0., 0., 0., 0., 0., 0., 0., 0., 0., 0., 0., 0., 0.,
          0., 0., 0., 0., 0., 0., 0., 0., 0., 0., 0., 0., 0., 0., 0., 0.,
          0., 0., 0., 0., 0., 0., 0., 0., 0., 0., 0., 0., 0., 0., 0., 0.,
          0., 0., 0., 0., 0., 0., 0., 0., 0., 0., 0., 0., 0., 0., 0., 0.,
          0., 0., 0., 0., 0., 0., 0., 0., 0., 0., 0., 0., 0., 0., 0., 0.,
          0., 0., 0., 0., 0., 0., 0., 0., 0., 0., 0., 0., 0., 0., 0., 0.,
          0., 0., 0., 0., 0., 0., 0., 0., 0., 0., 0., 0., 0., 0., 0., 0.,
          0., 0., 0., 0., 0., 0., 0., 0., 0., 0., 0., 0., 0., 0., 0., 0.,
          0., 0., 0., 0., 0., 0., 0., 0., 0., 0., 0., 0., 0., 0., 0., 0.,
          0., 0., 0., 0., 0., 0., 0., 0., 0., 0., 0., 0., 0., 0., 0., 0.,
          0., 0., 0., 0., 0., 0., 0., 0., 0., 0., 0., 0., 0., 0., 0., 0.,
          0., 0., 0., 0., 0., 0., 1., 3., 3., 2., 3., 1., 0., 0., 0., 0.,
          0., 0., 0., 0., 0., 10., 22., 35., 9., 0., 1., 0., 0., 0., 0.,
          0., 0., 0., 0., 0., 0., 65., 350., 218., 55., 8., 3., 2., 0.,
          1., 0., 0., 0., 0., 0., 2., 69., 677., 664., 144., 34., 13.,
          5., 0., 0., 0., 0., 0., 0. ]
      - [ 4., 17., 84., 83., 81., 57., 49., 21., 18., 4., 7., 0., 1., 0.,
          0., 2., 15., 23., 45., 23., 8., 3., 3., 2., 2., 2., 1., 1., 0.,
          0., 5., 5., 10., 9., 10., 2., 0., 0., 0., 0., 0., 0., 0., 0.,
          0., 1., 5., 7., 2., 1., 1., 0., 0., 0., 0., 0., 0., 0., 0., 0.,
          0., 0., 0., 2., 0., 0., 0., 0., 0., 0., 0., 0., 0., 0., 0., 2.,
          1., 0., 0., 0., 0., 0., 0., 0., 0., 0., 0., 0., 0., 0., 1., 0.,
          0., 0., 0., 0., 0., 0., 0., 0., 0., 0., 0., 0., 0., 2., 0., 0.,
          0., 0., 0., 0., 0., 0., 0., 0., 0., 0., 0., 0., 0., 0., 0., 0.,
          0., 0., 0., 0., 0., 0., 0., 0., 0., 0., 0., 0., 2., 0., 0., 0.,
          0., 0., 0., 0., 0., 0., 0., 0., 0., 0., 0., 1., 1., 0., 0., 0.,
          0., 0., 0., 0., 0., 0., 0., 0., 0., 0., 1., 0., 0., 0., 0., 0.,
          0., 0., 0., 0., 0., 0., 0., 0., 0., 0., 1., 2., 0., 0., 0., 0.,
          0., 0., 0., 0., 0., 0., 0., 0., 2., 10., 10., 5., 3., 1., 2.,
          0., 0., 0., 0., 0., 0., 0., 0., 10., 44., 74., 34., 10., 5.,
          3., 2., 1., 1., 0., 0., 0., 0., 1., 9., 117., 221., 112., 25.,
          19., 9., 8., 1., 2., 1., 0., 0., 1., 2., 14., 111., 377., 271.,
          96., 28., 7., 4., 2., 0., 2., 0., 1., 1., 2., 19., 106., 232.,
          175., 95., 46., 32., 12., 4., 5., 2., 3., 3., 0. ]
      - [ 2., 6., 141., 423., 417., 237., 49., 0., 0., 0., 0., 0., 0.,
          0., 0., 0., 6., 19., 102., 230., 241., 110., 14., 0., 0., 0.,
          0., 0., 0., 0., 2., 1., 6., 14., 5., 0., 1., 1., 0., 0., 0.,
          0., 0., 0., 0., 0., 0., 2., 0., 0., 0., 0., 0., 0., 0., 0., 0.,
          0., 0., 0., 0., 0., 0., 0., 0., 0., 0., 0., 0., 0., 0., 0., 0.,
          0., 0., 0., 0., 0., 0., 0., 0., 0., 0., 0., 0., 0., 0., 0., 0.,
          0., 0., 0., 0., 0., 0., 0., 0., 0., 0., 0., 0., 0., 0., 0., 0.,
          0., 0., 0., 0., 0., 0., 0., 0., 0., 0., 0., 0., 0., 0., 0., 0.,
          0., 0., 0., 0., 0., 0., 0., 0., 0., 0., 0., 0., 0., 0., 0., 0.,
          0., 0., 0., 0., 0., 0., 0., 0., 0., 0., 0., 0., 0., 0., 0., 0.,
          0., 0., 0., 0., 0., 0., 0., 0., 0., 0., 0., 0., 0., 0., 0., 0.,
          0., 0., 0., 0., 0., 0., 0., 0., 0., 0., 0., 0., 0., 0., 0., 0.,
          0., 0., 0., 0., 0., 0., 0., 0., 0., 0., 0., 0., 0., 0., 0., 0.,
          0., 0., 0., 0., 0., 0., 0., 0., 0., 0., 1., 4., 0., 0., 0., 0.,
          0., 0., 0., 0., 0., 0., 0., 0., 0., 3., 12., 17., 7., 0., 0.,
          0., 0., 0., 0., 0., 0., 0., 0., 0., 4., 29., 116., 71., 16.,
          0., 0., 0., 0., 0., 0., 0., 0., 0., 0., 9., 71., 327., 226.,
          80., 3., 0., 0., 0., 0., 0., 0., 0., 0. ]
      - [ 0., 12., 69., 153., 233., 125., 72., 34., 9., 7., 0., 0., 0.,
          0., 0., 0., 1., 10., 8., 15., 6., 16., 14., 11., 4., 1., 0.,
          0., 0., 0., 0., 0., 0., 0., 0., 0., 0., 0., 0., 0., 0., 0., 0.,
          0., 0., 0., 0., 0., 0., 0., 0., 0., 0., 0., 0., 0., 0., 0., 0.,
          0., 0., 0., 0., 0., 0., 0., 0., 0., 0., 0., 0., 0., 0., 0., 0.,
          0., 0., 0., 0., 0., 0., 0., 0., 0., 0., 0., 0., 0., 0., 0., 1.,
          0., 0., 0., 0., 0., 0., 0., 0., 0., 0., 0., 0., 0., 0., 1., 1.,
          0., 0., 0., 0., 0., 0., 0., 0., 0., 0., 0., 0., 0., 0., 1., 0.,
          0., 0., 0., 0., 0., 0., 0., 0., 0., 0., 0., 0., 0., 1., 1., 0.,
          0., 0., 0., 0., 0., 0., 0., 0., 0., 0., 0., 0., 1., 4., 0., 0.,
          0., 0., 0., 0., 0., 0., 0., 0., 0., 0., 0., 1., 6., 1., 1., 0.,
          0., 0., 0., 0., 0., 0., 0., 0., 0., 0., 0., 1., 1., 0., 1., 0.,
          0., 0., 0., 0., 0., 0., 0., 0., 0., 0., 0., 1., 0., 0., 1., 0.,
          0., 0., 0., 0., 0., 0., 0., 0., 3., 10., 9., 2., 5., 2., 5.,
          0., 1., 1., 0., 0., 0., 1., 0., 2., 30., 36., 48., 27., 13.,
          3., 4., 0., 2., 1., 1., 0., 0., 0., 2., 49., 142., 192., 164.,
          67., 27., 9., 6., 3., 2., 1., 1., 0., 0., 5., 87., 339., 451.,
          283., 97., 33., 16., 10., 6., 2., 0., 0., 0. ]
      - [ 2., 13., 72., 70., 74., 51., 42., 17., 7., 2., 0., 0., 0., 0.,
          0., 3., 10., 15., 26., 18., 13., 3., 1., 0., 0., 0., 0., 0.,
          0., 0., 5., 3., 3., 5., 5., 0., 0., 0., 0., 0., 0., 0., 0., 0.,
          0., 2., 7., 4., 1., 1., 1., 0., 0., 0., 0., 0., 0., 0., 0., 0.,
          0., 0., 0., 2., 0., 0., 0., 0., 0., 0., 0., 0., 0., 0., 0., 4.,
          0., 0., 0., 0., 0., 0., 0., 0., 0., 0., 0., 0., 0., 0., 1., 0.,
          0., 0., 0., 0., 0., 0., 0., 0., 0., 0., 0., 0., 0., 1., 0., 0.,
          0., 0., 0., 0., 0., 0., 0., 0., 0., 0., 0., 0., 0., 0., 0., 0.,
          0., 0., 0., 0., 0., 0., 0., 0., 0., 0., 0., 0., 0., 0., 0., 0.,
          0., 0., 0., 0., 0., 0., 0., 0., 0., 0., 0., 1., 0., 0., 0., 0.,
          0., 0., 0., 0., 0., 0., 0., 0., 0., 2., 0., 0., 0., 0., 0., 0.,
          0., 0., 0., 0., 0., 0., 0., 0., 0., 0., 3., 2., 0., 0., 0., 0.,
          0., 0., 0., 0., 0., 0., 0., 1., 2., 12., 14., 7., 2., 1., 2.,
          0., 0., 0., 0., 0., 0., 0., 0., 8., 51., 109., 35., 23., 6.,
          2., 2., 1., 1., 0., 0., 0., 0., 1., 15., 132., 263., 131., 36.,
          18., 8., 7., 2., 2., 1., 0., 0., 1., 1., 9., 105., 433., 241.,
          100., 37., 16., 8., 5., 1., 2., 1., 1., 1., 2., 11., 107.,
          241., 133., 78., 47., 29., 11., 5., 4., 2., 3., 3., 0. ]
      - [ 1., 14., 57., 132., 135., 119., 55., 10., 1., 4., 0., 1., 0.,
          0., 0., 0., 1., 8., 9., 21., 24., 49., 29., 35., 46., 9., 0.,
          0., 0., 0., 0., 0., 0., 0., 0., 0., 0., 0., 0., 1., 1., 0., 0.,
          0., 0., 0., 0., 0., 0., 0., 0., 0., 0., 0., 0., 0., 0., 0., 0.,
          0., 0., 0., 0., 0., 0., 0., 0., 0., 0., 0., 0., 0., 0., 0., 0.,
          0., 0., 0., 0., 0., 0., 0., 0., 0., 0., 0., 0., 0., 0., 0., 0.,
          0., 0., 0., 0., 0., 0., 0., 0., 0., 0., 0., 0., 0., 0., 0., 0.,
          0., 0., 0., 0., 0., 0., 0., 0., 0., 0., 0., 0., 0., 0., 0., 0.,
          0., 0., 0., 0., 0., 0., 0., 0., 0., 0., 0., 0., 0., 0., 0., 0.,
          0., 0., 0., 0., 0., 0., 0., 0., 0., 0., 0., 0., 0., 0., 0., 0.,
          0., 0., 0., 0., 0., 0., 0., 0., 0., 0., 0., 0., 0., 1., 0., 0.,
          0., 0., 0., 0., 0., 0., 0., 0., 0., 0., 3., 4., 2., 2., 0., 0.,
          0., 0., 0., 0., 0., 0., 0., 0., 0., 6., 13., 5., 12., 8., 3.,
          2., 0., 0., 0., 0., 0., 0., 0., 1., 7., 32., 53., 51., 39.,
          14., 9., 2., 1., 0., 0., 0., 0., 0., 1., 23., 91., 115., 104.,
          81., 62., 19., 13., 2., 1., 1., 0., 0., 0., 3., 25., 134.,
          228., 163., 100., 66., 24., 4., 4., 3., 2., 0., 0., 0., 1.,
          23., 123., 300., 164., 84., 19., 7., 2., 1., 0., 0., 0., 0.,
          0. ]
      - [ 0., 6., 33., 155., 124., 53., 10., 5., 0., 0., 1., 0., 0., 0.,
          0., 0., 1., 9., 25., 12., 15., 0., 0., 0., 0., 0., 0., 0., 0.,
          0., 0., 0., 0., 0., 0., 0., 0., 0., 0., 0., 0., 0., 0., 0., 0.,
          0., 0., 0., 0., 0., 0., 0., 0., 0., 0., 0., 0., 0., 0., 0., 0.,
          0., 0., 0., 0., 0., 0., 0., 0., 0., 0., 0., 0., 0., 0., 0., 0.,
          0., 0., 0., 0., 0., 0., 0., 0., 0., 0., 0., 0., 0., 0., 0., 0.,
          0., 0., 0., 0., 0., 0., 0., 0., 0., 0., 0., 0., 0., 0., 0., 0.,
          0., 0., 0., 0., 0., 0., 0., 0., 0., 0., 0., 0., 0., 0., 0., 0.,
          0., 0., 0., 0., 0., 0., 0., 0., 0., 0., 0., 0., 0., 0., 0., 0.,
          0., 0., 0., 0., 0., 0., 0., 0., 0., 0., 0., 0., 0., 0., 0., 0.,
          0., 0., 0., 0., 0., 0., 0., 0., 0., 0., 0., 0., 0., 0., 0., 0.,
          0., 0., 0., 0., 0., 0., 0., 0., 0., 0., 0., 0., 0., 0., 0., 0.,
          0., 0., 0., 0., 0., 0., 0., 0., 0., 0., 0., 0., 0., 0., 0., 0.,
          0., 0., 0., 0., 0., 0., 1., 3., 3., 0., 0., 0., 0., 0., 0., 0.,
          0., 0., 0., 0., 0., 12., 29., 53., 44., 7., 1., 0., 0., 0., 0.,
          0., 0., 0., 0., 0., 1., 79., 468., 310., 69., 10., 3., 0., 0.,
          0., 0., 0., 0., 0., 0., 4., 88., 691., 569., 106., 17., 5., 3.,
          0., 0., 0., 0., 0., 0. ]
      - [ 4., 34., 119., 213., 285., 186., 86., 29., 9., 2., 6., 1., 1.,
          1., 0., 2., 5., 22., 53., 69., 60., 60., 34., 8., 2., 0., 0.,
          0., 0., 0., 0., 5., 5., 7., 5., 1., 1., 0., 0., 0., 0., 0., 0.,
          0., 0., 0., 3., 2., 0., 0., 0., 0., 0., 0., 0., 0., 0., 0., 0.,
          0., 0., 0., 0., 0., 0., 0., 0., 0., 0., 0., 0., 0., 0., 0., 0.,
          0., 0., 0., 0., 0., 0., 0., 0., 0., 0., 0., 0., 0., 0., 0., 0.,
          0., 0., 0., 0., 0., 0., 0., 0., 0., 0., 0., 0., 0., 0., 0., 0.,
          0., 0., 0., 0., 0., 0., 0., 0., 0., 0., 0., 0., 0., 0., 0., 0.,
          0., 0., 0., 0., 0., 0., 0., 0., 0., 0., 0., 0., 0., 0., 0., 0.,
          0., 0., 0., 0., 0., 0., 0., 0., 0., 0., 0., 0., 0., 0., 0., 0.,
          0., 0., 0., 0., 0., 0., 0., 0., 0., 0., 0., 0., 0., 0., 0., 0.,
          0., 0., 0., 0., 0., 0., 0., 0., 0., 0., 0., 0., 2., 0., 0., 0.,
          0., 0., 0., 0., 0., 0., 0., 0., 0., 6., 13., 24., 13., 6., 0.,
          0., 0., 0., 0., 0., 0., 0., 0., 2., 14., 19., 32., 25., 3., 0.,
          0., 0., 0., 0., 0., 0., 0., 0., 0., 38., 57., 65., 21., 8., 2.,
          1., 0., 0., 0., 0., 0., 0., 0., 2., 35., 97., 123., 90., 40.,
          18., 4., 2., 0., 0., 0., 0., 0., 0., 1., 49., 192., 319., 268.,
          84., 19., 6., 1., 4., 0., 0., 0., 0., 0. ]
      - [ 0., 10., 52., 99., 167., 155., 68., 9., 1., 3., 0., 1., 0., 0.,
          0., 0., 0., 7., 8., 31., 42., 57., 40., 35., 45., 9., 0., 0.,
          0., 0., 0., 0., 0., 0., 0., 0., 0., 0., 0., 1., 1., 0., 0., 0.,
          0., 0., 0., 0., 0., 0., 0., 0., 0., 0., 0., 0., 0., 0., 0., 0.,
          0., 0., 0., 0., 0., 0., 0., 0., 0., 0., 0., 0., 0., 0., 0., 0.,
          0., 0., 0., 0., 0., 0., 0., 0., 0., 0., 0., 0., 0., 0., 0., 0.,
          0., 0., 0., 0., 0., 0., 0., 0., 0., 0., 0., 0., 0., 0., 0., 0.,
          0., 0., 0., 0., 0., 0., 0., 0., 0., 0., 0., 0., 0., 0., 0., 0.,
          0., 0., 0., 0., 0., 0., 0., 0., 0., 0., 0., 0., 0., 0., 0., 0.,
          0., 0., 0., 0., 0., 0., 0., 0., 0., 0., 0., 0., 0., 0., 0., 0.,
          0., 0., 0., 0., 0., 0., 0., 0., 0., 0., 0., 0., 1., 0., 0., 0.,
          0., 0., 0., 0., 0., 0., 0., 0., 0., 3., 4., 2., 2., 0., 0., 0.,
          0., 0., 0., 0., 0., 0., 0., 0., 4., 11., 5., 11., 12., 5., 1.,
          1., 0., 0., 0., 0., 0., 0., 0., 6., 24., 47., 51., 45., 20.,
          13., 1., 0., 0., 3., 1., 1., 0., 1., 15., 66., 103., 101., 60.,
          41., 18., 9., 1., 2., 0., 1., 0., 1., 3., 18., 98., 208., 169.,
          97., 47., 23., 5., 4., 2., 2., 0., 0., 0., 0., 20., 104., 285.,
          220., 126., 26., 12., 5., 5., 6., 4., 1., 0., 1. ]
      - [ 3., 5., 51., 57., 64., 47., 31., 7., 0., 1., 0., 0., 0., 0.,
          0., 0., 2., 8., 16., 59., 17., 6., 3., 0., 0., 0., 0., 0., 0.,
          0., 1., 0., 3., 33., 46., 52., 22., 9., 0., 0., 0., 0., 0., 0.,
          0., 0., 1., 1., 0., 0., 0., 0., 0., 0., 0., 0., 0., 0., 0., 0.,
          0., 0., 0., 0., 1., 0., 0., 0., 0., 0., 0., 0., 0., 0., 0., 0.,
          0., 1., 0., 0., 0., 0., 0., 0., 0., 0., 0., 0., 0., 0., 0., 0.,
          0., 0., 0., 0., 0., 0., 0., 0., 0., 0., 0., 0., 0., 0., 0., 0.,
          0., 0., 0., 0., 0., 0., 0., 0., 0., 0., 0., 0., 0., 0., 0., 0.,
          0., 0., 0., 0., 0., 0., 0., 0., 0., 0., 0., 0., 0., 0., 0., 0.,
          0., 0., 0., 0., 1., 1., 0., 0., 0., 0., 0., 0., 0., 0., 1., 1.,
          2., 0., 5., 3., 0., 0., 0., 0., 0., 0., 1., 1., 4., 5., 1., 3.,
          3., 1., 3., 2., 0., 0., 0., 0., 0., 1., 17., 38., 27., 31.,
          11., 14., 9., 3., 0., 1., 0., 0., 0., 0., 1., 19., 27., 65.,
          32., 33., 38., 11., 7., 3., 6., 1., 0., 1., 0., 7., 31., 66.,
          60., 45., 34., 15., 13., 12., 2., 5., 2., 0., 0., 0., 12., 58.,
          124., 140., 92., 38., 26., 35., 14., 5., 11., 3., 0., 0., 1.,
          11., 59., 119., 153., 101., 64., 34., 27., 23., 10., 2., 2.,
          0., 1., 0., 9., 50., 164., 190., 82., 51., 21., 13., 4., 2.,
          1., 0., 0., 0. ]
      - [ 1., 29., 124., 226., 286., 214., 97., 26., 13., 5., 5., 4., 1.,
          1., 0., 0., 3., 44., 93., 95., 95., 43., 18., 11., 4., 1., 0.,
          0., 0., 0., 0., 0., 2., 2., 16., 23., 13., 3., 2., 0., 0., 0.,
          0., 0., 0., 0., 0., 0., 0., 0., 3., 5., 0., 0., 0., 0., 0., 0.,
          0., 0., 0., 0., 0., 0., 0., 0., 0., 0., 0., 0., 0., 0., 0., 0.,
          0., 0., 0., 0., 0., 0., 0., 0., 0., 0., 0., 0., 0., 0., 0., 0.,
          0., 0., 0., 0., 0., 0., 0., 0., 0., 0., 0., 0., 0., 0., 0., 0.,
          0., 0., 0., 0., 0., 0., 0., 0., 0., 0., 0., 0., 0., 0., 0., 0.,
          0., 0., 0., 0., 0., 0., 0., 0., 0., 0., 0., 0., 0., 0., 0., 0.,
          0., 0., 0., 0., 0., 0., 0., 0., 0., 0., 0., 0., 0., 0., 0., 0.,
          0., 0., 0., 0., 0., 0., 0., 0., 0., 0., 0., 0., 0., 0., 0., 0.,
          0., 0., 0., 0., 0., 0., 0., 0., 0., 0., 0., 0., 0., 0., 0., 0.,
          0., 0., 0., 0., 0., 0., 0., 0., 0., 0., 1., 1., 0., 0., 0., 0.,
          0., 0., 0., 0., 0., 0., 0., 0., 1., 2., 6., 2., 0., 0., 0., 0.,
          0., 0., 0., 0., 0., 0., 0., 0., 12., 23., 16., 13., 2., 1., 1.,
          0., 0., 0., 0., 0., 0., 0., 1., 12., 66., 128., 87., 51., 13.,
          3., 4., 2., 1., 0., 0., 0., 0., 0., 25., 131., 297., 348.,
          165., 69., 13., 12., 4., 4., 0., 0., 0., 0. ]
      - [ 0., 0., 10., 181., 919., 569., 50., 0., 0., 0., 0., 0., 0., 0.,
          0., 0., 0., 2., 84., 390., 420., 110., 8., 0., 0., 0., 0., 0.,
          0., 0., 0., 0., 0., 0., 0., 1., 0., 0., 0., 0., 0., 0., 0., 0.,
          0., 0., 0., 0., 0., 0., 0., 0., 0., 0., 0., 0., 0., 0., 0., 0.,
          0., 0., 0., 0., 0., 0., 0., 0., 0., 0., 0., 0., 0., 0., 0., 0.,
          0., 0., 0., 0., 0., 0., 0., 0., 0., 0., 0., 0., 0., 0., 0., 0.,
          0., 0., 0., 0., 0., 0., 0., 0., 0., 0., 0., 0., 0., 0., 0., 0.,
          0., 0., 0., 0., 0., 0., 0., 0., 0., 0., 0., 0., 0., 0., 0., 0.,
          0., 0., 0., 0., 0., 0., 0., 0., 0., 0., 0., 0., 0., 0., 0., 0.,
          0., 0., 0., 0., 0., 0., 0., 0., 0., 0., 0., 0., 0., 0., 0., 0.,
          0., 0., 0., 0., 0., 0., 0., 0., 0., 0., 0., 0., 0., 0., 0., 0.,
          0., 0., 0., 0., 0., 0., 0., 0., 0., 0., 0., 0., 0., 0., 0., 0.,
          0., 0., 0., 0., 0., 0., 0., 0., 0., 0., 0., 0., 0., 0., 0., 0.,
          0., 0., 0., 0., 0., 0., 0., 0., 0., 0., 0., 0., 0., 0., 0., 0.,
          0., 0., 0., 0., 0., 0., 0., 0., 0., 0., 0., 0., 0., 0., 0., 0.,
          0., 0., 0., 0., 0., 0., 0., 5., 6., 4., 0., 0., 0., 0., 0., 0.,
          0., 0., 0., 0., 0., 6., 82., 160., 18., 0., 0., 0., 0., 0., 0.,
          0., 0., 0. ]
      - [ 0., 0., 5., 7., 17., 66., 175., 293., 285., 66., 17., 4., 3.,
          0., 0., 0., 0., 0., 2., 3., 37., 202., 557., 570., 186., 78.,
          20., 2., 1., 0., 0., 0., 0., 0., 0., 2., 28., 72., 51., 23.,
          3., 1., 0., 0., 0., 0., 0., 0., 0., 0., 0., 0., 0., 0., 2., 2.,
          0., 0., 0., 0., 0., 0., 0., 0., 0., 0., 0., 0., 0., 0., 0., 0.,
          0., 0., 0., 0., 0., 0., 0., 0., 0., 0., 0., 0., 0., 0., 0., 0.,
          0., 0., 0., 0., 0., 0., 0., 0., 0., 0., 0., 0., 0., 0., 0., 0.,
          0., 0., 0., 0., 0., 0., 0., 0., 0., 0., 0., 0., 0., 0., 0., 0.,
          0., 0., 0., 0., 0., 0., 0., 0., 0., 0., 0., 0., 0., 0., 0., 0.,
          0., 0., 0., 0., 0., 0., 0., 0., 0., 0., 0., 0., 0., 0., 0., 0.,
          0., 0., 0., 0., 0., 0., 0., 0., 0., 0., 0., 0., 0., 0., 0., 0.,
          0., 0., 0., 0., 0., 0., 0., 0., 0., 0., 0., 0., 0., 0., 0., 0.,
          0., 0., 0., 0., 0., 0., 0., 0., 0., 0., 0., 0., 0., 0., 0., 0.,
          0., 0., 0., 0., 0., 0., 0., 0., 0., 0., 0., 0., 0., 0., 0., 0.,
          0., 0., 0., 0., 0., 0., 0., 0., 0., 0., 4., 15., 11., 5., 0.,
          0., 0., 0., 0., 0., 0., 0., 0., 0., 0., 0., 11., 27., 27., 12.,
          2., 1., 1., 0., 0., 0., 0., 0., 0., 0., 1., 8., 31., 52., 24.,
          7., 5., 1., 0., 0., 0., 0., 0., 0. ]
      - [ 3., 36., 133., 240., 254., 70., 26., 11., 8., 3., 3., 2., 1.,
          0., 1., 3., 4., 10., 63., 83., 36., 20., 10., 4., 1., 0., 1.,
          0., 0., 0., 0., 1., 1., 1., 2., 6., 2., 1., 0., 0., 0., 0., 0.,
          0., 0., 1., 0., 2., 0., 1., 0., 0., 0., 0., 0., 0., 0., 0., 0.,
          0., 0., 0., 0., 0., 0., 0., 0., 0., 0., 0., 0., 0., 0., 0., 0.,
          0., 0., 0., 0., 0., 0., 0., 0., 0., 0., 0., 0., 0., 0., 0., 0.,
          0., 0., 0., 0., 0., 0., 0., 0., 0., 0., 0., 0., 0., 0., 1., 0.,
          0., 0., 0., 0., 0., 0., 0., 0., 0., 0., 0., 0., 0., 0., 0., 0.,
          0., 0., 0., 0., 0., 0., 0., 0., 0., 0., 0., 0., 0., 0., 0., 0.,
          0., 0., 0., 0., 0., 0., 0., 0., 0., 0., 0., 0., 0., 0., 0., 0.,
          0., 0., 0., 0., 0., 0., 0., 0., 0., 0., 1., 0., 0., 0., 0., 0.,
          0., 0., 0., 0., 0., 0., 0., 0., 0., 1., 2., 0., 1., 0., 0., 0.,
          0., 0., 0., 0., 0., 0., 0., 0., 1., 6., 19., 22., 13., 7., 2.,
          1., 0., 0., 0., 0., 0., 0., 0., 2., 8., 39., 43., 30., 6., 1.,
          1., 0., 0., 0., 0., 0., 0., 0., 0., 38., 108., 108., 24., 5.,
          3., 0., 0., 0., 0., 0., 0., 0., 0., 1., 36., 133., 208., 77.,
          39., 12., 1., 2., 2., 0., 0., 0., 0., 0., 3., 49., 222., 404.,
          197., 63., 25., 2., 0., 5., 1., 3., 0., 2., 1. ]
      - [ 0., 1., 5., 48., 126., 263., 384., 357., 155., 52., 25., 14.,
          11., 9., 3., 0., 3., 4., 27., 47., 58., 78., 43., 40., 16., 6.,
          2., 1., 0., 0., 0., 1., 3., 15., 10., 8., 3., 3., 1., 0., 0.,
          0., 0., 0., 0., 1., 1., 1., 0., 1., 0., 0., 0., 0., 0., 0., 0.,
          0., 0., 0., 0., 0., 0., 0., 0., 0., 0., 0., 0., 0., 0., 0., 0.,
          0., 0., 3., 0., 0., 0., 0., 0., 0., 0., 0., 0., 0., 0., 0., 0.,
          0., 0., 0., 0., 0., 0., 0., 0., 0., 0., 0., 0., 0., 0., 0., 0.,
          1., 0., 0., 0., 0., 0., 0., 0., 0., 0., 0., 0., 0., 0., 0., 0.,
          0., 0., 0., 0., 0., 0., 0., 0., 0., 0., 0., 0., 0., 0., 0., 0.,
          0., 0., 0., 0., 0., 0., 0., 0., 0., 0., 0., 0., 0., 0., 0., 0.,
          0., 0., 0., 0., 0., 0., 0., 0., 0., 0., 0., 0., 0., 0., 0., 0.,
          0., 0., 0., 0., 0., 0., 0., 0., 0., 0., 0., 0., 0., 0., 0., 0.,
          0., 0., 0., 0., 0., 0., 0., 0., 0., 0., 0., 0., 0., 0., 0., 0.,
          0., 0., 0., 0., 0., 0., 0., 0., 0., 0., 0., 0., 0., 0., 0., 0.,
          0., 0., 0., 0., 0., 0., 0., 0., 0., 0., 0., 3., 5., 4., 6., 2.,
          1., 2., 0., 1., 0., 0., 0., 0., 3., 3., 8., 22., 39., 68., 46.,
          25., 13., 6., 4., 2., 0., 0., 0., 1., 2., 37., 113., 234.,
          235., 159., 74., 35., 24., 13., 5., 0., 0. ]
      - [ 2., 17., 35., 88., 175., 166., 64., 55., 30., 12., 12., 4., 3.,
          6., 2., 1., 11., 35., 83., 53., 34., 23., 15., 10., 4., 6., 3.,
          1., 2., 4., 1., 4., 18., 24., 12., 16., 15., 10., 5., 2., 0.,
          2., 0., 0., 0., 0., 3., 0., 0., 0., 0., 0., 0., 0., 0., 0., 0.,
          0., 0., 0., 0., 2., 0., 0., 0., 0., 0., 0., 0., 0., 0., 0., 0.,
